{"learner":{"attributes":{"best_iteration":"68","best_score":"0.12479177906402521"},"feature_names":["NDVI_April","NDVI_May","NDVI_June","NDVI_July","NDVI_August","NDVI_September","NDVI_October","GLI_April","GLI_May","GLI_June","GLI_July","GLI_August","GLI_September","GLI_October","NDWI_April","NDWI_May","NDWI_June","NDWI_July","NDWI_August","NDWI_September","NDWI_October","Precipitation_April","Precipitation_May","Precipitation_June","Precipitation_July","Precipitation_August","Precipitation_September","Precipitation_October"],"feature_types":["float","float","float","float","float","float","float","float","float","float","float","float","float","float","float","float","float","float","float","float","float","float","float","float","float","float","float","float"],"gradient_booster":{"model":{"gbtree_model_param":{"num_parallel_tree":"1","num_trees":"213"},"iteration_indptr":[0,3,6,9,12,15,18,21,24,27,30,33,36,39,42,45,48,51,54,57,60,63,66,69,72,75,78,81,84,87,90,93,96,99,102,105,108,111,114,117,120,123,126,129,132,135,138,141,144,147,150,153,156,159,162,165,168,171,174,177,180,183,186,189,192,195,198,201,204,207,210,213],"tree_info":[0,1,2,0,1,2,0,1,2,0,1,2,0,1,2,0,1,2,0,1,2,0,1,2,0,1,2,0,1,2,0,1,2,0,1,2,0,1,2,0,1,2,0,1,2,0,1,2,0,1,2,0,1,2,0,1,2,0,1,2,0,1,2,0,1,2,0,1,2,0,1,2,0,1,2,0,1,2,0,1,2,0,1,2,0,1,2,0,1,2,0,1,2,0,1,2,0,1,2,0,1,2,0,1,2,0,1,2,0,1,2,0,1,2,0,1,2,0,1,2,0,1,2,0,1,2,0,1,2,0,1,2,0,1,2,0,1,2,0,1,2,0,1,2,0,1,2,0,1,2,0,1,2,0,1,2,0,1,2,0,1,2,0,1,2,0,1,2,0,1,2,0,1,2,0,1,2,0,1,2,0,1,2,0,1,2,0,1,2,0,1,2,0,1,2,0,1,2,0,1,2,0,1,2,0,1,2,0,1,2,0,1,2],"trees":[{"base_weights":[-3.3082426E-1,-3.7733786E-2,-1.7793366E-1,-1.0770156E-1,-3.4609827E-1,-2.818336E-2,-2.9999998E-1,-4.5021367E-1,-1.2743363E-1,-7.0625E-1,-1.8814432E-2,-8.72549E-1,-1.4715026E-1,-7.7260274E-1,-3.021605E-1,-4.1282052E-1,2.2666669E-2,1E-3,-3.2571428E-2,-1.11409396E-1,1.3018434E-2,-2.9999998E-1,-3.5591837E-2,-7.947368E-1,-7.6E-2,-7.9577464E-1,1.3333333E-3,-4.6597937E-1,-5.681818E-2,-1.4285713E-1,-6.894737E-1,3.5416666E-2,-2.1249999E-1,-2.9568964E-1,5.978262E-3,3.2909606E-2,-7.4074075E-2,1E-3,-1.9E-2,1E-3,-8.4166664E-1,-5.0887574E-2,-6.7142856E-1,-8.183823E-1,-2.1249999E-1,-5.87013E-1,1.2417635E-9,-1.4583333E-1,1.9354839E-3,-2.2E-1,1.7142857E-3,-2.9166666E-1,-3.242857E-2,-9.9999994E-2,1.969697E-3,-1.9E-2,1.3333333E-3,1.8333333E-3,-1.5063829E-2,1.475E-3,-7.3846155E-3,1.644315E-3,-8.166666E-3,-2.0759492E-3,-2.5333332E-2,-1.1999999E-2,-3.5625E-2,-1.4060605E-3,-2.24E-2,1E-3,-3.1666663E-2,-3.3723075E-2,-8.4999995E-3,-1.9E-2,1.3333333E-3,-1.8181817E-3,-2.6686566E-2,1.8888889E-3,-8.4999995E-3,-2.3571427E-3,-1.6E-2,-1.1499999E-2,1.5E-3,1E-3,-1.4399999E-2,-1.1999999E-2,1.6E-3],"categories":[],"categories_nodes":[],"categories_segments":[],"categories_sizes":[],"default_left":[0,0,0,0,0,0,0,0,0,0,0,0,0,0,0,0,0,0,0,0,0,0,0,0,0,0,0,0,0,0,0,0,0,0,0,0,0,0,0,0,0,0,0,0,0,0,0,0,0,0,0,0,0,0,0,0,0,0,0,0,0,0,0,0,0,0,0,0,0,0,0,0,0,0,0,0,0,0,0,0,0,0,0,0,0,0,0],"id":0,"left_children":[1,-1,3,5,7,9,11,13,15,17,19,21,23,25,27,29,31,-1,-1,33,35,37,-1,39,41,43,-1,45,47,49,51,53,55,57,59,61,63,-1,-1,-1,65,67,69,71,73,75,77,79,-1,81,-1,83,-1,85,-1,-1,-1,-1,-1,-1,-1,-1,-1,-1,-1,-1,-1,-1,-1,-1,-1,-1,-1,-1,-1,-1,-1,-1,-1,-1,-1,-1,-1,-1,-1,-1,-1],"loss_changes":[1.3730829E2,0E0,1.3851936E1,1.2698553E1,7.819786E0,3.7284868E0,2.1137497E1,1.0935543E1,4.8498993E0,6.523659E-1,1.7169322E0,2.3667145E-1,8.832258E0,1.3898087E0,6.484579E0,2.8142672E0,2.3240417E-1,0E0,0E0,3.2249696E0,7.542871E-1,1.8249997E-1,0E0,7.5197315E-1,2.5825474E0,7.623329E-1,0E0,5.4707184E0,6.251374E-1,3.1028566E-1,6.799183E-1,1.3972536E-1,2.7395833E-1,1.6198754E0,5.4857016E-1,6.964325E-1,9.716736E-1,0E0,0E0,0E0,2.101574E-1,1.3342457E0,6.059525E-1,8.3826447E-1,2.7395833E-1,3.3119812E0,2.2076388E-1,7.716072E-1,0E0,2.715E-1,0E0,1.3883334E-1,0E0,2.08E-1,0E0,0E0,0E0,0E0,0E0,0E0,0E0,0E0,0E0,0E0,0E0,0E0,0E0,0E0,0E0,0E0,0E0,0E0,0E0,0E0,0E0,0E0,0E0,0E0,0E0,0E0,0E0,0E0,0E0,0E0,0E0,0E0,0E0],"parents":[2147483647,0,0,2,2,3,3,4,4,5,5,6,6,7,7,8,8,9,9,10,10,11,11,12,12,13,13,14,14,15,15,16,16,19,19,20,20,21,21,23,23,24,24,25,25,27,27,28,28,29,29,30,30,31,31,32,32,33,33,34,34,35,35,36,36,40,40,41,41,42,42,43,43,44,44,45,45,46,46,47,47,49,49,51,51,53,53],"right_children":[2,-1,4,6,8,10,12,14,16,18,20,22,24,26,28,30,32,-1,-1,34,36,38,-1,40,42,44,-1,46,48,50,52,54,56,58,60,62,64,-1,-1,-1,66,68,70,72,74,76,78,80,-1,82,-1,84,-1,86,-1,-1,-1,-1,-1,-1,-1,-1,-1,-1,-1,-1,-1,-1,-1,-1,-1,-1,-1,-1,-1,-1,-1,-1,-1,-1,-1,-1,-1,-1,-1,-1,-1],"split_conditions":[3.7396774E0,-1.5669999E-1,-2.0648667E-1,7.1719356E0,-2.4879575E-1,2.0178E-2,-3.495435E-1,1.0083053E-1,-1.107E-2,1.23915166E-1,1.3146888E-1,1.067E-3,2.812359E-1,4.484929E-1,-2.90717E-1,-1.509E-2,5.0769E-2,1.7200012E-2,-1.1919998E-1,2.9498348E-1,-1.9611906E-1,2.1722971E-1,-8.267997E-2,1.2331E-2,3.4784E-2,3.787386E-1,1.6400032E-2,4.4071397E-1,9.323E-3,7.4346703E-3,5.959E-3,7.4346703E-3,1.4764395E-1,1.3648534E-1,2.3071304E-1,2.8391E-2,4.1412553E-1,1.760002E-2,-4.2399976E-2,1.6000366E-3,-2.302E-2,5.1504E-2,4.2767E-2,8.539E-3,-1.392E-2,7.593333E-1,4.1021E-2,4.0253E-2,4.22002E-3,-1.02E-2,6.8000026E-2,1.3472268E-1,-4.3999977E-2,3.295E-3,1.516003E-2,-2.7999878E-3,2.880001E-2,1.4400024E-2,-4.525997E-2,1.2000008E-2,-3.6399994E-2,1.0860019E-2,-3.3999976E-2,-4.039978E-3,-2.7999992E-2,-8.1999965E-2,-7.999996E-2,-4.699993E-3,-7.199974E-3,2.840004E-2,-5.759998E-2,-4.999997E-2,-1.6799964E-2,-1.159996E-2,1.1600036E-2,-3.199997E-3,-5.4099992E-2,8.00003E-3,-2.3999976E-2,-3.0719986E-2,-3.159996E-2,-1.5999984E-2,6.400032E-3,1.1200028E-2,-1.5999984E-2,-1.3599968E-2,2.800026E-3],"split_indices":[22,0,16,27,15,11,19,6,13,0,6,10,6,4,20,13,11,0,0,2,14,0,0,12,9,3,0,6,9,6,10,6,0,0,0,8,3,0,0,0,7,10,11,7,7,21,12,12,0,7,0,0,0,8,0,0,0,0,0,0,0,0,0,0,0,0,0,0,0,0,0,0,0,0,0,0,0,0,0,0,0,0,0,0,0,0,0],"split_type":[0,0,0,0,0,0,0,0,0,0,0,0,0,0,0,0,0,0,0,0,0,0,0,0,0,0,0,0,0,0,0,0,0,0,0,0,0,0,0,0,0,0,0,0,0,0,0,0,0,0,0,0,0,0,0,0,0,0,0,0,0,0,0,0,0,0,0,0,0,0,0,0,0,0,0,0,0,0,0,0,0,0,0,0,0,0,0],"sum_hessian":[1.467E3,2.92E2,1.175E3,8.3E2,3.45E2,5.88E2,2.42E2,2.33E2,1.12E2,7E0,5.81E2,5E1,1.92E2,7.2E1,1.61E2,3.8E1,7.4E1,1E0,6E0,1.48E2,4.33E2,2E0,4.8E1,1.8E1,1.74E2,7E1,2E0,9.6E1,6.5E1,2E1,1.8E1,7.1E1,3E0,5.7E1,9.1E1,3.53E2,8E1,1E0,1E0,1E0,1.7E1,1.68E2,6E0,6.7E1,3E0,7.6E1,2E1,3.5E1,3E1,1.4E1,6E0,5E0,1.3E1,6E0,6.5E1,1E0,2E0,1.1E1,4.6E1,7.9E1,1.2E1,3.42E2,1.1E1,7.8E1,2E0,2E0,1.5E1,1.64E2,4E0,1E0,5E0,6.4E1,3E0,1E0,2E0,1E1,6.6E1,1.7E1,3E0,2.7E1,8E0,1.1E1,3E0,1E0,4E0,2E0,4E0],"tree_param":{"num_deleted":"0","num_feature":"28","num_nodes":"87","size_leaf_vector":"1"}},{"base_weights":[1.1886921E-1,-1.9795222E-2,2.7168366E-1,3.417569E-1,1.02601156E-1,7.191781E-2,3.9868805E-1,-1.635514E-2,2.932331E-1,2.857143E-1,-2.767857E-1,4.102374E-1,-2.3076923E-1,-3.2876712E-1,1.4436619E-1,3.5897437E-1,-1.764706E-1,-2.9166666E-1,3.6875E-1,2.3076923E-1,-4.2045453E-1,-1.6666666E-2,4.1704035E-1,-1.7142856E-2,-0E0,-4.4444445E-1,-1.3793103E-1,-1.1235955E-2,3.9814815E-1,3.9545456E-1,-1.875E-1,1.5E-2,-3.2142857E-1,-1.8E-2,1.3333334E-2,-1.6E-2,4.1447368E-1,-1.25E-1,3.5E-1,-0E0,-4.4047618E-1,4.2477202E-1,-4.1666668E-2,1.3333334E-2,-2E-1,-2E-1,-1.8536584E-2,-2.1153846E-1,1.5E-2,-1.1805555E-1,4.1666666E-1,4.1509435E-1,-1E-2,2.1153846E-1,4.4705883E-1,-1.6666666E-2,1.3333334E-2,1E-2,-1.5384615E-2,1.7066667E-2,-1E-2,-1.3333334E-2,1E-2,1.75E-2,-0E0,1E-2,-1E-2,-1.2307692E-2,-1.9333333E-2,-0E0,1.7253086E-2,1.6666666E-2,-1.7142856E-2,1E-2,-1.5E-2,1E-2,-1.5E-2,-1.3333334E-2,1E-2,1.4545455E-2,-8.064516E-3,1.8666666E-2,5E-3,1.9354837E-2,1.21739125E-2,1.1428571E-2,-3.3333334E-3,1.1764706E-2,1.9130435E-2],"categories":[],"categories_nodes":[],"categories_segments":[],"categories_sizes":[],"default_left":[0,0,0,0,0,0,0,0,0,0,0,0,0,0,0,0,0,0,0,0,0,0,0,0,0,0,0,0,0,0,0,0,0,0,0,0,0,0,0,0,0,0,0,0,0,0,0,0,0,0,0,0,0,0,0,0,0,0,0,0,0,0,0,0,0,0,0,0,0,0,0,0,0,0,0,0,0,0,0,0,0,0,0,0,0,0,0,0,0],"id":1,"left_children":[1,-1,3,5,7,9,11,13,15,17,19,21,23,25,27,29,31,33,35,37,39,-1,41,-1,43,45,47,49,51,53,55,-1,57,-1,-1,-1,59,61,63,65,67,69,71,-1,73,75,-1,77,-1,79,81,83,-1,85,87,-1,-1,-1,-1,-1,-1,-1,-1,-1,-1,-1,-1,-1,-1,-1,-1,-1,-1,-1,-1,-1,-1,-1,-1,-1,-1,-1,-1,-1,-1,-1,-1,-1,-1],"loss_changes":[1.3781793E2,0E0,1.3898376E1,1.273735E1,7.8509927E0,1.09636135E1,5.081764E0,1.0792675E1,4.170244E0,4.470387E0,4.1805377E0,3.9652863E0,5.9340656E-1,1.5502028E0,5.6119146E0,2.406599E0,1.4795167E0,1.3375E0,2.9777956E0,5.951923E-1,3.7040043E-1,0E0,2.390358E0,0E0,5.3333336E-1,1.1598873E-1,1.1742375E0,4.117236E0,6.968899E-1,9.4942474E-1,1.09375E0,0E0,6.0164833E-1,0E0,0E0,0E0,7.2241306E-1,3.9583334E-1,3.0624998E-1,2.5E-1,9.029293E-2,1.8321533E0,2.3065476E0,0E0,4.875E-1,4.875E-1,0E0,1.5448717E0,0E0,2.9712348E0,2.0416665E-1,2.5642395E-1,0E0,5.924908E-1,2.6496124E-1,0E0,0E0,0E0,0E0,0E0,0E0,0E0,0E0,0E0,0E0,0E0,0E0,0E0,0E0,0E0,0E0,0E0,0E0,0E0,0E0,0E0,0E0,0E0,0E0,0E0,0E0,0E0,0E0,0E0,0E0,0E0,0E0,0E0,0E0],"parents":[2147483647,0,0,2,2,3,3,4,4,5,5,6,6,7,7,8,8,9,9,10,10,11,11,12,12,13,13,14,14,15,15,16,16,17,17,18,18,19,19,20,20,22,22,24,24,25,25,26,26,27,27,28,28,29,29,30,30,32,32,36,36,37,37,38,38,39,39,40,40,41,41,42,42,44,44,45,45,47,47,49,49,50,50,51,51,53,53,54,54],"right_children":[2,-1,4,6,8,10,12,14,16,18,20,22,24,26,28,30,32,34,36,38,40,-1,42,-1,44,46,48,50,52,54,56,-1,58,-1,-1,-1,60,62,64,66,68,70,72,-1,74,76,-1,78,-1,80,82,84,-1,86,88,-1,-1,-1,-1,-1,-1,-1,-1,-1,-1,-1,-1,-1,-1,-1,-1,-1,-1,-1,-1,-1,-1,-1,-1,-1,-1,-1,-1,-1,-1,-1,-1,-1,-1],"split_conditions":[3.7396774E0,-7.999996E-2,-2.0648667E-1,-3.7223563E-1,-2.5273386E-1,4.4344103E-1,2.891838E-1,1.0083053E-1,-1.5802883E-1,2.7949053E-1,2.5041243E-1,1.3844E-2,3.476E-2,-1.5105622E-1,-2.90717E-1,5.0769E-2,1.0710268E-1,4.1698E-2,-3.3717462E-1,1.6443E-2,1.067E-3,-1.1199989E-2,5.1504E-2,-3.1399973E-2,-8.89E-3,-1.37E-2,2.6951E-2,4.4071397E-1,4.4621E-2,-1.165E-2,1.9784914E-1,3.800003E-2,1.067E-3,-1.1999969E-2,1.8000221E-3,-6.079998E-2,5.0461E-2,-7.82E-3,9.163E-3,2.1722971E-1,2.756E-2,-9.34E-3,4.23864E-1,1.1000022E-2,4.2767E-2,2.06E-4,-2.7999973E-2,1.7803386E-1,6.800003E-3,7.593333E-1,4.1021E-2,3.6819935E-1,-3.199997E-3,-1.509E-2,-2.4879575E-1,-7.199974E-3,4.260002E-2,1.1200028E-2,-9.599972E-3,4.1600015E-2,-4.5199964E-2,-6.799984E-3,3.2800026E-2,1.2400016E-2,-4.1999817E-3,1.760002E-2,-4.2399976E-2,-2.7399978E-2,-3.839996E-2,2.6000212E-3,4.800003E-2,4.0800016E-2,-2.119997E-2,2.840004E-2,-5.6399994E-2,1.0400009E-2,-2.2399979E-2,-9.399967E-3,1.6400032E-2,5.5800036E-2,-1.5599975E-2,3.380003E-2,1.2800026E-2,3.880001E-2,1.7000027E-2,1.3600025E-2,-6.399994E-3,4.760002E-2,6.9800034E-2],"split_indices":[22,0,16,18,15,3,0,6,17,5,2,11,10,16,20,11,0,11,15,8,10,0,10,0,7,13,13,6,12,13,0,0,10,0,0,0,11,7,9,0,10,9,3,0,11,9,0,0,0,21,12,1,0,13,15,0,0,0,0,0,0,0,0,0,0,0,0,0,0,0,0,0,0,0,0,0,0,0,0,0,0,0,0,0,0,0,0,0,0],"split_type":[0,0,0,0,0,0,0,0,0,0,0,0,0,0,0,0,0,0,0,0,0,0,0,0,0,0,0,0,0,0,0,0,0,0,0,0,0,0,0,0,0,0,0,0,0,0,0,0,0,0,0,0,0,0,0,0,0,0,0,0,0,0,0,0,0,0,0,0,0,0,0,0,0,0,0,0,0,0,0,0,0,0,0,0,0,0,0,0,0],"sum_hessian":[1.467E3,2.92E2,1.175E3,8.3E2,3.45E2,1.45E2,6.85E2,2.13E2,1.32E2,9E1,5.5E1,6.73E2,1.2E1,7.2E1,1.41E2,1.16E2,1.6E1,1.1E1,7.9E1,1.2E1,4.3E1,5E0,6.68E2,6E0,6E0,4.4E1,2.8E1,8.8E1,5.3E1,1.09E2,7E0,3E0,1.3E1,9E0,2E0,4E0,7.5E1,3E0,9E0,2E0,4.1E1,6.57E2,1.1E1,2E0,4E0,4E0,4E1,2.5E1,3E0,7.1E1,1.7E1,5.2E1,1E0,2.5E1,8.4E1,5E0,2E0,1E0,1.2E1,7.4E1,1E0,2E0,1E0,7E0,2E0,1E0,1E0,1.2E1,2.9E1,1E1,6.47E2,5E0,6E0,1E0,3E0,1E0,3E0,2E1,5E0,1E1,6.1E1,1.4E1,3E0,3E1,2.2E1,2E1,5E0,1.6E1,6.8E1],"tree_param":{"num_deleted":"0","num_feature":"28","num_nodes":"89","size_leaf_vector":"1"}},{"base_weights":[5.685627E-1,-4.6416394E-2,7.21301E-1,-1.9922485E-3,-2.0833345E-2,7.912154E-1,5.513006E-1,1.2499999E-1,-1.9354842E-3,5.188356E-1,8.4803206E-1,4.3154204E-1,7.398496E-1,2.9999998E-1,-1.5000004E-3,7.307692E-1,1.6517857E-1,8.595697E-1,1.8461537E-1,1.1506848E-1,5.911972E-1,8.051282E-1,2.4705881E-1,1.9E-2,-1.0000002E-3,1.2083332E-1,8.13125E-1,6.461538E-1,1.931817E-2,-1.6666669E-3,8.663677E-1,-1.714286E-3,3.8571426E-1,-4.444456E-3,2.965517E-1,4.3370786E-1,8.398148E-1,8.413636E-1,2.0624998E-1,2.8499998E-2,9.642856E-2,-1.8000003E-3,2.5333332E-2,-1.6000004E-3,8.5855263E-1,-1.0000002E-3,7.0416665E-1,1.5333332E-1,-1.9333337E-3,8.729198E-1,2.8888887E-1,2.5333332E-2,1.6E-1,1.6E-1,-2.4390256E-2,1.7954545E-1,5.8125E-1,3.2569444E-1,3.3666667E-2,3.4264147E-2,-1.0000002E-3,6.442308E-1,3.5670586E-2,-1.6666669E-3,2.5333332E-2,1.9E-2,3.076922E-2,3.4826666E-2,-1.0000002E-3,3.3777777E-2,8.4999995E-3,1.0199999E-2,-1.6666669E-3,1.6363636E-2,3.517665E-2,2.8499998E-2,-1.6666669E-3,1.9E-2,-1.5000004E-3,1.9E-2,-1.5000004E-3,3.2499996E-3,-1.941177E-3,4.0999996E-3,2.5333332E-2,2.6857141E-2,-1.0000002E-3,3.090909E-2,9.645161E-3,2.688E-2,-1.0000002E-3,-1.7500004E-3,4.9999994E-3],"categories":[],"categories_nodes":[],"categories_segments":[],"categories_sizes":[],"default_left":[0,0,0,0,0,0,0,0,0,0,0,0,0,0,0,0,0,0,0,0,0,0,0,0,0,0,0,0,0,0,0,0,0,0,0,0,0,0,0,0,0,0,0,0,0,0,0,0,0,0,0,0,0,0,0,0,0,0,0,0,0,0,0,0,0,0,0,0,0,0,0,0,0,0,0,0,0,0,0,0,0,0,0,0,0,0,0,0,0,0,0,0,0],"id":2,"left_children":[1,3,5,-1,7,9,11,13,-1,15,17,19,21,23,-1,25,27,29,31,33,35,37,39,-1,-1,41,43,45,47,-1,49,-1,51,53,55,57,59,61,63,-1,65,-1,-1,-1,67,-1,69,71,-1,73,75,-1,77,79,81,83,85,87,-1,-1,-1,89,-1,-1,-1,-1,91,-1,-1,-1,-1,-1,-1,-1,-1,-1,-1,-1,-1,-1,-1,-1,-1,-1,-1,-1,-1,-1,-1,-1,-1,-1,-1],"loss_changes":[1.3792407E2,2.4371862E-2,1.3541138E1,0E0,1.5070565E-1,1.2420349E1,7.4935303E0,1.8187499E-1,0E0,1.0822258E1,5.0921326E0,1.0744667E1,4.0795135E0,1.825E-1,0E0,4.4728355E0,3.9162107E0,4.165436E0,6.112088E-1,1.5846581E0,5.1957245E0,2.3654404E0,1.1231564E0,0E0,0E0,1.0483749E0,3.134777E0,5.2376604E-1,4.063295E-1,0E0,2.2791138E0,0E0,2.8990483E-1,1.5150136E-1,8.616724E-1,3.6476593E0,8.0545807E-1,5.18425E-1,8.734374E-1,0E0,3.3337912E-1,0E0,0E0,0E0,8.3522415E-1,0E0,6.481943E-1,3.0800006E-1,0E0,1.6319885E0,1.2899306E0,0E0,3.28875E-1,3.28875E-1,1.0849579E-1,7.042538E-1,4.5415187E-1,2.5355263E0,0E0,0E0,0E0,4.9998474E-1,0E0,0E0,0E0,0E0,9.675482E-2,0E0,0E0,0E0,0E0,0E0,0E0,0E0,0E0,0E0,0E0,0E0,0E0,0E0,0E0,0E0,0E0,0E0,0E0,0E0,0E0,0E0,0E0,0E0,0E0,0E0,0E0],"parents":[2147483647,0,0,1,1,2,2,4,4,5,5,6,6,7,7,9,9,10,10,11,11,12,12,13,13,15,15,16,16,17,17,18,18,19,19,20,20,21,21,22,22,25,25,26,26,27,27,28,28,30,30,32,32,33,33,34,34,35,35,36,36,37,37,38,38,40,40,44,44,46,46,47,47,49,49,50,50,52,52,53,53,54,54,55,55,56,56,57,57,61,61,66,66],"right_children":[2,4,6,-1,8,10,12,14,-1,16,18,20,22,24,-1,26,28,30,32,34,36,38,40,-1,-1,42,44,46,48,-1,50,-1,52,54,56,58,60,62,64,-1,66,-1,-1,-1,68,-1,70,72,-1,74,76,-1,78,80,82,84,86,88,-1,-1,-1,90,-1,-1,-1,-1,92,-1,-1,-1,-1,-1,-1,-1,-1,-1,-1,-1,-1,-1,-1,-1,-1,-1,-1,-1,-1,-1,-1,-1,-1,-1,-1],"split_conditions":[3.7396774E0,3.5093548E0,-2.0648667E-1,-2.2719989E-2,-2.3046575E-1,-3.7223563E-1,-2.5273386E-1,2.547296E-1,-1.1279983E-2,4.4344103E-1,2.891838E-1,1.0083053E-1,-1.5802883E-1,2.0204E-2,-4.4399984E-2,2.7949053E-1,2.5041243E-1,1.3844E-2,3.476E-2,-1.5105622E-1,-2.90717E-1,5.0769E-2,1.0710268E-1,3.4800034E-2,-3.6399994E-2,4.1698E-2,-3.3717462E-1,-1.862E-2,2.756E-2,-4.399986E-3,5.6893E-2,-3.99971E-4,-8.89E-3,-1.37E-2,1.8204E-2,4.4071397E-1,4.4621E-2,-1.165E-2,1.9784914E-1,4.6000022E-2,1.067E-3,-1.1999893E-3,2.0000075E-3,-4.4399984E-2,5.0461E-2,-8.799972E-3,9.163E-3,1.6327E-2,-4.199983E-3,-9.34E-3,4.23864E-1,1.6000023E-2,4.2767E-2,2.06E-4,8.801E-3,8.539E-3,4.0657E-2,7.593333E-1,7.36E-2,7.472E-2,-3.199997E-3,1.74E-2,9.550001E-2,-1.9999694E-3,5.640003E-2,1.1200028E-2,1.3472268E-1,8.57E-2,-4.5199964E-2,4.1600037E-2,2.6000023E-2,1.760002E-2,-1.0399971E-2,9.160004E-2,8.498002E-2,4.0800016E-2,-3.199997E-3,2.840004E-2,-3.039997E-2,1.0400009E-2,-5.5999756E-3,1.6000023E-2,-1.1999893E-3,1.640003E-2,1.0400009E-2,3.0400008E-2,-6.7999647E-3,1.05600014E-1,3.5760026E-2,9.290002E-2,-1.5999984E-2,-2.3999787E-3,9.600028E-3],"split_indices":[22,22,16,0,17,18,15,3,0,3,0,6,17,9,0,5,2,11,10,16,20,11,0,0,0,11,15,7,10,0,10,0,7,13,9,6,12,13,0,0,10,0,0,0,11,0,9,9,0,9,3,0,11,9,10,7,9,21,0,0,0,8,0,0,0,0,0,0,0,0,0,0,0,0,0,0,0,0,0,0,0,0,0,0,0,0,0,0,0,0,0,0,0],"split_type":[0,0,0,0,0,0,0,0,0,0,0,0,0,0,0,0,0,0,0,0,0,0,0,0,0,0,0,0,0,0,0,0,0,0,0,0,0,0,0,0,0,0,0,0,0,0,0,0,0,0,0,0,0,0,0,0,0,0,0,0,0,0,0,0,0,0,0,0,0,0,0,0,0,0,0,0,0,0,0,0,0,0,0,0,0,0,0,0,0,0,0,0,0],"sum_hessian":[1.467E3,2.92E2,1.175E3,2.57E2,3.5E1,8.3E2,3.45E2,5E0,3E1,1.45E2,6.85E2,2.13E2,1.32E2,2E0,3E0,9E1,5.5E1,6.73E2,1.2E1,7.2E1,1.41E2,1.16E2,1.6E1,1E0,1E0,1.1E1,7.9E1,1.2E1,4.3E1,5E0,6.68E2,6E0,6E0,4.4E1,2.8E1,8.8E1,5.3E1,1.09E2,7E0,3E0,1.3E1,9E0,2E0,4E0,7.5E1,1E0,1.1E1,1.4E1,2.9E1,6.6E2,8E0,2E0,4E0,4E0,4E1,2.1E1,7E0,7.1E1,1.7E1,5.2E1,1E0,2.5E1,8.4E1,5E0,2E0,1E0,1.2E1,7.4E1,1E0,8E0,3E0,9E0,5E0,1E1,6.5E2,3E0,5E0,1E0,3E0,1E0,3E0,7E0,3.3E1,1.9E1,2E0,6E0,1E0,1E1,6.1E1,2.4E1,1E0,7E0,5E0],"tree_param":{"num_deleted":"0","num_feature":"28","num_nodes":"93","size_leaf_vector":"1"}},{"base_weights":[-3.2128745E-1,-9.296928E-1,-1.6943027E-1,1E-3,-9.3304795E-1,-3.763713E-1,-1.1707447E-1,-3.745517E-2,-2.9999998E-1,-8.416666E-2,-4.727528E-1,-3.2210743E-1,-4.5922745E-2,1E-3,-1.9E-2,-5.454544E-3,-3.1666663E-2,-5.243827E-1,1.882353E-3,-4.3028572E-1,-3.8970586E-2,3.6608875E-3,-1.878453E-1,-1.7777777E-1,2.7659575E-2,-6.8095237E-1,-4.2049998E-1,-2.25E-1,-7.0743245E-1,-2.5333332E-2,-1.1363635E-2,1.2127237E-2,-2.4705882E-1,-6.3714284E-1,-7.959183E-2,-3.5999998E-1,1.6E-3,-2.9999998E-1,1.9555555E-3,-8.75E-1,-5.302631E-1,-1.3295454E-1,-6.350877E-1,-1.4157303E-1,-7.392857E-1,-7.2847223E-1,1.3333333E-3,3.0555556E-2,-1.8461539E-1,3.206107E-2,-5.8558557E-2,-3.0399999E-2,-3.0769229E-2,-7.4482757E-1,-9.9999994E-2,-7.3333335E-1,-3.6690645E-2,-2.5333332E-2,1.3333333E-3,1E-3,-1.9E-2,1E-3,-3.648E-2,-2.351515E-2,-5E-3,-3.9024388E-3,-1.85E-2,1.6E-3,-2.7471697E-2,1.9333333E-3,-9.366667E-3,1E-3,-3.2E-2,-3.0268656E-2,-1.1666666E-2,1.962264E-3,-1.9E-2,-2.24E-2,1.7777778E-3,1.9940299E-3,-2.7796607E-3,1.9500001E-3,-4.694444E-3,1.8181818E-3,-1.1999999E-2,-1.6E-2,-3.4285713E-2,-1.9E-2,1.6666667E-3,-3.2571428E-2,-1.1999999E-2,-5.0158724E-3,1.4545455E-3],"categories":[],"categories_nodes":[],"categories_segments":[],"categories_sizes":[],"default_left":[0,0,0,0,0,0,0,0,0,0,0,0,0,0,0,0,0,0,0,0,0,0,0,0,0,0,0,0,0,0,0,0,0,0,0,0,0,0,0,0,0,0,0,0,0,0,0,0,0,0,0,0,0,0,0,0,0,0,0,0,0,0,0,0,0,0,0,0,0,0,0,0,0,0,0,0,0,0,0,0,0,0,0,0,0,0,0,0,0,0,0,0,0],"id":3,"left_children":[1,3,5,-1,7,9,11,-1,13,15,17,19,21,-1,-1,23,-1,25,-1,27,29,31,33,35,37,39,41,43,45,-1,47,49,51,53,55,57,-1,59,-1,61,63,65,67,69,71,73,-1,75,77,79,81,-1,83,85,87,89,91,-1,-1,-1,-1,-1,-1,-1,-1,-1,-1,-1,-1,-1,-1,-1,-1,-1,-1,-1,-1,-1,-1,-1,-1,-1,-1,-1,-1,-1,-1,-1,-1,-1,-1,-1,-1],"loss_changes":[1.3547206E2,9.6183777E-1,1.269738E1,0E0,3.3488464E-1,6.6348686E0,1.3698347E1,0E0,1.8249997E-1,3.3370113E0,4.801811E0,7.3955116E0,4.9195757E0,0E0,0E0,3.1876555E-1,0E0,2.3485718E0,0E0,9.797325E0,1.1085839E0,1.1046674E0,8.752769E0,3.7155557E-1,3.4159812E-1,1.3781967E0,6.0859356E0,4.271677E0,1.1776123E0,0E0,4.8497087E-1,7.106239E-1,1.8626606E0,1.9499903E0,4.0958977E0,5.586666E-1,0E0,1.8249997E-1,0E0,8.885975E-1,8.1379604E-1,4.680848E-1,2.0170689E0,1.5763049E0,6.696429E-1,6.67572E-1,0E0,5.283805E-1,1.1427009E0,7.134532E-1,7.0613325E-1,0E0,2.804196E-1,7.802963E-1,3.9166665E-1,7.1428776E-2,9.053307E-1,0E0,0E0,0E0,0E0,0E0,0E0,0E0,0E0,0E0,0E0,0E0,0E0,0E0,0E0,0E0,0E0,0E0,0E0,0E0,0E0,0E0,0E0,0E0,0E0,0E0,0E0,0E0,0E0,0E0,0E0,0E0,0E0,0E0,0E0,0E0,0E0],"parents":[2147483647,0,0,1,1,2,2,4,4,5,5,6,6,8,8,9,9,10,10,11,11,12,12,15,15,17,17,19,19,20,20,21,21,22,22,23,23,24,24,25,25,26,26,27,27,28,28,30,30,31,31,32,32,33,33,34,34,35,35,37,37,39,39,40,40,41,41,42,42,43,43,44,44,45,45,47,47,48,48,49,49,50,50,52,52,53,53,54,54,55,55,56,56],"right_children":[2,4,6,-1,8,10,12,-1,14,16,18,20,22,-1,-1,24,-1,26,-1,28,30,32,34,36,38,40,42,44,46,-1,48,50,52,54,56,58,-1,60,-1,62,64,66,68,70,72,74,-1,76,78,80,82,-1,84,86,88,90,92,-1,-1,-1,-1,-1,-1,-1,-1,-1,-1,-1,-1,-1,-1,-1,-1,-1,-1,-1,-1,-1,-1,-1,-1,-1,-1,-1,-1,-1,-1,-1,-1,-1,-1,-1,-1],"split_conditions":[3.7396774E0,-1.646E-2,-3.0289528E-1,2.6802064E-4,5.4647E-2,3.5693836E-1,1.0083053E-1,-1.5073198E-1,-1.469E-2,3.964907E-1,-8.683251E-2,2.7102828E-1,7.1719356E0,1.8680191E-3,-3.3731956E-2,3.7993E-2,-7.679997E-2,2.1748713E-1,3.0720023E-2,2.6614237E-1,2.0178E-2,2.8232E-2,-3.2489657E-1,2.1734E-2,-2.052E-2,1.653E-2,3.7410077E-1,-1.5802883E-1,4.484929E-1,-1.1443199E-1,2.2914459E-1,-1.9854054E-1,1.6780175E-1,2.883919E-1,3.3498618E-1,-8.89E-3,8.2881923E-4,-2.361E-2,1.2606992E-2,-1.319E-2,-2.90717E-1,3.9010125E-1,2.2930059E-1,4.2099822E-1,1.067E-3,-1.79E-3,1.5744017E-2,4.868E-2,-6.13E-3,4.46724E-1,2.799446E-1,-4.058956E-2,4.1412553E-1,3.3102E-2,-1.862E-2,-1.204E-2,4.059804E-1,-1.3411979E-2,3.4588013E-2,4.498802E-2,-3.8119887E-3,1.6896019E-2,-7.639897E-2,-5.2915987E-2,-4.709278E-2,-2.9595958E-2,-3.263996E-2,1.8188018E-2,-5.5616587E-2,1.6624011E-2,-1.8989563E-2,1.0752029E-2,-4.223999E-2,-4.9959973E-2,-2.3999976E-2,1.3620027E-2,-4.5679968E-2,-3.4943998E-2,1.8560027E-3,1.6065588E-2,-1.6841816E-2,1.8961601E-2,-1.2719023E-2,1.8560028E-2,-1.4879989E-2,-5.509277E-2,-8.341277E-2,-8.611984E-3,1.2588005E-2,-6.989281E-2,-5.3092804E-2,-3.2073393E-2,9.379263E-3],"split_indices":[22,8,15,0,9,3,6,0,7,2,20,2,27,0,0,11,0,0,0,1,11,8,20,13,7,13,1,17,4,0,0,14,6,1,6,7,0,7,0,9,20,2,0,4,10,7,0,13,7,5,3,0,3,12,7,7,5,0,0,0,0,0,0,0,0,0,0,0,0,0,0,0,0,0,0,0,0,0,0,0,0,0,0,0,0,0,0,0,0,0,0,0,0],"split_type":[0,0,0,0,0,0,0,0,0,0,0,0,0,0,0,0,0,0,0,0,0,0,0,0,0,0,0,0,0,0,0,0,0,0,0,0,0,0,0,0,0,0,0,0,0,0,0,0,0,0,0,0,0,0,0,0,0,0,0,0,0,0,0,0,0,0,0,0,0,0,0,0,0,0,0,0,0,0,0,0,0,0,0,0,0,0,0,0,0,0,0,0,0],"sum_hessian":[1.467E3,2.92E2,1.175E3,1E0,2.91E2,2.36E2,9.39E2,2.89E2,2E0,5.9E1,1.77E2,2.41E2,6.98E2,1E0,1E0,5.4E1,5E0,1.61E2,1.6E1,1.74E2,6.7E1,5.18E2,1.8E2,8E0,4.6E1,6.2E1,9.9E1,1.01E2,7.3E1,2E0,6.5E1,5.02E2,1.6E1,3.4E1,1.46E2,4E0,4E0,2E0,4.4E1,2.5E1,3.7E1,4.3E1,5.6E1,8.8E1,1.3E1,7.1E1,2E0,5.3E1,1.2E1,3.92E2,1.1E2,4E0,1.2E1,2.8E1,6E0,8E0,1.38E2,2E0,2E0,1E0,1E0,1E0,2.4E1,3.2E1,5E0,4E1,3E0,4E0,5.2E1,2.9E1,5.9E1,1E0,1.2E1,6.6E1,5E0,5.2E1,1E0,4E0,8E0,3.34E2,5.8E1,3.9E1,7.1E1,1E1,2E0,8E0,2E1,1E0,5E0,6E0,2E0,6.2E1,7.6E1],"tree_param":{"num_deleted":"0","num_feature":"28","num_nodes":"93","size_leaf_vector":"1"}},{"base_weights":[1.1478201E-1,-4.880546E-1,2.6488096E-1,-1.9783393E-2,-3.529412E-1,3.419355E-1,1.1567164E-1,1E-2,-4.0625E-1,4.6428572E-2,4.0644655E-1,-6.2893085E-2,2.3155738E-1,-1.25E-1,-1.8461538E-2,2.6436782E-1,-3.0555555E-1,-1.7142856E-2,4.1507936E-1,1.6091955E-1,-3.2876712E-1,3.068783E-1,-2.6785715E-2,1E-2,-1.3333334E-2,-5.357143E-2,4.0833333E-1,-4.2045453E-1,1.8181819E-1,-0E0,4.2313915E-1,2.5E-1,-3.2142857E-1,-4.4444445E-1,-1.3793103E-1,4.6478873E-1,2.1008404E-1,-2.9166666E-1,4.2857143E-1,1.6666666E-2,-1.7391305E-1,4.5192307E-1,1.1111111E-1,-0E0,-1.7619047E-2,-1.25E-1,3.125E-1,3.125E-1,-1.6666666E-2,4.4220182E-1,2.7702704E-1,1.574074E-1,1.9047618E-2,1E-2,-1.5384615E-2,-2E-1,-1.8536584E-2,-2.1153846E-1,1.5E-2,1.9142857E-2,-1E-2,4.117647E-1,5.7971016E-2,-1.25E-1,-1.8823529E-2,1.8888887E-2,1.25E-1,5.7142857E-3,-1.1764706E-2,5.7142857E-3,1.9565217E-2,1.6E-2,-8E-3,1E-2,-1E-2,1E-2,-1.3333334E-2,-0E0,1.6666666E-2,1.7142856E-2,-1E-2,7.777778E-3,1.7992424E-2,-1.6666666E-2,1.3333334E-2,-1E-2,8.163265E-3,1E-2,-1.5E-2,-1.3333334E-2,1E-2,1.72E-2,-1E-2,-4.090909E-3,1.3076923E-2,6E-3,-1.4545455E-2,-1E-2,1.3333334E-2],"categories":[],"categories_nodes":[],"categories_segments":[],"categories_sizes":[],"default_left":[0,0,0,0,0,0,0,0,0,0,0,0,0,0,0,0,0,0,0,0,0,0,0,0,0,0,0,0,0,0,0,0,0,0,0,0,0,0,0,0,0,0,0,0,0,0,0,0,0,0,0,0,0,0,0,0,0,0,0,0,0,0,0,0,0,0,0,0,0,0,0,0,0,0,0,0,0,0,0,0,0,0,0,0,0,0,0,0,0,0,0,0,0,0,0,0,0,0,0],"id":4,"left_children":[1,3,5,-1,7,9,11,-1,13,15,17,19,21,23,-1,25,27,-1,29,31,33,35,37,-1,-1,39,41,43,45,47,49,51,53,55,57,59,61,63,65,-1,67,69,71,73,-1,75,77,79,-1,81,83,85,-1,-1,-1,87,-1,89,-1,-1,-1,91,93,95,-1,-1,97,-1,-1,-1,-1,-1,-1,-1,-1,-1,-1,-1,-1,-1,-1,-1,-1,-1,-1,-1,-1,-1,-1,-1,-1,-1,-1,-1,-1,-1,-1,-1,-1],"loss_changes":[1.3296144E2,8.396149E-2,1.3481216E1,0E0,6.479778E-1,1.4755318E1,8.333191E0,0E0,1.9110584E-1,1.082034E1,4.762535E0,9.514354E0,4.7561293E0,3.9583334E-1,0E0,4.0040646E0,3.1003785E0,0E0,2.1076355E0,3.8185546E0,1.5502028E0,2.7911873E0,6.879464E0,0E0,0E0,1.6569616E0,7.271366E-1,3.7040043E-1,4.8011363E-1,1.8229166E0,1.5988083E0,1.4748678E0,6.0164833E-1,1.1598873E-1,1.1742375E0,8.191147E-1,3.6268415E0,1.0147057E0,2.1924591E-1,0E0,9.177932E-1,5.281E-1,8.888889E-1,2.5E-1,0E0,3.9583334E-1,2.6041663E-1,6.2946427E-1,0E0,9.399338E-1,3.0292788E0,1.0778533E0,0E0,0E0,0E0,4.875E-1,0E0,1.5448717E0,0E0,0E0,0E0,7.229414E-1,3.0071895E0,1.3670455E0,0E0,0E0,3.9583334E-1,0E0,0E0,0E0,0E0,0E0,0E0,0E0,0E0,0E0,0E0,0E0,0E0,0E0,0E0,0E0,0E0,0E0,0E0,0E0,0E0,0E0,0E0,0E0,0E0,0E0,0E0,0E0,0E0,0E0,0E0,0E0,0E0],"parents":[2147483647,0,0,1,1,2,2,4,4,5,5,6,6,8,8,9,9,10,10,11,11,12,12,13,13,15,15,16,16,18,18,19,19,20,20,21,21,22,22,25,25,26,26,27,27,28,28,29,29,30,30,31,31,32,32,33,33,34,34,35,35,36,36,37,37,38,38,40,40,41,41,42,42,43,43,45,45,46,46,47,47,49,49,50,50,51,51,55,55,57,57,61,61,62,62,63,63,66,66],"right_children":[2,4,6,-1,8,10,12,-1,14,16,18,20,22,24,-1,26,28,-1,30,32,34,36,38,-1,-1,40,42,44,46,48,50,52,54,56,58,60,62,64,66,-1,68,70,72,74,-1,76,78,80,-1,82,84,86,-1,-1,-1,88,-1,90,-1,-1,-1,92,94,96,-1,-1,98,-1,-1,-1,-1,-1,-1,-1,-1,-1,-1,-1,-1,-1,-1,-1,-1,-1,-1,-1,-1,-1,-1,-1,-1,-1,-1,-1,-1,-1,-1,-1,-1],"split_conditions":[3.7396774E0,6.801E-3,-2.1461171E-1,-7.699997E-2,2.6467743E0,-3.0844483E-1,1.0083053E-1,8.000183E-4,-9.45E-3,3.6431912E-1,1.3844E-2,2.6614237E-1,4.074539E-1,1.503955E-1,-7.8999974E-2,3.1737262E-1,4.140645E0,-1.7551994E-2,-3.864832E-1,-1.5802883E-1,-1.5105622E-1,7.1719356E0,4.4071397E-1,2.4000166E-3,-7.059997E-2,2.5517213E-1,4.701E-2,1.067E-3,3.665016E-1,4.0129104E-1,4.46724E-1,2.3836343E-1,1.067E-3,-1.37E-2,2.6951E-2,2.7725E-2,-3.6709046E-1,1.8634613E-1,4.1021E-2,7.687999E-2,-5.44E-3,1.9312E-2,-1.221E-2,2.1722971E-1,-3.0103987E-2,2.1735E-2,-2.216E-2,4.8469E-2,-5.4864004E-2,3.3593518E-1,2.847147E-1,-1.808E-2,6.5808006E-2,1.0752029E-2,-9.2159845E-3,2.06E-4,-2.6879977E-2,1.7803386E-1,6.528015E-3,6.376801E-2,-6.3039777E-3,5.0769E-2,-2.90717E-1,-1.221E-2,-2.5375957E-2,3.5048027E-2,4.3544E-2,1.1920356E-3,-1.251997E-2,2.2680014E-2,4.2736016E-2,1.9852009E-2,-5.439987E-3,1.6896019E-2,-4.0703963E-2,1.7680015E-2,-2.6519984E-2,1.8480014E-2,3.8479995E-2,3.1984024E-2,-8.527985E-3,1.5279998E-2,5.088001E-2,-7.410397E-2,2.8608017E-2,-1.5200042E-3,7.968006E-3,9.984016E-3,-2.1503981E-2,-9.023952E-3,1.5744017E-2,2.3248024E-2,-2.5119781E-3,-9.375953E-3,2.5279999E-2,1.6968003E-2,-2.5375957E-2,-2.4511985E-2,4.2688005E-2],"split_indices":[22,7,16,0,22,15,6,0,8,5,11,1,6,3,0,5,22,0,17,17,16,27,6,0,0,0,10,10,1,5,5,3,10,13,13,8,18,2,12,0,9,10,7,0,0,8,7,10,0,4,2,7,0,0,0,9,0,0,0,0,0,11,20,7,0,0,12,0,0,0,0,0,0,0,0,0,0,0,0,0,0,0,0,0,0,0,0,0,0,0,0,0,0,0,0,0,0,0,0],"split_type":[0,0,0,0,0,0,0,0,0,0,0,0,0,0,0,0,0,0,0,0,0,0,0,0,0,0,0,0,0,0,0,0,0,0,0,0,0,0,0,0,0,0,0,0,0,0,0,0,0,0,0,0,0,0,0,0,0,0,0,0,0,0,0,0,0,0,0,0,0,0,0,0,0,0,0,0,0,0,0,0,0,0,0,0,0,0,0,0,0,0,0,0,0,0,0,0,0,0,0],"sum_hessian":[1.467E3,2.92E2,1.175E3,2.76E2,1.6E1,7.74E2,4.01E2,1E0,1.5E1,1.39E2,6.35E2,1.58E2,2.43E2,3E0,1.2E1,8.6E1,5.3E1,6E0,6.29E2,8.6E1,7.2E1,1.88E2,5.5E1,1E0,2E0,2.7E1,5.9E1,4.3E1,1E1,1.2E1,6.17E2,7.3E1,1.3E1,4.4E1,2.8E1,7E1,1.18E2,3.5E1,2E1,5E0,2.2E1,5.1E1,8E0,2E0,4.1E1,3E0,7E0,7E0,5E0,5.44E2,7.3E1,5.3E1,2E1,1E0,1.2E1,4E0,4E1,2.5E1,3E0,6.9E1,1E0,5E1,6.8E1,1.9E1,1.6E1,1.7E1,3E0,6E0,1.6E1,6E0,4.5E1,4E0,4E0,1E0,1E0,1E0,2E0,2E0,5E0,6E0,1E0,1.7E1,5.27E2,5E0,6.8E1,5E0,4.8E1,1E0,3E0,2E1,5E0,4.9E1,1E0,4.3E1,2.5E1,9E0,1E1,1E0,2E0],"tree_param":{"num_deleted":"0","num_feature":"28","num_nodes":"99","size_leaf_vector":"1"}},{"base_weights":[5.535763E-1,-4.3003425E-2,7.017432E-1,-4.62094E-2,1.1764695E-2,7.823226E-1,5.4465175E-1,-1.991736E-3,-2.0833345E-2,2.1249999E-1,-1.8571432E-3,4.7892857E-1,8.478773E-1,3.654088E-1,6.592213E-1,1.2499999E-1,-1.9354842E-3,1.9E-2,-1.3333337E-3,6.862069E-1,1.361111E-1,-1.714286E-3,8.5642856E-1,5.712643E-1,1.1506848E-1,5.37E-1,8.452631E-1,2.9999998E-1,-1.5000004E-3,3.4464285E-1,8.3416665E-1,1.931817E-2,5.9090906E-1,6.852041E-1,8.863039E-1,6.5337837E-1,9.642856E-2,-4.444456E-3,2.965517E-1,3.8564813E-1,3.6186047E-2,8.6358696E-1,2.1249999E-1,1.9E-2,-1.0000002E-3,3.1666663E-2,2.1304347E-1,8.9326924E-1,3.9999998E-1,-1.9230774E-3,1.105263E-1,-1.0000002E-3,2.6199998E-2,-1.8181823E-3,7.6875E-1,8.880639E-1,-1.0000002E-3,5.435185E-1,3.6190476E-2,1.9E-2,3.076922E-2,1.6E-1,-2.4390256E-2,1.7954545E-1,5.8125E-1,2.6874998E-1,3.4285713E-2,4.583333E-1,3.526437E-2,-1.3333337E-3,1.9E-2,1.2307687E-3,1.6363636E-2,2.1142857E-2,3.7173912E-2,4.9999994E-3,2.8499998E-2,9.090909E-3,-1.7777783E-3,1.9157894E-2,3.345714E-2,3.56553E-2,1.4399999E-2,1.8488888E-2,3.42E-2,-1.7500004E-3,4.9999994E-3,1.9E-2,-1.5000004E-3,3.2499996E-3,-1.941177E-3,4.0999996E-3,2.5333332E-2,2.6857141E-2,-1.0000002E-3,3.090909E-2,7.76923E-3,2.8499998E-2,-1.3333337E-3],"categories":[],"categories_nodes":[],"categories_segments":[],"categories_sizes":[],"default_left":[0,0,0,0,0,0,0,0,0,0,0,0,0,0,0,0,0,0,0,0,0,0,0,0,0,0,0,0,0,0,0,0,0,0,0,0,0,0,0,0,0,0,0,0,0,0,0,0,0,0,0,0,0,0,0,0,0,0,0,0,0,0,0,0,0,0,0,0,0,0,0,0,0,0,0,0,0,0,0,0,0,0,0,0,0,0,0,0,0,0,0,0,0,0,0,0,0,0,0],"id":5,"left_children":[1,3,5,7,9,11,13,-1,15,17,-1,19,21,23,25,27,-1,-1,-1,29,31,-1,33,35,37,39,41,43,-1,45,47,49,51,53,55,57,59,61,63,65,-1,67,69,-1,-1,-1,71,73,75,-1,77,-1,-1,-1,79,81,-1,83,-1,-1,85,87,89,91,93,95,-1,97,-1,-1,-1,-1,-1,-1,-1,-1,-1,-1,-1,-1,-1,-1,-1,-1,-1,-1,-1,-1,-1,-1,-1,-1,-1,-1,-1,-1,-1,-1,-1],"loss_changes":[1.2979169E2,5.199009E-2,1.4460083E1,2.41552E-2,2.0845065E-1,1.5007843E1,8.014496E0,0E0,1.5070565E-1,2.7395833E-1,0E0,9.854805E0,4.8809814E0,8.128162E0,5.0942307E0,1.8187499E-1,0E0,0E0,0E0,4.109295E0,2.8569129E0,0E0,2.6154175E0,3.3291836E0,1.5846581E0,7.9978256E0,9.17984E-1,1.825E-1,0E0,1.4785264E0,1.182312E0,2.7578098E-1,4.505906E-1,6.017208E0,8.770752E-1,1.5519028E0,3.3337912E-1,1.5150136E-1,8.616724E-1,5.7222633E0,0E0,2.6785278E-1,2.7395833E-1,0E0,0E0,0E0,8.093035E-1,1.929779E-1,6.843749E-1,0E0,3.5385436E-1,0E0,0E0,0E0,1.3253746E0,6.114197E-1,0E0,9.722042E-1,0E0,0E0,9.675482E-2,3.28875E-1,1.0849579E-1,7.042538E-1,4.5415187E-1,3.1548414E0,0E0,7.7354157E-1,0E0,0E0,0E0,0E0,0E0,0E0,0E0,0E0,0E0,0E0,0E0,0E0,0E0,0E0,0E0,0E0,0E0,0E0,0E0,0E0,0E0,0E0,0E0,0E0,0E0,0E0,0E0,0E0,0E0,0E0,0E0],"parents":[2147483647,0,0,1,1,2,2,3,3,4,4,5,5,6,6,8,8,9,9,11,11,12,12,13,13,14,14,15,15,19,19,20,20,22,22,23,23,24,24,25,25,26,26,27,27,29,29,30,30,31,31,32,32,33,33,34,34,35,35,36,36,37,37,38,38,39,39,41,41,42,42,46,46,47,47,48,48,50,50,54,54,55,55,57,57,60,60,61,61,62,62,63,63,64,64,65,65,67,67],"right_children":[2,4,6,8,10,12,14,-1,16,18,-1,20,22,24,26,28,-1,-1,-1,30,32,-1,34,36,38,40,42,44,-1,46,48,50,52,54,56,58,60,62,64,66,-1,68,70,-1,-1,-1,72,74,76,-1,78,-1,-1,-1,80,82,-1,84,-1,-1,86,88,90,92,94,96,-1,98,-1,-1,-1,-1,-1,-1,-1,-1,-1,-1,-1,-1,-1,-1,-1,-1,-1,-1,-1,-1,-1,-1,-1,-1,-1,-1,-1,-1,-1,-1,-1],"split_conditions":[3.7396774E0,6.801E-3,-2.1461171E-1,3.5093548E0,-9.45E-3,-3.0844483E-1,1.0083053E-1,-2.289116E-2,-2.3046575E-1,1.503955E-1,-1.4911651E-3,3.6431912E-1,1.3844E-2,2.6614237E-1,-2.90717E-1,2.547296E-1,-1.0828781E-2,1.0883331E-4,-4.3091163E-2,3.1737262E-1,4.140645E0,-4.223976E-3,-3.6584365E-1,-1.5802883E-1,-1.5105622E-1,-2.4879575E-1,2.646994E-1,2.0204E-2,-4.2623978E-2,2.5517213E-1,4.701E-2,-3.1787333E-1,-3.5E-4,3.8358064E0,6.5923333E0,2.3836343E-1,1.067E-3,-1.37E-2,1.8204E-2,4.4071397E-1,8.268E-2,1.8286037E-1,-1.204E-2,3.340805E-2,-3.4943998E-2,8.940082E-2,2.5053E-2,1.9312E-2,2.5586E-2,-3.5575805E-3,2.756E-2,-1.8599166E-2,5.5800818E-2,-3.5831984E-2,2.9498348E-1,5.6893E-2,-1.2259918E-1,-1.011E-2,9.236003E-2,1.0752029E-2,1.3472268E-1,2.06E-4,8.801E-3,8.539E-3,4.0657E-2,7.593333E-1,9.254003E-2,-1.068E-2,8.754761E-2,-7.399177E-3,1.0008239E-3,1.9200133E-3,2.7264021E-2,5.7772025E-2,7.996081E-2,1.1536025E-2,7.7800825E-2,1.6896019E-2,-6.2319944E-3,4.0200803E-2,8.018642E-2,8.3240815E-2,2.0368004E-2,8.345802E-2,7.068401E-2,-2.3039626E-3,9.216041E-3,9.984016E-3,-5.3759767E-3,1.536003E-2,-1.1520004E-3,1.5744017E-2,9.984016E-3,2.9183997E-2,-6.527977E-3,1.01376E-1,3.7889622E-2,3.4211196E-2,-3.0720138E-3],"split_indices":[22,7,16,22,8,15,6,0,17,3,0,5,11,1,20,3,0,0,0,5,22,0,19,17,16,15,2,9,0,0,10,15,9,22,23,3,10,13,9,6,0,3,7,0,0,0,10,10,9,0,10,0,0,0,2,10,0,7,0,0,0,9,10,7,9,21,0,7,0,0,0,0,0,0,0,0,0,0,0,0,0,0,0,0,0,0,0,0,0,0,0,0,0,0,0,0,0,0,0],"split_type":[0,0,0,0,0,0,0,0,0,0,0,0,0,0,0,0,0,0,0,0,0,0,0,0,0,0,0,0,0,0,0,0,0,0,0,0,0,0,0,0,0,0,0,0,0,0,0,0,0,0,0,0,0,0,0,0,0,0,0,0,0,0,0,0,0,0,0,0,0,0,0,0,0,0,0,0,0,0,0,0,0,0,0,0,0,0,0,0,0,0,0,0,0,0,0,0,0,0,0],"sum_hessian":[1.467E3,2.92E2,1.175E3,2.76E2,1.6E1,7.74E2,4.01E2,2.41E2,3.5E1,3E0,1.3E1,1.39E2,6.35E2,1.58E2,2.43E2,5E0,3E1,1E0,2E0,8.6E1,5.3E1,6E0,6.29E2,8.6E1,7.2E1,1.49E2,9.4E1,2E0,3E0,2.7E1,5.9E1,4.3E1,1E1,9.7E1,5.32E2,7.3E1,1.3E1,4.4E1,2.8E1,1.07E2,4.2E1,9.1E1,3E0,1E0,1E0,5E0,2.2E1,5.1E1,8E0,2.5E1,1.8E1,1E0,9E0,1E1,8.7E1,5.31E2,1E0,5.3E1,2E1,1E0,1.2E1,4E0,4E1,2.1E1,7E0,8.7E1,2E1,5E0,8.6E1,2E0,1E0,1.2E1,1E1,6E0,4.5E1,5E0,3E0,1E1,8E0,1.8E1,6.9E1,5.27E2,4E0,4.4E1,9E0,7E0,5E0,1E0,3E0,7E0,3.3E1,1.9E1,2E0,6E0,1E0,1E1,7.7E1,3E0,2E0],"tree_param":{"num_deleted":"0","num_feature":"28","num_nodes":"99","size_leaf_vector":"1"}},{"base_weights":[-3.1379429E-1,-9.2627984E-1,-1.6092686E-1,1E-3,-9.2962325E-1,-9.4464496E-2,-3.200867E-1,-3.731724E-2,-2.9999998E-1,-5.733333E-1,-6.696315E-2,-4.3621495E-1,-1.3082707E-1,1E-3,-1.9E-2,-1.19444445E-1,-3.3785712E-2,-2.1635434E-2,-1.9900498E-1,-7.178082E-1,-2.8838027E-1,-3.6153847E-1,-3.4736842E-2,1.8181818E-3,-3.3124998E-1,-5.8125E-1,-1.38793085E-2,-8.2708335E-1,-1.13202244E-1,-7.394366E-1,1.3333333E-3,-4.4494382E-1,-2.4999999E-2,-1.4285713E-1,-5.842105E-1,3.977274E-3,-4.5624998E-1,-4.583333E-1,1.3333333E-3,1E-3,-6.7142856E-1,-9.127516E-2,1.2847223E-2,1E-3,-3.4608696E-2,-6.368421E-1,-5.0312497E-2,-7.595588E-1,-2.1249999E-1,-5.4791665E-1,-8.333332E-3,-7.5471685E-3,-1.9E-2,-2.2E-1,1.7142857E-3,-6.1944443E-1,1E-3,-1.2941176E-1,3.5416666E-2,-6.25E-1,1.3333333E-3,-2.24E-2,1E-3,-1.1999999E-2,-3.0399999E-2,9.7500003E-4,-8.885714E-3,1.3125001E-3,-2.962963E-3,-6.4E-3,-3.0133333E-2,-8.701298E-4,-2.6857141E-2,-3.1261537E-2,-8.4999995E-3,-1.9E-2,1.3333333E-3,-1.8181817E-3,-2.5129031E-2,1.8666666E-3,-8.4999995E-3,1.9428572E-3,-4.4210525E-3,-1.1499999E-2,1.5E-3,-1.3249999E-2,-3.090909E-2,1.8181818E-3,-1.5428571E-2,-3.9999997E-3,1.969697E-3,1E-3,-3.0399999E-2],"categories":[],"categories_nodes":[],"categories_segments":[],"categories_sizes":[],"default_left":[0,0,0,0,0,0,0,0,0,0,0,0,0,0,0,0,0,0,0,0,0,0,0,0,0,0,0,0,0,0,0,0,0,0,0,0,0,0,0,0,0,0,0,0,0,0,0,0,0,0,0,0,0,0,0,0,0,0,0,0,0,0,0,0,0,0,0,0,0,0,0,0,0,0,0,0,0,0,0,0,0,0,0,0,0,0,0,0,0,0,0,0,0],"id":6,"left_children":[1,3,5,-1,7,9,11,-1,13,15,17,19,21,-1,-1,23,-1,25,27,29,31,33,35,-1,37,39,41,43,45,47,-1,49,51,53,55,57,59,61,-1,-1,63,65,67,-1,-1,69,71,73,75,77,79,81,-1,83,-1,85,-1,87,89,91,-1,-1,-1,-1,-1,-1,-1,-1,-1,-1,-1,-1,-1,-1,-1,-1,-1,-1,-1,-1,-1,-1,-1,-1,-1,-1,-1,-1,-1,-1,-1,-1,-1],"loss_changes":[1.3729845E2,9.551239E-1,1.2409657E1,0E0,3.282318E-1,1.0905495E1,7.547451E0,0E0,1.8249997E-1,5.44061E0,4.7060113E0,8.70166E0,2.9359329E0,0E0,0E0,6.4373416E-1,0E0,2.5397708E0,1.073843E1,1.2106056E0,5.844352E0,1.8156161E0,1.5520729E0,0E0,3.859375E-1,4.5415187E-1,1.2009158E0,8.014698E-1,5.8297806E0,5.914154E-1,0E0,3.996788E0,4.2051885E-1,3.1028566E-1,4.233179E-1,3.7362635E-1,6.817709E-1,3.0883336E-1,0E0,0E0,2.285719E-3,2.2605104E0,7.521267E-1,0E0,0E0,9.348774E-1,2.823572E0,6.5156555E-1,2.7395833E-1,2.87681E0,2.1204166E-1,3.1165785E-1,0E0,2.715E-1,0E0,5.3918934E-1,0E0,7.7944994E-1,1.3972536E-1,5.4550004E-1,0E0,0E0,0E0,0E0,0E0,0E0,0E0,0E0,0E0,0E0,0E0,0E0,0E0,0E0,0E0,0E0,0E0,0E0,0E0,0E0,0E0,0E0,0E0,0E0,0E0,0E0,0E0,0E0,0E0,0E0,0E0,0E0,0E0],"parents":[2147483647,0,0,1,1,2,2,4,4,5,5,6,6,8,8,9,9,10,10,11,11,12,12,15,15,17,17,18,18,19,19,20,20,21,21,22,22,24,24,25,25,26,26,27,27,28,28,29,29,31,31,32,32,33,33,34,34,35,35,36,36,37,37,40,40,41,41,42,42,45,45,46,46,47,47,48,48,49,49,50,50,51,51,53,53,55,55,57,57,58,58,59,59],"right_children":[2,4,6,-1,8,10,12,-1,14,16,18,20,22,-1,-1,24,-1,26,28,30,32,34,36,-1,38,40,42,44,46,48,-1,50,52,54,56,58,60,62,-1,-1,64,66,68,-1,-1,70,72,74,76,78,80,82,-1,84,-1,86,-1,88,90,92,-1,-1,-1,-1,-1,-1,-1,-1,-1,-1,-1,-1,-1,-1,-1,-1,-1,-1,-1,-1,-1,-1,-1,-1,-1,-1,-1,-1,-1,-1,-1,-1,-1],"split_conditions":[3.7396774E0,-1.646E-2,-2.0648667E-1,2.5730132E-4,5.4647E-2,-3.864832E-1,-2.5273386E-1,-1.447027E-1,-1.469E-2,4.0129104E-1,7.1719356E0,1.0083053E-1,-1.107E-2,1.7932891E-3,-3.238266E-2,4.8469E-2,-6.492551E-2,2.0178E-2,-3.495435E-1,4.484929E-1,-2.90717E-1,-1.509E-2,5.0769E-2,2.1718596E-3,2.0505E-2,1.23915166E-1,1.3146888E-1,-1.319E-2,2.812359E-1,3.787386E-1,1.511425E-2,4.4071397E-1,4.4621E-2,7.4346703E-3,-7.42E-3,-2.4879575E-1,1.9784914E-1,2.4352793E-1,2.1718596E-3,1.5753517E-2,-1.862E-2,-2.7382526E-1,-1.9611906E-1,1.622017E-2,-7.9916246E-2,-1.808E-2,3.4784E-2,8.539E-3,-1.392E-2,7.593333E-1,4.1021E-2,3.6836573E-1,-1.3995362E-3,-1.02E-2,6.6039614E-2,8.801E-3,1.0496139E-3,-1.655E-2,7.4346703E-3,-9.4E-5,2.7005386E-2,-3.3028144E-2,1.33718485E-2,-4.4335937E-3,-1.098547E-1,1.1775208E-2,-3.6378574E-2,8.789887E-3,-4.8896195E-3,-7.566402E-2,-7.372795E-2,-3.0781936E-3,-5.3071328E-2,-4.6001557E-2,-1.5167961E-2,-9.137573E-3,1.3134422E-2,-2.5632477E-3,-5.0279368E-2,8.863868E-3,-2.2531204E-2,5.1909448E-3,-2.9152106E-2,-1.460041E-2,6.90361E-3,-3.375038E-2,-4.0550385E-2,1.553997E-2,-4.4662435E-2,-1.2296371E-2,1.417847E-2,2.3677445E-3,-3.4899443E-2],"split_indices":[22,8,16,0,9,17,15,0,7,5,27,6,13,0,0,10,0,11,19,4,20,13,11,0,12,0,6,9,6,3,0,6,12,6,7,15,0,0,0,0,7,16,14,0,0,7,9,7,7,21,12,1,0,7,0,10,0,7,6,9,0,0,0,0,0,0,0,0,0,0,0,0,0,0,0,0,0,0,0,0,0,0,0,0,0,0,0,0,0,0,0,0,0],"split_type":[0,0,0,0,0,0,0,0,0,0,0,0,0,0,0,0,0,0,0,0,0,0,0,0,0,0,0,0,0,0,0,0,0,0,0,0,0,0,0,0,0,0,0,0,0,0,0,0,0,0,0,0,0,0,0,0,0,0,0,0,0,0,0,0,0,0,0,0,0,0,0,0,0,0,0,0,0,0,0,0,0,0,0,0,0,0,0,0,0,0,0,0,0],"sum_hessian":[1.467E3,2.92E2,1.175E3,1E0,2.91E2,8.3E2,3.45E2,2.89E2,2E0,4.4E1,7.86E2,2.13E2,1.32E2,1E0,1E0,1.7E1,2.7E1,5.86E2,2E2,7.2E1,1.41E2,3.8E1,9.4E1,1E1,7E0,7E0,5.79E2,2.3E1,1.77E2,7E1,2E0,8.8E1,5.3E1,2E1,1.8E1,8.7E1,7E0,5E0,2E0,1E0,6E0,1.48E2,4.31E2,1E0,2.2E1,1.8E1,1.59E2,6.7E1,3E0,7.1E1,1.7E1,5.2E1,1E0,1.4E1,6E0,1.7E1,1E0,1.6E1,7.1E1,5E0,2E0,4E0,1E0,2E0,4E0,7.9E1,6.9E1,3.51E2,8E1,4E0,1.4E1,1.53E2,6E0,6.4E1,3E0,1E0,2E0,1E1,6.1E1,1.4E1,3E0,3.4E1,1.8E1,1.1E1,3E0,7E0,1E1,1E1,6E0,6E0,6.5E1,1E0,4E0],"tree_param":{"num_deleted":"0","num_feature":"28","num_nodes":"93","size_leaf_vector":"1"}},{"base_weights":[1.14100814E-1,-4.8122868E-1,2.6232994E-1,1E-2,-4.8458904E-1,5.485232E-2,3.143617E-1,-4.8793104E-1,-0E0,3.4166667E-1,-4.2134833E-2,1.0123967E-1,3.876967E-1,-1.9781021E-2,-3.529412E-1,1E-2,-1E-2,4.181818E-1,-1.6666666E-2,-9.5679015E-2,1.8823529E-2,4.6875E-1,1.0256411E-2,4.3930635E-1,2.3756906E-1,1E-2,-4.0625E-1,1.1111111E-1,4.680851E-1,-3.5135135E-1,-1.984127E-2,1.9574467E-2,-1E-2,1.8981482E-1,-2.1022727E-1,4.6275395E-1,2.987013E-1,-2.2857143E-1,3.469388E-1,-1.25E-1,-1.8461538E-2,1.5E-2,-8.3333336E-2,-0E0,1.9555556E-2,-3.75E-1,1E-2,8.791209E-2,-2.9166666E-1,2.631579E-1,-3.2142857E-1,-3.0405405E-1,2.6666668E-1,4.868421E-1,3.7745097E-1,5.263158E-2,3.7288135E-1,-3.448276E-1,2.857143E-1,-3.5E-1,3.9492753E-1,1E-2,-1.3333334E-2,-1.5E-2,1.3333334E-2,1E-2,-1E-2,1E-2,-1.6E-2,-1.0526316E-2,7.123288E-3,-1.4193548E-2,3.3333334E-3,5.090909E-3,1.7560976E-2,1E-2,-1.5384615E-2,-1.30555555E-2,1.3333334E-2,3.3333334E-3,1.39999995E-2,1.9583333E-2,1.1428571E-2,1.6082473E-2,-3.3333334E-3,1.7142856E-2,-6.153846E-3,1.7674418E-2,7.0588235E-3,-3.6363637E-3,-1.8947368E-2,-1E-2,1.6666666E-2,-1.75E-2,-0E0,1.1290322E-2,1.9220779E-2],"categories":[],"categories_nodes":[],"categories_segments":[],"categories_sizes":[],"default_left":[0,0,0,0,0,0,0,0,0,0,0,0,0,0,0,0,0,0,0,0,0,0,0,0,0,0,0,0,0,0,0,0,0,0,0,0,0,0,0,0,0,0,0,0,0,0,0,0,0,0,0,0,0,0,0,0,0,0,0,0,0,0,0,0,0,0,0,0,0,0,0,0,0,0,0,0,0,0,0,0,0,0,0,0,0,0,0,0,0,0,0,0,0,0,0,0,0],"id":7,"left_children":[1,3,5,-1,7,9,11,13,15,17,19,21,23,-1,25,-1,-1,27,-1,29,-1,31,33,35,37,-1,39,41,43,45,47,-1,-1,49,51,53,55,57,59,61,-1,-1,63,65,-1,67,-1,69,71,73,75,77,79,81,83,85,87,89,91,93,95,-1,-1,-1,-1,-1,-1,-1,-1,-1,-1,-1,-1,-1,-1,-1,-1,-1,-1,-1,-1,-1,-1,-1,-1,-1,-1,-1,-1,-1,-1,-1,-1,-1,-1,-1,-1],"loss_changes":[1.2967014E2,8.411102E-1,1.2678177E1,0E0,4.7289276E-1,6.6070976E0,1.4652298E1,8.3610535E-2,2.5E-1,3.6556826E0,4.9317193E0,8.087015E0,5.311508E0,0E0,6.479778E-1,0E0,0E0,7.9080105E-1,0E0,3.1341457E0,0E0,8.334446E-1,7.759895E0,1.5728455E0,9.30698E0,0E0,1.9110584E-1,4.9305558E-1,4.576826E-1,6.1993265E-1,3.7161934E0,0E0,0E0,4.1341724E0,4.018678E0,7.265091E-1,1.3858914E0,2.191133E0,5.0546722E0,3.9583334E-1,0E0,0E0,8.541667E-1,2.5E-1,0E0,6.624999E-1,0E0,2.9275613E0,8.8239264E-1,2.2144008E0,6.0164833E-1,1.1622562E0,1.9999993E-1,4.8675537E-2,1.1902161E0,1.540775E0,7.213707E-1,9.0579104E-1,5.9523803E-1,3.0624998E-1,1.1951866E0,0E0,0E0,0E0,0E0,0E0,0E0,0E0,0E0,0E0,0E0,0E0,0E0,0E0,0E0,0E0,0E0,0E0,0E0,0E0,0E0,0E0,0E0,0E0,0E0,0E0,0E0,0E0,0E0,0E0,0E0,0E0,0E0,0E0,0E0,0E0,0E0],"parents":[2147483647,0,0,1,1,2,2,4,4,5,5,6,6,7,7,8,8,9,9,10,10,11,11,12,12,14,14,17,17,19,19,21,21,22,22,23,23,24,24,26,26,27,27,28,28,29,29,30,30,33,33,34,34,35,35,36,36,37,37,38,38,39,39,42,42,43,43,45,45,47,47,48,48,49,49,50,50,51,51,52,52,53,53,54,54,55,55,56,56,57,57,58,58,59,59,60,60],"right_children":[2,4,6,-1,8,10,12,14,16,18,20,22,24,-1,26,-1,-1,28,-1,30,-1,32,34,36,38,-1,40,42,44,46,48,-1,-1,50,52,54,56,58,60,62,-1,-1,64,66,-1,68,-1,70,72,74,76,78,80,82,84,86,88,90,92,94,96,-1,-1,-1,-1,-1,-1,-1,-1,-1,-1,-1,-1,-1,-1,-1,-1,-1,-1,-1,-1,-1,-1,-1,-1,-1,-1,-1,-1,-1,-1,-1,-1,-1,-1,-1,-1],"split_conditions":[3.7396774E0,-1.646E-2,-3.0289528E-1,2.7999879E-4,5.4647E-2,3.5693836E-1,1.0083053E-1,6.801E-3,-1.469E-2,3.964907E-1,-8.683251E-2,-3.011789E-1,7.1719356E0,-7.451999E-2,2.6467743E0,1.8799972E-3,-3.371998E-2,3.7993E-2,-6.436386E-2,2.7005076E-1,5.7770576E-2,4.868E-2,2.6614237E-1,4.46724E-1,-3.2489657E-1,7.68013E-4,-9.45E-3,3.6396253E-1,-2.052E-2,3.4241286E-1,4.1856313E-1,5.3444803E-2,-4.542717E-2,-1.5802883E-1,-1.79E-3,-1.9854054E-1,6.69E-4,2.883919E-1,3.482803E-1,1.503955E-1,-7.584E-2,7.380478E-2,2.519E-2,-2.361E-2,3.9647672E-2,-1.319E-2,8.5404776E-2,3.730565E-1,4.3036E-2,2.3836343E-1,1.067E-3,4.439768E-1,1.7803386E-1,5.631E-2,4.0967178E-1,9.468E-3,3.3332E-2,4.1036114E-1,-1.862E-2,-1.204E-2,4.059804E-1,2.3040008E-3,-6.7775995E-2,-4.083214E-3,2.3667697E-2,4.142658E-2,-6.5711974E-3,1.622017E-2,-1.673231E-2,-1.8000945E-2,7.3512266E-3,-2.3560906E-2,1.7545318E-2,7.125282E-3,5.4300822E-2,1.032196E-2,-8.847332E-3,-1.6604766E-2,8.224964E-3,1.952362E-4,1.9514237E-2,5.444481E-2,5.457279E-2,4.279503E-2,-4.4169617E-3,6.6863686E-2,-8.156318E-3,3.853567E-2,1.13356775E-2,-9.527798E-3,-3.1949405E-2,-8.186874E-3,3.0208664E-2,-3.226944E-2,-2.5600318E-2,2.0300789E-2,5.524479E-2],"split_indices":[22,8,15,0,9,3,6,7,7,2,20,16,27,0,22,0,0,11,0,6,0,13,1,5,20,0,8,1,7,2,6,0,0,17,7,14,13,1,6,3,0,0,10,7,0,9,0,3,12,3,10,5,0,13,3,8,9,4,7,7,5,0,0,0,0,0,0,0,0,0,0,0,0,0,0,0,0,0,0,0,0,0,0,0,0,0,0,0,0,0,0,0,0,0,0,0,0],"split_type":[0,0,0,0,0,0,0,0,0,0,0,0,0,0,0,0,0,0,0,0,0,0,0,0,0,0,0,0,0,0,0,0,0,0,0,0,0,0,0,0,0,0,0,0,0,0,0,0,0,0,0,0,0,0,0,0,0,0,0,0,0,0,0,0,0,0,0,0,0,0,0,0,0,0,0,0,0,0,0,0,0,0,0,0,0,0,0,0,0,0,0,0,0,0,0,0,0],"sum_hessian":[1.467E3,2.92E2,1.175E3,1E0,2.91E2,2.36E2,9.39E2,2.89E2,2E0,5.9E1,1.77E2,2.41E2,6.98E2,2.73E2,1.6E1,1E0,1E0,5.4E1,5E0,1.61E2,1.6E1,4.7E1,1.94E2,5.18E2,1.8E2,1E0,1.5E1,8E0,4.6E1,3.6E1,1.25E2,4.6E1,1E0,1.07E2,8.7E1,4.42E2,7.6E1,3.4E1,1.46E2,3E0,1.2E1,3E0,5E0,2E0,4.4E1,3.5E1,1E0,9E1,3.5E1,9.4E1,1.3E1,7.3E1,1.4E1,3.41E2,1.01E2,1.8E1,5.8E1,2.8E1,6E0,9E0,1.37E2,1E0,2E0,3E0,2E0,1E0,1E0,1E0,3.4E1,1.8E1,7.2E1,3E1,5E0,5.4E1,4E1,1E0,1.2E1,7.1E1,2E0,5E0,9E0,3.35E2,6E0,9.6E1,5E0,6E0,1.2E1,4.2E1,1.6E1,1E1,1.8E1,1E0,5E0,7E0,2E0,6.1E1,7.6E1],"tree_param":{"num_deleted":"0","num_feature":"28","num_nodes":"97","size_leaf_vector":"1"}},{"base_weights":[5.440395E-1,-4.3003425E-2,6.898384E-1,-4.62094E-2,1.1764695E-2,7.7458066E-1,5.2475125E-1,-1.991736E-3,-2.0833345E-2,2.1249999E-1,-1.8571432E-3,4.6464285E-1,8.41588E-1,3.5283017E-1,6.3463116E-1,1.2499999E-1,-1.9354842E-3,1.9E-2,-1.3333337E-3,6.7471266E-1,1.1759258E-1,-1.714286E-3,8.5007936E-1,5.482758E-1,1.1506848E-1,4.2499998E-1,7.287425E-1,2.9999998E-1,-1.5000004E-3,3.4464285E-1,8.175E-1,1.931817E-2,5E-1,6.6479594E-1,8.825516E-1,4.283582E-1,3.6190476E-2,-4.444456E-3,2.965517E-1,2.612069E-1,3.4285713E-2,5.113636E-1,8.622549E-1,1.9E-2,-1.0000002E-3,3.1666663E-2,2.1304347E-1,8.7403846E-1,3.9999998E-1,-1.9230774E-3,1.105263E-1,-1.0000002E-3,5.55E-1,8.2569444E-1,2.111111E-1,8.843045E-1,-1.0000002E-3,5.1960784E-1,1.2941176E-1,1.6E-1,-2.4390256E-2,1.7954545E-1,5.8125E-1,1.3469386E-1,3.42E-2,2.3749998E-1,6.948718E-1,3.519192E-2,2.1249999E-1,1.2307687E-3,1.6363636E-2,1.4399999E-2,3.6375E-2,4.9999994E-3,2.8499998E-2,9.090909E-3,-1.7777783E-3,-1.0000002E-3,2.4888886E-2,-1.0000002E-3,3.3521123E-2,1.5625E-2,-1.8333338E-3,3.5503786E-2,1.4399999E-2,1.55625E-2,2.8099999E-2,1.8499998E-2,9.999996E-4,1.9E-2,-1.5000004E-3,3.2499996E-3,-1.941177E-3,4.0999996E-3,2.5333332E-2,2.6857141E-2,-1.0000002E-3,1.142857E-2,8.2758575E-4,2.555555E-3,2E-2,3.0057142E-2,6.4E-3,-1.3333337E-3,1.9E-2],"categories":[],"categories_nodes":[],"categories_segments":[],"categories_sizes":[],"default_left":[0,0,0,0,0,0,0,0,0,0,0,0,0,0,0,0,0,0,0,0,0,0,0,0,0,0,0,0,0,0,0,0,0,0,0,0,0,0,0,0,0,0,0,0,0,0,0,0,0,0,0,0,0,0,0,0,0,0,0,0,0,0,0,0,0,0,0,0,0,0,0,0,0,0,0,0,0,0,0,0,0,0,0,0,0,0,0,0,0,0,0,0,0,0,0,0,0,0,0,0,0,0,0,0,0],"id":8,"left_children":[1,3,5,7,9,11,13,-1,15,17,-1,19,21,23,25,27,-1,-1,-1,29,31,-1,33,35,37,39,41,43,-1,45,47,49,51,53,55,57,-1,59,61,63,-1,65,67,-1,-1,-1,69,71,73,-1,75,-1,77,79,81,83,-1,85,87,89,91,93,95,97,-1,99,101,-1,103,-1,-1,-1,-1,-1,-1,-1,-1,-1,-1,-1,-1,-1,-1,-1,-1,-1,-1,-1,-1,-1,-1,-1,-1,-1,-1,-1,-1,-1,-1,-1,-1,-1,-1,-1,-1],"loss_changes":[1.2567612E2,5.199009E-2,1.6045654E1,2.41552E-2,2.0845065E-1,1.5704224E1,7.370125E0,0E0,1.5070565E-1,2.7395833E-1,0E0,1.0127327E1,4.8128357E0,7.3255596E0,4.5040894E0,1.8187499E-1,0E0,0E0,0E0,3.8185425E0,2.0197072E0,0E0,3.2037354E0,3.3316002E0,1.5846581E0,5.2971067E0,4.4058685E0,1.825E-1,0E0,1.4785264E0,1.0666695E0,2.7578098E-1,3.3150005E-1,6.979416E0,8.7005615E-1,1.7604332E0,0E0,1.5150136E-1,8.616724E-1,4.241946E0,0E0,3.1518764E0,9.7571564E-1,0E0,0E0,0E0,8.093035E-1,6.1717224E-1,6.843749E-1,0E0,3.5385436E-1,0E0,4.0544462E-1,7.763901E-1,1.263281E0,5.9817505E-1,0E0,9.443464E-1,5.796691E-1,3.28875E-1,1.0849579E-1,7.042538E-1,4.5415187E-1,8.377198E-1,0E0,1.2440971E0,1.0595474E0,0E0,2.7395833E-1,0E0,0E0,0E0,0E0,0E0,0E0,0E0,0E0,0E0,0E0,0E0,0E0,0E0,0E0,0E0,0E0,0E0,0E0,0E0,0E0,0E0,0E0,0E0,0E0,0E0,0E0,0E0,0E0,0E0,0E0,0E0,0E0,0E0,0E0,0E0,0E0],"parents":[2147483647,0,0,1,1,2,2,3,3,4,4,5,5,6,6,8,8,9,9,11,11,12,12,13,13,14,14,15,15,19,19,20,20,22,22,23,23,24,24,25,25,26,26,27,27,29,29,30,30,31,31,32,32,33,33,34,34,35,35,37,37,38,38,39,39,41,41,42,42,46,46,47,47,48,48,50,50,52,52,53,53,54,54,55,55,57,57,58,58,59,59,60,60,61,61,62,62,63,63,65,65,66,66,68,68],"right_children":[2,4,6,8,10,12,14,-1,16,18,-1,20,22,24,26,28,-1,-1,-1,30,32,-1,34,36,38,40,42,44,-1,46,48,50,52,54,56,58,-1,60,62,64,-1,66,68,-1,-1,-1,70,72,74,-1,76,-1,78,80,82,84,-1,86,88,90,92,94,96,98,-1,100,102,-1,104,-1,-1,-1,-1,-1,-1,-1,-1,-1,-1,-1,-1,-1,-1,-1,-1,-1,-1,-1,-1,-1,-1,-1,-1,-1,-1,-1,-1,-1,-1,-1,-1,-1,-1,-1,-1],"split_conditions":[3.7396774E0,6.801E-3,-2.1461171E-1,3.5093548E0,-9.45E-3,-3.0844483E-1,1.0083053E-1,-2.197552E-2,-2.3046575E-1,1.503955E-1,-1.4315032E-3,3.6431912E-1,1.3844E-2,2.6614237E-1,-3.181004E-1,2.547296E-1,-1.0395622E-2,1.04484556E-4,-4.136753E-2,3.1737262E-1,4.140645E0,-4.055023E-3,-3.6584365E-1,2.3836343E-1,-1.5105622E-1,4.4071397E-1,-3.0651063E-1,2.0204E-2,-4.0919036E-2,2.5517213E-1,4.701E-2,-3.1787333E-1,-1.167E-2,-2.8422195E-1,6.5923333E0,-3.5687628E-1,8.8665605E-2,-1.37E-2,1.8204E-2,-2.4879575E-1,8.883844E-2,-2.90717E-1,3.304642E-1,3.2071725E-2,-3.3546258E-2,8.582477E-2,2.5053E-2,-2.052E-2,2.5586E-2,-3.4152924E-3,2.756E-2,-3.120422E-5,-3.5E-4,2.831E-3,2.7698648E-1,5.6893E-2,-1.176952E-1,-1.528E-2,5.959E-3,2.06E-4,8.801E-3,8.539E-3,4.0657E-2,-1.32E-2,7.967281E-2,3.7331E-2,4.188E-2,8.56883E-2,-1.204E-2,1.8432236E-3,2.6173476E-2,3.8173597E-2,7.668238E-2,1.10746E-2,7.468879E-2,1.622017E-2,-5.982704E-3,-1.7855186E-2,5.35688E-2,-4.6066665E-3,7.6937504E-2,3.8592756E-2,-2.2066496E-3,7.991119E-2,1.9553298E-2,2.1552421E-2,8.174568E-2,3.7345696E-2,8.847389E-3,9.584656E-3,-5.1609417E-3,1.4745636E-2,-1.1059189E-3,1.5114249E-2,9.584656E-3,2.8016623E-2,-6.2668608E-3,4.1673582E-2,2.2891317E-2,3.3454057E-2,2.7054062E-2,4.4901516E-2,1.3909302E-2,-7.103195E-3,9.608078E-4],"split_indices":[22,7,16,22,8,15,6,0,17,3,0,5,11,1,20,3,0,0,0,5,22,0,19,3,16,6,15,9,0,0,10,15,8,16,23,18,0,13,9,15,0,20,1,0,0,0,10,7,9,0,10,0,9,10,1,10,0,7,10,9,10,7,9,7,0,10,12,0,7,0,0,0,0,0,0,0,0,0,0,0,0,0,0,0,0,0,0,0,0,0,0,0,0,0,0,0,0,0,0,0,0,0,0,0,0],"split_type":[0,0,0,0,0,0,0,0,0,0,0,0,0,0,0,0,0,0,0,0,0,0,0,0,0,0,0,0,0,0,0,0,0,0,0,0,0,0,0,0,0,0,0,0,0,0,0,0,0,0,0,0,0,0,0,0,0,0,0,0,0,0,0,0,0,0,0,0,0,0,0,0,0,0,0,0,0,0,0,0,0,0,0,0,0,0,0,0,0,0,0,0,0,0,0,0,0,0,0,0,0,0,0,0,0],"sum_hessian":[1.467E3,2.92E2,1.175E3,2.76E2,1.6E1,7.74E2,4.01E2,2.41E2,3.5E1,3E0,1.3E1,1.39E2,6.35E2,1.58E2,2.43E2,5E0,3E1,1E0,2E0,8.6E1,5.3E1,6E0,6.29E2,8.6E1,7.2E1,7.7E1,1.66E2,2E0,3E0,2.7E1,5.9E1,4.3E1,1E1,9.7E1,5.32E2,6.6E1,2E1,4.4E1,2.8E1,5.7E1,2E1,6.5E1,1.01E2,1E0,1E0,5E0,2.2E1,5.1E1,8E0,2.5E1,1.8E1,1E0,9E0,7.1E1,2.6E1,5.31E2,1E0,5E1,1.6E1,4E0,4E1,2.1E1,7E0,4.8E1,9E0,2.7E1,3.8E1,9.8E1,3E0,1.2E1,1E1,4E0,4.7E1,5E0,3E0,1E1,8E0,1E0,8E0,1E0,7E1,1.5E1,1.1E1,5.27E2,4E0,3.1E1,1.9E1,3E0,1.3E1,1E0,3E0,7E0,3.3E1,1.9E1,2E0,6E0,1E0,2E1,2.8E1,1.7E1,1E1,3.4E1,4E0,2E0,1E0],"tree_param":{"num_deleted":"0","num_feature":"28","num_nodes":"105","size_leaf_vector":"1"}},{"base_weights":[-3.063011E-1,-9.194539E-1,-1.532738E-1,1E-3,-9.2277396E-1,-3.4261602E-1,-1.0537234E-1,-3.7041377E-2,-2.9999998E-1,-8.416666E-2,-4.2780897E-1,-2.7857142E-2,-2.6205787E-1,1E-3,-1.9E-2,-5.454544E-3,-3.1666663E-2,-4.75E-1,1.882353E-3,-4.1538462E-1,-1.9660193E-2,-4.1085526E-1,-1.190625E-1,-1.7777777E-1,2.7659575E-2,-6.4920634E-1,-3.605E-1,-8.125E-2,-3.1666663E-2,-3.159091E-1,-8.710217E-3,-6.6287875E-1,-2.1494253E-1,-2.641791E-1,-1.4361701E-2,-3.5999998E-1,1.6E-3,-2.9999998E-1,1.9555555E-3,-8.75E-1,-4.7763157E-1,-1.3295454E-1,-5.2982455E-1,1.7142857E-3,-1.9E-2,1.8461539E-3,-7.55E-1,1.1663481E-2,-1.5066667E-1,-6.851562E-1,1.3333333E-3,-4.2738095E-1,-1.6304346E-2,-1.4054054E-1,-4.032258E-1,2.6162792E-2,-4E-1,-2.5333332E-2,1.3333333E-3,1E-3,-1.9E-2,1E-3,-3.648E-2,-5E-3,-2.1090908E-2,-3.9024388E-3,-1.85E-2,-5.6249998E-3,-2.6619047E-2,-1.1999999E-2,-3.325E-2,6.088632E-4,-1.4399999E-2,-3.2571428E-2,-3.2463768E-3,-2.930909E-2,-1.4199999E-2,-6.1E-3,-2.5913043E-2,1.0232559E-3,-1.85E-2,-3.2258062E-3,-1.5428571E-2,-8.631579E-3,-2.5846153E-2,1.4878049E-3,-6.4E-3,1.5E-3,-2.4999999E-2],"categories":[],"categories_nodes":[],"categories_segments":[],"categories_sizes":[],"default_left":[0,0,0,0,0,0,0,0,0,0,0,0,0,0,0,0,0,0,0,0,0,0,0,0,0,0,0,0,0,0,0,0,0,0,0,0,0,0,0,0,0,0,0,0,0,0,0,0,0,0,0,0,0,0,0,0,0,0,0,0,0,0,0,0,0,0,0,0,0,0,0,0,0,0,0,0,0,0,0,0,0,0,0,0,0,0,0,0,0],"id":9,"left_children":[1,3,5,-1,7,9,11,-1,13,15,17,19,21,-1,-1,23,-1,25,-1,27,29,31,33,35,37,39,41,43,-1,45,47,49,51,53,55,57,-1,59,-1,61,63,65,67,-1,-1,-1,69,71,73,75,-1,77,79,81,83,85,87,-1,-1,-1,-1,-1,-1,-1,-1,-1,-1,-1,-1,-1,-1,-1,-1,-1,-1,-1,-1,-1,-1,-1,-1,-1,-1,-1,-1,-1,-1,-1,-1],"loss_changes":[1.3760022E2,9.41803E-1,1.06299515E1,0E0,3.151245E-1,5.182272E0,1.1409481E1,0E0,1.8249997E-1,3.3370113E0,4.011242E0,1.9930553E0,6.5683346E0,0E0,0E0,3.1876555E-1,0E0,2.9973145E0,0E0,1.5701525E0,2.0019898E0,7.362459E0,2.4272172E0,3.7155557E-1,3.4159812E-1,2.022726E0,3.7824621E0,4.1129464E-1,0E0,3.532374E0,1.7283874E0,1.0464897E0,3.664291E0,1.0951638E0,1.479478E0,5.586666E-1,0E0,1.8249997E-1,0E0,8.885975E-1,5.9928226E-1,4.680848E-1,2.915762E0,0E0,0E0,0E0,9.756279E-2,6.971032E-1,3.3933878E0,7.4505615E-1,0E0,2.4462461E0,8.7153625E-1,5.1223075E-1,1.2721062E0,1.8257883E-1,9.0937495E-1,0E0,0E0,0E0,0E0,0E0,0E0,0E0,0E0,0E0,0E0,0E0,0E0,0E0,0E0,0E0,0E0,0E0,0E0,0E0,0E0,0E0,0E0,0E0,0E0,0E0,0E0,0E0,0E0,0E0,0E0,0E0,0E0],"parents":[2147483647,0,0,1,1,2,2,4,4,5,5,6,6,8,8,9,9,10,10,11,11,12,12,15,15,17,17,19,19,20,20,21,21,22,22,23,23,24,24,25,25,26,26,27,27,29,29,30,30,31,31,32,32,33,33,34,34,35,35,37,37,39,39,40,40,41,41,42,42,46,46,47,47,48,48,49,49,51,51,52,52,53,53,54,54,55,55,56,56],"right_children":[2,4,6,-1,8,10,12,-1,14,16,18,20,22,-1,-1,24,-1,26,-1,28,30,32,34,36,38,40,42,44,-1,46,48,50,52,54,56,58,-1,60,-1,62,64,66,68,-1,-1,-1,70,72,74,76,-1,78,80,82,84,86,88,-1,-1,-1,-1,-1,-1,-1,-1,-1,-1,-1,-1,-1,-1,-1,-1,-1,-1,-1,-1,-1,-1,-1,-1,-1,-1,-1,-1,-1,-1,-1,-1],"split_conditions":[3.7396774E0,-1.646E-2,-3.0289528E-1,2.4700165E-4,5.4647E-2,3.5693836E-1,-2.1666275E-1,-1.3891459E-1,-1.469E-2,3.964907E-1,-8.683251E-2,-3.864832E-1,-2.5273386E-1,1.7215728E-3,-3.108734E-2,3.7993E-2,-7.077885E-2,2.1748713E-1,2.9020233E-2,4.0129104E-1,3.3593518E-1,1.0083053E-1,5.379548E-2,2.1734E-2,-2.052E-2,1.653E-2,3.7410077E-1,4.8469E-2,-6.4500086E-2,2.2272016E-1,4.46724E-1,4.484929E-1,2.8499225E-1,7.266E-3,4.074539E-1,-8.89E-3,5.8803556E-4,-2.361E-2,1.1867609E-2,-1.319E-2,1.9784914E-1,3.9010125E-1,-3.314357E-1,1.1997642E-2,-6.946373E-3,1.3994064E-2,-1.48E-2,5.6893E-2,2.847147E-1,1.8489E-2,1.45096965E-2,1.8976554E-1,3.304642E-1,-4.32E-3,2.006106E-1,5.0769E-2,1.894926E-1,-1.275238E-2,3.3327635E-2,4.331165E-2,-3.5363769E-3,1.5571365E-2,-7.057031E-2,-3.8908157E-2,-4.878818E-2,-2.7246028E-2,-3.1685982E-2,-3.0800132E-2,-5.357264E-2,-4.2562485E-3,-1.0546051E-1,3.2347813E-3,-2.7059172E-3,-7.695961E-2,-2.2229109E-2,-4.5161504E-2,-3.8961522E-2,-4.040592E-2,-4.68225E-2,3.832943E-3,-1.2931442E-3,-1.3595085E-2,-1.1804504E-2,-3.240036E-2,-3.8928375E-2,9.291321E-3,-1.6671752E-3,8.68158E-2,-3.3503454E-2],"split_indices":[22,8,15,0,9,3,16,0,7,2,20,17,15,0,0,11,0,0,0,5,4,6,6,13,7,13,1,10,0,1,5,4,1,10,6,7,0,7,0,9,0,2,15,0,0,0,13,10,2,9,0,0,1,13,3,11,0,0,0,0,0,0,0,0,0,0,0,0,0,0,0,0,0,0,0,0,0,0,0,0,0,0,0,0,0,0,0,0,0],"split_type":[0,0,0,0,0,0,0,0,0,0,0,0,0,0,0,0,0,0,0,0,0,0,0,0,0,0,0,0,0,0,0,0,0,0,0,0,0,0,0,0,0,0,0,0,0,0,0,0,0,0,0,0,0,0,0,0,0,0,0,0,0,0,0,0,0,0,0,0,0,0,0,0,0,0,0,0,0,0,0,0,0,0,0,0,0,0,0,0,0],"sum_hessian":[1.467E3,2.92E2,1.175E3,1E0,2.91E2,2.36E2,9.39E2,2.89E2,2E0,5.9E1,1.77E2,6.29E2,3.1E2,1E0,1E0,5.4E1,5E0,1.61E2,1.6E1,1.2E1,6.17E2,1.51E2,1.59E2,8E0,4.6E1,6.2E1,9.9E1,7E0,5E0,2.1E1,5.96E2,6.5E1,8.6E1,6.6E1,9.3E1,4E0,4E0,2E0,4.4E1,2.5E1,3.7E1,4.3E1,5.6E1,6E0,1E0,1.2E1,9E0,5.22E2,7.4E1,6.3E1,2E0,4.1E1,4.5E1,3.6E1,3E1,8.5E1,8E0,2E0,2E0,1E0,1E0,1E0,2.4E1,5E0,3.2E1,4E1,3E0,1.5E1,4.1E1,2E0,7E0,5.18E2,4E0,6E0,6.8E1,5.4E1,9E0,1.9E1,2.2E1,4.2E1,3E0,3E1,6E0,1.8E1,1.2E1,8.1E1,4E0,3E0,5E0],"tree_param":{"num_deleted":"0","num_feature":"28","num_nodes":"89","size_leaf_vector":"1"}},{"base_weights":[1.14100814E-1,-4.8122868E-1,2.6232994E-1,1E-2,-4.8458904E-1,5.907173E-2,3.1329787E-1,-4.8793104E-1,-0E0,3.4166667E-1,-3.6516853E-2,1.0123967E-1,3.8626608E-1,-1.9781021E-2,-3.529412E-1,1E-2,-1E-2,4.181818E-1,-1.6666666E-2,-8.950617E-2,1.8823529E-2,4.6875E-1,1.0256411E-2,4.3737957E-1,2.3756906E-1,1E-2,-4.0625E-1,1.1111111E-1,4.680851E-1,-2.9347825E-1,-8.547009E-3,1.9574467E-2,-1E-2,1.8981482E-1,-2.1022727E-1,4.582393E-1,3.116883E-1,-2E-1,3.4013605E-1,-1.25E-1,-1.8461538E-2,1.5E-2,-8.3333336E-2,-0E0,1.9555556E-2,1.3333334E-2,-3.2954547E-1,-2.0408164E-1,1.3043478E-1,2.631579E-1,-3.2142857E-1,-3.0405405E-1,2.6666668E-1,4.8099416E-1,3.7745097E-1,1.0526316E-1,3.7288135E-1,1.0714286E-1,-3.8636363E-1,-3.5E-1,3.8768116E-1,1E-2,-1.3333334E-2,-1.5E-2,1.3333334E-2,1E-2,-1E-2,1E-2,-1.3953487E-2,-1.2682926E-2,1.3333334E-2,8.518519E-3,-6.2499996E-3,5.090909E-3,1.7560976E-2,1E-2,-1.5384615E-2,-1.30555555E-2,1.3333334E-2,3.3333334E-3,1.39999995E-2,1.9345237E-2,1.1428571E-2,1.6082473E-2,-3.3333334E-3,1.7142856E-2,-3.076923E-3,1.7674418E-2,7.0588235E-3,-1.5E-2,1.0909091E-2,-1.7142856E-2,1E-2,-1.75E-2,-0E0,1.9666666E-2,1.2151898E-2],"categories":[],"categories_nodes":[],"categories_segments":[],"categories_sizes":[],"default_left":[0,0,0,0,0,0,0,0,0,0,0,0,0,0,0,0,0,0,0,0,0,0,0,0,0,0,0,0,0,0,0,0,0,0,0,0,0,0,0,0,0,0,0,0,0,0,0,0,0,0,0,0,0,0,0,0,0,0,0,0,0,0,0,0,0,0,0,0,0,0,0,0,0,0,0,0,0,0,0,0,0,0,0,0,0,0,0,0,0,0,0,0,0,0,0,0,0],"id":10,"left_children":[1,3,5,-1,7,9,11,13,15,17,19,21,23,-1,25,-1,-1,27,-1,29,-1,31,33,35,37,-1,39,41,43,45,47,-1,-1,49,51,53,55,57,59,61,-1,-1,63,65,-1,-1,67,69,71,73,75,77,79,81,83,85,87,89,91,93,95,-1,-1,-1,-1,-1,-1,-1,-1,-1,-1,-1,-1,-1,-1,-1,-1,-1,-1,-1,-1,-1,-1,-1,-1,-1,-1,-1,-1,-1,-1,-1,-1,-1,-1,-1,-1],"loss_changes":[1.2967014E2,8.411102E-1,1.2164436E1,0E0,4.7289276E-1,6.414522E0,1.4505997E1,8.3610535E-2,2.5E-1,3.6556826E0,4.825186E0,8.087015E0,5.208786E0,0E0,6.479778E-1,0E0,0E0,7.9080105E-1,0E0,2.6726642E0,0E0,8.334446E-1,7.759895E0,1.2179337E0,8.191334E0,0E0,1.9110584E-1,4.9305558E-1,4.576826E-1,1.149786E0,3.2061822E0,0E0,0E0,4.1341724E0,4.018678E0,6.328201E-1,9.333973E-1,2.0448055E0,4.959139E0,3.9583334E-1,0E0,0E0,8.541667E-1,2.5E-1,0E0,0E0,5.7914925E-1,3.0811348E0,1.665786E0,2.2144008E0,6.0164833E-1,1.1622562E0,1.9999993E-1,3.791809E-2,1.1902161E0,1.152111E0,7.213707E-1,1.2199675E0,6.980519E-1,3.0624998E-1,1.0543633E0,0E0,0E0,0E0,0E0,0E0,0E0,0E0,0E0,0E0,0E0,0E0,0E0,0E0,0E0,0E0,0E0,0E0,0E0,0E0,0E0,0E0,0E0,0E0,0E0,0E0,0E0,0E0,0E0,0E0,0E0,0E0,0E0,0E0,0E0,0E0,0E0],"parents":[2147483647,0,0,1,1,2,2,4,4,5,5,6,6,7,7,8,8,9,9,10,10,11,11,12,12,14,14,17,17,19,19,21,21,22,22,23,23,24,24,26,26,27,27,28,28,29,29,30,30,33,33,34,34,35,35,36,36,37,37,38,38,39,39,42,42,43,43,46,46,47,47,48,48,49,49,50,50,51,51,52,52,53,53,54,54,55,55,56,56,57,57,58,58,59,59,60,60],"right_children":[2,4,6,-1,8,10,12,14,16,18,20,22,24,-1,26,-1,-1,28,-1,30,-1,32,34,36,38,-1,40,42,44,46,48,-1,-1,50,52,54,56,58,60,62,-1,-1,64,66,-1,-1,68,70,72,74,76,78,80,82,84,86,88,90,92,94,96,-1,-1,-1,-1,-1,-1,-1,-1,-1,-1,-1,-1,-1,-1,-1,-1,-1,-1,-1,-1,-1,-1,-1,-1,-1,-1,-1,-1,-1,-1,-1,-1,-1,-1,-1,-1],"split_conditions":[3.7396774E0,-1.646E-2,-3.0289528E-1,2.6878357E-4,5.4647E-2,3.5693836E-1,1.0083053E-1,6.801E-3,-1.469E-2,3.964907E-1,-8.683251E-2,-3.011789E-1,7.1719356E0,-7.153919E-2,2.6467743E0,1.8048096E-3,-3.237118E-2,3.7993E-2,-6.178932E-2,-3.8271734E-1,5.5459745E-2,4.868E-2,2.6614237E-1,4.46724E-1,-3.2489657E-1,7.373047E-4,-9.45E-3,3.6396253E-1,-2.052E-2,1.7585787E-1,2.1346572E-1,5.1307008E-2,-4.3610077E-2,-1.5802883E-1,-1.79E-3,-1.9854054E-1,6.69E-4,3.3413E-2,3.482803E-1,1.503955E-1,-7.2806396E-2,7.0852585E-2,2.519E-2,-2.361E-2,3.8061753E-2,3.843357E-2,-2.302E-2,4.207904E-1,3.9010125E-1,2.3836343E-1,1.067E-3,4.439768E-1,1.7803386E-1,5.631E-2,4.0967178E-1,9.468E-3,3.3332E-2,2.603E-3,2.883919E-1,-1.204E-2,-2.3808761E-1,2.2118378E-3,-6.506496E-2,-3.9198683E-3,2.2721004E-2,3.9769515E-2,-6.3083647E-3,3.0981062E-3,-1.7053986E-2,-1.9076977E-2,1.0060063E-2,9.905014E-3,-1.6353225E-2,6.8402863E-3,5.2128773E-2,9.909095E-3,-8.493442E-3,-1.594059E-2,7.895985E-3,1.8741607E-4,1.8733673E-2,5.2266996E-2,5.2389868E-2,4.108322E-2,-4.2402647E-3,6.418913E-2,-7.830047E-3,3.6994226E-2,1.0882263E-2,-2.2873573E-2,6.8713757E-3,-2.7383441E-2,3.8616333E-2,-3.097866E-2,-2.45763E-2,5.7434995E-2,1.9688759E-2],"split_indices":[22,8,15,0,9,3,6,7,7,2,20,16,27,0,22,0,0,11,0,18,0,13,1,5,20,0,8,1,7,2,2,0,0,17,7,14,13,12,6,3,0,0,10,7,0,0,7,3,2,3,10,5,0,13,3,8,9,13,1,7,14,0,0,0,0,0,0,0,0,0,0,0,0,0,0,0,0,0,0,0,0,0,0,0,0,0,0,0,0,0,0,0,0,0,0,0,0],"split_type":[0,0,0,0,0,0,0,0,0,0,0,0,0,0,0,0,0,0,0,0,0,0,0,0,0,0,0,0,0,0,0,0,0,0,0,0,0,0,0,0,0,0,0,0,0,0,0,0,0,0,0,0,0,0,0,0,0,0,0,0,0,0,0,0,0,0,0,0,0,0,0,0,0,0,0,0,0,0,0,0,0,0,0,0,0,0,0,0,0,0,0,0,0,0,0,0,0],"sum_hessian":[1.467E3,2.92E2,1.175E3,1E0,2.91E2,2.36E2,9.39E2,2.89E2,2E0,5.9E1,1.77E2,2.41E2,6.98E2,2.73E2,1.6E1,1E0,1E0,5.4E1,5E0,1.61E2,1.6E1,4.7E1,1.94E2,5.18E2,1.8E2,1E0,1.5E1,8E0,4.6E1,4.5E1,1.16E2,4.6E1,1E0,1.07E2,8.7E1,4.42E2,7.6E1,3.4E1,1.46E2,3E0,1.2E1,3E0,5E0,2E0,4.4E1,2E0,4.3E1,4.8E1,6.8E1,9.4E1,1.3E1,7.3E1,1.4E1,3.41E2,1.01E2,1.8E1,5.8E1,1.3E1,2.1E1,9E0,1.37E2,1E0,2E0,3E0,2E0,1E0,1E0,1E0,4.2E1,4E1,8E0,5.3E1,1.5E1,5.4E1,4E1,1E0,1.2E1,7.1E1,2E0,5E0,9E0,3.35E2,6E0,9.6E1,5E0,6E0,1.2E1,4.2E1,1.6E1,3E0,1E1,2E1,1E0,7E0,2E0,5.9E1,7.8E1],"tree_param":{"num_deleted":"0","num_feature":"28","num_nodes":"97","size_leaf_vector":"1"}},{"base_weights":[5.317779E-1,-4.3003425E-2,6.745323E-1,-4.62094E-2,1.1764695E-2,4.3122363E-1,7.351596E-1,-1.991736E-3,-2.0833345E-2,2.1249999E-1,-1.8571432E-3,7.675E-1,3.1544942E-1,8.335433E-1,5.2859473E-1,1.2499999E-1,-1.9354842E-3,1.9E-2,-1.3333337E-3,8.4181815E-1,-1.6666669E-3,2.5277776E-1,3.5764705E-2,-1.714286E-3,8.419714E-1,2.8382352E-1,6.4780486E-1,2.9999998E-1,-1.5000004E-3,5.111111E-1,8.8723403E-1,5.97826E-2,3.264957E-1,6.6479594E-1,8.730263E-1,4.6810344E-1,3.9999988E-2,5.034091E-1,8.966216E-1,1.9E-2,-1.0000002E-3,-1.0000002E-3,5.8125E-1,9.076087E-1,-1.0000002E-3,1.7954545E-1,-1.9200004E-3,1.9692306E-1,4.7924528E-1,8.2569444E-1,2.111111E-1,4.5416665E-1,8.809981E-1,3.7959182E-1,3.42E-2,2.2727272E-1,-2.000001E-2,5.754464E-1,9.523808E-2,3.7415385E-2,5.55E-1,2.6857141E-2,-1.0000002E-3,1.1999999E-2,3.7136365E-2,1.2307687E-3,1.4199999E-2,3.761904E-3,1.4749999E-2,2.044E-2,-1.5000004E-3,-1.0000002E-3,3.3521123E-2,1.5625E-2,-1.8333338E-3,-1.5000004E-3,2.4888886E-2,3.531154E-2,-1.0000002E-3,1.8049998E-2,2.1999995E-3,-1.6666669E-3,1.8333333E-2,6.4E-3,-1.9354842E-3,9.166666E-3,2.9194806E-2,2.5333332E-2,2.1052586E-4,2.4888886E-2,-1.0000002E-3],"categories":[],"categories_nodes":[],"categories_segments":[],"categories_sizes":[],"default_left":[0,0,0,0,0,0,0,0,0,0,0,0,0,0,0,0,0,0,0,0,0,0,0,0,0,0,0,0,0,0,0,0,0,0,0,0,0,0,0,0,0,0,0,0,0,0,0,0,0,0,0,0,0,0,0,0,0,0,0,0,0,0,0,0,0,0,0,0,0,0,0,0,0,0,0,0,0,0,0,0,0,0,0,0,0,0,0,0,0,0,0],"id":11,"left_children":[1,3,5,7,9,11,13,-1,15,17,-1,19,21,23,25,27,-1,-1,-1,29,-1,31,-1,-1,33,35,37,39,-1,41,43,45,47,49,51,53,55,57,59,-1,-1,-1,61,63,-1,65,-1,67,69,71,73,75,77,79,-1,81,83,85,87,-1,89,-1,-1,-1,-1,-1,-1,-1,-1,-1,-1,-1,-1,-1,-1,-1,-1,-1,-1,-1,-1,-1,-1,-1,-1,-1,-1,-1,-1,-1,-1],"loss_changes":[1.2048221E2,5.199009E-2,1.7030334E1,2.41552E-2,2.0845065E-1,8.98481E0,1.8662628E1,0E0,1.5070565E-1,2.7395833E-1,0E0,3.6432228E0,6.229353E0,4.726471E0,8.74498E0,1.8187499E-1,0E0,0E0,0E0,3.7259293E-1,0E0,2.2852888E0,0E0,0E0,2.8804626E0,4.5643167E0,6.9138794E0,1.825E-1,0E0,3.529513E-1,8.962517E-1,6.024023E-1,2.2213097E0,6.979416E0,1.3762817E0,1.6616516E0,5.101818E-1,3.8264656E0,4.6079254E-1,0E0,0E0,0E0,4.5415187E-1,3.0284882E-1,0E0,5.6335306E-1,0E0,1.1143103E0,8.888445E-1,7.763901E-1,1.263281E0,1.0148611E0,8.67157E-1,1.1149039E0,0E0,7.026515E-1,1.8658066E-1,5.821804E0,1.0133834E0,0E0,4.0544462E-1,0E0,0E0,0E0,0E0,0E0,0E0,0E0,0E0,0E0,0E0,0E0,0E0,0E0,0E0,0E0,0E0,0E0,0E0,0E0,0E0,0E0,0E0,0E0,0E0,0E0,0E0,0E0,0E0,0E0,0E0],"parents":[2147483647,0,0,1,1,2,2,3,3,4,4,5,5,6,6,8,8,9,9,11,11,12,12,13,13,14,14,15,15,19,19,21,21,24,24,25,25,26,26,27,27,29,29,30,30,31,31,32,32,33,33,34,34,35,35,36,36,37,37,38,38,42,42,43,43,45,45,47,47,48,48,49,49,50,50,51,51,52,52,53,53,55,55,56,56,57,57,58,58,60,60],"right_children":[2,4,6,8,10,12,14,-1,16,18,-1,20,22,24,26,28,-1,-1,-1,30,-1,32,-1,-1,34,36,38,40,-1,42,44,46,48,50,52,54,56,58,60,-1,-1,-1,62,64,-1,66,-1,68,70,72,74,76,78,80,-1,82,84,86,88,-1,90,-1,-1,-1,-1,-1,-1,-1,-1,-1,-1,-1,-1,-1,-1,-1,-1,-1,-1,-1,-1,-1,-1,-1,-1,-1,-1,-1,-1,-1,-1],"split_conditions":[3.7396774E0,6.801E-3,-3.0289528E-1,3.5093548E0,-9.45E-3,3.5693836E-1,-2.1461171E-1,-2.1096498E-2,-2.3046575E-1,1.503955E-1,-1.3742447E-3,3.964907E-1,-8.683251E-2,1.3844E-2,6.0343113E-2,2.547296E-1,-9.979782E-3,1.0028839E-4,-3.9712828E-2,3.7993E-2,-4.2345084E-2,-3.8271734E-1,7.673512E-2,-3.8928222E-3,-3.6584365E-1,1.2497469E-2,-2.4879575E-1,2.0204E-2,-3.9282262E-2,-6.02E-3,3.0614E-2,2.756E-2,3.5185E-2,-2.8422195E-1,-2.607328E-1,1.8336084E-1,8.801E-3,2.1346572E-1,2.2487572E-1,3.078884E-2,-3.2204397E-2,-5.0619887E-3,3.9848E-2,-2.052E-2,-6.971359E-4,4.1698E-2,-8.5135485E-4,3.8085657E-1,4.902E-2,2.831E-3,2.7698648E-1,-1.198E-2,6.5923333E0,4.1426E-2,7.847583E-2,3.295E-3,2.06E-4,3.0208012E-1,-1.899E-2,8.3976574E-2,4.824E-3,8.2391776E-2,-3.5055159E-3,3.6646653E-2,5.7894666E-2,2.7713776E-3,6.340088E-2,3.1195628E-2,3.2652326E-2,3.2080572E-2,-2.729721E-3,-4.4224164E-3,7.386E-2,3.7049063E-2,-2.1183777E-3,-1.1252593E-3,3.727474E-2,7.6874726E-2,-1.129874E-1,2.1600418E-2,4.800415E-3,-3.3657074E-3,3.585186E-2,9.201279E-3,-1.0616684E-3,8.4684886E-2,6.826174E-2,4.0218275E-2,9.2239375E-4,5.464527E-2,-1.5472411E-4],"split_indices":[22,7,15,22,8,3,16,0,17,3,0,2,20,11,6,3,0,0,0,11,0,18,0,0,19,6,15,9,0,9,9,10,10,16,14,0,10,2,2,0,0,0,12,7,0,11,0,5,11,10,1,7,23,11,0,8,9,3,7,0,8,0,0,0,0,0,0,0,0,0,0,0,0,0,0,0,0,0,0,0,0,0,0,0,0,0,0,0,0,0,0],"split_type":[0,0,0,0,0,0,0,0,0,0,0,0,0,0,0,0,0,0,0,0,0,0,0,0,0,0,0,0,0,0,0,0,0,0,0,0,0,0,0,0,0,0,0,0,0,0,0,0,0,0,0,0,0,0,0,0,0,0,0,0,0,0,0,0,0,0,0,0,0,0,0,0,0,0,0,0,0,0,0,0,0,0,0,0,0,0,0,0,0,0,0],"sum_hessian":[1.467E3,2.92E2,1.175E3,2.76E2,1.6E1,2.36E2,9.39E2,2.41E2,3.5E1,3E0,1.3E1,5.9E1,1.77E2,6.34E2,3.05E2,5E0,3E1,1E0,2E0,5.4E1,5E0,1.61E2,1.6E1,6E0,6.28E2,1.01E2,2.04E2,2E0,3E0,8E0,4.6E1,4.5E1,1.16E2,9.7E1,5.31E2,5.7E1,4.4E1,1.31E2,7.3E1,1E0,1E0,1E0,7E0,4.5E1,1E0,2.1E1,2.4E1,6.4E1,5.2E1,7.1E1,2.6E1,1.1E1,5.2E2,4.8E1,9E0,1E1,3.4E1,1.11E2,2E1,6.4E1,9E0,6E0,1E0,2E0,4.3E1,1.2E1,9E0,4.1E1,2.3E1,4.9E1,3E0,1E0,7E1,1.5E1,1.1E1,3E0,8E0,5.19E2,1E0,3.9E1,9E0,5E0,5E0,4E0,3E1,3.5E1,7.6E1,2E0,1.8E1,8E0,1E0],"tree_param":{"num_deleted":"0","num_feature":"28","num_nodes":"91","size_leaf_vector":"1"}},{"base_weights":[-2.933583E-1,-8.8532424E-1,-1.4562075E-1,1E-3,-8.885274E-1,-7.909677E-2,-2.7350745E-1,-3.566207E-2,-2.9999998E-1,-3.2178572E-1,-2.5550313E-2,-3.515845E-1,-8.4873945E-2,1E-3,-1.9E-2,-1.229885E-1,-6.361111E-1,-4.1538462E-1,-1.7387819E-2,-5.6755316E-1,-2.434555E-1,-3.102564E-1,2.4691358E-2,-7.4074075E-2,-6.7142856E-1,-7.465909E-1,-1.3636364E-1,-8.125E-2,-3.1666663E-2,-5.285714E-1,-1.1569578E-2,-8.0487806E-1,-3.7685186E-1,-3.9490741E-1,-4.583333E-2,-1.340909E-1,-5.083333E-1,3.636364E-2,-1.6E-1,-3.642857E-2,-2.875E-1,-3.1666663E-2,1E-3,-7.651163E-1,1E-3,-4.625E-1,1.7499999E-3,1.7142857E-3,-1.9E-2,-2.4999999E-2,1E-3,4.0366985E-3,-1.2635134E-1,-2.9999998E-1,-3.2923076E-2,-5.673077E-1,-1.9310345E-1,-4.8465908E-1,1.2417635E-9,-2.4691356E-2,-4.625E-1,-2.2E-1,1.7499999E-3,-5.964286E-1,-1.6E-1,-9.9999994E-2,1.971831E-3,1.5E-3,-1.9E-2,-1.8333333E-2,1.2307697E-4,-2.8499998E-2,-2.6666664E-3,-3.4879997E-2,-2.336842E-2,1E-3,-2.5333332E-2,2.9574864E-4,-1.4399999E-2,-3.1666663E-2,-2.6666664E-3,1E-3,-1.9E-2,-2.5913043E-2,1.5E-3,-1.142857E-2,1.7777778E-3,-1.8181817E-3,-2.1615382E-2,1.8888889E-3,-8.4999995E-3,-3.7619045E-3,1.9500001E-3,-2.5333332E-2,1E-3,-1.1499999E-2,1.5E-3,1E-3,-2.5846153E-2,1.5E-3,-1.9E-2,-1.1999999E-2,1.6E-3],"categories":[],"categories_nodes":[],"categories_segments":[],"categories_sizes":[],"default_left":[0,0,0,0,0,0,0,0,0,0,0,0,0,0,0,0,0,0,0,0,0,0,0,0,0,0,0,0,0,0,0,0,0,0,0,0,0,0,0,0,0,0,0,0,0,0,0,0,0,0,0,0,0,0,0,0,0,0,0,0,0,0,0,0,0,0,0,0,0,0,0,0,0,0,0,0,0,0,0,0,0,0,0,0,0,0,0,0,0,0,0,0,0,0,0,0,0,0,0,0,0,0,0],"id":12,"left_children":[1,3,5,-1,7,9,11,-1,13,15,17,19,21,-1,-1,23,25,27,29,31,33,35,37,39,41,43,45,47,-1,49,51,53,55,57,59,61,63,65,67,69,71,-1,-1,73,-1,75,-1,-1,-1,-1,-1,77,79,81,-1,83,85,87,89,91,93,95,-1,97,99,101,-1,-1,-1,-1,-1,-1,-1,-1,-1,-1,-1,-1,-1,-1,-1,-1,-1,-1,-1,-1,-1,-1,-1,-1,-1,-1,-1,-1,-1,-1,-1,-1,-1,-1,-1,-1,-1],"loss_changes":[1.2825589E2,8.765869E-1,9.983225E0,0E0,2.522583E-1,1.0063006E1,5.8907967E0,0E0,1.8249997E-1,8.669948E0,2.016542E0,6.493927E0,2.946258E0,0E0,0E0,2.2841816E0,2.8796406E0,1.5701525E0,1.8497789E0,3.9509506E0,5.698578E0,1.292716E0,1.8043545E-1,6.403234E-1,6.059525E-1,6.4806175E-1,6.66392E-1,4.1129464E-1,0E0,3.892858E-1,1.1075433E0,1.2979507E-1,1.780232E0,3.8279095E0,7.2854936E-1,3.4574428E-1,4.5692825E-1,1.4071703E-1,3.28875E-1,1.1681391E0,1.0787499E0,0E0,0E0,3.2201385E-1,0E0,3.489583E-1,0E0,0E0,0E0,0E0,0E0,6.6869414E-1,2.8856983E0,1.8249997E-1,0E0,1.2904453E0,6.5068424E-1,2.1292286E0,2.2076388E-1,4.1716784E-1,3.489583E-1,2.715E-1,0E0,4.4876337E-1,3.28875E-1,2.08E-1,0E0,0E0,0E0,0E0,0E0,0E0,0E0,0E0,0E0,0E0,0E0,0E0,0E0,0E0,0E0,0E0,0E0,0E0,0E0,0E0,0E0,0E0,0E0,0E0,0E0,0E0,0E0,0E0,0E0,0E0,0E0,0E0,0E0,0E0,0E0,0E0,0E0],"parents":[2147483647,0,0,1,1,2,2,4,4,5,5,6,6,8,8,9,9,10,10,11,11,12,12,15,15,16,16,17,17,18,18,19,19,20,20,21,21,22,22,23,23,24,24,25,25,26,26,27,27,29,29,30,30,31,31,32,32,33,33,34,34,35,35,36,36,37,37,38,38,39,39,40,40,43,43,45,45,51,51,52,52,53,53,55,55,56,56,57,57,58,58,59,59,60,60,61,61,63,63,64,64,65,65],"right_children":[2,4,6,-1,8,10,12,-1,14,16,18,20,22,-1,-1,24,26,28,30,32,34,36,38,40,42,44,46,48,-1,50,52,54,56,58,60,62,64,66,68,70,72,-1,-1,74,-1,76,-1,-1,-1,-1,-1,78,80,82,-1,84,86,88,90,92,94,96,-1,98,100,102,-1,-1,-1,-1,-1,-1,-1,-1,-1,-1,-1,-1,-1,-1,-1,-1,-1,-1,-1,-1,-1,-1,-1,-1,-1,-1,-1,-1,-1,-1,-1,-1,-1,-1,-1,-1,-1],"split_conditions":[3.7396774E0,-1.646E-2,-2.1461171E-1,2.3712158E-4,5.4647E-2,-3.0844483E-1,-2.4879575E-1,-1.3335802E-1,-1.469E-2,3.6431912E-1,-3.864832E-1,1.0083053E-1,-1.107E-2,1.6527176E-3,-2.9843863E-2,1.085E-3,4.140645E0,4.0129104E-1,1.3844E-2,3.9104965E-1,-2.90717E-1,-1.48E-2,5.0769E-2,2.5509E-2,4.1517E-2,3.5509E-2,3.665016E-1,4.8469E-2,-6.1920088E-2,2.847147E-1,4.46724E-1,-5.44E-3,2.761E-3,4.4071397E-1,2.646994E-1,7.4346703E-3,-1.198E-2,7.4346703E-3,2.021547E-1,3.7493E-2,2.6598E-2,-5.1721305E-2,3.3754423E-2,-3.1787333E-1,2.9166793E-3,2.1735E-2,2.6706695E-3,1.1517753E-2,-6.6685104E-3,-4.502098E-2,2.4100875E-3,5.6893E-2,2.847147E-1,1.6956791E-1,-4.5315064E-2,2.6951E-2,1.8204E-2,7.593333E-1,4.1021E-2,2.631E-2,-1.204E-2,-1.02E-2,2.36763E-3,1.067E-3,3.4878E-2,3.295E-3,1.353967E-2,1.8465385E-2,-1.6004944E-3,-1.2242279E-2,-2.317028E-3,-3.061714E-2,-2.1605568E-2,-6.915926E-2,-6.794769E-2,2.1387024E-2,-3.0418549E-2,1.4735566E-3,-2.5976943E-3,-7.3881224E-2,-2.133994E-2,4.606552E-3,-2.3392333E-2,-4.0415052E-2,7.297363E-3,-1.2232421E-2,5.9696194E-4,-8.444595E-4,-4.663666E-2,9.599189E-3,-2.0013694E-2,-2.5416171E-2,6.2950896E-3,-1.2414169E-3,6.8865963E-3,-1.3472595E-2,7.923469E-3,1.2215767E-2,-3.737125E-2,2.3036194E-3,-3.1104354E-2,-1.1332321E-2,4.411659E-3],"split_indices":[22,8,16,0,9,15,15,0,7,5,17,6,13,0,0,7,22,5,11,5,20,13,11,9,12,9,1,10,0,2,5,9,9,6,2,6,7,6,1,11,9,0,0,15,0,8,0,0,0,0,0,10,2,0,0,13,9,21,12,13,7,7,0,10,11,8,0,0,0,0,0,0,0,0,0,0,0,0,0,0,0,0,0,0,0,0,0,0,0,0,0,0,0,0,0,0,0,0,0,0,0,0,0],"split_type":[0,0,0,0,0,0,0,0,0,0,0,0,0,0,0,0,0,0,0,0,0,0,0,0,0,0,0,0,0,0,0,0,0,0,0,0,0,0,0,0,0,0,0,0,0,0,0,0,0,0,0,0,0,0,0,0,0,0,0,0,0,0,0,0,0,0,0,0,0,0,0,0,0,0,0,0,0,0,0,0,0,0,0,0,0,0,0,0,0,0,0,0,0,0,0,0,0,0,0,0,0,0,0],"sum_hessian":[1.467E3,2.92E2,1.175E3,1E0,2.91E2,7.74E2,4.01E2,2.89E2,2E0,1.39E2,6.35E2,2.83E2,1.18E2,1E0,1E0,8.6E1,5.3E1,1.2E1,6.23E2,9.3E1,1.9E2,3.8E1,8E1,8E1,6E0,4.3E1,1E1,7E0,5E0,6E0,6.17E2,4E1,5.3E1,1.07E2,8.3E1,2.1E1,1.7E1,7.6E1,4E0,6.9E1,1.1E1,5E0,1E0,4.2E1,1E0,3E0,7E0,6E0,1E0,5E0,1E0,5.44E2,7.3E1,2E0,3.8E1,2.5E1,2.8E1,8.7E1,2E1,8E1,3E0,1.4E1,7E0,1.3E1,4E0,6E0,7E1,3E0,1E0,5E0,6.4E1,3E0,8E0,2.4E1,1.8E1,1E0,2E0,5.4E2,4E0,5E0,6.8E1,1E0,1E0,2.2E1,3E0,2E1,8E0,1E1,7.7E1,1.7E1,3E0,4.1E1,3.9E1,2E0,1E0,1.1E1,3E0,1E0,1.2E1,3E0,1E0,2E0,4E0],"tree_param":{"num_deleted":"0","num_feature":"28","num_nodes":"103","size_leaf_vector":"1"}},{"base_weights":[1.1273842E-1,-4.778157E-1,2.5977892E-1,1E-2,-4.811644E-1,3.3290324E-1,1.18159205E-1,-4.8448277E-1,-0E0,5.357143E-2,3.938679E-1,-4.4025157E-2,2.2336066E-1,-1.9635035E-2,-3.529412E-1,1E-2,-1E-2,2.6436782E-1,-2.8703704E-1,-1.7142856E-2,4.0238094E-1,1.4942528E-1,-2.739726E-1,1.1E-1,4E-1,1E-2,-4.0625E-1,-1.7857144E-2,3.9166668E-1,-3.9772728E-1,1.8181819E-1,2.3979592E-1,4.315197E-1,2.3648648E-1,-3.2142857E-1,-3.7777779E-1,-1.0344828E-1,-2.3148147E-2,4.4186047E-1,4.1847825E-1,-1.25E-1,-1.25E-1,-1.8461538E-2,1.6666666E-2,-1.3043478E-1,4.5192307E-1,-0E0,-0E0,-4.1666666E-1,-1.25E-1,3.125E-1,-1.7307693E-1,3.8356164E-1,1.9444445E-1,4.389535E-1,1.388889E-1,1.9047618E-2,1E-2,-1.5384615E-2,-2.8846154E-1,-1.9E-2,-1.7307693E-1,1.5E-2,-1.3068181E-1,4.2857143E-1,1.9411763E-2,2.5E-1,8.3333336E-2,4.3678162E-1,-1.3333334E-2,1E-2,1E-2,-1.3333334E-2,7.5E-3,-1.12499995E-2,5.7142857E-3,1.9565217E-2,-1E-2,1.5E-2,1E-2,-1E-2,-1.9166665E-2,-1.2631578E-2,1E-2,-1.3333334E-2,-0E0,1.6666666E-2,1.1428571E-2,-1.2999999E-2,-1E-2,1.5833333E-2,1.8461538E-2,-1.6666666E-2,1.2222222E-2,1.814255E-2,2.6666666E-3,1.8E-2,-1.7777778E-2,-7.777778E-3,-1.1428571E-2,1E-2,1.4545455E-2,-7.948718E-3,1.8888887E-2,5E-3,-1E-2,1.3333334E-2,1.5E-2,-1.3333334E-2,1.8947368E-2,1.4193548E-2],"categories":[],"categories_nodes":[],"categories_segments":[],"categories_sizes":[],"default_left":[0,0,0,0,0,0,0,0,0,0,0,0,0,0,0,0,0,0,0,0,0,0,0,0,0,0,0,0,0,0,0,0,0,0,0,0,0,0,0,0,0,0,0,0,0,0,0,0,0,0,0,0,0,0,0,0,0,0,0,0,0,0,0,0,0,0,0,0,0,0,0,0,0,0,0,0,0,0,0,0,0,0,0,0,0,0,0,0,0,0,0,0,0,0,0,0,0,0,0,0,0,0,0,0,0,0,0,0,0,0,0],"id":13,"left_children":[1,3,5,-1,7,9,11,13,15,17,19,21,23,-1,25,-1,-1,27,29,-1,31,33,35,37,39,-1,41,43,45,47,49,51,53,55,57,59,61,63,65,67,69,71,-1,-1,73,75,77,79,81,83,85,87,89,91,93,95,-1,-1,-1,97,-1,99,-1,101,103,-1,105,107,109,-1,-1,-1,-1,-1,-1,-1,-1,-1,-1,-1,-1,-1,-1,-1,-1,-1,-1,-1,-1,-1,-1,-1,-1,-1,-1,-1,-1,-1,-1,-1,-1,-1,-1,-1,-1,-1,-1,-1,-1,-1,-1],"loss_changes":[1.2759844E2,8.34404E-1,1.2139137E1,0E0,4.6622467E-1,1.3176674E1,6.8687696E0,7.0632935E-2,2.5E-1,1.0127748E1,4.625366E0,7.113805E0,4.8418436E0,0E0,6.479778E-1,0E0,0E0,3.132635E0,2.8747897E0,0E0,2.8811646E0,3.6424131E0,1.2531147E0,6.6382184E0,9.7391415E-1,0E0,1.9110584E-1,1.4240425E0,1.4160261E0,3.3143902E-1,4.8011363E-1,5.8833675E0,8.5398865E-1,1.6650577E0,6.0164833E-1,2.5373936E-1,1.0310013E0,5.3021135E0,2.3700428E-1,5.279541E-1,3.9583334E-1,3.9583334E-1,0E0,0E0,1.1555706E0,5.281E-1,9.375E-1,2.5E-1,1.1348677E-1,3.9583334E-1,2.6041663E-1,1.9050823E0,6.6652393E-1,3.1303418E0,8.670807E-1,1.1833335E0,0E0,0E0,0E0,2.9487205E-1,0E0,1.3104397E0,0E0,3.0318327E0,2.1924591E-1,0E0,5E-1,8.541667E-1,9.4997406E-2,0E0,0E0,0E0,0E0,0E0,0E0,0E0,0E0,0E0,0E0,0E0,0E0,0E0,0E0,0E0,0E0,0E0,0E0,0E0,0E0,0E0,0E0,0E0,0E0,0E0,0E0,0E0,0E0,0E0,0E0,0E0,0E0,0E0,0E0,0E0,0E0,0E0,0E0,0E0,0E0,0E0,0E0],"parents":[2147483647,0,0,1,1,2,2,4,4,5,5,6,6,7,7,8,8,9,9,10,10,11,11,12,12,14,14,17,17,18,18,20,20,21,21,22,22,23,23,24,24,26,26,27,27,28,28,29,29,30,30,31,31,32,32,33,33,34,34,35,35,36,36,37,37,38,38,39,39,40,40,41,41,44,44,45,45,46,46,47,47,48,48,49,49,50,50,51,51,52,52,53,53,54,54,55,55,59,59,61,61,63,63,64,64,66,66,67,67,68,68],"right_children":[2,4,6,-1,8,10,12,14,16,18,20,22,24,-1,26,-1,-1,28,30,-1,32,34,36,38,40,-1,42,44,46,48,50,52,54,56,58,60,62,64,66,68,70,72,-1,-1,74,76,78,80,82,84,86,88,90,92,94,96,-1,-1,-1,98,-1,100,-1,102,104,-1,106,108,110,-1,-1,-1,-1,-1,-1,-1,-1,-1,-1,-1,-1,-1,-1,-1,-1,-1,-1,-1,-1,-1,-1,-1,-1,-1,-1,-1,-1,-1,-1,-1,-1,-1,-1,-1,-1,-1,-1,-1,-1,-1,-1],"split_conditions":[3.7396774E0,-1.646E-2,-2.1461171E-1,2.5802612E-4,5.4647E-2,-3.0844483E-1,1.0083053E-1,6.801E-3,-1.469E-2,3.6431912E-1,1.3844E-2,2.6614237E-1,-2.90717E-1,-6.8677634E-2,2.6467743E0,1.7326354E-3,-3.1076316E-2,3.1737262E-1,4.140645E0,-1.5548095E-2,-3.6584365E-1,-1.5802883E-1,-1.5105622E-1,-2.4879575E-1,2.646994E-1,7.078171E-4,-9.45E-3,2.5517213E-1,4.701E-2,1.067E-3,3.665016E-1,3.9748387E0,3.3593518E-1,2.3836343E-1,1.067E-3,1.1673E-2,2.6951E-2,4.4071397E-1,2.2487572E-1,1.8286037E-1,-1.204E-2,1.503955E-1,-6.989414E-2,6.801849E-2,2.761E-3,1.9312E-2,2.5586E-2,2.1722971E-1,1.653E-2,2.1735E-2,-2.216E-2,3.7493E-2,2.831E-3,2.2272016E-1,2.646904E-1,-1.011E-2,5.8918476E-2,9.512749E-3,-8.153706E-3,4.287E-3,-2.3702964E-2,1.7803386E-1,6.251564E-3,7.593333E-1,4.1021E-2,6.0970914E-2,1.1794E-2,-1.068E-2,-1.011E-2,-4.6012877E-3,3.4758758E-3,2.123375E-3,-6.246235E-2,1.1684417E-3,-1.1667747E-2,1.9163074E-2,3.7918165E-2,-5.0006486E-3,2.4683723E-2,1.6253509E-2,-3.745125E-2,-3.5717733E-2,-2.1455288E-2,1.7332915E-2,-2.5099086E-2,1.7050572E-2,3.3832397E-2,6.2040137E-3,-3.4726486E-2,-1.9530486E-3,3.8145635E-2,2.7913684E-2,-3.701336E-2,2.5645217E-2,4.6713617E-2,3.4906578E-3,7.378654E-3,-1.7702961E-2,-2.010296E-2,-7.361202E-3,1.4469413E-2,4.674879E-2,-1.278759E-2,3.0537682E-2,7.5592804E-3,-1.1192322E-3,9.880772E-3,2.0000419E-2,-2.767067E-3,3.7829686E-2,2.1510314E-2],"split_indices":[22,8,16,0,9,15,6,7,7,5,11,1,20,0,22,0,0,5,22,0,19,17,16,15,2,0,8,0,10,10,1,22,4,3,10,8,13,6,2,3,7,3,0,0,9,10,9,0,13,8,7,11,10,1,2,7,0,0,0,8,0,0,0,21,12,0,10,7,7,0,0,0,0,0,0,0,0,0,0,0,0,0,0,0,0,0,0,0,0,0,0,0,0,0,0,0,0,0,0,0,0,0,0,0,0,0,0,0,0,0,0],"split_type":[0,0,0,0,0,0,0,0,0,0,0,0,0,0,0,0,0,0,0,0,0,0,0,0,0,0,0,0,0,0,0,0,0,0,0,0,0,0,0,0,0,0,0,0,0,0,0,0,0,0,0,0,0,0,0,0,0,0,0,0,0,0,0,0,0,0,0,0,0,0,0,0,0,0,0,0,0,0,0,0,0,0,0,0,0,0,0,0,0,0,0,0,0,0,0,0,0,0,0,0,0,0,0,0,0,0,0,0,0,0,0],"sum_hessian":[1.467E3,2.92E2,1.175E3,1E0,2.91E2,7.74E2,4.01E2,2.89E2,2E0,1.39E2,6.35E2,1.58E2,2.43E2,2.73E2,1.6E1,1E0,1E0,8.6E1,5.3E1,6E0,6.29E2,8.6E1,7.2E1,1.49E2,9.4E1,1E0,1.5E1,2.7E1,5.9E1,4.3E1,1E1,9.7E1,5.32E2,7.3E1,1.3E1,4.4E1,2.8E1,1.07E2,4.2E1,9.1E1,3E0,3E0,1.2E1,5E0,2.2E1,5.1E1,8E0,2E0,4.1E1,3E0,7E0,2.5E1,7.2E1,1.7E1,5.15E2,5.3E1,2E1,1E0,1.2E1,2.5E1,1.9E1,2.5E1,3E0,8.7E1,2E1,3.3E1,9E0,5E0,8.6E1,2E0,1E0,1E0,2E0,7E0,1.5E1,6E0,4.5E1,5E0,3E0,1E0,1E0,2.3E1,1.8E1,1E0,2E0,2E0,5E0,6E0,1.9E1,1E0,7.1E1,1.2E1,5E0,5.3E1,4.62E2,4.4E1,9E0,8E0,1.7E1,2E1,5E0,1E1,7.7E1,1.7E1,3E0,1E0,8E0,3E0,2E0,5.6E1,3E1],"tree_param":{"num_deleted":"0","num_feature":"28","num_nodes":"111","size_leaf_vector":"1"}},{"base_weights":[5.1542914E-1,-4.3003425E-2,6.5412414E-1,-4.62094E-2,1.1764695E-2,7.397419E-1,4.8743778E-1,-1.991736E-3,-2.0833345E-2,2.1249999E-1,-1.8571432E-3,4.217857E-1,8.085692E-1,3.1509432E-1,5.977459E-1,1.2499999E-1,-1.9354842E-3,1.9E-2,-1.3333337E-3,1.447761E-1,6.668919E-1,-1.714286E-3,8.16746E-1,2.3607142E-1,8.5249996E-1,3.7371793E-1,6.988024E-1,2.9999998E-1,-1.5000004E-3,7.36842E-2,5E-1,2.7321428E-1,8.8723403E-1,6.137755E-1,8.525328E-1,1.870229E-1,3.42E-2,3.5888888E-2,2.9999998E-1,7.0208335E-1,2.2363636E-1,4.810606E-1,8.328431E-1,1.9E-2,-1.0000002E-3,4.181817E-2,2.5333332E-2,-1.0000002E-3,5.55E-1,7.0625E-1,9.523808E-2,2.9999998E-1,3.6266666E-2,7.5624996E-1,2.111111E-1,9.0380794E-1,7.8211206E-1,3.2578123E-1,5.367646E-2,1.9E-2,-1.0000002E-3,3.3124998E-1,3.3411764E-2,1.10227264E-1,6.2083334E-1,2.017857E-1,6.6923076E-1,3.491111E-2,4.923077E-1,1.9E-2,9.999996E-4,-1.0000002E-3,2.4888886E-2,3.2571428E-2,-1.0000002E-3,3.3333286E-4,1.8499998E-2,1.9E-2,-1.0000002E-3,3.5591837E-2,1.8083332E-2,1.5625E-2,-1.8333338E-3,-1.0000002E-3,3.627907E-2,1.4588234E-2,3.2453705E-2,1.7049998E-2,6.0799997E-3,1.1076918E-3,1.8499998E-2,2.8499998E-2,-1.6000004E-3,1.3888883E-3,1.5999999E-2,3.0199999E-2,-1.3333337E-3,2.555555E-3,1.6363636E-2,2.8914284E-2,6.4E-3,2.3636362E-2,-1.3333337E-3],"categories":[],"categories_nodes":[],"categories_segments":[],"categories_sizes":[],"default_left":[0,0,0,0,0,0,0,0,0,0,0,0,0,0,0,0,0,0,0,0,0,0,0,0,0,0,0,0,0,0,0,0,0,0,0,0,0,0,0,0,0,0,0,0,0,0,0,0,0,0,0,0,0,0,0,0,0,0,0,0,0,0,0,0,0,0,0,0,0,0,0,0,0,0,0,0,0,0,0,0,0,0,0,0,0,0,0,0,0,0,0,0,0,0,0,0,0,0,0,0,0,0,0],"id":14,"left_children":[1,3,5,7,9,11,13,-1,15,17,-1,19,21,23,25,27,-1,-1,-1,29,31,-1,33,35,37,39,41,43,-1,45,47,49,51,53,55,57,-1,-1,59,61,63,65,67,-1,-1,69,-1,-1,71,73,75,77,-1,79,81,83,85,87,89,-1,-1,91,-1,93,95,97,99,-1,101,-1,-1,-1,-1,-1,-1,-1,-1,-1,-1,-1,-1,-1,-1,-1,-1,-1,-1,-1,-1,-1,-1,-1,-1,-1,-1,-1,-1,-1,-1,-1,-1,-1,-1],"loss_changes":[1.1372739E2,5.199009E-2,1.6422485E1,2.41552E-2,2.0845065E-1,1.661911E1,7.4540176E0,0E0,1.5070565E-1,2.7395833E-1,0E0,9.408997E0,4.462799E0,6.551059E0,5.262886E0,1.8187499E-1,0E0,0E0,0E0,1.6551452E0,6.1766357E0,0E0,4.052887E0,4.0901513E0,2.2501373E-1,3.6869526E0,4.4734573E0,1.825E-1,0E0,9.9004143E-1,3.3150005E-1,2.0906994E0,2.6433945E-1,5.4625473E0,1.2176819E0,2.4063969E0,0E0,0E0,1.825E-1,9.08885E-1,2.4090836E0,3.3333387E0,9.5744324E-1,0E0,0E0,3.888182E-1,0E0,0E0,4.0544462E-1,6.523659E-1,6.6639876E-1,1.825E-1,0E0,2.522396E0,1.263281E0,9.115143E-1,2.534729E0,1.0526233E0,7.0955205E-1,0E0,0E0,1.1608124E0,0E0,9.4880056E-1,1.0783749E0,7.742919E-1,9.493618E-1,0E0,6.934731E-1,0E0,0E0,0E0,0E0,0E0,0E0,0E0,0E0,0E0,0E0,0E0,0E0,0E0,0E0,0E0,0E0,0E0,0E0,0E0,0E0,0E0,0E0,0E0,0E0,0E0,0E0,0E0,0E0,0E0,0E0,0E0,0E0,0E0,0E0],"parents":[2147483647,0,0,1,1,2,2,3,3,4,4,5,5,6,6,8,8,9,9,11,11,12,12,13,13,14,14,15,15,19,19,20,20,22,22,23,23,24,24,25,25,26,26,27,27,29,29,30,30,31,31,32,32,33,33,34,34,35,35,38,38,39,39,40,40,41,41,42,42,45,45,48,48,49,49,50,50,51,51,53,53,54,54,55,55,56,56,57,57,58,58,61,61,63,63,64,64,65,65,66,66,68,68],"right_children":[2,4,6,8,10,12,14,-1,16,18,-1,20,22,24,26,28,-1,-1,-1,30,32,-1,34,36,38,40,42,44,-1,46,48,50,52,54,56,58,-1,-1,60,62,64,66,68,-1,-1,70,-1,-1,72,74,76,78,-1,80,82,84,86,88,90,-1,-1,92,-1,94,96,98,100,-1,102,-1,-1,-1,-1,-1,-1,-1,-1,-1,-1,-1,-1,-1,-1,-1,-1,-1,-1,-1,-1,-1,-1,-1,-1,-1,-1,-1,-1,-1,-1,-1,-1,-1,-1],"split_conditions":[3.7396774E0,6.801E-3,-2.1461171E-1,3.5093548E0,-9.45E-3,-3.0844483E-1,1.0083053E-1,-2.0252649E-2,-2.3046575E-1,1.503955E-1,-1.3192749E-3,-2.8615293E-1,1.3844E-2,3.787386E-1,-3.181004E-1,2.547296E-1,-9.580574E-3,9.628296E-5,-3.812431E-2,4.140645E0,3.1737262E-1,-3.7371062E-3,-3.6584365E-1,-1.574579E-2,8.86E-3,2.799446E-1,-3.0651063E-1,2.0204E-2,-3.771099E-2,4.4639E-2,-1.167E-2,2.6090065E-1,-2.052E-2,-2.8422195E-1,-2.8323647E-1,2.6614237E-1,7.53368E-2,7.757988E-2,1.9288668E-1,1.8916763E-1,-2.0320724E-1,-2.90717E-1,2.2487572E-1,2.9557304E-2,-3.0916214E-2,1.1769E-2,2.2651862E-2,-1.3131713E-3,-3.5E-4,4.2561E-2,4.4527E-2,-2.361E-2,7.066567E-2,2.8922626E-1,2.7698648E-1,1.3316415E-1,-2.421382E-1,1.3456E-2,8.539E-3,8.19799E-2,-1.6220778E-2,1.894926E-1,7.312683E-2,4.3036E-2,4.1021E-2,3.7331E-2,4.188E-2,7.904087E-2,2.1792E-2,4.6518706E-3,4.6668733E-3,-1.8424187E-2,4.911026E-2,7.909611E-2,-6.0198973E-3,1.1939315E-2,2.3843307E-2,3.5180777E-2,-1.2731667E-2,7.5745575E-2,5.8561426E-2,3.5567094E-2,-2.0336532E-3,-1.084679E-1,7.6519765E-2,3.5783768E-2,7.339977E-2,3.7579875E-2,3.6179893E-2,9.639701E-3,5.8138655E-3,8.1937484E-2,-2.0049019E-2,3.3641644E-2,6.086483E-2,2.7870407E-2,-1.2958526E-4,3.0868072E-2,2.4688682E-2,4.0601246E-2,1.2046852E-2,5.245945E-2,-6.8559647E-3],"split_indices":[22,7,16,22,8,15,6,0,17,3,0,19,11,3,20,3,0,0,0,22,5,0,19,20,13,3,15,9,0,12,8,0,7,16,16,1,0,0,0,2,14,20,2,0,0,12,0,0,9,11,12,7,0,1,1,0,14,10,7,0,0,0,0,12,12,10,12,0,8,0,0,0,0,0,0,0,0,0,0,0,0,0,0,0,0,0,0,0,0,0,0,0,0,0,0,0,0,0,0,0,0,0,0],"split_type":[0,0,0,0,0,0,0,0,0,0,0,0,0,0,0,0,0,0,0,0,0,0,0,0,0,0,0,0,0,0,0,0,0,0,0,0,0,0,0,0,0,0,0,0,0,0,0,0,0,0,0,0,0,0,0,0,0,0,0,0,0,0,0,0,0,0,0,0,0,0,0,0,0,0,0,0,0,0,0,0,0,0,0,0,0,0,0,0,0,0,0,0,0,0,0,0,0,0,0,0,0,0,0],"sum_hessian":[1.467E3,2.92E2,1.175E3,2.76E2,1.6E1,7.74E2,4.01E2,2.41E2,3.5E1,3E0,1.3E1,1.39E2,6.35E2,1.58E2,2.43E2,5E0,3E1,1E0,2E0,6.6E1,7.3E1,6E0,6.29E2,1.39E2,1.9E1,7.7E1,1.66E2,2E0,3E0,5.6E1,1E1,2.7E1,4.6E1,9.7E1,5.32E2,1.3E2,9E0,1.7E1,2E0,2.3E1,5.4E1,6.5E1,1.01E2,1E0,1E0,5.4E1,2E0,1E0,9E0,7E0,2E1,2E0,4.4E1,7.1E1,2.6E1,3.01E2,2.31E2,6.3E1,6.7E1,1E0,1E0,7E0,1.6E1,4.3E1,1.1E1,2.7E1,3.8E1,8.9E1,1.2E1,1E0,5.3E1,1E0,8E0,6E0,1E0,1.7E1,3E0,1E0,1E0,4.8E1,2.3E1,1.5E1,1.1E1,1E0,3E2,1.6E1,2.15E2,3.9E1,2.4E1,6.4E1,3E0,3E0,4E0,3.5E1,8E0,9E0,2E0,1.7E1,1E1,3.4E1,4E0,1E1,2E0],"tree_param":{"num_deleted":"0","num_feature":"28","num_nodes":"103","size_leaf_vector":"1"}},{"base_weights":[-2.7837193E-1,-8.7167233E-1,-1.3031462E-1,1E-3,-8.7482876E-1,-2.9620254E-1,-8.835106E-2,-8.130719E-1,-3.7442856E-2,-6.7499995E-2,-3.716292E-1,-2.4772727E-1,-3.304721E-2,-6.5999997E-1,-8.8989896E-1,1.2727274E-2,-3.1666663E-2,-4.132716E-1,1.882353E-3,-3.3314285E-1,-2.4264704E-2,-7.958198E-3,-2.326923E-1,-2.6925925E-2,1E-3,-3.5999998E-1,-9.0842104E-1,-9.6428566E-2,1.952381E-3,-3.7315434E-1,-3.242857E-2,-1.5637255E-1,-5.722973E-1,1.4655174E-2,-2.2727272E-1,-5.111111E-1,-5.700313E-4,-5.7656246E-1,6.38298E-3,1.3333333E-3,-2.5333332E-2,-2.9999998E-1,-3.673118E-2,-3.5999998E-1,1.8000001E-3,-5.314516E-1,-2.5738636E-1,-2.3835616E-1,1.9333333E-3,-7.607143E-1,-3.151515E-1,1.9574468E-3,-1.2083333E-1,-4.583333E-1,1.6666667E-3,1.5E-3,-3.1666663E-2,7.4702897E-3,-1.826923E-1,-2.0416667E-1,-7.619048E-1,2.7173914E-2,-1.9E-2,-1.9E-2,1E-3,-2.5333332E-2,1.3333333E-3,1.5E-3,-2.2440676E-2,-7.7692303E-3,-2.7272727E-2,-1.115625E-2,1.8000001E-3,-3.105E-2,-1.1999999E-2,-1.6538462E-2,1.7499999E-3,-2.5333332E-2,1.8000001E-3,1.3333333E-3,-2.8499998E-2,-1.1666666E-2,4.212329E-4,-2.24E-2,-3.5454545E-3,-1.8333333E-2,1.7142857E-3,-3.5764705E-2,-6.4E-3,-6.4E-3,1.952381E-3],"categories":[],"categories_nodes":[],"categories_segments":[],"categories_sizes":[],"default_left":[0,0,0,0,0,0,0,0,0,0,0,0,0,0,0,0,0,0,0,0,0,0,0,0,0,0,0,0,0,0,0,0,0,0,0,0,0,0,0,0,0,0,0,0,0,0,0,0,0,0,0,0,0,0,0,0,0,0,0,0,0,0,0,0,0,0,0,0,0,0,0,0,0,0,0,0,0,0,0,0,0,0,0,0,0,0,0,0,0,0,0],"id":15,"left_children":[1,3,5,-1,7,9,11,13,-1,15,17,19,21,23,25,27,-1,29,-1,31,33,35,37,-1,-1,39,41,43,-1,45,-1,47,49,51,53,55,57,59,61,-1,-1,63,-1,65,-1,67,69,71,-1,73,75,-1,77,79,-1,-1,-1,81,83,85,87,89,-1,-1,-1,-1,-1,-1,-1,-1,-1,-1,-1,-1,-1,-1,-1,-1,-1,-1,-1,-1,-1,-1,-1,-1,-1,-1,-1,-1,-1],"loss_changes":[1.2883916E2,8.5112E-1,8.160257E0,0E0,3.433075E-1,4.0632286E0,8.277084E0,1.2119598E0,0E0,3.4959507E0,3.1229095E0,4.6110153E0,3.4993677E0,5.1218605E-1,6.4463806E-1,2.2132899E-1,0E0,2.2804546E0,0E0,7.3087044E0,5.4060197E-1,2.3119175E0,6.4161277E0,0E0,0E0,5.586666E-1,2.943344E-1,5.3807145E-1,0E0,2.593752E0,0E0,1.7233381E0,3.3456078E0,2.7530462E-1,7.0265144E-1,1.4149306E0,9.004582E-1,2.0531063E0,4.833025E-1,0E0,0E0,1.8249997E-1,0E0,5.586666E-1,0E0,1.0639534E0,2.2264318E0,8.513293E-1,0E0,6.7741394E-2,1.1824486E0,0E0,1.0483749E0,7.7354157E-1,0E0,0E0,0E0,5.4231197E-1,8.730525E-1,7.730655E-1,1.5281115E0,1.9409214E-1,0E0,0E0,0E0,0E0,0E0,0E0,0E0,0E0,0E0,0E0,0E0,0E0,0E0,0E0,0E0,0E0,0E0,0E0,0E0,0E0,0E0,0E0,0E0,0E0,0E0,0E0,0E0,0E0,0E0],"parents":[2147483647,0,0,1,1,2,2,4,4,5,5,6,6,7,7,9,9,10,10,11,11,12,12,13,13,14,14,15,15,17,17,19,19,20,20,21,21,22,22,25,25,26,26,27,27,29,29,31,31,32,32,33,33,34,34,35,35,36,36,37,37,38,38,41,41,43,43,45,45,46,46,47,47,49,49,50,50,52,52,53,53,57,57,58,58,59,59,60,60,61,61],"right_children":[2,4,6,-1,8,10,12,14,-1,16,18,20,22,24,26,28,-1,30,-1,32,34,36,38,-1,-1,40,42,44,-1,46,-1,48,50,52,54,56,58,60,62,-1,-1,64,-1,66,-1,68,70,72,-1,74,76,-1,78,80,-1,-1,-1,82,84,86,88,90,-1,-1,-1,-1,-1,-1,-1,-1,-1,-1,-1,-1,-1,-1,-1,-1,-1,-1,-1,-1,-1,-1,-1,-1,-1,-1,-1,-1,-1],"split_conditions":[3.7396774E0,-1.646E-2,-3.0289528E-1,2.2762298E-4,-2.9734513E-1,3.5693836E-1,1.0083053E-1,4.0144637E-1,-1.290237E-1,3.964907E-1,-8.683251E-2,2.7102828E-1,4.115992E-1,5.1127E-2,5.845E-3,-1.617E-2,-6.5229796E-2,5.659E-3,2.7952118E-2,2.6614237E-1,1.2537E-2,-3.864832E-1,4.2456633E-1,-9.7023696E-2,3.376312E-3,2.3316571E-1,-1.42E-3,2.1734E-2,1.2776759E-3,2.1748713E-1,-4.9652442E-2,5.379548E-2,3.9104965E-1,2.3267081E-1,3.1338245E-1,4.0129104E-1,2.6677E-2,3.3117E-2,4.8469E-2,1.7763138E-3,-3.9823685E-2,1.3186234E-1,-1.3928369E-1,1.9312E-2,7.080383E-3,9.2E-4,4.8904014E-1,-7.42E-3,1.701067E-2,-1.79E-3,1.8204E-2,8.863102E-3,-1.204E-2,2.0686434E-1,1.1115875E-2,1.9096222E-2,-5.944328E-2,-3.3196366E-1,1.6601929E-1,4.2079532E-1,-2.0220244E-1,-6.02E-3,-6.4017866E-3,-4.2623673E-2,1.3376312E-2,-1.1752586E-2,4.1671865E-2,1.9004821E-3,-5.770948E-2,-2.7852587E-2,-5.416183E-2,-3.467315E-2,2.2114562E-3,-4.3342475E-2,-1.0942192E-2,-3.6458466E-2,5.7308195E-4,-3.227943E-2,3.0485915E-3,1.8619843E-2,-1.0130104E-1,-3.3223724E-3,1.9857255E-3,-3.576805E-2,-2.3702672E-2,-4.5954056E-2,1.6933441E-4,-7.092598E-2,-8.106994E-4,-1.9213142E-2,1.1057053E-2],"split_indices":[22,8,15,0,18,3,6,5,0,2,20,2,6,12,11,7,0,7,0,1,13,17,6,0,0,3,9,13,0,0,0,6,5,0,1,5,8,12,10,0,0,0,0,10,0,8,3,7,0,7,9,0,7,1,0,0,0,20,6,5,14,9,0,0,0,0,0,0,0,0,0,0,0,0,0,0,0,0,0,0,0,0,0,0,0,0,0,0,0,0,0],"split_type":[0,0,0,0,0,0,0,0,0,0,0,0,0,0,0,0,0,0,0,0,0,0,0,0,0,0,0,0,0,0,0,0,0,0,0,0,0,0,0,0,0,0,0,0,0,0,0,0,0,0,0,0,0,0,0,0,0,0,0,0,0,0,0,0,0,0,0,0,0,0,0,0,0,0,0,0,0,0,0,0,0,0,0,0,0,0,0,0,0,0,0],"sum_hessian":[1.467E3,2.92E2,1.175E3,1E0,2.91E2,2.36E2,9.39E2,1.52E2,1.39E2,5.9E1,1.77E2,2.41E2,6.98E2,5.4E1,9.8E1,5.4E1,5E0,1.61E2,1.6E1,1.74E2,6.7E1,6.21E2,7.7E1,5.3E1,1E0,4E0,9.4E1,1.3E1,4.1E1,1.48E2,1.3E1,1.01E2,7.3E1,5.7E1,1E1,8E0,6.13E2,3.1E1,4.6E1,2E0,2E0,2E0,9.2E1,4E0,9E0,6.1E1,8.7E1,7.2E1,2.9E1,4.1E1,3.2E1,4.6E1,1.1E1,5E0,5E0,3E0,5E0,5.88E2,2.5E1,1.1E1,2E1,4.5E1,1E0,1E0,1E0,2E0,2E0,3E0,5.8E1,7.7E1,1E1,6.3E1,9E0,3.9E1,2E0,2.5E1,7E0,2E0,9E0,2E0,3E0,5E0,5.83E2,4E0,2.1E1,5E0,6E0,1.6E1,4E0,4E0,4.1E1],"tree_param":{"num_deleted":"0","num_feature":"28","num_nodes":"91","size_leaf_vector":"1"}},{"base_weights":[1.10694826E-1,-4.778157E-1,2.572279E-1,1E-2,-4.811644E-1,3.2903227E-1,1.18159205E-1,-4.8448277E-1,-0E0,4.6428572E-2,3.9072326E-1,-5.0314464E-2,2.2745901E-1,-1.9635035E-2,-3.529412E-1,1E-2,-1E-2,2.5287357E-1,-2.8703704E-1,-1.7142856E-2,3.9920634E-1,1.3793103E-1,-2.739726E-1,1.1666667E-1,4E-1,1E-2,-4.0625E-1,-1.7857144E-2,3.75E-1,-3.9772728E-1,1.8181819E-1,2.3979592E-1,4.2776737E-1,2.2297297E-1,-3.2142857E-1,-3.7777779E-1,-1.0344828E-1,-1.3888889E-2,4.4186047E-1,4.1847825E-1,-1.25E-1,-1.25E-1,-1.8461538E-2,1.6666666E-2,-1.3043478E-1,4.3269232E-1,-0E0,-0E0,-4.1666666E-1,-1.25E-1,3.125E-1,-1.8181818E-2,3.2386363E-1,4.7791165E-1,3.8245615E-1,1.2037037E-1,1.9047618E-2,1E-2,-1.5384615E-2,-2.8846154E-1,-1.9E-2,-1.7307693E-1,1.5E-2,-1.1931818E-1,4.2857143E-1,1.9411763E-2,2.5E-1,8.3333336E-2,4.3678162E-1,-1.3333334E-2,1E-2,1E-2,-1.3333334E-2,7.5E-3,-1.12499995E-2,-0E0,1.8749999E-2,-1E-2,1.5E-2,1E-2,-1E-2,-1.9166665E-2,-1.2631578E-2,1E-2,-1.3333334E-2,-0E0,1.6666666E-2,3E-3,1.5652174E-2,1.9579832E-2,8.333333E-3,6.842105E-3,1.6532257E-2,1.7777778E-3,1.8E-2,-1.7777778E-2,-7.777778E-3,-1.1428571E-2,1E-2,1.4545455E-2,-7.4358974E-3,1.8888887E-2,5E-3,-1E-2,1.3333334E-2,1.5E-2,-1.3333334E-2,1.8947368E-2,1.4193548E-2],"categories":[],"categories_nodes":[],"categories_segments":[],"categories_sizes":[],"default_left":[0,0,0,0,0,0,0,0,0,0,0,0,0,0,0,0,0,0,0,0,0,0,0,0,0,0,0,0,0,0,0,0,0,0,0,0,0,0,0,0,0,0,0,0,0,0,0,0,0,0,0,0,0,0,0,0,0,0,0,0,0,0,0,0,0,0,0,0,0,0,0,0,0,0,0,0,0,0,0,0,0,0,0,0,0,0,0,0,0,0,0,0,0,0,0,0,0,0,0,0,0,0,0,0,0,0,0,0,0],"id":16,"left_children":[1,3,5,-1,7,9,11,13,15,17,19,21,23,-1,25,-1,-1,27,29,-1,31,33,35,37,39,-1,41,43,45,47,49,51,53,55,57,59,61,63,65,67,69,71,-1,-1,73,75,77,79,81,83,85,-1,87,89,91,93,-1,-1,-1,95,-1,97,-1,99,101,-1,103,105,107,-1,-1,-1,-1,-1,-1,-1,-1,-1,-1,-1,-1,-1,-1,-1,-1,-1,-1,-1,-1,-1,-1,-1,-1,-1,-1,-1,-1,-1,-1,-1,-1,-1,-1,-1,-1,-1,-1,-1,-1],"loss_changes":[1.2671772E2,8.34404E-1,1.1704353E1,0E0,4.6622467E-1,1.3493294E1,7.413929E0,7.0632935E-2,2.5E-1,9.710507E0,4.5913773E0,6.7321086E0,4.617691E0,0E0,6.479778E-1,0E0,0E0,2.8832097E0,2.8747897E0,0E0,2.76577E0,3.4703102E0,1.2531147E0,6.3745146E0,9.7391415E-1,0E0,1.9110584E-1,1.4240425E0,1.2980766E0,3.3143902E-1,4.8011363E-1,5.8676367E0,1.028244E0,1.865258E0,6.0164833E-1,2.5373936E-1,1.0310013E0,5.0891504E0,2.3700428E-1,5.279541E-1,3.9583334E-1,3.9583334E-1,0E0,0E0,1.1555706E0,8.112984E-1,9.375E-1,2.5E-1,1.1348677E-1,3.9583334E-1,2.6041663E-1,0E0,1.4476032E0,6.756058E-1,1.7880363E0,1.3314816E0,0E0,0E0,0E0,2.9487205E-1,0E0,1.3104397E0,0E0,2.8972173E0,2.1924591E-1,0E0,5E-1,8.541667E-1,9.4997406E-2,0E0,0E0,0E0,0E0,0E0,0E0,0E0,0E0,0E0,0E0,0E0,0E0,0E0,0E0,0E0,0E0,0E0,0E0,0E0,0E0,0E0,0E0,0E0,0E0,0E0,0E0,0E0,0E0,0E0,0E0,0E0,0E0,0E0,0E0,0E0,0E0,0E0,0E0,0E0,0E0],"parents":[2147483647,0,0,1,1,2,2,4,4,5,5,6,6,7,7,8,8,9,9,10,10,11,11,12,12,14,14,17,17,18,18,20,20,21,21,22,22,23,23,24,24,26,26,27,27,28,28,29,29,30,30,31,31,32,32,33,33,34,34,35,35,36,36,37,37,38,38,39,39,40,40,41,41,44,44,45,45,46,46,47,47,48,48,49,49,50,50,52,52,53,53,54,54,55,55,59,59,61,61,63,63,64,64,66,66,67,67,68,68],"right_children":[2,4,6,-1,8,10,12,14,16,18,20,22,24,-1,26,-1,-1,28,30,-1,32,34,36,38,40,-1,42,44,46,48,50,52,54,56,58,60,62,64,66,68,70,72,-1,-1,74,76,78,80,82,84,86,-1,88,90,92,94,-1,-1,-1,96,-1,98,-1,100,102,-1,104,106,108,-1,-1,-1,-1,-1,-1,-1,-1,-1,-1,-1,-1,-1,-1,-1,-1,-1,-1,-1,-1,-1,-1,-1,-1,-1,-1,-1,-1,-1,-1,-1,-1,-1,-1,-1,-1,-1,-1,-1,-1],"split_conditions":[3.7396774E0,-1.646E-2,-2.1461171E-1,2.476883E-4,5.4647E-2,-3.0844483E-1,1.0083053E-1,6.801E-3,-1.469E-2,3.6431912E-1,1.3844E-2,2.6614237E-1,-2.90717E-1,-6.5930516E-2,2.6467743E0,1.6633224E-3,-2.9833259E-2,3.1737262E-1,4.140645E0,-1.4926185E-2,-3.6584365E-1,-1.5802883E-1,-1.5105622E-1,-2.4879575E-1,2.646994E-1,6.79512E-4,-9.45E-3,2.5517213E-1,4.701E-2,1.067E-3,3.665016E-1,3.8358064E0,-2.973847E-1,2.3836343E-1,1.067E-3,1.1673E-2,2.6951E-2,4.4071397E-1,2.2487572E-1,1.8286037E-1,-1.204E-2,1.503955E-1,-6.709839E-2,6.529774E-2,2.761E-3,-2.052E-2,2.5586E-2,2.1722971E-1,1.653E-2,2.1735E-2,-2.216E-2,-5.1011905E-2,2.9835957E-1,4.4157133E-1,9.352045E-2,-1.011E-2,5.6561753E-2,9.1322325E-3,-7.827549E-3,4.287E-3,-2.275486E-2,1.7803386E-1,6.0015107E-3,7.593333E-1,4.1021E-2,5.8532067E-2,1.1794E-2,-1.068E-2,-1.011E-2,-4.4172285E-3,3.33683E-3,2.0384216E-3,-5.9963834E-2,1.1217117E-3,-1.1201019E-2,3.6359785E-4,3.6401443E-2,-4.8006056E-3,2.3696365E-2,1.560337E-2,-3.5953216E-2,-3.4289017E-2,-2.0597057E-2,1.6639594E-2,-2.4095135E-2,1.6368542E-2,3.2479096E-2,1.2699128E-4,3.6782876E-2,4.6707723E-2,4.0021095E-2,1.3846321E-2,3.7269056E-2,3.3510397E-3,7.083511E-3,-1.6994838E-2,-1.9298859E-2,-7.066746E-3,1.3890647E-2,4.4878826E-2,-1.2276077E-2,2.9316178E-2,7.2569274E-3,-1.0744476E-3,9.485531E-3,1.9200401E-2,-2.6564025E-3,3.631651E-2,2.064991E-2],"split_indices":[22,8,16,0,9,15,6,7,7,5,11,1,20,0,22,0,0,5,22,0,19,17,16,15,2,0,8,0,10,10,1,22,16,3,10,8,13,6,2,3,7,3,0,0,9,7,9,0,13,8,7,0,2,4,6,7,0,0,0,8,0,0,0,21,12,0,10,7,7,0,0,0,0,0,0,0,0,0,0,0,0,0,0,0,0,0,0,0,0,0,0,0,0,0,0,0,0,0,0,0,0,0,0,0,0,0,0,0,0],"split_type":[0,0,0,0,0,0,0,0,0,0,0,0,0,0,0,0,0,0,0,0,0,0,0,0,0,0,0,0,0,0,0,0,0,0,0,0,0,0,0,0,0,0,0,0,0,0,0,0,0,0,0,0,0,0,0,0,0,0,0,0,0,0,0,0,0,0,0,0,0,0,0,0,0,0,0,0,0,0,0,0,0,0,0,0,0,0,0,0,0,0,0,0,0,0,0,0,0,0,0,0,0,0,0,0,0,0,0,0,0],"sum_hessian":[1.467E3,2.92E2,1.175E3,1E0,2.91E2,7.74E2,4.01E2,2.89E2,2E0,1.39E2,6.35E2,1.58E2,2.43E2,2.73E2,1.6E1,1E0,1E0,8.6E1,5.3E1,6E0,6.29E2,8.6E1,7.2E1,1.49E2,9.4E1,1E0,1.5E1,2.7E1,5.9E1,4.3E1,1E1,9.7E1,5.32E2,7.3E1,1.3E1,4.4E1,2.8E1,1.07E2,4.2E1,9.1E1,3E0,3E0,1.2E1,5E0,2.2E1,5.1E1,8E0,2E0,4.1E1,3E0,7E0,1E1,8.7E1,2.48E2,2.84E2,5.3E1,2E1,1E0,1.2E1,2.5E1,1.9E1,2.5E1,3E0,8.7E1,2E1,3.3E1,9E0,5E0,8.6E1,2E0,1E0,1E0,2E0,7E0,1.5E1,4E0,4.7E1,5E0,3E0,1E0,1E0,2.3E1,1.8E1,1E0,2E0,2E0,5E0,1.9E1,6.8E1,2.37E2,1.1E1,3.7E1,2.47E2,4.4E1,9E0,8E0,1.7E1,2E1,5E0,1E1,7.7E1,1.7E1,3E0,1E0,8E0,3E0,2E0,5.6E1,3E1],"tree_param":{"num_deleted":"0","num_feature":"28","num_nodes":"109","size_leaf_vector":"1"}},{"base_weights":[5.0248635E-1,-4.3003425E-2,6.3796765E-1,-4.62094E-2,1.1764695E-2,7.28129E-1,4.6256217E-1,-1.991736E-3,-2.0833345E-2,2.1249999E-1,-1.8571432E-3,1.3295454E-1,7.629098E-1,8.0083334E-1,4.020408E-1,1.2499999E-1,-1.9354842E-3,1.9E-2,-1.3333337E-3,3.6470586E-1,-1.2500011E-2,5.1926607E-1,8.042468E-1,1.7777777E-1,8.9326924E-1,2.4746376E-1,5.036408E-1,2.9999998E-1,-1.5000004E-3,3.0399999E-2,1.8461537E-1,1.2499999E-1,-1.913044E-3,2.1447368E-1,6.7291665E-1,-1.714286E-3,8.125404E-1,4.6249998E-1,-1.6666669E-3,3.7208334E-2,3.5999998E-1,1.984496E-1,3.42E-2,2.840909E-1,6.0283685E-1,1.9E-2,-1.0000002E-3,5.499999E-2,4.6249998E-1,1.9E-2,-1.6000004E-3,3.0399999E-2,1.2794116E-1,2.5961536E-1,8.8723403E-1,8.4183484E-1,5.858108E-1,2.5333332E-2,-1.0000002E-3,2.5333332E-2,-1.3333337E-3,1.4369747E-1,7.7272725E-1,1.51E-1,6.588235E-1,7.058511E-1,3.8854167E-1,-1.6666669E-3,6.4E-3,-1.0000002E-3,2.5333332E-2,-2.5000045E-4,1.6363636E-2,3.1666663E-2,3.8095233E-3,1.1999999E-2,3.6266666E-2,2.8836064E-2,3.4985848E-2,1.7239999E-2,3.4879997E-2,1.1115384E-2,1.5588229E-3,-1.0000002E-3,3.42E-2,3.260869E-3,3.0399999E-2,2.8125E-2,-1.0000002E-3,2.8891303E-2,-1.3333337E-3,3.4545455E-2,9.631578E-3],"categories":[],"categories_nodes":[],"categories_segments":[],"categories_sizes":[],"default_left":[0,0,0,0,0,0,0,0,0,0,0,0,0,0,0,0,0,0,0,0,0,0,0,0,0,0,0,0,0,0,0,0,0,0,0,0,0,0,0,0,0,0,0,0,0,0,0,0,0,0,0,0,0,0,0,0,0,0,0,0,0,0,0,0,0,0,0,0,0,0,0,0,0,0,0,0,0,0,0,0,0,0,0,0,0,0,0,0,0,0,0,0,0],"id":17,"left_children":[1,3,5,7,9,11,13,-1,15,17,-1,19,21,23,25,27,-1,-1,-1,29,31,33,35,37,39,41,43,45,-1,-1,47,49,-1,51,53,-1,55,57,-1,-1,59,61,-1,63,65,-1,-1,67,69,-1,-1,-1,71,73,75,77,79,-1,-1,-1,-1,81,83,85,87,89,91,-1,-1,-1,-1,-1,-1,-1,-1,-1,-1,-1,-1,-1,-1,-1,-1,-1,-1,-1,-1,-1,-1,-1,-1,-1,-1],"loss_changes":[1.08518036E2,5.199009E-2,1.8261353E1,2.41552E-2,2.0845065E-1,1.5941589E1,7.9080276E0,0E0,1.5070565E-1,2.7395833E-1,0E0,1.4877675E0,6.954712E0,3.2967567E0,5.262192E0,1.8187499E-1,0E0,0E0,0E0,1.0699005E0,1.419837E-1,4.960312E0,4.418762E0,5.815972E-1,6.894455E-1,3.9396734E0,4.3151054E0,1.825E-1,0E0,0E0,4.427981E-1,3.655E-1,0E0,1.6965837E0,6.147255E0,0E0,3.6115417E0,3.489583E-1,0E0,0E0,5.5866665E-1,3.9450994E0,0E0,3.1921692E0,2.8383827E0,0E0,0E0,1.0816667E-1,3.489583E-1,0E0,0E0,0E0,1.2853024E0,2.1984892E0,2.6433945E-1,1.5320129E0,2.902752E0,0E0,0E0,0E0,0E0,1.6614778E0,7.433181E-1,2.0536566E0,5.325823E-1,1.1657982E0,3.1614666E0,0E0,0E0,0E0,0E0,0E0,0E0,0E0,0E0,0E0,0E0,0E0,0E0,0E0,0E0,0E0,0E0,0E0,0E0,0E0,0E0,0E0,0E0,0E0,0E0,0E0,0E0],"parents":[2147483647,0,0,1,1,2,2,3,3,4,4,5,5,6,6,8,8,9,9,11,11,12,12,13,13,14,14,15,15,19,19,20,20,21,21,22,22,23,23,24,24,25,25,26,26,27,27,30,30,31,31,33,33,34,34,36,36,37,37,40,40,41,41,43,43,44,44,47,47,48,48,52,52,53,53,54,54,55,55,56,56,61,61,62,62,63,63,64,64,65,65,66,66],"right_children":[2,4,6,8,10,12,14,-1,16,18,-1,20,22,24,26,28,-1,-1,-1,30,32,34,36,38,40,42,44,46,-1,-1,48,50,-1,52,54,-1,56,58,-1,-1,60,62,-1,64,66,-1,-1,68,70,-1,-1,-1,72,74,76,78,80,-1,-1,-1,-1,82,84,86,88,90,92,-1,-1,-1,-1,-1,-1,-1,-1,-1,-1,-1,-1,-1,-1,-1,-1,-1,-1,-1,-1,-1,-1,-1,-1,-1,-1],"split_conditions":[3.7396774E0,6.801E-3,-2.1461171E-1,3.5093548E0,-9.45E-3,-3.864832E-1,-1.899E-2,-1.944256E-2,-2.3046575E-1,1.503955E-1,-1.2665176E-3,4.0129104E-1,-3.0844483E-1,4.6802264E-2,1.0083053E-1,2.547296E-1,-9.19735E-3,9.243011E-5,-3.659935E-2,4.3571E-2,3.734E-2,-2.8615293E-1,1.3844E-2,4.858E-3,4.1676155E-1,-1.574579E-2,-3.181004E-1,2.0204E-2,-3.6202546E-2,6.153896E-2,3.3413E-2,2.756E-2,-2.8142547E-3,5.518E-3,3.1737262E-1,-3.5876082E-3,4.46724E-1,1.6390923E-1,-5.980911E-3,7.836793E-2,1.2216953E-1,3.787386E-1,7.232334E-2,4.4071397E-1,-2.777109E-1,2.8375015E-2,-2.9679565E-2,-7.49E-3,-1.697E-2,2.4738312E-3,-5.896034E-3,4.7145844E-2,3.8137E-2,2.5517213E-1,-2.052E-2,2.7102828E-1,-2.6333222E-1,1.6168403E-2,-5.2054594E-3,7.483387E-2,-1.4063301E-2,1.3456E-2,-1.54E-3,-2.4879575E-1,2.2042E-2,4.4621E-2,7.1719356E0,-1.8010329E-3,9.161682E-3,-3.2383346E-3,2.7398987E-2,1.0870723E-3,2.9778404E-2,7.593227E-2,2.2318162E-2,3.3773538E-2,6.7839056E-2,6.1983783E-2,7.324392E-2,5.5018976E-2,7.8209996E-2,2.6191024E-2,8.712577E-3,-1.5571937E-2,7.8700714E-2,2.9900542E-2,7.0201755E-2,5.843025E-2,-3.510704E-3,6.64446E-2,-6.6558836E-4,8.8001326E-2,2.429435E-2],"split_indices":[22,7,16,22,8,17,7,0,17,3,0,5,15,6,6,3,0,0,0,11,11,19,11,10,5,20,20,9,0,0,12,10,0,10,5,0,5,0,0,0,0,3,0,6,19,0,0,7,7,0,0,0,10,0,7,2,15,0,0,0,0,10,9,15,8,12,27,0,0,0,0,0,0,0,0,0,0,0,0,0,0,0,0,0,0,0,0,0,0,0,0,0,0],"split_type":[0,0,0,0,0,0,0,0,0,0,0,0,0,0,0,0,0,0,0,0,0,0,0,0,0,0,0,0,0,0,0,0,0,0,0,0,0,0,0,0,0,0,0,0,0,0,0,0,0,0,0,0,0,0,0,0,0,0,0,0,0,0,0,0,0,0,0,0,0,0,0,0,0,0,0,0,0,0,0,0,0,0,0,0,0,0,0,0,0,0,0,0,0],"sum_hessian":[1.467E3,2.92E2,1.175E3,2.76E2,1.6E1,7.74E2,4.01E2,2.41E2,3.5E1,3E0,1.3E1,4.3E1,7.31E2,5.9E1,3.42E2,5E0,3E1,1E0,2E0,1.6E1,2.7E1,1.08E2,6.23E2,8E0,5.1E1,1.37E2,2.05E2,2E0,3E0,4E0,1.2E1,5E0,2.2E1,3.7E1,7.1E1,6E0,6.17E2,3E0,5E0,4.7E1,4E0,1.28E2,9E0,6.5E1,1.4E2,1E0,1E0,9E0,3E0,1E0,4E0,4E0,3.3E1,2.5E1,4.6E1,5.44E2,7.3E1,2E0,1E0,2E0,2E0,1.18E2,1E1,4.9E1,1.6E1,9.3E1,4.7E1,5E0,4E0,1E0,2E0,2.3E1,1E1,5E0,2E1,2E0,4.4E1,1.21E2,4.23E2,4.9E1,2.4E1,5.1E1,6.7E1,1E0,9E0,4.5E1,4E0,1.5E1,1E0,9.1E1,2E0,1E1,3.7E1],"tree_param":{"num_deleted":"0","num_feature":"28","num_nodes":"93","size_leaf_vector":"1"}},{"base_weights":[-2.6542914E-1,-8.3754265E-1,-1.2266156E-1,1E-3,-8.405822E-1,-2.835443E-1,-8.1968084E-2,-7.673203E-1,-9.146429E-1,-2.4933036E-1,-3.242857E-2,-2.3533058E-1,-2.8755363E-2,-6.0545456E-1,-8.4949493E-1,1E-3,-3.686331E-2,-3.9764705E-1,-1.575E-1,-3.1599998E-1,-2.4264704E-2,-6.350481E-3,-2.0705128E-1,-1.6E-1,-6.372549E-1,-3.5999998E-1,-8.663158E-1,1.8000001E-3,-4.5065787E-1,-2.9453126E-1,