{"learner":{"attributes":{"best_iteration":"72","best_score":"0.1436406796619849"},"feature_names":["NDVI_April","NDVI_May","NDVI_June","NDVI_July","NDVI_August","NDVI_September","NDVI_October","GLI_April","GLI_May","GLI_June","GLI_July","GLI_August","GLI_September","GLI_October","NDWI_April","NDWI_May","NDWI_June","NDWI_July","NDWI_August","NDWI_September","NDWI_October","Precipitation_April","Precipitation_May","Precipitation_June","Precipitation_July","Precipitation_August","Precipitation_September","Precipitation_October"],"feature_types":["float","float","float","float","float","float","float","float","float","float","float","float","float","float","float","float","float","float","float","float","float","float","float","float","float","float","float","float"],"gradient_booster":{"model":{"gbtree_model_param":{"num_parallel_tree":"1","num_trees":"225"},"iteration_indptr":[0,3,6,9,12,15,18,21,24,27,30,33,36,39,42,45,48,51,54,57,60,63,66,69,72,75,78,81,84,87,90,93,96,99,102,105,108,111,114,117,120,123,126,129,132,135,138,141,144,147,150,153,156,159,162,165,168,171,174,177,180,183,186,189,192,195,198,201,204,207,210,213,216,219,222,225],"tree_info":[0,1,2,0,1,2,0,1,2,0,1,2,0,1,2,0,1,2,0,1,2,0,1,2,0,1,2,0,1,2,0,1,2,0,1,2,0,1,2,0,1,2,0,1,2,0,1,2,0,1,2,0,1,2,0,1,2,0,1,2,0,1,2,0,1,2,0,1,2,0,1,2,0,1,2,0,1,2,0,1,2,0,1,2,0,1,2,0,1,2,0,1,2,0,1,2,0,1,2,0,1,2,0,1,2,0,1,2,0,1,2,0,1,2,0,1,2,0,1,2,0,1,2,0,1,2,0,1,2,0,1,2,0,1,2,0,1,2,0,1,2,0,1,2,0,1,2,0,1,2,0,1,2,0,1,2,0,1,2,0,1,2,0,1,2,0,1,2,0,1,2,0,1,2,0,1,2,0,1,2,0,1,2,0,1,2,0,1,2,0,1,2,0,1,2,0,1,2,0,1,2,0,1,2,0,1,2,0,1,2,0,1,2,0,1,2,0,1,2,0,1,2,0,1,2],"trees":[{"base_weights":[-3.8826194E-1,-1.904762E-1,-5.0045216E-1,-7.804878E-1,-1.296758E-1,-5.932156E-1,-2.877637E-1,-8.680555E-1,-1.25E-1,-3.5466667E-2,-9.9999994E-2,-8.289286E-1,-5.0902253E-1,-1.2753165E-1,-6.00625E-1,-3.570588E-2,-2.9999998E-1,1.6E-3,-1.9E-2,-4.5147058E-1,-6.596045E-2,1.6666667E-3,-8.614815E-1,-1.8476562E-1,-6.5974265E-1,-5.4850746E-2,-5.1199996E-1,-7.043478E-1,1.8333333E-3,-1.9E-2,1E-3,-5.37931E-1,1.6666667E-3,-1.3741936E-1,-1.0249998E-2,-8.746212E-1,-2.1249999E-1,-6.75E-1,-1.036036E-1,-3.6835444E-1,-7.75E-1,-5E-1,-1.4919354E-2,1.6E-3,-6.190476E-1,-8.175E-1,1.8000001E-3,-5.8148146E-1,1.3333333E-3,-3.1015626E-1,-1.5760869E-2,-3.857143E-1,3.3505168E-3,1E-3,-8.8167936E-1,-2.9999998E-1,1E-3,-3.3124998E-1,-3.4545455E-2,-1.7333332E-2,-2.7567568E-1,-6.5882355E-1,-2.8412697E-1,-7.960106E-1,-9.9999994E-2,-2.22E-2,1E-3,-2.65625E-1,2.2018349E-2,-7.3055553E-1,1.5E-3,-8.4181815E-1,-4.583333E-1,-2.4230769E-2,1E-3,-3.2571428E-2,-9.75862E-3,-9.090909E-3,5.1219517E-4,1.3333333E-3,-2.24E-2,3.3160625E-4,-1.9E-2,-1.1999999E-2,-3.553488E-2,1E-3,-1.9E-2,-2.24E-2,1.5E-3,-8.166666E-3,7.1875006E-4,-9.485713E-3,-2.5333332E-2,1.3333333E-3,-3.0133333E-2,-2.0333333E-2,-7.6086954E-3,-3.2516483E-2,-9.714286E-3,1.6666667E-3,-1.9E-2,-4.833333E-3,-2.24E-2,1.2407408E-3,-1.9E-2,-3.242857E-2,-1.4399999E-2,-3.4264147E-2,-1.1999999E-2,1E-3,-2.24E-2],"categories":[],"categories_nodes":[],"categories_segments":[],"categories_sizes":[],"default_left":[0,0,0,0,0,0,0,0,0,0,0,0,0,0,0,0,0,0,0,0,0,0,0,0,0,0,0,0,0,0,0,0,0,0,0,0,0,0,0,0,0,0,0,0,0,0,0,0,0,0,0,0,0,0,0,0,0,0,0,0,0,0,0,0,0,0,0,0,0,0,0,0,0,0,0,0,0,0,0,0,0,0,0,0,0,0,0,0,0,0,0,0,0,0,0,0,0,0,0,0,0,0,0,0,0,0,0,0,0,0,0],"id":0,"left_children":[1,3,5,7,9,11,13,15,17,-1,19,21,23,25,27,-1,29,-1,-1,31,33,-1,35,37,39,41,43,45,-1,-1,-1,47,-1,49,51,53,55,57,59,61,63,65,67,-1,69,71,-1,73,-1,75,77,79,81,-1,83,85,-1,87,-1,89,91,93,95,97,99,-1,-1,101,103,105,-1,107,109,-1,-1,-1,-1,-1,-1,-1,-1,-1,-1,-1,-1,-1,-1,-1,-1,-1,-1,-1,-1,-1,-1,-1,-1,-1,-1,-1,-1,-1,-1,-1,-1,-1,-1,-1,-1,-1,-1],"loss_changes":[2.684288E1,1.5718751E1,1.5100098E1,2.2448769E0,8.919524E0,1.0254883E1,1.180431E1,2.351036E-1,3.6549997E-1,0E0,4.6002502E0,4.0035477E0,1.9378036E1,4.38699E0,5.3964806E0,0E0,1.8249997E-1,0E0,0E0,1.4720683E0,1.407868E0,0E0,9.653473E-1,5.0229845E0,8.849548E0,2.3744478E0,1.5020194E0,5.8873177E0,0E0,0E0,0E0,7.408676E-1,0E0,3.2524228E0,1.0225939E0,8.602066E-1,9.062502E-2,8.8110733E-1,1.6429838E0,1.7455826E0,2.6717453E0,3.3150005E-1,1.1541495E0,0E0,1.5648117E0,1.3822556E-1,0E0,4.128561E-1,0E0,1.9369388E0,5.587737E-1,5.299047E-1,4.623364E-1,0E0,2.4346924E-1,1.8249997E-1,0E0,6.958125E-1,0E0,4.9833903E-1,3.5972714E-1,1.1371765E0,1.2297788E0,1.5602036E0,3.9166665E-1,0E0,0E0,6.1430204E-1,5.0231797E-1,2.4280071E-1,0E0,1.8362808E-1,3.0883336E-1,0E0,0E0,0E0,0E0,0E0,0E0,0E0,0E0,0E0,0E0,0E0,0E0,0E0,0E0,0E0,0E0,0E0,0E0,0E0,0E0,0E0,0E0,0E0,0E0,0E0,0E0,0E0,0E0,0E0,0E0,0E0,0E0,0E0,0E0,0E0,0E0,0E0,0E0],"parents":[2147483647,0,0,1,1,2,2,3,3,4,4,5,5,6,6,7,7,8,8,10,10,11,11,12,12,13,13,14,14,16,16,19,19,20,20,22,22,23,23,24,24,25,25,26,26,27,27,31,31,33,33,34,34,35,35,36,36,37,37,38,38,39,39,40,40,41,41,42,42,44,44,45,45,47,47,49,49,50,50,51,51,52,52,54,54,55,55,57,57,59,59,60,60,61,61,62,62,63,63,64,64,67,67,68,68,69,69,71,71,72,72],"right_children":[2,4,6,8,10,12,14,16,18,-1,20,22,24,26,28,-1,30,-1,-1,32,34,-1,36,38,40,42,44,46,-1,-1,-1,48,-1,50,52,54,56,58,60,62,64,66,68,-1,70,72,-1,74,-1,76,78,80,82,-1,84,86,-1,88,-1,90,92,94,96,98,100,-1,-1,102,104,106,-1,108,110,-1,-1,-1,-1,-1,-1,-1,-1,-1,-1,-1,-1,-1,-1,-1,-1,-1,-1,-1,-1,-1,-1,-1,-1,-1,-1,-1,-1,-1,-1,-1,-1,-1,-1,-1,-1,-1,-1],"split_conditions":[-2.8323647E-1,-3.155921E-1,-2.4879575E-1,4.4659E-2,3.7396774E0,1.3083452E-1,-2.2500928E-1,-2.3527567E-1,-5.19E-3,-1.00800015E-1,-3.7982965E-1,-2.7382526E-1,7.1719356E0,4.179602E-1,4.3118593E-1,-8.86E-2,-2.018E-2,7.599983E-3,-1.880001E-2,4.2E-2,-3.3202475E-1,2.4399986E-2,2.8484E-2,1.0602911E-1,3.5178536E-1,-2.826903E-1,1.32E-4,3.47899E-1,4.3600004E-2,-6.399994E-3,2.1199988E-2,4.4694E-2,3.600006E-3,4.1009882E-1,-3.3196366E-1,-1.509E-2,1.7803386E-1,1.7230605E-1,-1.419321E-1,3.9182E-2,5.3717E-2,2.1532E-2,6.721716E-2,1.1599998E-2,2.3521E-2,2.50632E-1,1E-2,8E-4,2E-2,-3.3060285E-1,3.8483E-2,-1.755E-2,4.0105927E-1,4.799995E-3,-2.302E-2,-2.117E-2,2.2799987E-2,-6.02E-3,-6.1599996E-2,3.633E-2,4.7971E-2,-2.242E-2,2.836304E-1,4.4639E-2,4.1479E-2,-3.0400008E-2,2.1199988E-2,3.7859E-2,4.0734223E-1,2.0547E-2,1.880001E-2,3.8767E-2,-1.528E-2,-5.403999E-2,3.5600014E-2,-5.2400015E-2,-4.056E-2,-3.3600006E-2,6.4000714E-4,4.000015E-3,-3.16E-2,1.8600045E-3,-1.0439999E-1,-5.0800018E-2,-7.008002E-2,1.4000015E-2,-2.2799987E-2,-4.84E-2,7.200012E-3,-9.639999E-2,5.039993E-3,-2.2800015E-2,-2.0000075E-3,6.800003E-3,-4.760002E-2,-6.119999E-2,-2.7440002E-2,-8.1159994E-2,-6.639999E-2,7.9998013E-4,-7.200012E-3,-7.16E-2,-4.5200005E-2,8.159996E-3,-2.920002E-2,-6.639999E-2,-9.52E-2,-1.1586E-1,-1.4000015E-2,2E-2,-5.5600014E-2],"split_indices":[16,15,15,10,22,6,17,14,7,0,19,16,27,5,4,0,7,0,0,12,17,0,8,2,3,16,9,6,0,0,0,11,0,5,20,13,0,0,20,11,13,8,6,0,10,1,0,7,0,19,11,7,2,0,7,7,0,9,0,11,11,7,1,12,10,0,0,13,6,9,0,10,7,0,0,0,0,0,0,0,0,0,0,0,0,0,0,0,0,0,0,0,0,0,0,0,0,0,0,0,0,0,0,0,0,0,0,0,0,0,0],"split_type":[0,0,0,0,0,0,0,0,0,0,0,0,0,0,0,0,0,0,0,0,0,0,0,0,0,0,0,0,0,0,0,0,0,0,0,0,0,0,0,0,0,0,0,0,0,0,0,0,0,0,0,0,0,0,0,0,0,0,0,0,0,0,0,0,0,0,0,0,0,0,0,0,0,0,0,0,0,0,0,0,0,0,0,0,0,0,0,0,0,0,0,0,0,0,0,0,0,0,0,0,0,0,0,0,0,0,0,0,0,0,0],"sum_hessian":[1.213E3,4.4E2,7.73E2,4E1,4E2,5.37E2,2.36E2,3.5E1,5E0,1.4E1,3.86E2,1.39E2,3.98E2,1.57E2,7.9E1,3.3E1,2E0,4E0,1E0,3.3E1,3.53E2,5E0,1.34E2,1.27E2,2.71E2,1.33E2,2.4E1,6.8E1,1.1E1,1E0,1E0,2.8E1,5E0,1.54E2,1.99E2,1.31E2,3E0,1.7E1,1.1E2,7.8E1,1.93E2,1E1,1.23E2,4E0,2E1,5.9E1,9E0,2.6E1,2E0,6.3E1,9.1E1,6E0,1.93E2,1E0,1.3E2,2E0,1E0,7E0,1E1,7.4E1,3.6E1,1.6E1,6.2E1,1.87E2,6E0,9E0,1E0,1.5E1,1.08E2,1.7E1,3E0,5.4E1,5E0,2.5E1,1E0,6E0,5.7E1,1E1,8.1E1,2E0,4E0,1.92E2,1E0,2E0,1.28E2,1E0,1E0,4E0,3E0,1.1E1,6.3E1,3.4E1,2E0,2E0,1.4E1,1.7E1,4.5E1,1.81E2,6E0,5E0,1E0,1.1E1,4E0,1.07E2,1E0,1.3E1,4E0,5.2E1,2E0,1E0,4E0],"tree_param":{"num_deleted":"0","num_feature":"28","num_nodes":"111","size_leaf_vector":"1"}},{"base_weights":[6.136738E-2,2.585034E-1,-5.103359E-2,-3.4146342E-1,3.19202E-1,-1.4405204E-1,1.6033755E-1,-4.3055555E-1,2.5E-1,-1.8666666E-2,3.488372E-1,-3.8214287E-1,-6.0150377E-2,3.1962025E-1,-1.5625E-1,-4.5588234E-1,-0E0,1.6E-2,-1E-2,-1.4705882E-2,3.8276836E-1,1.6666666E-2,-4.148148E-1,2.6171875E-1,-2.1139705E-1,3.9179105E-1,-8E-2,-2.6086956E-1,1.8333333E-2,-1.9333333E-2,-2E-1,-1E-2,1E-2,-1.0344828E-1,1.6666666E-2,-1.3333334E-2,3.877841E-1,-4.280303E-1,1.25E-1,-2.5E-1,3.4234235E-1,7.594936E-2,-3.273196E-1,-9.090909E-2,4.3145162E-1,1.6E-2,-1.904762E-1,-3.75E-1,1.8E-2,1E-2,-1.5E-2,-1.4814815E-1,1.3333334E-2,3.9285713E-1,-1.3333334E-2,1E-2,-4.351145E-1,-0E0,1E-2,6.25E-2,-1.8181818E-2,4.2666668E-1,1.6216215E-1,-2.3529412E-1,1.5873016E-1,-3.4840426E-1,2.857143E-1,6.25E-2,-1.5E-2,1.5625E-1,4.678899E-1,-3.0555555E-1,1.5E-2,-1.9230768E-2,-2.857143E-1,-0E0,-1.0666667E-2,1.709804E-2,1.1875E-2,-1.8166667E-2,-8.333333E-3,1E-2,-1E-2,-8E-3,1.5E-2,-1E-2,1.7567568E-2,8E-3,-1.3333334E-2,-1.5384615E-2,8E-3,-1.6E-2,8.135593E-3,-1.4615384E-2,5.7142857E-3,1.6666666E-2,-1E-2,-1.3333334E-2,1E-2,1.1666666E-2,-8E-3,1.9074073E-2,-1E-2,-1.5714286E-2,-0E0,-1.3793103E-2,-0E0],"categories":[],"categories_nodes":[],"categories_segments":[],"categories_sizes":[],"default_left":[0,0,0,0,0,0,0,0,0,0,0,0,0,0,0,0,0,0,0,0,0,0,0,0,0,0,0,0,0,0,0,0,0,0,0,0,0,0,0,0,0,0,0,0,0,0,0,0,0,0,0,0,0,0,0,0,0,0,0,0,0,0,0,0,0,0,0,0,0,0,0,0,0,0,0,0,0,0,0,0,0,0,0,0,0,0,0,0,0,0,0,0,0,0,0,0,0,0,0,0,0,0,0,0,0,0,0],"id":1,"left_children":[1,3,5,7,9,11,13,15,17,-1,19,21,23,25,27,29,31,-1,-1,33,35,-1,37,39,41,43,45,47,-1,-1,49,-1,-1,51,-1,-1,53,55,57,59,61,63,65,67,69,-1,71,73,-1,-1,-1,75,-1,77,-1,-1,79,81,-1,83,-1,85,87,89,91,93,95,97,-1,99,101,103,-1,-1,105,-1,-1,-1,-1,-1,-1,-1,-1,-1,-1,-1,-1,-1,-1,-1,-1,-1,-1,-1,-1,-1,-1,-1,-1,-1,-1,-1,-1,-1,-1,-1,-1],"loss_changes":[2.6913345E1,1.6168957E1,1.5241034E1,2.2681231E0,9.501831E0,1.0724218E1,1.20011215E1,3.9256525E-1,5.5E-1,0E0,4.7794456E0,3.8266525E0,1.94793E1,4.5882072E0,5.26336E0,1.421566E-1,2.5E-1,0E0,0E0,1.3446585E0,1.4007492E0,0E0,1.0165825E0,5.366431E0,9.085159E0,2.6045399E0,1.4019048E0,5.7668476E0,0E0,0E0,4.875E-1,0E0,0E0,6.1558115E-1,0E0,0E0,1.4186592E0,7.42815E-1,6.25E-2,1.1789773E0,1.6172972E0,2.072782E0,2.607113E0,5.028409E-1,1.1703491E0,0E0,1.4811509E0,4.2925835E-1,0E0,0E0,0E0,4.7407413E-1,0E0,1.0352364E0,0E0,0E0,4.7138977E-1,2.5E-1,0E0,7.3125E-1,0E0,7.453146E-1,7.6036036E-1,1.1819005E0,1.6533762E0,1.6204548E0,5.9523803E-1,6.770834E-1,0E0,8.302084E-1,8.2048607E-1,4.801588E-1,0E0,0E0,5.911329E-1,0E0,0E0,0E0,0E0,0E0,0E0,0E0,0E0,0E0,0E0,0E0,0E0,0E0,0E0,0E0,0E0,0E0,0E0,0E0,0E0,0E0,0E0,0E0,0E0,0E0,0E0,0E0,0E0,0E0,0E0,0E0,0E0],"parents":[2147483647,0,0,1,1,2,2,3,3,4,4,5,5,6,6,7,7,8,8,10,10,11,11,12,12,13,13,14,14,15,15,16,16,19,19,20,20,22,22,23,23,24,24,25,25,26,26,27,27,30,30,33,33,36,36,37,37,38,38,39,39,40,40,41,41,42,42,43,43,44,44,46,46,47,47,51,51,53,53,56,56,57,57,59,59,61,61,62,62,63,63,64,64,65,65,66,66,67,67,69,69,70,70,71,71,74,74],"right_children":[2,4,6,8,10,12,14,16,18,-1,20,22,24,26,28,30,32,-1,-1,34,36,-1,38,40,42,44,46,48,-1,-1,50,-1,-1,52,-1,-1,54,56,58,60,62,64,66,68,70,-1,72,74,-1,-1,-1,76,-1,78,-1,-1,80,82,-1,84,-1,86,88,90,92,94,96,98,-1,100,102,104,-1,-1,106,-1,-1,-1,-1,-1,-1,-1,-1,-1,-1,-1,-1,-1,-1,-1,-1,-1,-1,-1,-1,-1,-1,-1,-1,-1,-1,-1,-1,-1,-1,-1,-1],"split_conditions":[-2.8323647E-1,-3.155921E-1,-2.4879575E-1,4.4659E-2,3.7396774E0,1.3083452E-1,-2.2500928E-1,-2.3527567E-1,-5.19E-3,-5.2200012E-2,-3.7982965E-1,-2.7382526E-1,7.1719356E0,4.179602E-1,4.3118593E-1,3.5509E-2,-2.018E-2,1.2799988E-2,-1.880001E-2,4.2E-2,1.4140502E-1,4.4399984E-2,2.8484E-2,1.0602911E-1,3.5178536E-1,-2.826903E-1,1.32E-4,3.47899E-1,5.880001E-2,-4.6800002E-2,4.2767E-2,-6.399994E-3,2.1199988E-2,4.4694E-2,2.4399986E-2,-4.200001E-3,3.6396253E-1,-1.509E-2,1.7803386E-1,1.7230605E-1,-1.419321E-1,3.9182E-2,5.3717E-2,1.2804E-2,6.721716E-2,3.380001E-2,2.3521E-2,3.6601E-2,4.2799987E-2,4.000015E-3,-7.0800014E-2,-7.94E-3,3.18E-2,2.228532E-1,-2.2199992E-2,4.799995E-3,2.9835957E-1,-2.117E-2,2.2799987E-2,-6.02E-3,-3.959999E-2,1.2216953E-1,4.7971E-2,3.3555353E-1,2.8138947E-1,4.4639E-2,4.1479E-2,2.785E-3,-4.799995E-3,3.7859E-2,4.0734223E-1,2.0547E-2,1.919998E-2,-5.2799985E-2,4.200456E-2,4.200001E-3,-1.2600002E-2,3.6399994E-2,2.2799987E-2,-3.3600006E-2,-1.3600006E-2,1.4000015E-2,-2.2799987E-2,-1.0400009E-2,7.200012E-3,-9.639999E-2,3.6399994E-2,9.399986E-3,-1.400013E-3,-2.2199992E-2,8.400002E-3,-5.1999986E-2,9.199982E-3,-2.6399992E-2,5.39999E-3,1.5200004E-2,-7.200012E-3,-1.7800007E-2,2.7999878E-3,3.3199996E-2,-7.199993E-3,4.5200005E-2,-2.920002E-2,-1.84E-2,5.999947E-4,-2.9400004E-2,-3.600006E-3],"split_indices":[16,15,15,10,22,6,17,14,7,0,19,16,27,5,4,9,7,0,0,12,0,0,8,2,3,16,9,6,0,0,11,0,0,11,0,0,1,13,0,0,20,11,13,9,6,0,10,11,0,0,0,7,0,0,0,0,2,7,0,9,0,0,11,3,1,12,10,9,0,13,6,9,0,0,6,0,0,0,0,0,0,0,0,0,0,0,0,0,0,0,0,0,0,0,0,0,0,0,0,0,0,0,0,0,0,0,0],"split_type":[0,0,0,0,0,0,0,0,0,0,0,0,0,0,0,0,0,0,0,0,0,0,0,0,0,0,0,0,0,0,0,0,0,0,0,0,0,0,0,0,0,0,0,0,0,0,0,0,0,0,0,0,0,0,0,0,0,0,0,0,0,0,0,0,0,0,0,0,0,0,0,0,0,0,0,0,0,0,0,0,0,0,0,0,0,0,0,0,0,0,0,0,0,0,0,0,0,0,0,0,0,0,0,0,0,0,0],"sum_hessian":[1.213E3,4.4E2,7.73E2,4E1,4E2,5.37E2,2.36E2,3.5E1,5E0,1.4E1,3.86E2,1.39E2,3.98E2,1.57E2,7.9E1,3.3E1,2E0,4E0,1E0,3.3E1,3.53E2,5E0,1.34E2,1.27E2,2.71E2,1.33E2,2.4E1,6.8E1,1.1E1,2.9E1,4E0,1E0,1E0,2.8E1,5E0,2E0,3.51E2,1.31E2,3E0,1.7E1,1.1E2,7.8E1,1.93E2,1E1,1.23E2,4E0,2E1,5.9E1,9E0,1E0,3E0,2.6E1,2E0,3.49E2,2E0,1E0,1.3E2,2E0,1E0,7E0,1E1,7.4E1,3.6E1,1.6E1,6.2E1,1.87E2,6E0,7E0,3E0,1.5E1,1.08E2,1.7E1,3E0,2.5E1,3.4E1,1.2E1,1.4E1,2.54E2,9.5E1,1.19E2,1.1E1,1E0,1E0,4E0,3E0,1E0,7.3E1,3.4E1,2E0,1.2E1,4E0,4E0,5.8E1,1.81E2,6E0,5E0,1E0,2E0,5E0,1.1E1,4E0,1.07E2,1E0,1.3E1,4E0,2.8E1,6E0],"tree_param":{"num_deleted":"0","num_feature":"28","num_nodes":"107","size_leaf_vector":"1"}},{"base_weights":[5.109967E-1,7.07483E-1,3.98385E-1,9.7560965E-2,7.680798E-1,3.051115E-1,6.084388E-1,6.944433E-3,6.25E-1,-1.8666671E-3,7.976744E-1,6.464285E-2,3.887218E-1,7.6677215E-1,2.8812498E-1,-1.9117659E-2,2.9999998E-1,3.0399999E-2,-1.0000002E-3,4.2205882E-1,8.314972E-1,3.1666663E-2,3.185184E-2,7.0820314E-1,2.3694852E-1,8.3843285E-1,3.52E-1,1.8260868E-1,3.4833334E-2,-1.9333337E-3,1.6E-1,-1.0000002E-3,1.9E-2,3.3103448E-1,3.1666663E-2,-1.3333337E-3,8.3650565E-1,8.403243E-4,2.4705881E-1,1.7499998E-1,7.882883E-1,5.202532E-1,1.20360814E-1,3.181818E-1,8.778226E-1,5.499999E-2,5.15625E-1,6.749999E-2,3.42E-2,1.9E-2,-1.5000004E-3,5.111111E-1,2.3809522E-1,8.415714E-1,-1.3333337E-3,1.9E-2,-7.2034015E-3,4.090909E-1,-1.714286E-3,4.5624998E-1,-1.8181823E-3,8.706667E-1,5.9999996E-1,1.8823528E-1,6.015873E-1,9.920212E-2,6.7142856E-1,4.5624998E-1,-1.5000004E-3,8.8536584E-1,-1.0000002E-3,2.9999998E-1,-1.7500004E-3,2.55E-1,3.2571428E-2,-1.9230774E-3,1.5142857E-1,6.4E-3,3.0399999E-2,-1.6000004E-3,1.2235293E-2,-1.0000002E-3,3.376504E-2,-9.107148E-4,9.714285E-3,6.4E-3,2.1142857E-2,2.4999999E-2,-1.3333337E-3,-1.0000002E-3,3.5324324E-2,2.5485713E-2,-1.3333337E-3,1.2307687E-3,2.24E-2,-1.6000004E-3,2.5830507E-2,2.4444397E-4,7.313131E-3,3.1666663E-2,-1.0000002E-3,-1.3333337E-3,2.4999999E-2,2.3125E-2,3.6907405E-2,-1.0000002E-3,1.9E-2,3.2499996E-3,2.5333332E-2,9.28E-3,-1.8181823E-3],"categories":[],"categories_nodes":[],"categories_segments":[],"categories_sizes":[],"default_left":[0,0,0,0,0,0,0,0,0,0,0,0,0,0,0,0,0,0,0,0,0,0,0,0,0,0,0,0,0,0,0,0,0,0,0,0,0,0,0,0,0,0,0,0,0,0,0,0,0,0,0,0,0,0,0,0,0,0,0,0,0,0,0,0,0,0,0,0,0,0,0,0,0,0,0,0,0,0,0,0,0,0,0,0,0,0,0,0,0,0,0,0,0,0,0,0,0,0,0,0,0,0,0,0,0,0,0,0,0,0,0],"id":2,"left_children":[1,3,5,7,9,11,13,15,17,-1,19,21,23,25,27,29,31,-1,-1,33,35,-1,37,39,41,43,45,47,-1,-1,49,-1,-1,51,-1,-1,53,55,57,59,61,63,65,67,69,71,73,75,-1,-1,-1,77,79,81,-1,-1,83,85,-1,87,-1,89,91,93,95,97,99,101,-1,103,-1,105,-1,107,-1,-1,109,-1,-1,-1,-1,-1,-1,-1,-1,-1,-1,-1,-1,-1,-1,-1,-1,-1,-1,-1,-1,-1,-1,-1,-1,-1,-1,-1,-1,-1,-1,-1,-1,-1,-1],"loss_changes":[2.6579926E1,1.6224121E1,1.4978912E1,1.9552424E0,9.706177E0,1.079171E1,1.1798859E1,2.8069037E-1,5.4550004E-1,0E0,4.5656586E0,3.312362E0,1.9179195E1,4.401085E0,4.759797E0,1.8565688E-1,1.825E-1,0E0,0E0,8.81804E-1,1.5612183E0,0E0,9.0076804E-1,5.3278656E0,8.921497E0,2.4666977E0,1.1865566E0,5.282756E0,0E0,0E0,3.28875E-1,0E0,0E0,3.6365652E-1,0E0,0E0,1.5791168E0,4.5728883E-1,8.161192E-1,1.1367898E0,1.1993027E0,2.0201054E0,2.1954088E0,5.5730116E-1,8.6660767E-1,2.550625E-1,1.0377722E0,5.892926E-1,0E0,0E0,0E0,6.6488886E-1,4.0811205E-1,7.959137E-1,0E0,0E0,4.647923E-1,2.4280536E-1,0E0,6.817709E-1,0E0,8.578377E-1,8.916197E-1,9.7795475E-1,1.8114014E0,1.4624332E0,6.059525E-1,6.817709E-1,0E0,8.7688446E-1,0E0,1.825E-1,0E0,6.0589576E-1,0E0,0E0,5.657557E-1,0E0,0E0,0E0,0E0,0E0,0E0,0E0,0E0,0E0,0E0,0E0,0E0,0E0,0E0,0E0,0E0,0E0,0E0,0E0,0E0,0E0,0E0,0E0,0E0,0E0,0E0,0E0,0E0,0E0,0E0,0E0,0E0,0E0,0E0],"parents":[2147483647,0,0,1,1,2,2,3,3,4,4,5,5,6,6,7,7,8,8,10,10,11,11,12,12,13,13,14,14,15,15,16,16,19,19,20,20,22,22,23,23,24,24,25,25,26,26,27,27,30,30,33,33,36,36,37,37,38,38,39,39,40,40,41,41,42,42,43,43,44,44,45,45,46,46,47,47,51,51,52,52,53,53,56,56,57,57,59,59,61,61,62,62,63,63,64,64,65,65,66,66,67,67,69,69,71,71,73,73,76,76],"right_children":[2,4,6,8,10,12,14,16,18,-1,20,22,24,26,28,30,32,-1,-1,34,36,-1,38,40,42,44,46,48,-1,-1,50,-1,-1,52,-1,-1,54,56,58,60,62,64,66,68,70,72,74,76,-1,-1,-1,78,80,82,-1,-1,84,86,-1,88,-1,90,92,94,96,98,100,102,-1,104,-1,106,-1,108,-1,-1,110,-1,-1,-1,-1,-1,-1,-1,-1,-1,-1,-1,-1,-1,-1,-1,-1,-1,-1,-1,-1,-1,-1,-1,-1,-1,-1,-1,-1,-1,-1,-1,-1,-1,-1],"split_conditions":[-2.8323647E-1,-3.155921E-1,-2.4879575E-1,4.4659E-2,3.7396774E0,1.3083452E-1,-2.2500928E-1,-2.3527567E-1,-5.19E-3,-2.4799995E-2,-3.7982965E-1,-2.7382526E-1,7.1719356E0,4.179602E-1,4.3118593E-1,3.5509E-2,-2.018E-2,1.6399993E-2,-1.880001E-2,4.2E-2,1.4140502E-1,6.84E-2,2.3208E-2,1.0602911E-1,3.5178536E-1,-2.826903E-1,3.1402E-2,3.47899E-1,6.439999E-2,-1.3400005E-2,4.2767E-2,-6.399994E-3,2.1199988E-2,7.36E-4,5.2399978E-2,-4.000015E-3,3.6396253E-1,-1.509E-2,3.2949E-2,1.7230605E-1,-1.419321E-1,3.9182E-2,5.3717E-2,1.2804E-2,4.0734223E-1,1.513E-2,3.6621E-2,3.6601E-2,5.880001E-2,4.000015E-3,-4.1599996E-2,-1.172E-2,1.3955E-2,1.4474E-2,-4.799995E-3,4.799995E-3,2.9835957E-1,-7.12E-3,-7.200012E-3,4.1021E-2,-5.2000047E-3,1.2216953E-1,4.7971E-2,3.3555353E-1,2.8138947E-1,3.608906E-1,4.1479E-2,2.785E-3,-3.600006E-3,6.721716E-2,-2.920002E-2,1.0036E-2,-1.1999893E-3,2.3521E-2,6.759998E-2,-9.48001E-3,-1.198E-2,8.400002E-3,4.3600004E-2,-1.1999893E-3,4.7599982E-2,-3.5600014E-2,6.141999E-2,-3.8400122E-3,1.880001E-2,1.4000015E-2,3.959999E-2,1.2399978E-2,-1.1599998E-2,-9.639999E-2,7.308E-2,4.909999E-2,-8.000183E-4,1.5999984E-2,1.3199996E-2,-3.720001E-2,4.1439984E-2,1.8000025E-3,2.3700003E-2,4.919998E-2,-7.200012E-3,-5.2000047E-3,3.239998E-2,5.720001E-2,7.136001E-2,-6.639999E-2,7.7999994E-2,1.2000008E-2,2.7599983E-2,2E-2,-1.3199996E-2],"split_indices":[16,15,15,10,22,6,17,14,7,0,19,16,27,5,4,9,7,0,0,12,0,0,9,2,3,16,11,6,0,0,11,0,0,8,0,0,1,13,10,0,20,11,13,9,6,10,12,11,0,0,0,8,8,11,0,0,2,7,0,12,0,0,11,3,1,6,10,9,0,6,0,10,0,10,0,0,7,0,0,0,0,0,0,0,0,0,0,0,0,0,0,0,0,0,0,0,0,0,0,0,0,0,0,0,0,0,0,0,0,0,0],"split_type":[0,0,0,0,0,0,0,0,0,0,0,0,0,0,0,0,0,0,0,0,0,0,0,0,0,0,0,0,0,0,0,0,0,0,0,0,0,0,0,0,0,0,0,0,0,0,0,0,0,0,0,0,0,0,0,0,0,0,0,0,0,0,0,0,0,0,0,0,0,0,0,0,0,0,0,0,0,0,0,0,0,0,0,0,0,0,0,0,0,0,0,0,0,0,0,0,0,0,0,0,0,0,0,0,0,0,0,0,0,0,0],"sum_hessian":[1.213E3,4.4E2,7.73E2,4E1,4E2,5.37E2,2.36E2,3.5E1,5E0,1.4E1,3.86E2,1.39E2,3.98E2,1.57E2,7.9E1,3.3E1,2E0,4E0,1E0,3.3E1,3.53E2,5E0,1.34E2,1.27E2,2.71E2,1.33E2,2.4E1,6.8E1,1.1E1,2.9E1,4E0,1E0,1E0,2.8E1,5E0,2E0,3.51E2,1.18E2,1.6E1,1.7E1,1.1E2,7.8E1,1.93E2,1E1,1.23E2,9E0,1.5E1,5.9E1,9E0,1E0,3E0,8E0,2E1,3.49E2,2E0,1E0,1.17E2,1E1,6E0,7E0,1E1,7.4E1,3.6E1,1.6E1,6.2E1,1.87E2,6E0,7E0,3E0,1.22E2,1E0,2E0,7E0,9E0,6E0,2.5E1,3.4E1,4E0,4E0,4E0,1.6E1,1E0,3.48E2,1.11E2,6E0,4E0,6E0,5E0,2E0,1E0,7.3E1,3.4E1,2E0,1.2E1,4E0,4E0,5.8E1,8.9E1,9.8E1,5E0,1E0,2E0,5E0,1.5E1,1.07E2,1E0,1E0,7E0,2E0,2.4E1,1E1],"tree_param":{"num_deleted":"0","num_feature":"28","num_nodes":"111","size_leaf_vector":"1"}},{"base_weights":[-3.726112E-1,-1.8367347E-1,-4.7978035E-1,-7.804878E-1,-1.2219451E-1,-5.671933E-1,-2.793249E-1,-8.680555E-1,-1.25E-1,-3.5466667E-2,-9.224806E-2,-8.217857E-1,-4.764411E-1,-1.1487342E-1,-6.00625E-1,-3.570588E-2,-2.9999998E-1,1.6E-3,-1.9E-2,-3.9264706E-1,-6.3135594E-2,1.6666667E-3,-8.5407406E-1,-1.8476562E-1,-6.1194855E-1,-4.738806E-2,-4.72E-1,-7.043478E-1,1.8333333E-3,-1.9E-2,1E-3,-4.689655E-1,1.6666667E-3,-1.3096774E-1,-1.0249998E-2,-8.6704546E-1,-2.1249999E-1,-6.75E-1,-1.036036E-1,-3.4303796E-1,-7.18299E-1,-5E-1,-6.8548373E-3,1.6E-3,-5.7142854E-1,-8.175E-1,1.8000001E-3,1.5E-3,-5.2884614E-1,-2.9453126E-1,-1.5760869E-2,-3.857143E-1,3.3505168E-3,1E-3,-8.740458E-1,-2.9999998E-1,1E-3,-3.3124998E-1,-3.4545455E-2,-1.7333332E-2,-2.7567568E-1,-6.5882355E-1,-2.5238094E-1,-7.90625E-1,-5E-1,-2.22E-2,1E-3,-2.03125E-1,2.2018349E-2,-6.75E-1,1.5E-3,-8.4181815E-1,-4.583333E-1,1.5E-3,-2.4173912E-2,-3.2571428E-2,-9.068965E-3,-9.090909E-3,5.1219517E-4,1.3333333E-3,-2.24E-2,3.3160625E-4,-1.9E-2,-1.1999999E-2,-3.5224803E-2,1E-3,-1.9E-2,-2.24E-2,1.5E-3,-8.166666E-3,7.1875006E-4,-9.485713E-3,-2.5333332E-2,1.3333333E-3,-3.0133333E-2,-3.0399999E-2,-8.203389E-3,-8.4999995E-3,-3.2056738E-2,-3.4285713E-2,-9.6774185E-3,-1.4999999E-3,-2.24E-2,1.2407408E-3,-1.9E-2,-3.3777777E-2,-1.8199999E-2,-3.4264147E-2,-1.1999999E-2,1E-3,-2.24E-2],"categories":[],"categories_nodes":[],"categories_segments":[],"categories_sizes":[],"default_left":[0,0,0,0,0,0,0,0,0,0,0,0,0,0,0,0,0,0,0,0,0,0,0,0,0,0,0,0,0,0,0,0,0,0,0,0,0,0,0,0,0,0,0,0,0,0,0,0,0,0,0,0,0,0,0,0,0,0,0,0,0,0,0,0,0,0,0,0,0,0,0,0,0,0,0,0,0,0,0,0,0,0,0,0,0,0,0,0,0,0,0,0,0,0,0,0,0,0,0,0,0,0,0,0,0,0,0,0,0,0,0],"id":3,"left_children":[1,3,5,7,9,11,13,15,17,-1,19,21,23,25,27,-1,29,-1,-1,31,33,-1,35,37,39,41,43,45,-1,-1,-1,47,-1,49,51,53,55,57,59,61,63,65,67,-1,69,71,-1,-1,73,75,77,79,81,-1,83,85,-1,87,-1,89,91,93,95,97,99,-1,-1,101,103,105,-1,107,109,-1,-1,-1,-1,-1,-1,-1,-1,-1,-1,-1,-1,-1,-1,-1,-1,-1,-1,-1,-1,-1,-1,-1,-1,-1,-1,-1,-1,-1,-1,-1,-1,-1,-1,-1,-1,-1,-1],"loss_changes":[2.4493301E1,1.608559E1,1.3403915E1,2.2448769E0,9.098391E0,1.2038849E1,1.2453676E1,2.351036E-1,3.6549997E-1,0E0,3.3596625E0,3.938713E0,1.5657082E1,3.7855616E0,5.3964806E0,0E0,1.8249997E-1,0E0,0E0,1.1465092E0,1.2685773E0,0E0,9.392319E-1,5.0229845E0,7.5324554E0,2.4549127E0,1.2955432E0,5.8873177E0,0E0,0E0,0E0,8.993287E-1,0E0,2.916122E0,1.0225939E0,8.4615326E-1,9.062502E-2,8.8110733E-1,1.6429838E0,2.0953512E0,2.6677017E0,3.3150005E-1,7.071737E-1,0E0,1.3497319E0,1.3822556E-1,0E0,0E0,1.1344247E0,2.0709372E0,5.587737E-1,5.299047E-1,4.623364E-1,0E0,2.3020172E-1,1.8249997E-1,0E0,6.958125E-1,0E0,4.9833903E-1,3.5972714E-1,1.1371765E0,1.356668E0,7.282562E-1,4.493088E0,0E0,0E0,9.2471874E-1,5.0231797E-1,2.867775E-1,0E0,1.8362808E-1,3.0883336E-1,0E0,0E0,0E0,0E0,0E0,0E0,0E0,0E0,0E0,0E0,0E0,0E0,0E0,0E0,0E0,0E0,0E0,0E0,0E0,0E0,0E0,0E0,0E0,0E0,0E0,0E0,0E0,0E0,0E0,0E0,0E0,0E0,0E0,0E0,0E0,0E0,0E0,0E0],"parents":[2147483647,0,0,1,1,2,2,3,3,4,4,5,5,6,6,7,7,8,8,10,10,11,11,12,12,13,13,14,14,16,16,19,19,20,20,22,22,23,23,24,24,25,25,26,26,27,27,31,31,33,33,34,34,35,35,36,36,37,37,38,38,39,39,40,40,41,41,42,42,44,44,45,45,48,48,49,49,50,50,51,51,52,52,54,54,55,55,57,57,59,59,60,60,61,61,62,62,63,63,64,64,67,67,68,68,69,69,71,71,72,72],"right_children":[2,4,6,8,10,12,14,16,18,-1,20,22,24,26,28,-1,30,-1,-1,32,34,-1,36,38,40,42,44,46,-1,-1,-1,48,-1,50,52,54,56,58,60,62,64,66,68,-1,70,72,-1,-1,74,76,78,80,82,-1,84,86,-1,88,-1,90,92,94,96,98,100,-1,-1,102,104,106,-1,108,110,-1,-1,-1,-1,-1,-1,-1,-1,-1,-1,-1,-1,-1,-1,-1,-1,-1,-1,-1,-1,-1,-1,-1,-1,-1,-1,-1,-1,-1,-1,-1,-1,-1,-1,-1,-1,-1,-1],"split_conditions":[-2.8323647E-1,-3.155921E-1,-2.4879575E-1,4.4659E-2,3.7396774E0,1.3083452E-1,-2.2500928E-1,-2.3527567E-1,-5.19E-3,-9.676804E-2,-3.7982965E-1,-2.7382526E-1,7.1719356E0,4.179602E-1,4.3118593E-1,-8.5056E-2,-2.018E-2,7.29599E-3,-1.8048018E-2,4.2E-2,-3.3202475E-1,2.3423996E-2,2.8484E-2,1.0602911E-1,3.5178536E-1,-2.826903E-1,1.32E-4,3.47899E-1,4.1856002E-2,-6.1439895E-3,2.0351982E-2,6.23E-4,3.4560012E-3,4.1009882E-1,-3.3196366E-1,-1.509E-2,1.7803386E-1,1.7230605E-1,-1.419321E-1,3.9182E-2,4.5760775E-1,2.1532E-2,6.721716E-2,1.1136017E-2,2.3521E-2,2.50632E-1,9.59999E-3,2.161598E-3,1.7613E-2,-3.3060285E-1,3.8483E-2,-1.755E-2,4.0105927E-1,4.6080016E-3,-2.302E-2,-2.117E-2,2.188797E-2,-6.02E-3,-5.9136007E-2,3.633E-2,4.7971E-2,-2.242E-2,2.8138947E-1,-1.261E-2,3.1246266E-1,-2.9183997E-2,2.0351982E-2,3.7859E-2,4.0734223E-1,3.6621E-2,1.8048018E-2,3.8767E-2,-1.528E-2,9.616089E-4,-5.205839E-2,-5.030403E-2,-3.893761E-2,-3.225601E-2,6.1441056E-4,3.8400267E-3,-3.0335998E-2,1.7856179E-3,-1.00223996E-1,-4.8768003E-2,-6.727683E-2,1.3440018E-2,-2.188797E-2,-4.6464004E-2,6.9120023E-3,-9.254398E-2,4.8383866E-3,-2.1887997E-2,-1.9200133E-3,6.528015E-3,-4.5696028E-2,-5.875198E-2,-2.6779532E-2,-2.355362E-2,-7.79336E-2,-8.111361E-2,-5.9213623E-2,-6.8736E-2,-4.339199E-2,7.83361E-3,-2.8032035E-2,-2.4544029E-2,-9.139202E-2,-1.11225605E-1,-1.3440018E-2,1.919998E-2,-5.3376004E-2],"split_indices":[16,15,15,10,22,6,17,14,7,0,19,16,27,5,4,0,7,0,0,12,17,0,8,2,3,16,9,6,0,0,0,9,0,5,20,13,0,0,20,11,4,8,6,0,10,1,0,0,10,19,11,7,2,0,7,7,0,9,0,11,11,7,1,9,6,0,0,13,6,12,0,10,7,0,0,0,0,0,0,0,0,0,0,0,0,0,0,0,0,0,0,0,0,0,0,0,0,0,0,0,0,0,0,0,0,0,0,0,0,0,0],"split_type":[0,0,0,0,0,0,0,0,0,0,0,0,0,0,0,0,0,0,0,0,0,0,0,0,0,0,0,0,0,0,0,0,0,0,0,0,0,0,0,0,0,0,0,0,0,0,0,0,0,0,0,0,0,0,0,0,0,0,0,0,0,0,0,0,0,0,0,0,0,0,0,0,0,0,0,0,0,0,0,0,0,0,0,0,0,0,0,0,0,0,0,0,0,0,0,0,0,0,0,0,0,0,0,0,0,0,0,0,0,0,0],"sum_hessian":[1.213E3,4.4E2,7.73E2,4E1,4E2,5.37E2,2.36E2,3.5E1,5E0,1.4E1,3.86E2,1.39E2,3.98E2,1.57E2,7.9E1,3.3E1,2E0,4E0,1E0,3.3E1,3.53E2,5E0,1.34E2,1.27E2,2.71E2,1.33E2,2.4E1,6.8E1,1.1E1,1E0,1E0,2.8E1,5E0,1.54E2,1.99E2,1.31E2,3E0,1.7E1,1.1E2,7.8E1,1.93E2,1E1,1.23E2,4E0,2E1,5.9E1,9E0,3E0,2.5E1,6.3E1,9.1E1,6E0,1.93E2,1E0,1.3E2,2E0,1E0,7E0,1E1,7.4E1,3.6E1,1.6E1,6.2E1,1.43E2,5E1,9E0,1E0,1.5E1,1.08E2,1.7E1,3E0,5.4E1,5E0,3E0,2.2E1,6E0,5.7E1,1E1,8.1E1,2E0,4E0,1.92E2,1E0,2E0,1.28E2,1E0,1E0,4E0,3E0,1.1E1,6.3E1,3.4E1,2E0,2E0,1.4E1,4E0,5.8E1,3E0,1.4E2,2E1,3E1,1.1E1,4E0,1.07E2,1E0,8E0,9E0,5.2E1,2E0,1E0,4E0],"tree_param":{"num_deleted":"0","num_feature":"28","num_nodes":"111","size_leaf_vector":"1"}},{"base_weights":[6.383855E-2,2.5396827E-1,-4.4573642E-2,-3.4146342E-1,3.1421447E-1,-1.3475837E-1,1.6033755E-1,-4.3055555E-1,2.5E-1,-1.8666666E-2,3.4366927E-1,-3.75E-1,-5.0125312E-2,3.1962025E-1,-1.5625E-1,-4.5588234E-1,-0E0,1.6E-2,-1E-2,-1.4705882E-2,3.7711865E-1,1.6666666E-2,-4.074074E-1,2.5390625E-1,-1.9301471E-1,3.9179105E-1,-8E-2,-2.6086956E-1,1.8333333E-2,-1.9333333E-2,-2E-1,-1E-2,1E-2,-1.0344828E-1,1.6666666E-2,2.8928572E-1,4.3255815E-1,-4.2045453E-1,1.25E-1,-2.5E-1,3.3333334E-1,7.594936E-2,-3.015464E-1,-9.090909E-2,4.3145162E-1,1.6E-2,-1.904762E-1,-3.75E-1,1.8E-2,1E-2,-1.5E-2,-1.4814815E-1,1.3333334E-2,5.882353E-2,4.1666666E-1,-0E0,4.449761E-1,1E-2,-4.274809E-1,-0E0,1E-2,6.25E-2,-1.8181818E-2,4.453125E-1,1.7708333E-1,-2.3529412E-1,1.5873016E-1,-3.2180852E-1,2.857143E-1,6.25E-2,-1.5E-2,1.5625E-1,4.678899E-1,-3.0555555E-1,1.5E-2,-1.9230768E-2,-2.857143E-1,-0E0,-1.0666667E-2,-1.7142856E-2,5.3333333E-3,1.744186E-2,-0E0,1.3333334E-2,-8E-3,1.7980767E-2,-1E-2,-1.8363636E-2,-1E-2,1E-2,-1E-2,-8E-3,1.5E-2,8.888889E-3,1.892857E-2,1.375E-2,3.6363637E-3,-1.5384615E-2,8E-3,-1.6E-2,8.135593E-3,-1.9565217E-2,-1.062937E-2,1.6666666E-2,-1E-2,-1.3333334E-2,1E-2,1.1666666E-2,-8E-3,1.9074073E-2,-1E-2,-1.5714286E-2,-0E0,-1.3793103E-2,-0E0],"categories":[],"categories_nodes":[],"categories_segments":[],"categories_sizes":[],"default_left":[0,0,0,0,0,0,0,0,0,0,0,0,0,0,0,0,0,0,0,0,0,0,0,0,0,0,0,0,0,0,0,0,0,0,0,0,0,0,0,0,0,0,0,0,0,0,0,0,0,0,0,0,0,0,0,0,0,0,0,0,0,0,0,0,0,0,0,0,0,0,0,0,0,0,0,0,0,0,0,0,0,0,0,0,0,0,0,0,0,0,0,0,0,0,0,0,0,0,0,0,0,0,0,0,0,0,0,0,0,0,0,0,0,0,0],"id":4,"left_children":[1,3,5,7,9,11,13,15,17,-1,19,21,23,25,27,29,31,-1,-1,33,35,-1,37,39,41,43,45,47,-1,-1,49,-1,-1,51,-1,53,55,57,59,61,63,65,67,69,71,-1,73,75,-1,-1,-1,77,-1,79,81,83,85,-1,87,89,-1,91,-1,93,95,97,99,101,103,105,-1,107,109,111,-1,-1,113,-1,-1,-1,-1,-1,-1,-1,-1,-1,-1,-1,-1,-1,-1,-1,-1,-1,-1,-1,-1,-1,-1,-1,-1,-1,-1,-1,-1,-1,-1,-1,-1,-1,-1,-1,-1,-1,-1],"loss_changes":[2.5034748E1,1.5927065E1,1.4325018E1,2.2681231E0,9.383656E0,1.0920025E1,1.20011215E1,3.9256525E-1,5.5E-1,0E0,4.644684E0,3.7615738E0,1.7382719E1,4.5882072E0,5.26336E0,1.421566E-1,2.5E-1,0E0,0E0,1.3446585E0,1.5986366E0,0E0,9.903202E-1,5.20638E0,7.9628887E0,2.6045399E0,1.4019048E0,5.7668476E0,0E0,0E0,4.875E-1,0E0,0E0,6.1558115E-1,0E0,4.0853996E0,1.1548691E0,7.2870255E-1,6.25E-2,1.1789773E0,1.8632812E0,2.072782E0,2.4003792E0,5.028409E-1,1.1703491E0,0E0,1.4811509E0,4.2925835E-1,0E0,0E0,0E0,4.7407413E-1,0E0,1.9092437E0,7.267437E-1,5.3333336E-1,7.72274E-1,0E0,6.2016106E-1,2.5E-1,0E0,7.3125E-1,0E0,2.932167E-1,6.581439E-1,1.1819005E0,1.6533762E0,1.6339207E0,5.9523803E-1,6.770834E-1,0E0,8.302084E-1,8.2048607E-1,4.801588E-1,0E0,0E0,5.911329E-1,0E0,0E0,0E0,0E0,0E0,0E0,0E0,0E0,0E0,0E0,0E0,0E0,0E0,0E0,0E0,0E0,0E0,0E0,0E0,0E0,0E0,0E0,0E0,0E0,0E0,0E0,0E0,0E0,0E0,0E0,0E0,0E0,0E0,0E0,0E0,0E0,0E0,0E0],"parents":[2147483647,0,0,1,1,2,2,3,3,4,4,5,5,6,6,7,7,8,8,10,10,11,11,12,12,13,13,14,14,15,15,16,16,19,19,20,20,22,22,23,23,24,24,25,25,26,26,27,27,30,30,33,33,35,35,36,36,37,37,38,38,39,39,40,40,41,41,42,42,43,43,44,44,46,46,47,47,51,51,53,53,54,54,55,55,56,56,58,58,59,59,61,61,63,63,64,64,65,65,66,66,67,67,68,68,69,69,71,71,72,72,73,73,76,76],"right_children":[2,4,6,8,10,12,14,16,18,-1,20,22,24,26,28,30,32,-1,-1,34,36,-1,38,40,42,44,46,48,-1,-1,50,-1,-1,52,-1,54,56,58,60,62,64,66,68,70,72,-1,74,76,-1,-1,-1,78,-1,80,82,84,86,-1,88,90,-1,92,-1,94,96,98,100,102,104,106,-1,108,110,112,-1,-1,114,-1,-1,-1,-1,-1,-1,-1,-1,-1,-1,-1,-1,-1,-1,-1,-1,-1,-1,-1,-1,-1,-1,-1,-1,-1,-1,-1,-1,-1,-1,-1,-1,-1,-1,-1,-1,-1,-1],"split_conditions":[-2.8323647E-1,-3.155921E-1,-2.4879575E-1,4.4659E-2,3.7396774E0,1.3083452E-1,-2.2500928E-1,-2.3527567E-1,-5.19E-3,-5.0111998E-2,-3.7982965E-1,-2.7382526E-1,7.1719356E0,4.179602E-1,4.3118593E-1,3.5509E-2,-2.018E-2,1.2287979E-2,-1.8048018E-2,4.2E-2,-3.4128815E-1,4.2623978E-2,2.8484E-2,1.0602911E-1,3.5178536E-1,-2.826903E-1,1.32E-4,3.47899E-1,5.644802E-2,-4.4928014E-2,4.2767E-2,-6.1439895E-3,2.0351982E-2,4.4694E-2,2.3423996E-2,4.1009882E-1,-3.3196366E-1,-1.509E-2,1.7803386E-1,1.7230605E-1,-2.173943E-1,3.9182E-2,5.3717E-2,1.2804E-2,6.721716E-2,3.2448005E-2,2.3521E-2,3.6601E-2,4.108799E-2,3.8400267E-3,-6.7968026E-2,-7.94E-3,3.0527992E-2,-3.3060285E-1,-1.27E-3,-1.755E-2,4.057566E-1,4.6080016E-3,1.0513459E-1,-2.117E-2,2.188797E-2,-6.02E-3,-3.8015977E-2,1.9773E-2,3.4896E-2,3.3555353E-1,2.8138947E-1,-2.4947514E-1,4.1479E-2,2.785E-3,-4.6080016E-3,3.7859E-2,4.0734223E-1,2.0547E-2,1.8431969E-2,-5.068798E-2,4.200456E-2,4.0320014E-3,-1.2096005E-2,-3.4712028E-2,9.287987E-3,2.8143996E-2,8.744011E-3,1.1944008E-2,-2.9456005E-2,3.7344016E-2,-1.05312005E-1,-3.265602E-2,-1.3055991E-2,1.3440018E-2,-2.188797E-2,-9.984016E-3,6.9120023E-3,2.8943995E-2,3.6544E-2,2.6944008E-2,3.6239815E-3,-2.1312008E-2,8.064003E-3,-4.9919985E-2,8.831978E-3,-4.6544034E-2,-1.794403E-2,1.4592018E-2,-6.9120023E-3,-1.7087994E-2,2.6879883E-3,3.1871986E-2,-6.9119832E-3,4.339199E-2,-2.8032035E-2,-1.7663993E-2,5.760002E-4,-2.822401E-2,-3.4560012E-3],"split_indices":[16,15,15,10,22,6,17,14,7,0,19,16,27,5,4,9,7,0,0,12,17,0,8,2,3,16,9,6,0,0,11,0,0,11,0,5,20,13,0,0,14,11,13,9,6,0,10,11,0,0,0,7,0,19,7,7,2,0,6,7,0,9,0,10,12,3,1,16,10,9,0,13,6,9,0,0,6,0,0,0,0,0,0,0,0,0,0,0,0,0,0,0,0,0,0,0,0,0,0,0,0,0,0,0,0,0,0,0,0,0,0,0,0,0,0],"split_type":[0,0,0,0,0,0,0,0,0,0,0,0,0,0,0,0,0,0,0,0,0,0,0,0,0,0,0,0,0,0,0,0,0,0,0,0,0,0,0,0,0,0,0,0,0,0,0,0,0,0,0,0,0,0,0,0,0,0,0,0,0,0,0,0,0,0,0,0,0,0,0,0,0,0,0,0,0,0,0,0,0,0,0,0,0,0,0,0,0,0,0,0,0,0,0,0,0,0,0,0,0,0,0,0,0,0,0,0,0,0,0,0,0,0,0],"sum_hessian":[1.213E3,4.4E2,7.73E2,4E1,4E2,5.37E2,2.36E2,3.5E1,5E0,1.4E1,3.86E2,1.39E2,3.98E2,1.57E2,7.9E1,3.3E1,2E0,4E0,1E0,3.3E1,3.53E2,5E0,1.34E2,1.27E2,2.71E2,1.33E2,2.4E1,6.8E1,1.1E1,2.9E1,4E0,1E0,1E0,2.8E1,5E0,1.39E2,2.14E2,1.31E2,3E0,1.7E1,1.1E2,7.8E1,1.93E2,1E1,1.23E2,4E0,2E1,5.9E1,9E0,1E0,3E0,2.6E1,2E0,5E1,8.9E1,6E0,2.08E2,1E0,1.3E2,2E0,1E0,7E0,1E1,6.3E1,4.7E1,1.6E1,6.2E1,1.87E2,6E0,7E0,3E0,1.5E1,1.08E2,1.7E1,3E0,2.5E1,3.4E1,1.2E1,1.4E1,6E0,4.4E1,8.5E1,4E0,2E0,4E0,2.07E2,1E0,1.09E2,2.1E1,1E0,1E0,4E0,3E0,8E0,5.5E1,1.5E1,3.2E1,1.2E1,4E0,4E0,5.8E1,4.5E1,1.42E2,5E0,1E0,2E0,5E0,1.1E1,4E0,1.07E2,1E0,1.3E1,4E0,2.8E1,6E0],"tree_param":{"num_deleted":"0","num_feature":"28","num_nodes":"115","size_leaf_vector":"1"}},{"base_weights":[4.9781713E-1,6.9161E-1,3.867571E-1,9.7560965E-2,7.506234E-1,2.9024163E-1,6.042194E-1,6.944433E-3,6.25E-1,7.9422045E-1,1.8499999E-1,6.464285E-2,3.6867166E-1,7.6677215E-1,2.75625E-1,-1.9117659E-2,2.9999998E-1,3.0399999E-2,-1.0000002E-3,-1.6000004E-3,8.033967E-1,-1.8461543E-3,3.4166667E-1,3.1666663E-2,3.185184E-2,6.9257814E-1,2.1488969E-1,8.3843285E-1,3.52E-1,1.6811593E-1,3.4833334E-2,-1.9333337E-3,1.6E-1,-1.0000002E-3,1.9E-2,9.999999E-2,8.14779E-1,-1.3333337E-3,3.90625E-1,8.403243E-4,2.4705881E-1,1.7499998E-1,7.702703E-1,4.5696202E-1,1.15206175E-1,3.181818E-1,8.778226E-1,5.499999E-2,5.15625E-1,5.0833322E-2,3.42E-2,1.9E-2,-1.5000004E-3,-1.6000004E-3,2.9999998E-1,8.6492246E-1,6.838095E-1,5.8125E-1,1.7777777E-1,1.9E-2,-7.2034015E-3,4.090909E-1,-1.714286E-3,4.5624998E-1,-1.8181823E-3,3.553125E-2,5.96875E-1,6.1777776E-1,2.3714285E-1,5.4944935E-3,2.1009614E-1,4.5624998E-1,-1.5000004E-3,8.8536584E-1,-1.0000002E-3,2.9999998E-1,-1.7500004E-3,2.55E-1,3.2571428E-2,-1.9230774E-3,1.2285713E-1,1.9E-2,-1.0000002E-3,3.5623852E-2,2.8292682E-2,1.8511627E-2,3.295238E-2,-1.0000002E-3,2.6857141E-2,3.2499996E-3,1.9E-2,-9.107148E-4,9.714285E-3,6.4E-3,2.1142857E-2,2.4999999E-2,-1.3333337E-3,3.0624999E-2,1.9878788E-2,-1.5000004E-3,2.6619047E-2,1.2307687E-3,1.373913E-2,-2.0000048E-4,1.9E-2,4.513513E-3,1.7419355E-2,-1.3333337E-3,2.4999999E-2,2.3125E-2,3.6907405E-2,-1.0000002E-3,1.9E-2,3.2499996E-3,2.5333332E-2,1.1499999E-2,1.4166662E-3],"categories":[],"categories_nodes":[],"categories_segments":[],"categories_sizes":[],"default_left":[0,0,0,0,0,0,0,0,0,0,0,0,0,0,0,0,0,0,0,0,0,0,0,0,0,0,0,0,0,0,0,0,0,0,0,0,0,0,0,0,0,0,0,0,0,0,0,0,0,0,0,0,0,0,0,0,0,0,0,0,0,0,0,0,0,0,0,0,0,0,0,0,0,0,0,0,0,0,0,0,0,0,0,0,0,0,0,0,0,0,0,0,0,0,0,0,0,0,0,0,0,0,0,0,0,0,0,0,0,0,0,0,0,0,0,0,0],"id":5,"left_children":[1,3,5,7,9,11,13,15,17,19,21,23,25,27,29,31,33,-1,-1,-1,35,-1,37,-1,39,41,43,45,47,49,-1,-1,51,-1,-1,53,55,-1,57,59,61,63,65,67,69,71,73,75,77,79,-1,-1,-1,-1,81,83,85,87,89,-1,91,93,-1,95,-1,-1,97,99,101,103,105,107,-1,109,-1,111,-1,113,-1,-1,115,-1,-1,-1,-1,-1,-1,-1,-1,-1,-1,-1,-1,-1,-1,-1,-1,-1,-1,-1,-1,-1,-1,-1,-1,-1,-1,-1,-1,-1,-1,-1,-1,-1,-1,-1,-1],"loss_changes":[2.5860992E1,1.5386856E1,1.6069717E1,1.9552424E0,9.741531E0,9.495388E0,1.2447762E1,2.8069037E-1,5.4550004E-1,2.8798065E0,1.1021924E0,3.312362E0,1.9725754E1,4.401085E0,4.972822E0,1.8565688E-1,1.825E-1,0E0,0E0,0E0,2.8648224E0,0E0,3.434894E-1,0E0,9.0076804E-1,5.012306E0,6.5108843E0,2.4666977E0,1.1865566E0,5.515147E0,0E0,0E0,3.28875E-1,0E0,0E0,2.08E-1,1.7859039E0,0E0,5.4585075E-1,4.5728883E-1,8.161192E-1,1.1367898E0,1.7411499E0,2.6461773E0,2.0184898E0,5.5730116E-1,8.6660767E-1,2.550625E-1,1.0377722E0,4.3334022E-1,0E0,0E0,0E0,0E0,1.825E-1,4.1401672E-1,2.8677216E0,4.5415187E-1,2.1961805E-1,0E0,4.647923E-1,2.4280536E-1,0E0,6.817709E-1,0E0,0E0,4.2874146E-1,1.4314613E0,7.575003E-1,4.5075276E-1,2.230627E0,6.817709E-1,0E0,8.7688446E-1,0E0,1.825E-1,0E0,6.0589576E-1,0E0,0E0,4.9369347E-1,0E0,0E0,0E0,0E0,0E0,0E0,0E0,0E0,0E0,0E0,0E0,0E0,0E0,0E0,0E0,0E0,0E0,0E0,0E0,0E0,0E0,0E0,0E0,0E0,0E0,0E0,0E0,0E0,0E0,0E0,0E0,0E0,0E0,0E0,0E0,0E0],"parents":[2147483647,0,0,1,1,2,2,3,3,4,4,5,5,6,6,7,7,8,8,9,9,10,10,11,11,12,12,13,13,14,14,15,15,16,16,20,20,22,22,24,24,25,25,26,26,27,27,28,28,29,29,32,32,35,35,36,36,38,38,39,39,40,40,41,41,42,42,43,43,44,44,45,45,46,46,47,47,48,48,49,49,54,54,55,55,56,56,57,57,58,58,60,60,61,61,63,63,66,66,67,67,68,68,69,69,70,70,71,71,73,73,75,75,77,77,80,80],"right_children":[2,4,6,8,10,12,14,16,18,20,22,24,26,28,30,32,34,-1,-1,-1,36,-1,38,-1,40,42,44,46,48,50,-1,-1,52,-1,-1,54,56,-1,58,60,62,64,66,68,70,72,74,76,78,80,-1,-1,-1,-1,82,84,86,88,90,-1,92,94,-1,96,-1,-1,98,100,102,104,106,108,-1,110,-1,112,-1,114,-1,-1,116,-1,-1,-1,-1,-1,-1,-1,-1,-1,-1,-1,-1,-1,-1,-1,-1,-1,-1,-1,-1,-1,-1,-1,-1,-1,-1,-1,-1,-1,-1,-1,-1,-1,-1,-1,-1],"split_conditions":[-2.8323647E-1,-3.155921E-1,-2.4879575E-1,4.4659E-2,4.2234457E-1,1.3083452E-1,-2.2500928E-1,-2.3527567E-1,-5.19E-3,3.7396774E0,4.0071E-2,-2.7382526E-1,7.1719356E0,4.179602E-1,4.3118593E-1,3.5509E-2,-2.018E-2,1.574398E-2,-1.8048018E-2,-2.3807982E-2,2.9203564E-1,-1.1520004E-3,-1.862E-2,6.5663986E-2,2.3208E-2,1.0602911E-1,3.5178536E-1,-2.826903E-1,3.1402E-2,3.47899E-1,6.1823998E-2,-1.2864002E-2,4.2767E-2,-6.1439895E-3,2.0351982E-2,-8.89E-3,2.228532E-1,-1.3535995E-2,-7.94E-3,-1.509E-2,3.2949E-2,1.7230605E-1,-2.173943E-1,3.3594108E-1,3.608906E-1,1.2804E-2,4.0734223E-1,1.513E-2,3.6621E-2,3.6601E-2,5.644802E-2,3.8400267E-3,-3.9935987E-2,-1.9039917E-3,-7.94E-3,-1.9611906E-1,2.4208616E-1,6.422E-3,-3.08E-3,4.6080016E-3,2.9835957E-1,-7.12E-3,-6.9120023E-3,4.1021E-2,-4.991989E-3,6.3236795E-2,3.4896E-2,3.6118853E-1,6.171E-3,4.4621E-2,4.495755E-1,2.785E-3,-3.4560012E-3,6.721716E-2,-2.8032035E-2,1.0036E-2,-1.1520004E-3,2.3521E-2,6.489597E-2,-9.10079E-3,4.087E-2,8.064003E-3,-2.7136002E-2,6.478319E-2,5.6543164E-2,4.0703192E-2,5.2503183E-2,-4.5503996E-2,4.569599E-2,1.7695999E-2,3.385601E-2,-3.6863943E-3,1.8048018E-2,1.3440018E-2,3.8015977E-2,1.1903991E-2,-1.1136017E-2,8.0276795E-2,4.3695986E-2,-2.0639991E-2,4.386238E-2,1.1142387E-2,1.628239E-2,5.2800827E-4,1.5280151E-3,1.8172013E-2,3.503298E-2,-4.991989E-3,3.1103972E-2,5.4911993E-2,6.850562E-2,-6.374401E-2,7.487999E-2,1.1520004E-2,2.649597E-2,1.919998E-2,1.5919978E-2],"split_indices":[16,15,15,10,2,6,17,14,7,22,11,16,27,5,4,9,7,0,0,0,2,0,7,0,9,2,3,16,11,6,0,0,11,0,0,7,0,0,7,13,10,0,14,5,6,9,6,10,12,11,0,0,0,0,7,14,0,12,7,0,2,7,0,12,0,0,12,4,9,12,4,9,0,6,0,10,0,10,0,0,11,0,0,0,0,0,0,0,0,0,0,0,0,0,0,0,0,0,0,0,0,0,0,0,0,0,0,0,0,0,0,0,0,0,0,0,0],"split_type":[0,0,0,0,0,0,0,0,0,0,0,0,0,0,0,0,0,0,0,0,0,0,0,0,0,0,0,0,0,0,0,0,0,0,0,0,0,0,0,0,0,0,0,0,0,0,0,0,0,0,0,0,0,0,0,0,0,0,0,0,0,0,0,0,0,0,0,0,0,0,0,0,0,0,0,0,0,0,0,0,0,0,0,0,0,0,0,0,0,0,0,0,0,0,0,0,0,0,0,0,0,0,0,0,0,0,0,0,0,0,0,0,0,0,0,0,0],"sum_hessian":[1.213E3,4.4E2,7.73E2,4E1,4E2,5.37E2,2.36E2,3.5E1,5E0,3.71E2,2.9E1,1.39E2,3.98E2,1.57E2,7.9E1,3.3E1,2E0,4E0,1E0,4E0,3.67E2,1.2E1,1.7E1,5E0,1.34E2,1.27E2,2.71E2,1.33E2,2.4E1,6.8E1,1.1E1,2.9E1,4E0,1E0,1E0,6E0,3.61E2,2E0,1.5E1,1.18E2,1.6E1,1.7E1,1.1E2,7.8E1,1.93E2,1E1,1.23E2,9E0,1.5E1,5.9E1,9E0,1E0,3E0,4E0,2E0,2.57E2,1.04E2,7E0,8E0,1E0,1.17E2,1E1,6E0,7E0,1E1,6.3E1,4.7E1,4.4E1,3.4E1,9E1,1.03E2,7E0,3E0,1.22E2,1E0,2E0,7E0,9E0,6E0,2.5E1,3.4E1,1E0,1E0,2.17E2,4E1,4.2E1,6.2E1,1E0,6E0,7E0,1E0,1.11E2,6E0,4E0,6E0,5E0,2E0,1.5E1,3.2E1,3E0,4.1E1,1.2E1,2.2E1,8.9E1,1E0,7.3E1,3E1,2E0,5E0,1.5E1,1.07E2,1E0,1E0,7E0,2E0,1.1E1,2.3E1],"tree_param":{"num_deleted":"0","num_feature":"28","num_nodes":"117","size_leaf_vector":"1"}},{"base_weights":[-3.6025536E-1,-1.7913832E-1,-4.629845E-1,-7.804878E-1,-1.1720698E-1,-5.467472E-1,-2.7088606E-1,-8.680555E-1,-1.25E-1,-3.5466667E-2,-8.70801E-2,-7.9321426E-1,-4.5889723E-1,-1.1487342E-1,-5.75625E-1,-3.570588E-2,-2.9999998E-1,1.6E-3,-1.9E-2,-3.9264706E-1,-5.7485875E-2,-8.609756E-1,-2.8611112E-1,-1.8476562E-1,-5.8621323E-1,-4.738806E-2,-4.72E-1,-6.753623E-1,1.8333333E-3,-1.9E-2,1E-3,-4.689655E-1,1.6666667E-3,-1.2868217E-1,-1.6592918E-2,-8.684426E-1,1E-3,1.6666667E-3,-4.1538462E-1,-6.75E-1,-1.036036E-1,-3.1772152E-1,-6.9252574E-1,-5E-1,-6.8548373E-3,1.6E-3,-5.7142854E-1,-7.8416663E-1,1.8000001E-3,1.5E-3,-5.2884614E-1,-3.7625E-1,-1.722222E-2,-3.857143E-1,-4.772726E-3,1E-3,-8.7603307E-1,-3.0399999E-2,-1.7777777E-1,-3.3124998E-1,-3.4545455E-2,-1.7333332E-2,-2.7567568E-1,-7.3333335E-1,-2.6056337E-1,-3.7173912E-2,-6.147651E-1,-2.22E-2,1E-3,-2.03125E-1,2.2018349E-2,-6.75E-1,1.5E-3,-2.1249999E-1,-8.105263E-1,1.5E-3,-2.4173912E-2,-2.2E-3,-1.8709676E-2,-9.090909E-3,4.75E-4,1.3333333E-3,-2.24E-2,1.3023261E-4,-1.1666666E-2,-3.645098E-2,-2.6099999E-2,-1.85E-2,1.6666667E-3,-2.24E-2,1.5E-3,-8.166666E-3,7.1875006E-4,-9.485713E-3,-2.5333332E-2,-3.325E-2,1E-3,-1.4166667E-3,-1.4708333E-2,-1.5343283E-2,-3.1759035E-2,-1.4999999E-3,-2.24E-2,1.2407408E-3,-1.9E-2,-3.3777777E-2,-1.8199999E-2,1.3333333E-3,-1.9E-2,-2.7034482E-2,-3.6689654E-2],"categories":[],"categories_nodes":[],"categories_segments":[],"categories_sizes":[],"default_left":[0,0,0,0,0,0,0,0,0,0,0,0,0,0,0,0,0,0,0,0,0,0,0,0,0,0,0,0,0,0,0,0,0,0,0,0,0,0,0,0,0,0,0,0,0,0,0,0,0,0,0,0,0,0,0,0,0,0,0,0,0,0,0,0,0,0,0,0,0,0,0,0,0,0,0,0,0,0,0,0,0,0,0,0,0,0,0,0,0,0,0,0,0,0,0,0,0,0,0,0,0,0,0,0,0,0,0,0,0,0,0],"id":6,"left_children":[1,3,5,7,9,11,13,15,17,-1,19,21,23,25,27,-1,29,-1,-1,31,33,35,37,39,41,43,45,47,-1,-1,-1,49,-1,51,53,55,-1,-1,57,59,61,63,65,67,69,-1,71,73,-1,-1,75,77,79,81,83,-1,85,-1,87,89,-1,91,93,95,97,-1,99,-1,-1,101,103,105,-1,107,109,-1,-1,-1,-1,-1,-1,-1,-1,-1,-1,-1,-1,-1,-1,-1,-1,-1,-1,-1,-1,-1,-1,-1,-1,-1,-1,-1,-1,-1,-1,-1,-1,-1,-1,-1,-1],"loss_changes":[2.2504745E1,1.6332409E1,1.2306076E1,2.2448769E0,9.218538E0,1.1284851E1,1.1201599E1,2.351036E-1,3.6549997E-1,0E0,3.477076E0,4.5643387E0,1.3817322E1,3.7855616E0,4.989561E0,0E0,1.8249997E-1,0E0,0E0,1.1465092E0,1.0285099E0,8.3543396E-1,7.800214E-1,5.0229845E0,7.5439377E0,2.4549127E0,1.2955432E0,5.4434013E0,0E0,0E0,0E0,8.993287E-1,0E0,3.5531328E0,9.8421645E-1,8.492584E-1,0E0,0E0,9.2936754E-1,8.8110733E-1,1.6429838E0,1.6856122E0,3.0012665E0,3.3150005E-1,7.071737E-1,0E0,1.3497319E0,7.319031E-1,0E0,0E0,1.1344247E0,1.1499457E0,5.5276865E-1,5.299047E-1,5.0768435E-1,0E0,3.5858154E-1,0E0,5.815972E-1,6.958125E-1,0E0,4.9833903E-1,3.5972714E-1,6.890626E-1,1.6997333E0,0E0,5.8685913E0,0E0,0E0,9.2471874E-1,5.0231797E-1,2.867775E-1,0E0,2.7395833E-1,1.9919968E-1,0E0,0E0,0E0,0E0,0E0,0E0,0E0,0E0,0E0,0E0,0E0,0E0,0E0,0E0,0E0,0E0,0E0,0E0,0E0,0E0,0E0,0E0,0E0,0E0,0E0,0E0,0E0,0E0,0E0,0E0,0E0,0E0,0E0,0E0,0E0,0E0],"parents":[2147483647,0,0,1,1,2,2,3,3,4,4,5,5,6,6,7,7,8,8,10,10,11,11,12,12,13,13,14,14,16,16,19,19,20,20,21,21,22,22,23,23,24,24,25,25,26,26,27,27,31,31,33,33,34,34,35,35,38,38,39,39,40,40,41,41,42,42,43,43,44,44,46,46,47,47,50,50,51,51,52,52,53,53,54,54,56,56,58,58,59,59,61,61,62,62,63,63,64,64,66,66,69,69,70,70,71,71,73,73,74,74],"right_children":[2,4,6,8,10,12,14,16,18,-1,20,22,24,26,28,-1,30,-1,-1,32,34,36,38,40,42,44,46,48,-1,-1,-1,50,-1,52,54,56,-1,-1,58,60,62,64,66,68,70,-1,72,74,-1,-1,76,78,80,82,84,-1,86,-1,88,90,-1,92,94,96,98,-1,100,-1,-1,102,104,106,-1,108,110,-1,-1,-1,-1,-1,-1,-1,-1,-1,-1,-1,-1,-1,-1,-1,-1,-1,-1,-1,-1,-1,-1,-1,-1,-1,-1,-1,-1,-1,-1,-1,-1,-1,-1,-1,-1],"split_conditions":[-2.8323647E-1,-3.155921E-1,-2.4879575E-1,4.4659E-2,3.7396774E0,1.3083452E-1,-2.2500928E-1,-2.3527567E-1,-5.19E-3,-9.2897296E-2,-3.7982965E-1,2.9835957E-1,7.1719356E0,4.179602E-1,4.3118593E-1,-8.1653744E-2,-2.018E-2,7.0041656E-3,-1.7326087E-2,4.2E-2,-3.4454492E-1,3.8535E-2,1.8793035E-1,1.0602911E-1,3.5178536E-1,-2.826903E-1,1.32E-4,3.47899E-1,4.018177E-2,-5.8982465E-3,1.9537887E-2,6.23E-4,3.3177566E-3,4.1009882E-1,-3.3196366E-1,-1.509E-2,1.2902413E-2,2.248703E-2,-1.198E-2,1.7230605E-1,-1.419321E-1,2.8138947E-1,-2.4947514E-1,2.1532E-2,6.721716E-2,1.06905745E-2,2.3521E-2,3.0045035E-1,9.216003E-3,2.075119E-3,1.7613E-2,1.9357E-2,3.8483E-2,-1.755E-2,4.516238E-1,4.4236756E-3,1.0513459E-1,-3.0905724E-2,3.4858E-2,-6.02E-3,-5.6770552E-2,3.633E-2,4.7971E-2,2.1495E-2,5.846E-3,-9.263628E-2,-3.6709046E-1,-2.8016623E-2,1.9537887E-2,3.7859E-2,4.0734223E-1,3.6621E-2,1.7326087E-2,1.23189546E-1,-3.5685813E-1,9.2315674E-4,-4.9976062E-2,-3.149185E-2,-4.5062397E-2,-3.0965766E-2,3.4984603E-4,3.686409E-3,-2.9122543E-2,8.153979E-6,-6.642009E-2,-6.746573E-2,-6.250572E-2,-1.8505745E-2,1.8942641E-3,-4.4605445E-2,6.635513E-3,-8.8842236E-2,4.6448666E-3,-2.1012487E-2,-1.8432236E-3,-5.64019E-2,1.9731827E-2,-8.7186275E-3,-2.6471237E-2,-4.793835E-2,-7.077629E-2,-6.598656E-2,-4.1656304E-2,7.5202715E-3,-2.6910743E-2,-2.3562279E-2,-8.773635E-2,1.8833923E-3,-1.18916586E-1,-4.6235003E-2,-1.082966E-1],"split_indices":[16,15,15,10,22,6,17,14,7,0,19,2,27,5,4,0,7,0,0,12,17,8,0,2,3,16,9,6,0,0,0,9,0,5,20,13,0,0,7,0,20,1,16,8,6,0,10,5,0,0,10,12,11,7,4,0,6,0,11,9,0,11,11,9,9,0,18,0,0,13,6,12,0,0,18,0,0,0,0,0,0,0,0,0,0,0,0,0,0,0,0,0,0,0,0,0,0,0,0,0,0,0,0,0,0,0,0,0,0,0,0],"split_type":[0,0,0,0,0,0,0,0,0,0,0,0,0,0,0,0,0,0,0,0,0,0,0,0,0,0,0,0,0,0,0,0,0,0,0,0,0,0,0,0,0,0,0,0,0,0,0,0,0,0,0,0,0,0,0,0,0,0,0,0,0,0,0,0,0,0,0,0,0,0,0,0,0,0,0,0,0,0,0,0,0,0,0,0,0,0,0,0,0,0,0,0,0,0,0,0,0,0,0,0,0,0,0,0,0,0,0,0,0,0,0],"sum_hessian":[1.213E3,4.4E2,7.73E2,4E1,4E2,5.37E2,2.36E2,3.5E1,5E0,1.4E1,3.86E2,1.39E2,3.98E2,1.57E2,7.9E1,3.3E1,2E0,4E0,1E0,3.3E1,3.53E2,1.22E2,1.7E1,1.27E2,2.71E2,1.33E2,2.4E1,6.8E1,1.1E1,1E0,1E0,2.8E1,5E0,1.28E2,2.25E2,1.21E2,1E0,5E0,1.2E1,1.7E1,1.1E2,7.8E1,1.93E2,1E1,1.23E2,4E0,2E1,5.9E1,9E0,3E0,2.5E1,3.9E1,8.9E1,6E0,2.19E2,1E0,1.2E2,4E0,8E0,7E0,1E1,7.4E1,3.6E1,8E0,7E1,4.5E1,1.48E2,9E0,1E0,1.5E1,1.08E2,1.7E1,3E0,3E0,5.6E1,3E0,2.2E1,9E0,3E1,1E1,7.9E1,2E0,4E0,2.14E2,5E0,1.01E2,1.9E1,3E0,5E0,4E0,3E0,1.1E1,6.3E1,3.4E1,2E0,7E0,1E0,2.3E1,4.7E1,6.6E1,8.2E1,1.1E1,4E0,1.07E2,1E0,8E0,9E0,2E0,1E0,2.8E1,2.8E1],"tree_param":{"num_deleted":"0","num_feature":"28","num_nodes":"111","size_leaf_vector":"1"}},{"base_weights":[5.9719935E-2,2.4716553E-1,-4.7157623E-2,-3.4146342E-1,3.0673316E-1,-1.4033458E-1,1.6455697E-1,-4.3055555E-1,2.5E-1,-1.8666666E-2,3.3591732E-1,-3.75E-1,-5.764411E-2,3.2594937E-1,-1.5625E-1,-4.5588234E-1,-0E0,1.6E-2,-1E-2,-1.4705882E-2,3.6864406E-1,1.6666666E-2,-4.074074E-1,2.4609375E-1,-2.0036764E-1,3.9179105E-1,-4E-2,-2.6086956E-1,1.8333333E-2,-1.9333333E-2,-2E-1,-1E-2,1E-2,-1.0344828E-1,1.6666666E-2,4.085603E-1,2.6020408E-1,-4.2045453E-1,1.25E-1,-2.5E-1,3.243243E-1,5.0632913E-2,-3.015464E-1,-9.090909E-2,4.3145162E-1,1.6E-2,-1.4285715E-1,-3.75E-1,1.8E-2,1E-2,-1.5E-2,-1.4814815E-1,1.3333334E-2,-1.3333334E-2,4.1568628E-1,4.6511628E-2,4.1964287E-1,1E-2,-4.274809E-1,-0E0,1E-2,6.25E-2,-1.8181818E-2,4.453125E-1,1.5625E-1,-2.3529412E-1,1.2698413E-1,-4.1758242E-1,-1.9711539E-1,6.25E-2,-1.5E-2,1.5625E-1,4.678899E-1,-2.5E-1,1.5E-2,-1.9230768E-2,-2.857143E-1,-0E0,-1.0666667E-2,1.7685186E-2,1.0499999E-2,1.6666666E-2,-5.2631577E-4,-1E-2,1.7454546E-2,-1.8363636E-2,-1E-2,1E-2,-1E-2,-8E-3,1.5E-2,8.888889E-3,1.892857E-2,1.375E-2,2.4242424E-3,-1.5384615E-2,8E-3,-1.6E-2,6.779661E-3,-7.142857E-3,-1.8205127E-2,-1.2702702E-2,3.8709675E-3,-1.3333334E-2,1E-2,1.1666666E-2,-8E-3,1.9074073E-2,-1E-2,-1.7777778E-2,-2E-3,-1.3793103E-2,-0E0],"categories":[],"categories_nodes":[],"categories_segments":[],"categories_sizes":[],"default_left":[0,0,0,0,0,0,0,0,0,0,0,0,0,0,0,0,0,0,0,0,0,0,0,0,0,0,0,0,0,0,0,0,0,0,0,0,0,0,0,0,0,0,0,0,0,0,0,0,0,0,0,0,0,0,0,0,0,0,0,0,0,0,0,0,0,0,0,0,0,0,0,0,0,0,0,0,0,0,0,0,0,0,0,0,0,0,0,0,0,0,0,0,0,0,0,0,0,0,0,0,0,0,0,0,0,0,0,0,0,0,0,0,0],"id":7,"left_children":[1,3,5,7,9,11,13,15,17,-1,19,21,23,25,27,29,31,-1,-1,33,35,-1,37,39,41,43,45,47,-1,-1,49,-1,-1,51,-1,53,55,57,59,61,63,65,67,69,71,-1,73,75,-1,-1,-1,77,-1,-1,79,81,83,-1,85,87,-1,89,-1,91,93,95,97,99,101,103,-1,105,107,109,-1,-1,111,-1,-1,-1,-1,-1,-1,-1,-1,-1,-1,-1,-1,-1,-1,-1,-1,-1,-1,-1,-1,-1,-1,-1,-1,-1,-1,-1,-1,-1,-1,-1,-1,-1,-1,-1,-1],"loss_changes":[2.4332602E1,1.5567623E1,1.5291728E1,2.2681231E0,9.207737E0,1.0418055E1,1.2321795E1,3.9256525E-1,5.5E-1,0E0,4.4461555E0,3.7615738E0,1.7346174E1,3.8226395E0,5.26336E0,1.421566E-1,2.5E-1,0E0,0E0,1.3446585E0,1.4259872E0,0E0,9.903202E-1,5.0487223E0,6.9229603E0,2.6045399E0,1.1885715E0,5.7668476E0,0E0,0E0,4.875E-1,0E0,0E0,6.1558115E-1,0E0,1.497242E0,3.3194265E0,7.2870255E-1,6.25E-2,1.1789773E0,2.1876059E0,1.7545179E0,2.2685318E0,5.028409E-1,1.1703491E0,0E0,1.2589285E0,4.2925835E-1,0E0,0E0,0E0,4.7407413E-1,0E0,0E0,9.168854E-1,9.552223E-1,7.361193E-1,0E0,6.2016106E-1,2.5E-1,0E0,7.3125E-1,0E0,2.932167E-1,8.39962E-1,1.1819005E0,1.4790422E0,7.3534775E-1,3.712295E0,6.770834E-1,0E0,8.302084E-1,8.2048607E-1,6.7777777E-1,0E0,0E0,5.911329E-1,0E0,0E0,0E0,0E0,0E0,0E0,0E0,0E0,0E0,0E0,0E0,0E0,0E0,0E0,0E0,0E0,0E0,0E0,0E0,0E0,0E0,0E0,0E0,0E0,0E0,0E0,0E0,0E0,0E0,0E0,0E0,0E0,0E0,0E0,0E0,0E0],"parents":[2147483647,0,0,1,1,2,2,3,3,4,4,5,5,6,6,7,7,8,8,10,10,11,11,12,12,13,13,14,14,15,15,16,16,19,19,20,20,22,22,23,23,24,24,25,25,26,26,27,27,30,30,33,33,35,35,36,36,37,37,38,38,39,39,40,40,41,41,42,42,43,43,44,44,46,46,47,47,51,51,54,54,55,55,56,56,58,58,59,59,61,61,63,63,64,64,65,65,66,66,67,67,68,68,69,69,71,71,72,72,73,73,76,76],"right_children":[2,4,6,8,10,12,14,16,18,-1,20,22,24,26,28,30,32,-1,-1,34,36,-1,38,40,42,44,46,48,-1,-1,50,-1,-1,52,-1,54,56,58,60,62,64,66,68,70,72,-1,74,76,-1,-1,-1,78,-1,-1,80,82,84,-1,86,88,-1,90,-1,92,94,96,98,100,102,104,-1,106,108,110,-1,-1,112,-1,-1,-1,-1,-1,-1,-1,-1,-1,-1,-1,-1,-1,-1,-1,-1,-1,-1,-1,-1,-1,-1,-1,-1,-1,-1,-1,-1,-1,-1,-1,-1,-1,-1,-1,-1],"split_conditions":[-2.8323647E-1,-3.155921E-1,-2.4879575E-1,4.4659E-2,3.7396774E0,1.3083452E-1,-2.2500928E-1,-2.3527567E-1,-5.19E-3,-4.8107527E-2,-3.7982965E-1,-2.7382526E-1,7.1719356E0,4.179602E-1,4.3118593E-1,3.5509E-2,-2.018E-2,1.1796455E-2,-1.7326087E-2,4.2E-2,2.228532E-1,4.0919036E-2,2.8484E-2,1.0602911E-1,3.5178536E-1,-2.826903E-1,1.32E-4,3.47899E-1,5.41901E-2,-4.3130912E-2,4.2767E-2,-5.8982465E-3,1.9537887E-2,4.4694E-2,2.248703E-2,1.4140502E-1,2.4208616E-1,-1.509E-2,1.7803386E-1,1.7230605E-1,-2.173943E-1,3.9182E-2,3.608906E-1,1.2804E-2,6.721716E-2,3.1150093E-2,2.3521E-2,3.6601E-2,3.9444465E-2,3.686409E-3,-6.524929E-2,-7.94E-3,2.9306868E-2,-2.643528E-3,4.4363588E-1,2.895072E-1,-2.896E-2,4.4236756E-3,1.0513459E-1,-2.117E-2,2.1012459E-2,-6.02E-3,-3.6495324E-2,1.9773E-2,3.4896E-2,3.3555353E-1,2.8138947E-1,3.734E-2,4.495755E-1,2.785E-3,-4.4236756E-3,3.7859E-2,4.0734223E-1,3.6621E-2,1.7694702E-2,-4.866047E-2,4.200456E-2,3.870716E-3,-1.1612148E-2,3.505024E-2,1.821823E-2,3.159424E-2,-4.83551E-4,-4.0576933E-4,2.8378218E-2,-3.1349793E-2,-1.253376E-2,1.2902413E-2,-2.1012459E-2,-9.584656E-3,6.635513E-3,2.7786234E-2,3.5082243E-2,2.586624E-2,3.479023E-3,-2.0459536E-2,7.741432E-3,-4.792318E-2,8.478698E-3,-8.226242E-3,-3.022625E-2,-2.4626235E-2,2.3737526E-3,-1.6404476E-2,2.580452E-3,3.0597113E-2,-6.635494E-3,4.1656304E-2,-2.6910743E-2,-1.255743E-2,-8.847046E-3,-2.709505E-2,-3.3177566E-3],"split_indices":[16,15,15,10,22,6,17,14,7,0,19,16,27,5,4,9,7,0,0,12,0,0,8,2,3,16,9,6,0,0,11,0,0,11,0,0,0,13,0,0,14,11,6,9,6,0,10,11,0,0,0,7,0,0,4,3,7,0,6,7,0,9,0,10,12,3,1,11,4,9,0,13,6,12,0,0,6,0,0,0,0,0,0,0,0,0,0,0,0,0,0,0,0,0,0,0,0,0,0,0,0,0,0,0,0,0,0,0,0,0,0,0,0],"split_type":[0,0,0,0,0,0,0,0,0,0,0,0,0,0,0,0,0,0,0,0,0,0,0,0,0,0,0,0,0,0,0,0,0,0,0,0,0,0,0,0,0,0,0,0,0,0,0,0,0,0,0,0,0,0,0,0,0,0,0,0,0,0,0,0,0,0,0,0,0,0,0,0,0,0,0,0,0,0,0,0,0,0,0,0,0,0,0,0,0,0,0,0,0,0,0,0,0,0,0,0,0,0,0,0,0,0,0,0,0,0,0,0,0],"sum_hessian":[1.213E3,4.4E2,7.73E2,4E1,4E2,5.37E2,2.36E2,3.5E1,5E0,1.4E1,3.86E2,1.39E2,3.98E2,1.57E2,7.9E1,3.3E1,2E0,4E0,1E0,3.3E1,3.53E2,5E0,1.34E2,1.27E2,2.71E2,1.33E2,2.4E1,6.8E1,1.1E1,2.9E1,4E0,1E0,1E0,2.8E1,5E0,2.56E2,9.7E1,1.31E2,3E0,1.7E1,1.1E2,7.8E1,1.93E2,1E1,1.23E2,4E0,2E1,5.9E1,9E0,1E0,3E0,2.6E1,2E0,2E0,2.54E2,4.2E1,5.5E1,1E0,1.3E2,2E0,1E0,7E0,1E1,6.3E1,4.7E1,1.6E1,6.2E1,9E1,1.03E2,7E0,3E0,1.5E1,1.08E2,1.7E1,3E0,2.5E1,3.4E1,1.2E1,1.4E1,2.15E2,3.9E1,5E0,3.7E1,1E0,5.4E1,1.09E2,2.1E1,1E0,1E0,4E0,3E0,8E0,5.5E1,1.5E1,3.2E1,1.2E1,4E0,4E0,5.8E1,1.3E1,7.7E1,7.3E1,3E1,2E0,5E0,1.1E1,4E0,1.07E2,1E0,8E0,9E0,2.8E1,6E0],"tree_param":{"num_deleted":"0","num_feature":"28","num_nodes":"113","size_leaf_vector":"1"}},{"base_weights":[4.8546126E-1,6.802721E-1,3.738372E-1,9.7560965E-2,7.381546E-1,2.7723047E-1,5.915612E-1,6.944433E-3,6.25E-1,7.8077954E-1,1.8499999E-1,6.464285E-2,3.511278E-1,7.477848E-1,2.75625E-1,-1.9117659E-2,2.9999998E-1,3.0399999E-2,-1.0000002E-3,1.5499999E-1,7.9586774E-1,-1.8461543E-3,3.4166667E-1,3.1666663E-2,3.185184E-2,6.6914064E-1,2.0018381E-1,8.1604475E-1,3.52E-1,1.6811593E-1,3.4833334E-2,-1.9333337E-3,1.6E-1,-1.0000002E-3,1.9E-2,4.6249998E-1,-1.714286E-3,-1.6000004E-3,8.052925E-1,-1.3333337E-3,3.90625E-1,8.403243E-4,2.4705881E-1,1.7499998E-1,7.432432E-1,4.5696202E-1,9.458762E-2,2.2727272E-1,8.6169356E-1,5.499999E-2,5.15625E-1,5.0833322E-2,3.42E-2,1.9E-2,-1.5000004E-3,-1.0000002E-3,2.5333332E-2,-1.3333337E-3,8.1008404E-1,5.8125E-1,1.7777777E-1,1.9E-2,-7.2034015E-3,4.090909E-1,-1.714286E-3,4.5624998E-1,-1.8181823E-3,8.241379E-1,4.3199998E-1,6.1777776E-1,2.3714285E-1,7.724866E-2,6.25E-1,-1.6666669E-3,4.583333E-1,8.766393E-1,-1.3333337E-3,2.9999998E-1,-1.7500004E-3,2.55E-1,3.2571428E-2,-1.9230774E-3,1.2285713E-1,3.259718E-2,-1.3333337E-3,-1.0000002E-3,2.6857141E-2,3.2499996E-3,1.9E-2,-9.107148E-4,9.714285E-3,6.4E-3,2.1142857E-2,2.4999999E-2,-1.3333337E-3,-1.0000002E-3,3.3372093E-2,-1.6000004E-3,2.095238E-2,-1.5000004E-3,2.6619047E-2,1.2307687E-3,1.373913E-2,2.3825131E-3,2.1142857E-2,3.0399999E-2,-1.0000002E-3,2.24E-2,-1.0000002E-3,3.53719E-2,-1.0000002E-3,-1.0000002E-3,1.9E-2,3.2499996E-3,2.5333332E-2,1.1499999E-2,1.4166662E-3],"categories":[],"categories_nodes":[],"categories_segments":[],"categories_sizes":[],"default_left":[0,0,0,0,0,0,0,0,0,0,0,0,0,0,0,0,0,0,0,0,0,0,0,0,0,0,0,0,0,0,0,0,0,0,0,0,0,0,0,0,0,0,0,0,0,0,0,0,0,0,0,0,0,0,0,0,0,0,0,0,0,0,0,0,0,0,0,0,0,0,0,0,0,0,0,0,0,0,0,0,0,0,0,0,0,0,0,0,0,0,0,0,0,0,0,0,0,0,0,0,0,0,0,0,0,0,0,0,0,0,0,0,0,0,0,0,0],"id":8,"left_children":[1,3,5,7,9,11,13,15,17,19,21,23,25,27,29,31,33,-1,-1,35,37,-1,39,-1,41,43,45,47,49,51,-1,-1,53,-1,-1,55,-1,-1,57,-1,59,61,63,65,67,69,71,73,75,77,79,81,-1,-1,-1,-1,-1,-1,83,85,87,-1,89,91,-1,93,-1,95,97,99,101,103,105,-1,107,109,-1,111,-1,113,-1,-1,115,-1,-1,-1,-1,-1,-1,-1,-1,-1,-1,-1,-1,-1,-1,-1,-1,-1,-1,-1,-1,-1,-1,-1,-1,-1,-1,-1,-1,-1,-1,-1,-1,-1,-1],"loss_changes":[2.6144806E1,1.4802368E1,1.6116013E1,1.9552424E0,9.310425E0,8.429096E0,1.1491425E1,2.8069037E-1,5.4550004E-1,3.3890228E0,1.1021924E0,3.312362E0,1.9018898E1,3.9813232E0,4.972822E0,1.8565688E-1,1.825E-1,0E0,0E0,6.282321E-1,2.8918304E0,0E0,3.434894E-1,0E0,9.0076804E-1,4.556923E0,7.3320017E0,3.4056473E0,1.1865566E0,5.515147E0,0E0,0E0,3.28875E-1,0E0,0E0,3.489583E-1,0E0,0E0,1.4695892E0,0E0,5.4585075E-1,4.5728883E-1,8.161192E-1,1.1367898E0,2.4387207E0,2.6461773E0,1.7358978E0,7.026515E-1,1.6879501E0,2.550625E-1,1.0377722E0,4.3334022E-1,0E0,0E0,0E0,0E0,0E0,0E0,1.4861298E0,4.5415187E-1,2.1961805E-1,0E0,4.647923E-1,2.4280536E-1,0E0,6.817709E-1,0E0,7.717552E-1,1.1043043E0,1.4314613E0,7.575003E-1,1.4771187E0,5.4550004E-1,0E0,3.0883336E-1,8.645172E-1,0E0,1.825E-1,0E0,6.0589576E-1,0E0,0E0,4.9369347E-1,0E0,0E0,0E0,0E0,0E0,0E0,0E0,0E0,0E0,0E0,0E0,0E0,0E0,0E0,0E0,0E0,0E0,0E0,0E0,0E0,0E0,0E0,0E0,0E0,0E0,0E0,0E0,0E0,0E0,0E0,0E0,0E0,0E0,0E0],"parents":[2147483647,0,0,1,1,2,2,3,3,4,4,5,5,6,6,7,7,8,8,9,9,10,10,11,11,12,12,13,13,14,14,15,15,16,16,19,19,20,20,22,22,24,24,25,25,26,26,27,27,28,28,29,29,32,32,35,35,38,38,40,40,41,41,42,42,43,43,44,44,45,45,46,46,47,47,48,48,49,49,50,50,51,51,58,58,59,59,60,60,62,62,63,63,65,65,67,67,68,68,69,69,70,70,71,71,72,72,74,74,75,75,77,77,79,79,82,82],"right_children":[2,4,6,8,10,12,14,16,18,20,22,24,26,28,30,32,34,-1,-1,36,38,-1,40,-1,42,44,46,48,50,52,-1,-1,54,-1,-1,56,-1,-1,58,-1,60,62,64,66,68,70,72,74,76,78,80,82,-1,-1,-1,-1,-1,-1,84,86,88,-1,90,92,-1,94,-1,96,98,100,102,104,106,-1,108,110,-1,112,-1,114,-1,-1,116,-1,-1,-1,-1,-1,-1,-1,-1,-1,-1,-1,-1,-1,-1,-1,-1,-1,-1,-1,-1,-1,-1,-1,-1,-1,-1,-1,-1,-1,-1,-1,-1,-1,-1],"split_conditions":[-2.8323647E-1,-3.155921E-1,-2.4879575E-1,4.4659E-2,4.2234457E-1,1.3083452E-1,-2.2500928E-1,-2.3527567E-1,-5.19E-3,-3.90431E-1,4.0071E-2,-2.7382526E-1,7.1719356E0,4.179602E-1,4.3118593E-1,3.5509E-2,-2.018E-2,1.51142115E-2,-1.7326087E-2,2.4197E-2,3.7396774E0,-1.1059189E-3,-1.862E-2,6.303741E-2,2.3208E-2,1.0602911E-1,3.5178536E-1,-2.826903E-1,3.1402E-2,3.47899E-1,5.9351042E-2,-1.2349437E-2,4.2767E-2,-5.8982465E-3,1.9537887E-2,-1.79E-3,-5.961227E-4,-2.2855682E-2,1.4140502E-1,-1.2994537E-2,-7.94E-3,-1.509E-2,3.2949E-2,1.7230605E-1,4.1823533E-1,3.3594108E-1,5.3817E-2,9.852E-3,5.0769E-2,1.513E-2,3.6621E-2,3.6601E-2,5.41901E-2,3.686409E-3,-3.8338546E-2,-1.8278504E-3,1.3595847E-2,-3.7638855E-3,3.6396253E-1,6.422E-3,-3.08E-3,4.4236756E-3,2.9835957E-1,-7.12E-3,-6.635513E-3,4.1021E-2,-4.792328E-3,1.2216953E-1,7.244E-3,3.6118853E-1,6.171E-3,4.4639E-2,2.9957E-2,-1.4019012E-4,1.2804E-2,4.0734223E-1,-1.1946106E-3,1.0036E-2,-1.1059189E-3,2.3521E-2,6.2300146E-2,-8.736754E-3,4.087E-2,5.6320228E-2,-6.2361145E-3,-4.3683853E-2,4.386814E-2,1.6988143E-2,3.2501753E-2,-3.5389562E-3,1.7326087E-2,1.2902413E-2,3.6495324E-2,1.1427841E-2,-1.06905745E-2,-9.4291836E-2,6.451021E-2,-9.118652E-4,2.1808159E-2,-1.9814376E-2,4.2107888E-2,1.06966775E-2,1.5631108E-2,1.2050667E-2,1.4725112E-2,4.583065E-2,-8.313332E-3,2.985981E-2,-4.5177457E-3,6.472541E-2,-2.6910743E-2,-6.1194267E-2,7.18848E-2,1.1059188E-2,2.5436133E-2,1.8431969E-2,1.5283191E-2],"split_indices":[16,15,15,10,2,6,17,14,7,19,11,16,27,5,4,9,7,0,0,13,22,0,7,0,9,2,3,16,11,6,0,0,11,0,0,9,0,0,0,0,7,13,10,0,3,5,13,8,11,10,12,11,0,0,0,0,0,0,1,12,7,0,2,7,0,12,0,0,9,4,9,12,10,0,9,6,0,10,0,10,0,0,11,0,0,0,0,0,0,0,0,0,0,0,0,0,0,0,0,0,0,0,0,0,0,0,0,0,0,0,0,0,0,0,0,0,0],"split_type":[0,0,0,0,0,0,0,0,0,0,0,0,0,0,0,0,0,0,0,0,0,0,0,0,0,0,0,0,0,0,0,0,0,0,0,0,0,0,0,0,0,0,0,0,0,0,0,0,0,0,0,0,0,0,0,0,0,0,0,0,0,0,0,0,0,0,0,0,0,0,0,0,0,0,0,0,0,0,0,0,0,0,0,0,0,0,0,0,0,0,0,0,0,0,0,0,0,0,0,0,0,0,0,0,0,0,0,0,0,0,0,0,0,0,0,0,0],"sum_hessian":[1.213E3,4.4E2,7.73E2,4E1,4E2,5.37E2,2.36E2,3.5E1,5E0,3.71E2,2.9E1,1.39E2,3.98E2,1.57E2,7.9E1,3.3E1,2E0,4E0,1E0,9E0,3.62E2,1.2E1,1.7E1,5E0,1.34E2,1.27E2,2.71E2,1.33E2,2.4E1,6.8E1,1.1E1,2.9E1,4E0,1E0,1E0,3E0,6E0,4E0,3.58E2,2E0,1.5E1,1.18E2,1.6E1,1.7E1,1.1E2,7.8E1,1.93E2,1E1,1.23E2,9E0,1.5E1,5.9E1,9E0,1E0,3E0,1E0,2E0,2E0,3.56E2,7E0,8E0,1E0,1.17E2,1E1,6E0,7E0,1E1,8.6E1,2.4E1,4.4E1,3.4E1,1.88E2,5E0,5E0,5E0,1.21E2,2E0,2E0,7E0,9E0,6E0,2.5E1,3.4E1,3.54E2,2E0,1E0,6E0,7E0,1E0,1.11E2,6E0,4E0,6E0,5E0,2E0,1E0,8.5E1,4E0,2E1,3E0,4.1E1,1.2E1,2.2E1,1.82E2,6E0,4E0,1E0,4E0,1E0,1.2E2,1E0,1E0,1E0,7E0,2E0,1.1E1,2.3E1],"tree_param":{"num_deleted":"0","num_feature":"28","num_nodes":"117","size_leaf_vector":"1"}},{"base_weights":[-3.3966225E-1,-1.6553287E-1,-4.384367E-1,-7.5609756E-1,-1.0473815E-1,-5.170074E-1,-2.5822785E-1,-8.1973684E-1,1.5E-3,-3.5466667E-2,-7.41602E-2,-7.907563E-1,-4.3821427E-1,-1.02215186E-1,-5.63125E-1,1E-3,-8.4324324E-1,-3.3382353E-1,-4.9011298E-2,-8.639423E-1,-2.65625E-1,-5.350629E-1,-1.3495146E-1,-3.992537E-2,-4.3199998E-1,-6.6086954E-1,1.8333333E-3,-8.6571425E-1,-2.9999998E-1,-4E-1,1.6666667E-3,-2.0233462E-2,-1.2397959E-1,-8.7281555E-1,1E-3,1.6666667E-3,-4.090909E-1,-7.920635E-1,-4.6972656E-1,-7.0625E-1,-8.59375E-2,-5E-1,1.2096787E-3,1.6E-3,-5.238095E-1,-7.675E-1,1.8000001E-3,-3.563636E-2,-2.9999998E-1,1E-3,-1.9E-2,-2.3055555E-1,-6.2083334E-1,3.899084E-3,-1.5124999E-1,-2.2950819E-1,1.9473684E-3,-8.8186276E-1,1E-3,-2.8499998E-2,-2.0625E-1,-6.057692E-1,-8.986842E-1,-2.5205478E-1,-5.535326E-1,1E-3,-3.2571428E-2,-3.5087706E-3,-2.0125E-1,-2.22E-2,1E-3,-2.0416667E-1,2.3008851E-2,-6.1944443E-1,1.5E-3,-2.1249999E-1,-7.9298246E-1,-1.9E-2,1E-3,-2.5333332E-2,-5.6249998E-3,-3.325E-2,-6.4E-3,-3.0499997E-3,8.715084E-4,-2.5333332E-2,-4.3684207E-3,-1.153846E-3,-1.47222215E-2,1E-3,-3.5643563E-2,-1.85E-2,1.6E-3,-2.6416667E-2,1.3333333E-3,-1.1999999E-2,-3.694444E-2,-4.44E-3,-2.1416666E-2,-6.642857E-3,-2.476433E-2,-4.4210525E-3,1.948718E-3,-5.833333E-3,-2.24E-2,-2.2E-3,-2.5333332E-2,1.2678573E-3,-1.9E-2,-2.9571427E-2,-6.4E-3,1.3333333E-3,-1.9E-2,-2.565517E-2,-3.6689654E-2],"categories":[],"categories_nodes":[],"categories_segments":[],"categories_sizes":[],"default_left":[0,0,0,0,0,0,0,0,0,0,0,0,0,0,0,0,0,0,0,0,0,0,0,0,0,0,0,0,0,0,0,0,0,0,0,0,0,0,0,0,0,0,0,0,0,0,0,0,0,0,0,0,0,0,0,0,0,0,0,0,0,0,0,0,0,0,0,0,0,0,0,0,0,0,0,0,0,0,0,0,0,0,0,0,0,0,0,0,0,0,0,0,0,0,0,0,0,0,0,0,0,0,0,0,0,0,0,0,0,0,0,0,0,0,0],"id":9,"left_children":[1,3,5,7,9,11,13,15,-1,-1,17,19,21,23,25,-1,27,29,31,33,35,37,39,41,43,45,-1,47,49,51,-1,53,55,57,-1,-1,59,61,63,65,67,69,71,-1,73,75,-1,-1,77,-1,-1,79,81,83,85,87,-1,89,-1,-1,91,93,95,97,99,-1,-1,101,103,-1,-1,105,107,109,-1,111,113,-1,-1,-1,-1,-1,-1,-1,-1,-1,-1,-1,-1,-1,-1,-1,-1,-1,-1,-1,-1,-1,-1,-1,-1,-1,-1,-1,-1,-1,-1,-1,-1,-1,-1,-1,-1,-1,-1],"loss_changes":[2.0807663E1,1.5754126E1,1.0825668E1,2.1014023E0,9.522062E0,1.1257889E1,1.1216012E1,7.756367E-1,0E0,0E0,2.510845E0,4.343956E0,1.2263435E1,3.2284253E0,4.792078E0,0E0,1.9195366E-1,8.615196E-1,7.6122004E-1,8.4215546E-1,7.224195E-1,4.9676437E0,2.8234718E0,2.5365808E0,1.1043048E0,5.227974E0,0E0,2.3158455E-1,1.8249997E-1,9.420142E-1,0E0,8.131626E-1,1.7968284E0,8.5868835E-1,0E0,0E0,5.300282E-1,7.069588E-1,4.5304832E0,6.523659E-1,9.117799E-1,3.3150005E-1,5.598499E-1,0E0,1.1505251E0,6.800537E-1,0E0,0E0,1.8249997E-1,0E0,0E0,5.62934E-1,1.0306039E0,3.1422034E-1,7.4149454E-1,1.685256E0,0E0,8.7571716E-1,0E0,0E0,5.233125E-1,9.3007183E-1,2.9000664E-1,2.8583455E0,4.572262E0,0E0,0E0,3.239676E-1,7.1356237E-1,0E0,0E0,7.333749E-1,5.039493E-1,8.728018E-1,0E0,2.7395833E-1,4.8547363E-1,0E0,0E0,0E0,0E0,0E0,0E0,0E0,0E0,0E0,0E0,0E0,0E0,0E0,0E0,0E0,0E0,0E0,0E0,0E0,0E0,0E0,0E0,0E0,0E0,0E0,0E0,0E0,0E0,0E0,0E0,0E0,0E0,0E0,0E0,0E0,0E0,0E0,0E0],"parents":[2147483647,0,0,1,1,2,2,3,3,4,4,5,5,6,6,7,7,10,10,11,11,12,12,13,13,14,14,16,16,17,17,18,18,19,19,20,20,21,21,22,22,23,23,24,24,25,25,27,27,28,28,29,29,31,31,32,32,33,33,36,36,37,37,38,38,39,39,40,40,41,41,42,42,44,44,45,45,48,48,51,51,52,52,53,53,54,54,55,55,57,57,60,60,61,61,62,62,63,63,64,64,67,67,68,68,71,71,72,72,73,73,75,75,76,76],"right_children":[2,4,6,8,10,12,14,16,-1,-1,18,20,22,24,26,-1,28,30,32,34,36,38,40,42,44,46,-1,48,50,52,-1,54,56,58,-1,-1,60,62,64,66,68,70,72,-1,74,76,-1,-1,78,-1,-1,80,82,84,86,88,-1,90,-1,-1,92,94,96,98,100,-1,-1,102,104,-1,-1,106,108,110,-1,112,114,-1,-1,-1,-1,-1,-1,-1,-1,-1,-1,-1,-1,-1,-1,-1,-1,-1,-1,-1,-1,-1,-1,-1,-1,-1,-1,-1,-1,-1,-1,-1,-1,-1,-1,-1,-1,-1,-1],"split_conditions":[-2.8323647E-1,-3.155921E-1,-2.4879575E-1,4.6171E-2,3.7396774E0,1.0513459E-1,-2.2500928E-1,-2.247E-2,6.724014E-3,-8.91814E-2,-3.7982965E-1,2.9835957E-1,4.140645E0,4.179602E-1,4.3118593E-1,1.5524025E-2,3.8535E-2,4.2E-2,2.228532E-1,4.484929E-1,1.8793035E-1,2.7005076E-1,1.00754544E-1,-2.826903E-1,1.32E-4,3.47899E-1,3.8574483E-2,-2.3527567E-1,3.067719E-1,2.4443E-2,3.1850433E-3,4.4363588E-1,4.1009882E-1,3.8535E-2,1.9290924E-4,2.1587562E-2,-1.198E-2,3.071883E-1,-3.79877E-1,-1.541E-2,-1.419321E-1,2.1532E-2,5.7746913E-2,1.0262947E-2,2.3521E-2,3.0045035E-1,8.847351E-3,-7.948761E-2,-2.018E-2,1.8124008E-3,-6.1787605E-2,-1.862E-2,4.5653E-2,3.379407E-1,1.02E-4,1.9357E-2,9.782067E-3,-1.509E-2,1.2386322E-2,-2.9669493E-2,3.4858E-2,2.2309E-2,-1.319E-2,4.0576E-2,7.593333E-1,3.0025482E-4,-5.4499738E-2,9.037E-3,4.5197E-2,-2.6895942E-2,1.8756371E-2,3.7859E-2,4.0734223E-1,2.0547E-2,1.6633034E-2,1.23189546E-1,-3.5685813E-1,-5.6623076E-3,1.8756371E-2,-4.6957016E-2,-1.53570175E-2,-4.8157003E-2,-5.7570264E-3,-3.4489363E-2,4.9379617E-3,-2.7957648E-2,-3.3130746E-2,-2.1326357E-2,-5.173719E-2,4.2467117E-3,-6.488709E-2,-1.7765503E-2,1.8185043E-3,-8.0231935E-2,4.394493E-3,-3.5803605E-2,-8.2090855E-2,-2.9190844E-2,-6.581235E-2,-3.3892646E-2,-6.624525E-2,-1.888855E-2,5.7990914E-3,-1.9771995E-2,-6.8695066E-3,-6.3347094E-2,-3.999004E-2,5.6194384E-3,-2.5834313E-2,-5.65789E-2,-8.4226914E-2,1.8080521E-3,-1.1415993E-1,-4.43856E-2,-1.03964746E-1],"split_indices":[16,15,15,10,22,6,17,7,0,0,19,2,22,5,4,0,8,12,0,4,0,6,2,16,9,6,0,14,0,13,0,4,5,8,0,0,7,3,18,7,20,8,6,0,10,5,0,0,7,0,0,7,13,2,9,12,0,13,0,0,11,9,9,10,21,0,0,8,11,0,0,13,6,9,0,0,18,0,0,0,0,0,0,0,0,0,0,0,0,0,0,0,0,0,0,0,0,0,0,0,0,0,0,0,0,0,0,0,0,0,0,0,0,0,0],"split_type":[0,0,0,0,0,0,0,0,0,0,0,0,0,0,0,0,0,0,0,0,0,0,0,0,0,0,0,0,0,0,0,0,0,0,0,0,0,0,0,0,0,0,0,0,0,0,0,0,0,0,0,0,0,0,0,0,0,0,0,0,0,0,0,0,0,0,0,0,0,0,0,0,0,0,0,0,0,0,0,0,0,0,0,0,0,0,0,0,0,0,0,0,0,0,0,0,0,0,0,0,0,0,0,0,0,0,0,0,0,0,0,0,0,0,0],"sum_hessian":[1.213E3,4.4E2,7.73E2,4E1,4E2,5.37E2,2.36E2,3.7E1,3E0,1.4E1,3.86E2,1.18E2,4.19E2,1.57E2,7.9E1,1E0,3.6E1,3.3E1,3.53E2,1.03E2,1.5E1,3.17E2,1.02E2,1.33E2,2.4E1,6.8E1,1.1E1,3.4E1,2E0,2.8E1,5E0,2.56E2,9.7E1,1.02E2,1E0,5E0,1E1,6.2E1,2.55E2,7E0,9.5E1,1E1,1.23E2,4E0,2E1,5.9E1,9E0,3.2E1,2E0,1E0,1E0,1.7E1,1.1E1,2.17E2,3.9E1,6E1,3.7E1,1.01E2,1E0,3E0,7E0,2.5E1,3.7E1,7.2E1,1.83E2,1E0,6E0,5.6E1,3.9E1,9E0,1E0,1.1E1,1.12E2,1.7E1,3E0,3E0,5.6E1,1E0,1E0,2E0,1.5E1,7E0,4E0,3.9E1,1.78E2,2E0,3.7E1,2.5E1,3.5E1,1E0,1E2,3E0,4E0,2.3E1,2E0,2E0,3.5E1,4.9E1,2.3E1,2.7E1,1.56E2,1.8E1,3.8E1,3.5E1,4E0,9E0,2E0,1.11E2,1E0,1.3E1,4E0,2E0,1E0,2.8E1,2.8E1],"tree_param":{"num_deleted":"0","num_feature":"28","num_nodes":"115","size_leaf_vector":"1"}},{"base_weights":[5.9719935E-2,2.4716553E-1,-4.7157623E-2,-3.4146342E-1,3.0673316E-1,-1.366171E-1,1.5611814E-1,-4.3055555E-1,2.5E-1,-1.8666666E-2,3.3591732E-1,-3.75E-1,-5.263158E-2,3.1329113E-1,-1.5625E-1,-4.5588234E-1,-0E0,1.6E-2,-1E-2,1.4705882E-2,3.6581922E-1,1.6666666E-2,-4.074074E-1,2.4609375E-1,-1.9301471E-1,3.7686568E-1,-4E-2,-2.6086956E-1,1.8333333E-2,-1.9333333E-2,-2E-1,-1E-2,1E-2,-6.896552E-2,1.6666666E-2,2.8214285E-1,4.1860464E-1,-4.2045453E-1,1.25E-1,-2.5E-1,3.243243E-1,5.0632913E-2,-2.9123712E-1,-9.090909E-2,4.1532257E-1,1.6E-2,-1.4285715E-1,-3.75E-1,1.8E-2,1E-2,-1.5E-2,1.5E-2,-1.3461539E-1,5.882353E-2,4.0555555E-1,-0E0,4.30622E-1,1E-2,-4.274809E-1,-0E0,1E-2,6.25E-2,-1.8181818E-2,4.453125E-1,1.5625E-1,2E-1,-1.4285715E-1,-1.9565217E-2,-2.2818792E-1,6.25E-2,-1.5E-2,4.3032786E-1,-1.3333334E-2,-2.5E-1,1.5E-2,-1.9230768E-2,-2.857143E-1,-7.5E-3,1.3333334E-2,-1.7142856E-2,5.3333333E-3,8.421052E-3,1.8055556E-2,1.3333334E-2,-8E-3,1.7403845E-2,-1E-2,-1.8363636E-2,-1E-2,1E-2,-1E-2,-8E-3,1.5E-2,8.888889E-3,1.892857E-2,1.375E-2,2.4242424E-3,-1.5E-2,1E-2,-1.5384615E-2,-0E0,-2.3880596E-3,-1.4457831E-2,-1.3333334E-2,1E-2,6.2499996E-3,1.8691588E-2,-1.7777778E-2,-2E-3,-1.3793103E-2,-0E0],"categories":[],"categories_nodes":[],"categories_segments":[],"categories_sizes":[],"default_left":[0,0,0,0,0,0,0,0,0,0,0,0,0,0,0,0,0,0,0,0,0,0,0,0,0,0,0,0,0,0,0,0,0,0,0,0,0,0,0,0,0,0,0,0,0,0,0,0,0,0,0,0,0,0,0,0,0,0,0,0,0,0,0,0,0,0,0,0,0,0,0,0,0,0,0,0,0,0,0,0,0,0,0,0,0,0,0,0,0,0,0,0,0,0,0,0,0,0,0,0,0,0,0,0,0,0,0,0,0,0,0],"id":10,"left_children":[1,3,5,7,9,11,13,15,17,-1,19,21,23,25,27,29,31,-1,-1,33,35,-1,37,39,41,43,45,47,-1,-1,49,-1,-1,51,-1,53,55,57,59,61,63,65,67,69,71,-1,73,75,-1,-1,-1,-1,77,79,81,83,85,-1,87,89,-1,91,-1,93,95,97,99,-1,101,103,-1,105,-1,107,-1,-1,109,-1,-1,-1,-1,-1,-1,-1,-1,-1,-1,-1,-1,-1,-1,-1,-1,-1,-1,-1,-1,-1,-1,-1,-1,-1,-1,-1,-1,-1,-1,-1,-1,-1,-1],"loss_changes":[2.4332602E1,1.5567623E1,1.4096475E1,2.2681231E0,9.207737E0,1.0751406E1,1.1684666E1,3.9256525E-1,5.5E-1,0E0,3.7116928E0,3.7615738E0,1.6779963E1,3.5638065E0,5.26336E0,1.421566E-1,2.5E-1,0E0,0E0,1.1722447E0,1.4454727E0,0E0,9.903202E-1,5.0487223E0,6.5241566E0,2.4483051E0,1.1885715E0,5.7668476E0,0E0,0E0,4.875E-1,0E0,0E0,8.957228E-1,0E0,3.8346062E0,1.081562E0,7.2870255E-1,6.25E-2,1.1789773E0,2.1876059E0,2.311754E0,2.3089275E0,5.028409E-1,1.5364342E0,0E0,1.2589285E0,4.2925835E-1,0E0,0E0,0E0,0E0,7.059295E-1,1.9092437E0,7.09466E-1,5.3333336E-1,7.452202E-1,0E0,6.2016106E-1,2.5E-1,0E0,7.3125E-1,0E0,2.932167E-1,8.39962E-1,1.3875E0,1.2087911E0,0E0,3.3237896E0,6.770834E-1,0E0,1.162899E0,0E0,6.7777777E-1,0E0,0E0,5.911329E-1,0E0,0E0,0E0,0E0,0E0,0E0,0E0,0E0,0E0,0E0,0E0,0E0,0E0,0E0,0E0,0E0,0E0,0E0,0E0,0E0,0E0,0E0,0E0,0E0,0E0,0E0,0E0,0E0,0E0,0E0,0E0,0E0,0E0,0E0],"parents":[2147483647,0,0,1,1,2,2,3,3,4,4,5,5,6,6,7,7,8,8,10,10,11,11,12,12,13,13,14,14,15,15,16,16,19,19,20,20,22,22,23,23,24,24,25,25,26,26,27,27,30,30,33,33,35,35,36,36,37,37,38,38,39,39,40,40,41,41,42,42,43,43,44,44,46,46,47,47,52,52,53,53,54,54,55,55,56,56,58,58,59,59,61,61,63,63,64,64,65,65,66,66,68,68,69,69,71,71,73,73,76,76],"right_children":[2,4,6,8,10,12,14,16,18,-1,20,22,24,26,28,30,32,-1,-1,34,36,-1,38,40,42,44,46,48,-1,-1,50,-1,-1,52,-1,54,56,58,60,62,64,66,68,70,72,-1,74,76,-1,-1,-1,-1,78,80,82,84,86,-1,88,90,-1,92,-1,94,96,98,100,-1,102,104,-1,106,-1,108,-1,-1,110,-1,-1,-1,-1,-1,-1,-1,-1,-1,-1,-1,-1,-1,-1,-1,-1,-1,-1,-1,-1,-1,-1,-1,-1,-1,-1,-1,-1,-1,-1,-1,-1,-1,-1],"split_conditions":[-2.8323647E-1,-3.155921E-1,-2.4879575E-1,4.4659E-2,3.7396774E0,1.3083452E-1,-2.2500928E-1,-2.3527567E-1,-5.19E-3,-4.6183243E-2,-3.7982965E-1,-2.7382526E-1,7.1719356E0,4.179602E-1,4.3118593E-1,3.5509E-2,-2.018E-2,1.1324615E-2,-1.6633034E-2,4.2E-2,-3.4128815E-1,3.9282262E-2,2.8484E-2,1.0602911E-1,3.5178536E-1,-2.826903E-1,1.32E-4,3.47899E-1,5.2022513E-2,-4.1405678E-2,4.2767E-2,-5.6623076E-3,1.8756371E-2,1.7613E-2,2.1587562E-2,4.1009882E-1,-3.3196366E-1,-1.509E-2,1.7803386E-1,1.7230605E-1,-2.173943E-1,3.3594108E-1,-2.4947514E-1,1.2804E-2,5.0769E-2,2.9904097E-2,2.3521E-2,3.6601E-2,3.7866667E-2,3.5389708E-3,-6.263931E-2,2.1052321E-2,4.4694E-2,-3.3060285E-1,-3.6744252E-1,-1.755E-2,4.057566E-1,4.2467117E-3,1.0513459E-1,-2.117E-2,2.0171966E-2,-6.02E-3,-3.5035513E-2,1.9773E-2,3.4896E-2,3.6118853E-1,6.171E-3,-4.3473203E-2,-3.6709046E-1,2.785E-3,-4.2467117E-3,6.721716E-2,-5.8099744E-3,3.6621E-2,1.6986923E-2,-4.6714056E-2,4.200456E-2,-1.0547676E-2,2.8134612E-2,-3.3304214E-2,8.935814E-3,1.088953E-2,2.9489517E-2,1.0737534E-2,-2.9006481E-2,3.444824E-2,-1.01080164E-1,-3.0095786E-2,-1.2032394E-2,1.2386322E-2,-2.0171966E-2,-9.201279E-3,6.3700867E-3,2.6674785E-2,3.367897E-2,2.483158E-2,3.3398627E-3,-2.5841178E-2,1.093956E-2,-2.812374E-2,-6.046295E-5,-1.5211868E-3,-2.8841209E-2,-1.5748309E-2,2.4772263E-3,2.2573242E-2,3.999004E-2,-1.2055148E-2,-8.493156E-3,-2.6011257E-2,-3.1850433E-3],"split_indices":[16,15,15,10,22,6,17,14,7,0,19,16,27,5,4,9,7,0,0,12,17,0,8,2,3,16,9,6,0,0,11,0,0,10,0,5,20,13,0,0,14,5,16,9,11,0,10,11,0,0,0,0,11,19,19,7,2,0,6,7,0,9,0,10,12,4,9,0,18,9,0,6,0,12,0,0,6,0,0,0,0,0,0,0,0,0,0,0,0,0,0,0,0,0,0,0,0,0,0,0,0,0,0,0,0,0,0,0,0,0,0],"split_type":[0,0,0,0,0,0,0,0,0,0,0,0,0,0,0,0,0,0,0,0,0,0,0,0,0,0,0,0,0,0,0,0,0,0,0,0,0,0,0,0,0,0,0,0,0,0,0,0,0,0,0,0,0,0,0,0,0,0,0,0,0,0,0,0,0,0,0,0,0,0,0,0,0,0,0,0,0,0,0,0,0,0,0,0,0,0,0,0,0,0,0,0,0,0,0,0,0,0,0,0,0,0,0,0,0,0,0,0,0,0,0],"sum_hessian":[1.213E3,4.4E2,7.73E2,4E1,4E2,5.37E2,2.36E2,3.5E1,5E0,1.4E1,3.86E2,1.39E2,3.98E2,1.57E2,7.9E1,3.3E1,2E0,4E0,1E0,3.3E1,3.53E2,5E0,1.34E2,1.27E2,2.71E2,1.33E2,2.4E1,6.8E1,1.1E1,2.9E1,4E0,1E0,1E0,2.8E1,5E0,1.39E2,2.14E2,1.31E2,3E0,1.7E1,1.1E2,7.8E1,1.93E2,1E1,1.23E2,4E0,2E1,5.9E1,9E0,1E0,3E0,3E0,2.5E1,5E1,8.9E1,6E0,2.08E2,1E0,1.3E2,2E0,1E0,7E0,1E1,6.3E1,4.7E1,4.4E1,3.4E1,4.5E1,1.48E2,7E0,3E0,1.21E2,2E0,1.7E1,3E0,2.5E1,3.4E1,2.3E1,2E0,6E0,4.4E1,1.8E1,7.1E1,2E0,4E0,2.07E2,1E0,1.09E2,2.1E1,1E0,1E0,4E0,3E0,8E0,5.5E1,1.5E1,3.2E1,3E0,4.1E1,1.2E1,2.2E1,6.6E1,8.2E1,2E0,5E0,1.5E1,1.06E2,8E0,9E0,2.8E1,6E0],"tree_param":{"num_deleted":"0","num_feature":"28","num_nodes":"111","size_leaf_vector":"1"}},{"base_weights":[4.7310543E-1,6.643991E-1,3.6350128E-1,9.7560965E-2,7.2069824E-1,2.6607805E-1,5.831224E-1,6.944433E-3,6.25E-1,7.6196235E-1,1.8499999E-1,5.749999E-2,3.385965E-1,7.3512655E-1,2.75625E-1,-1.9117659E-2,2.9999998E-1,3.0399999E-2,-1.0000002E-3,7.944611E-1,4.6410257E-1,-1.8461543E-3,3.4166667E-1,3.1666663E-2,2.4444433E-2,6.4570314E-1,1.9283088E-1,8.011194E-1,3.52E-1,1.6811593E-1,3.4833334E-2,-1.9333337E-3,1.6E-1,-1.0000002E-3,1.9E-2,8.58913E-1,6.457143E-1,2.5961536E-1,8.1071424E-1,-1.3333337E-3,3.90625E-1,1.0984837E-2,1.8499998E-2,1.7499998E-1,7.162162E-1,4.4430378E-1,8.943298E-2,1.3636363E-1,8.53629E-1,5.499999E-2,5.15625E-1,5.0833322E-2,3.42E-2,1.9E-2,-1.5000004E-3,-1.3333337E-3,8.6688596E-1,4.1627905E-1,7.920635E-1,3.0399999E-2,1.340909E-1,3.5076924E-2,-1.0000002E-3,5.8125E-1,1.7777777E-1,1.0921051E-1,-2.8421065E-2,4.5624998E-1,-1.8181823E-3,7.9764706E-1,4.333333E-1,6.1777776E-1,2.0857142E-1,7.195766E-2,6.25E-1,-1.6666669E-3,2.9166666E-1,8.684426E-1,-1.3333337E-3,2.9999998E-1,-1.7500004E-3,2.55E-1,3.2571428E-2,-1.9230774E-3,1.2285713E-1,3.4837004E-2,-1.0000002E-3,-1.6000004E-3,1.8564101E-2,3.3966098E-2,-1.6000004E-3,2.315789E-3,1.8499998E-2,-1.0000002E-3,2.6857141E-2,3.2499996E-3,1.9E-2,1.4857139E-3,2.8499998E-2,2.555555E-3,-1.9743594E-3,2.4999999E-2,-1.3333337E-3,-1.0000002E-3,3.230952E-2,-1.6000004E-3,2.0695651E-2,-1.5000004E-3,2.6619047E-2,1.2307687E-3,1.1999999E-2,2.1639338E-3,2.1142857E-2,3.0399999E-2,-1.0000002E-3,1.4399999E-2,-1.0000002E-3,3.504132E-2,-1.0000002E-3,-1.0000002E-3,1.9E-2,3.2499996E-3,2.5333332E-2,1.1499999E-2,1.4166662E-3],"categories":[],"categories_nodes":[],"categories_segments":[],"categories_sizes":[],"default_left":[0,0,0,0,0,0,0,0,0,0,0,0,0,0,0,0,0,0,0,0,0,0,0,0,0,0,0,0,0,0,0,0,0,0,0,0,0,0,0,0,0,0,0,0,0,0,0,0,0,0,0,0,0,0,0,0,0,0,0,0,0,0,0,0,0,0,0,0,0,0,0,0,0,0,0,0,0,0,0,0,0,0,0,0,0,0,0,0,0,0,0,0,0,0,0,0,0,0,0,0,0,0,0,0,0,0,0,0,0,0,0,0,0,0,0,0,0,0,0,0,0,0,0,0,0],"id":11,"left_children":[1,3,5,7,9,11,13,15,17,19,21,23,25,27,29,31,33,-1,-1,35,37,-1,39,-1,41,43,45,47,49,51,-1,-1,53,-1,-1,55,57,59,61,-1,63,65,-1,67,69,71,73,75,77,79,81,83,-1,-1,-1,-1,85,87,89,-1,91,-1,-1,93,95,97,99,101,-1,103,105,107,109,111,113,-1,115,117,-1,119,-1,121,-1,-1,123,-1,-1,-1,-1,-1,-1,-1,-1,-1,-1,-1,-1,-1,-1,-1,-1,-1,-1,-1,-1,-1,-1,-1,-1,-1,-1,-1,-1,-1,-1,-1,-1,-1,-1,-1,-1,-1,-1,-1,-1],"loss_changes":[2.5211914E1,1.4003113E1,1.6405487E1,1.9552424E0,8.723175E0,8.118187E0,1.0874977E1,2.8069037E-1,5.4550004E-1,3.232254E0,1.1021924E0,3.3782084E0,1.7736961E1,3.712822E0,4.972822E0,1.8565688E-1,1.825E-1,0E0,0E0,2.6474762E0,2.5537539E0,0E0,3.434894E-1,0E0,7.9088634E-1,4.1230774E0,7.0327463E0,4.5610123E0,1.1865566E0,5.515147E0,0E0,0E0,3.28875E-1,0E0,0E0,1.6650543E0,3.1959343E0,1.5311644E0,7.96566E-1,0E0,5.4585075E-1,5.1403254E-1,0E0,1.1367898E0,2.211277E0,3.1017303E0,1.7707121E0,3.1628788E-1,1.6581955E0,2.550625E-1,1.0377722E0,4.3334022E-1,0E0,0E0,0E0,0E0,8.4313965E-1,9.56862E-1,3.0265732E0,0E0,5.23741E-1,0E0,0E0,4.5415187E-1,2.1961805E-1,1.625687E0,1.8676743E-1,6.817709E-1,0E0,7.258148E-1,1.0949564E0,1.4314613E0,5.597364E-1,1.5126636E0,5.4550004E-1,0E0,1.3883334E-1,8.492584E-1,0E0,1.825E-1,0E0,6.0589576E-1,0E0,0E0,4.9369347E-1,0E0,0E0,0E0,0E0,0E0,0E0,0E0,0E0,0E0,0E0,0E0,0E0,0E0,0E0,0E0,0E0,0E0,0E0,0E0,0E0,0E0,0E0,0E0,0E0,0E0,0E0,0E0,0E0,0E0,0E0,0E0,0E0,0E0,0E0,0E0,0E0,0E0,0E0,0E0,0E0],"parents":[2147483647,0,0,1,1,2,2,3,3,4,4,5,5,6,6,7,7,8,8,9,9,10,10,11,11,12,12,13,13,14,14,15,15,16,16,19,19,20,20,22,22,24,24,25,25,26,26,27,27,28,28,29,29,32,32,35,35,36,36,37,37,38,38,40,40,41,41,43,43,44,44,45,45,46,46,47,47,48,48,49,49,50,50,51,51,56,56,57,57,58,58,60,60,63,63,64,64,65,65,66,66,67,67,69,69,70,70,71,71,72,72,73,73,74,74,76,76,77,77,79,79,81,81,84,84],"right_children":[2,4,6,8,10,12,14,16,18,20,22,24,26,28,30,32,34,-1,-1,36,38,-1,40,-1,42,44,46,48,50,52,-1,-1,54,-1,-1,56,58,60,62,-1,64,66,-1,68,70,72,74,76,78,80,82,84,-1,-1,-1,-1,86,88,90,-1,92,-1,-1,94,96,98,100,102,-1,104,106,108,110,112,114,-1,116,118,-1,120,-1,122,-1,-1,124,-1,-1,-1,-1,-1,-1,-1,-1,-1,-1,-1,-1,-1,-1,-1,-1,-1,-1,-1,-1,-1,-1,-1,-1,-1,-1,-1,-1,-1,-1,-1,-1,-1,-1,-1,-1,-1,-1,-1,-1],"split_conditions":[-2.8323647E-1,-3.155921E-1,-2.4879575E-1,4.4659E-2,4.2234457E-1,1.3083452E-1,-2.2500928E-1,-2.3527567E-1,-5.19E-3,-1.9399123E-1,4.0071E-2,-2.7382526E-1,7.1719356E0,4.179602E-1,4.3118593E-1,3.5509E-2,-2.018E-2,1.4509658E-2,-1.6633034E-2,2.228532E-1,4.0037E-2,-1.0616684E-3,-1.862E-2,6.05159E-2,2.8484E-2,1.0602911E-1,3.5178536E-1,-2.826903E-1,3.1402E-2,3.47899E-1,5.6977004E-2,-1.1855472E-2,4.2767E-2,-5.6623076E-3,1.8756371E-2,1.4140502E-1,2.4208616E-1,3.7387007E-1,4.8438E-2,-1.2474746E-2,-7.94E-3,3.7493E-2,1.8235512E-2,1.7230605E-1,4.105418E-1,3.3594108E-1,5.3817E-2,9.852E-3,5.0769E-2,1.513E-2,3.6621E-2,3.6601E-2,5.2022513E-2,3.5389708E-3,-3.6805E-2,-3.6133192E-3,9.334E-3,1.736E-3,-2.75E-3,3.6628645E-2,2.2939E-2,4.8228644E-2,-1.713562E-4,6.422E-3,-3.08E-3,3.734E-2,-2.627324E-1,4.1021E-2,-4.6006395E-3,1.2216953E-1,7.244E-3,3.6118853E-1,6.171E-3,4.4639E-2,2.9957E-2,-1.3458251E-4,1.2804E-2,4.0734223E-1,-1.1468125E-3,1.0036E-2,-1.0616684E-3,2.3521E-2,5.9808157E-2,-8.387289E-3,4.087E-2,5.9619054E-2,-2.1009445E-3,-1.9377518E-3,3.7782274E-2,4.8490234E-2,-5.722809E-4,1.5828628E-2,4.5028646E-2,-4.193649E-2,4.2113416E-2,1.6308632E-2,3.1201666E-2,3.493633E-3,3.5035513E-2,1.5033035E-2,-7.478646E-3,1.0970726E-2,-1.0262947E-2,-9.052017E-2,6.2381636E-2,-8.753967E-4,2.0775815E-2,-1.9021796E-2,4.0423583E-2,1.0268821E-2,1.5005878E-2,1.1568641E-2,1.41361235E-2,4.399742E-2,-7.980804E-3,2.8665427E-2,-4.3370435E-3,6.213637E-2,-2.5834313E-2,-5.874649E-2,6.90094E-2,1.0616836E-2,2.4418678E-2,1.7694702E-2,1.4671847E-2],"split_indices":[16,15,15,10,2,6,17,14,7,14,11,16,27,5,4,9,7,0,0,0,13,0,7,0,8,2,3,16,11,6,0,0,11,0,0,0,0,5,11,0,7,11,0,0,3,5,13,8,11,10,12,11,0,0,0,0,7,8,7,0,8,0,0,12,7,11,16,12,0,0,9,4,9,12,10,0,9,6,0,10,0,10,0,0,11,0,0,0,0,0,0,0,0,0,0,0,0,0,0,0,0,0,0,0,0,0,0,0,0,0,0,0,0,0,0,0,0,0,0,0,0,0,0,0,0],"split_type":[0,0,0,0,0,0,0,0,0,0,0,0,0,0,0,0,0,0,0,0,0,0,0,0,0,0,0,0,0,0,0,0,0,0,0,0,0,0,0,0,0,0,0,0,0,0,0,0,0,0,0,0,0,0,0,0,0,0,0,0,0,0,0,0,0,0,0,0,0,0,0,0,0,0,0,0,0,0,0,0,0,0,0,0,0,0,0,0,0,0,0,0,0,0,0,0,0,0,0,0,0,0,0,0,0,0,0,0,0,0,0,0,0,0,0,0,0,0,0,0,0,0,0,0,0],"sum_hessian":[1.213E3,4.4E2,7.73E2,4E1,4E2,5.37E2,2.36E2,3.5E1,5E0,3.71E2,2.9E1,1.39E2,3.98E2,1.57E2,7.9E1,3.3E1,2E0,4E0,1E0,3.33E2,3.8E1,1.2E1,1.7E1,5E0,1.34E2,1.27E2,2.71E2,1.33E2,2.4E1,6.8E1,1.1E1,2.9E1,4E0,1E0,1E0,2.29E2,1.04E2,2.5E1,1.3E1,2E0,1.5E1,1.31E2,3E0,1.7E1,1.1E2,7.8E1,1.93E2,1E1,1.23E2,9E0,1.5E1,5.9E1,9E0,1E0,3E0,2E0,2.27E2,4.2E1,6.2E1,4E0,2.1E1,1.2E1,1E0,7E0,8E0,3.7E1,9.4E1,7E0,1E1,8.4E1,2.6E1,4.4E1,3.4E1,1.88E2,5E0,5E0,5E0,1.21E2,2E0,2E0,7E0,9E0,6E0,2.5E1,3.4E1,2.26E2,1E0,4E0,3.8E1,5.8E1,4E0,1.8E1,3E0,1E0,6E0,7E0,1E0,3.4E1,3E0,1.7E1,7.7E1,5E0,2E0,1E0,8.3E1,4E0,2.2E1,3E0,4.1E1,1.2E1,2.2E1,1.82E2,6E0,4E0,1E0,4E0,1E0,1.2E2,1E0,1E0,1E0,7E0,2E0,1.1E1,2.3E1],"tree_param":{"num_deleted":"0","num_feature":"28","num_nodes":"125","size_leaf_vector":"1"}},{"base_weights":[-3.2730642E-1,-1.5646258E-1,-4.242248E-1,-7.5609756E-1,-9.476309E-2,-5.9305555E-1,-3.42065E-1,-8.1973684E-1,1.5E-3,-3.5466667E-2,-6.382429E-2,-6.851163E-1,-5.6578945E-2,-1.2697674E-1,-4.906149E-1,1E-3,-8.4324324E-1,-3.3382353E-1,-3.7711862E-2,-7.209756E-1,1.8181818E-3,1.71875E-2,-3.857143E-1,-4.1346154E-1,-8.710526E-2,-6.100515E-1,-2.8663793E-1,-8.6571425E-1,-2.9999998E-1,-4E-1,1.6666667E-3,-2.3174603E-2,-1.5124999E-1,-4.8039216E-1,-7.954839E-1,1.9354839E-3,-1.9E-2,-1.6E-1,-2.5333332E-2,-4.5454543E-2,-6.40625E-1,-2.8499998E-2,-7.326203E-2,-4.0182927E-1,-7.557522E-1,-8.4166664E-1,-1.8282828E-1,-3.563636E-2,-2.9999998E-1,1E-3,-1.9E-2,-2.3055555E-1,-6.2083334E-1,-9.06542E-2,1.1483255E-2,-2.5333332E-2,-1.0921052E-1,-1.1764704E-2,-6.942857E-1,-6.4166665E-1,-8.4517545E-1,-1.9E-2,1.5E-3,-1.9E-2,1.8000001E-3,1.3333333E-3,-7.392857E-1,-4.090909E-1,-5.19774E-2,-3.0367646E-1,-8.2E-1,-7.702703E-1,1.3333333E-3,1E-3,-3.5764705E-2,-1.3532609E-1,-7.0625E-1,-1.9E-2,1E-3,-2.5333332E-2,-5.6249998E-3,-3.325E-2,-6.4E-3,-1.105E-2,7.9411763E-4,-1.9E-2,6.442308E-4,-1.4199999E-2,-8.275861E-4,-1.1999999E-2,1.8666666E-3,-3.3083335E-2,-1.4833333E-2,1E-3,-2.634146E-2,-3.5520833E-2,-2.336842E-2,-1.1999999E-2,-3.1499997E-2,-5E-3,-2.4999999E-2,-4.224138E-3,1.9677419E-3,-1.9878788E-2,-4.7222218E-3,-3.528571E-2,1E-3,-1.1666666E-2,-3.1603772E-2,-1.1153845E-3,-1.0731706E-2,-3.2571428E-2,1E-3],"categories":[],"categories_nodes":[],"categories_segments":[],"categories_sizes":[],"default_left":[0,0,0,0,0,0,0,0,0,0,0,0,0,0,0,0,0,0,0,0,0,0,0,0,0,0,0,0,0,0,0,0,0,0,0,0,0,0,0,0,0,0,0,0,0,0,0,0,0,0,0,0,0,0,0,0,0,0,0,0,0,0,0,0,0,0,0,0,0,0,0,0,0,0,0,0,0,0,0,0,0,0,0,0,0,0,0,0,0,0,0,0,0,0,0,0,0,0,0,0,0,0,0,0,0,0,0,0,0,0,0,0,0],"id":12,"left_children":[1,3,5,7,9,11,13,15,-1,-1,17,19,21,23,25,-1,27,29,31,33,-1,35,37,39,41,43,45,47,49,51,-1,53,55,57,59,-1,-1,61,-1,63,65,-1,67,69,71,73,75,-1,77,-1,-1,79,81,83,85,-1,87,89,91,93,95,-1,-1,-1,-1,-1,97,99,101,103,105,107,-1,-1,-1,109,111,-1,-1,-1,-1,-1,-1,-1,-1,-1,-1,-1,-1,-1,-1,-1,-1,-1,-1,-1,-1,-1,-1,-1,-1,-1,-1,-1,-1,-1,-1,-1,-1,-1,-1,-1,-1],"loss_changes":[2.0034912E1,1.6244102E1,1.0533371E1,2.1014023E0,9.768129E0,1.2407112E1,1.6648247E1,7.756367E-1,0E0,0E0,2.7158904E0,5.6652985E0,9.29237E-1,2.419839E0,7.3530884E0,0E0,1.9195366E-1,8.615196E-1,5.807836E-1,3.292572E0,0E0,5.1437753E-1,2.899047E-1,2.144422E0,1.5927225E0,5.581917E0,6.529729E0,2.3158455E-1,1.8249997E-1,9.420142E-1,0E0,7.37731E-1,7.4149454E-1,5.1038895E0,6.4240265E-1,0E0,0E0,3.28875E-1,0E0,4.487727E-1,1.0885344E0,0E0,1.3154113E0,3.116644E0,1.3202057E0,8.4058857E-1,2.3659306E0,0E0,1.8249997E-1,0E0,0E0,5.62934E-1,1.0306039E0,2.200018E0,4.776445E-1,0E0,8.1944E-1,3.003137E-1,1.1966686E0,4.8881912E-1,7.558594E-1,0E0,0E0,0E0,0E0,0E0,6.0267925E-2,5.965909E-1,9.6549064E-1,2.3811197E0,8.097143E-1,8.2270813E-1,0E0,0E0,0E0,1.3068423E0,6.523659E-1,0E0,0E0,0E0,0E0,0E0,0E0,0E0,0E0,0E0,0E0,0E0,0E0,0E0,0E0,0E0,0E0,0E0,0E0,0E0,0E0,0E0,0E0,0E0,0E0,0E0,0E0,0E0,0E0,0E0,0E0,0E0,0E0,0E0,0E0,0E0,0E0],"parents":[2147483647,0,0,1,1,2,2,3,3,4,4,5,5,6,6,7,7,10,10,11,11,12,12,13,13,14,14,16,16,17,17,18,18,19,19,21,21,22,22,23,23,24,24,25,25,26,26,27,27,28,28,29,29,31,31,32,32,33,33,34,34,37,37,39,39,40,40,42,42,43,43,44,44,45,45,46,46,48,48,51,51,52,52,53,53,54,54,56,56,57,57,58,58,59,59,60,60,66,66,67,67,68,68,69,69,70,70,71,71,75,75,76,76],"right_children":[2,4,6,8,10,12,14,16,-1,-1,18,20,22,24,26,-1,28,30,32,34,-1,36,38,40,42,44,46,48,50,52,-1,54,56,58,60,-1,-1,62,-1,64,66,-1,68,70,72,74,76,-1,78,-1,-1,80,82,84,86,-1,88,90,92,94,96,-1,-1,-1,-1,-1,98,100,102,104,106,108,-1,-1,-1,110,112,-1,-1,-1,-1,-1,-1,-1,-1,-1,-1,-1,-1,-1,-1,-1,-1,-1,-1,-1,-1,-1,-1,-1,-1,-1,-1,-1,-1,-1,-1,-1,-1,-1,-1,-1,-1],"split_conditions":[-2.8323647E-1,-3.155921E-1,1.4290419E-1,4.6171E-2,3.7396774E0,3.8332576E-1,7.1719356E0,-2.247E-2,6.4550396E-3,-8.561417E-2,-3.7982965E-1,-1.574579E-2,3.4791E-2,1.0602911E-1,2.2500385E-1,1.4903069E-2,3.8535E-2,4.2E-2,4.4363588E-1,3.9586627E-1,1.8520355E-4,4.5085E-2,1.8592645E-1,2.1734E-2,3.2232258E0,1.9443178E-1,2.9051214E-1,-2.3527567E-1,3.067719E-1,2.4443E-2,3.0576324E-3,-3.4454492E-1,1.02E-4,7.585874E-2,7.26E-3,5.9874994E-3,-3.8390424E-2,4.456E-3,-6.0813215E-2,8.174058E-2,-4.61E-3,-1.0322616E-1,-2.826903E-1,3.9412773E-1,5.3717E-2,6.607E-3,4.8161742E-1,-7.6308094E-2,-2.018E-2,1.7399215E-3,-5.93161E-2,-1.862E-2,4.5653E-2,4.1009882E-1,3.8358064E0,-2.6839333E-2,2.6257E-2,-3.118E-2,-7.42E-3,-2.302E-2,2.6007503E-1,-2.52116E-2,3.5883712E-3,-1.0959354E-1,3.2346724E-3,7.7257915E-3,-1.348E-2,3.5008E-2,-2.690219E-1,6.488E-3,4.8893E-2,6.005E-3,8.898544E-4,3.1894684E-4,-6.784718E-2,2.608984E-1,2.5586E-2,-5.435829E-3,1.8006133E-2,-4.5078736E-2,-1.4742737E-2,-4.6230733E-2,-5.526733E-3,-3.8548164E-2,1.0983124E-3,-9.4145924E-2,1.3487549E-3,-6.243805E-2,-1.9648695E-2,-3.190422E-3,5.852127E-4,-8.538615E-2,-9.5626146E-2,1.1276855E-2,-3.6447767E-2,-6.2731616E-2,-5.6796227E-2,-4.2719763E-2,-5.2319754E-2,-2.5820121E-2,-2.3020133E-2,-1.5269935E-2,5.7518766E-3,-2.8876895E-2,-6.9117494E-2,-9.6881025E-2,2.765415E-2,-6.74472E-2,-6.9530636E-2,-1.8571097E-2,-3.1953026E-2,-4.7759056E-2,1.2050552E-2],"split_indices":[16,15,6,10,22,3,27,7,0,0,19,20,12,2,0,0,8,12,4,4,0,13,2,13,22,0,5,14,0,13,0,17,9,6,10,0,0,8,0,3,8,0,16,6,13,8,3,0,7,0,0,7,13,5,22,0,12,7,7,7,2,0,0,0,0,0,9,11,17,8,10,12,0,0,0,0,9,0,0,0,0,0,0,0,0,0,0,0,0,0,0,0,0,0,0,0,0,0,0,0,0,0,0,0,0,0,0,0,0,0,0,0,0],"split_type":[0,0,0,0,0,0,0,0,0,0,0,0,0,0,0,0,0,0,0,0,0,0,0,0,0,0,0,0,0,0,0,0,0,0,0,0,0,0,0,0,0,0,0,0,0,0,0,0,0,0,0,0,0,0,0,0,0,0,0,0,0,0,0,0,0,0,0,0,0,0,0,0,0,0,0,0,0,0,0,0,0,0,0,0,0,0,0,0,0,0,0,0,0,0,0,0,0,0,0,0,0,0,0,0,0,0,0,0,0,0,0,0,0],"sum_hessian":[1.213E3,4.4E2,7.73E2,4E1,4E2,2.51E2,5.22E2,3.7E1,3E0,1.4E1,3.86E2,2.14E2,3.7E1,2.14E2,3.08E2,1E0,3.6E1,3.3E1,3.53E2,2.04E2,1E1,3.1E1,6E0,2.5E1,1.89E2,1.93E2,1.15E2,3.4E1,2E0,2.8E1,5E0,3.14E2,3.9E1,5E1,1.54E2,3E1,1E0,4E0,2E0,1E1,1.5E1,3E0,1.86E2,8.1E1,1.12E2,1.7E1,9.8E1,3.2E1,2E0,1E0,1E0,1.7E1,1.1E1,1.06E2,2.08E2,2E0,3.7E1,1.6E1,3.4E1,4.1E1,1.13E2,1E0,3E0,1E0,9E0,2E0,1.3E1,1E1,1.76E2,6.7E1,1.4E1,1.1E2,2E0,1E0,1.6E1,9.1E1,7E0,1E0,1E0,2E0,1.5E1,7E0,4E0,3.9E1,6.7E1,1E0,2.07E2,9E0,2.8E1,2E0,1.4E1,2.3E1,1.1E1,1E0,4E1,9.5E1,1.8E1,2E0,1.1E1,5E0,5E0,1.15E2,6.1E1,3.2E1,3.5E1,1.3E1,1E0,5E0,1.05E2,5.1E1,4E1,6E0,1E0],"tree_param":{"num_deleted":"0","num_feature":"28","num_nodes":"113","size_leaf_vector":"1"}},{"base_weights":[6.136738E-2,2.4036281E-1,-4.0697675E-2,-3.4146342E-1,2.9925188E-1,-1.2918216E-1,1.6033755E-1,-4.3055555E-1,2.5E-1,-1.8666666E-2,3.2816538E-1,-3.5357141E-1,-5.0125312E-2,3.1329113E-1,-1.4375E-1,-4.5588234E-1,-0E0,1.6E-2,-1E-2,-4.411765E-2,3.6299434E-1,-4.2276424E-1,1.388889E-1,2.4609375E-1,-1.8933824E-1,3.7686568E-1,-4E-2,-2.4637681E-1,1.8333333E-2,-1.9333333E-2,-2E-1,-1E-2,1E-2,-1.25E-1,2.857143E-1,2.8214285E-1,4.1395348E-1,-4.3032786E-1,1E-2,2.1875E-1,-1.3333334E-2,-1.9444445E-1,3.153153E-1,6.329114E-2,-2.9123712E-1,-9.090909E-2,4.1532257E-1,1.6E-2,-1.4285715E-1,-3.5833332E-1,1.8E-2,1E-2,-1.5E-2,-0E0,-3.5E-1,-0E0,1.6E-2,5.882353E-2,4.0555555E-1,-0E0,4.258373E-1,1E-2,-4.3801653E-1,1.7142856E-2,5E-2,1.5E-2,-3.3333334E-1,1.6346154E-1,4.4166666E-1,2E-1,-1.14285715E-1,-1.9565217E-2,-2.2818792E-1,6.25E-2,-1.5E-2,4.3032786E-1,-1.3333334E-2,-2.5E-1,1.5E-2,1.25E-1,-3.859649E-1,-3.75E-3,1.5E-2,-1.7777778E-2,1E-2,1E-2,-1E-2,-1.7142856E-2,5.3333333E-3,8.421052E-3,1.8055556E-2,1.3333334E-2,-8E-3,1.7211538E-2,-1E-2,-1.8103449E-2,-3.3333334E-3,-1.5E-2,1.1428571E-2,1E-2,-1.5714286E-2,8.163265E-3,-1.5E-2,1.8245613E-2,5E-3,-1.5E-2,1E-2,-9.523809E-3,2.6666666E-3,-2.3880596E-3,-1.4457831E-2,-1.3333334E-2,1E-2,6.2499996E-3,1.8691588E-2,-1.7777778E-2,-2E-3,1.3333334E-2,-1E-2,-1.1034482E-2,-1.9310344E-2],"categories":[],"categories_nodes":[],"categories_segments":[],"categories_sizes":[],"default_left":[0,0,0,0,0,0,0,0,0,0,0,0,0,0,0,0,0,0,0,0,0,0,0,0,0,0,0,0,0,0,0,0,0,0,0,0,0,0,0,0,0,0,0,0,0,0,0,0,0,0,0,0,0,0,0,0,0,0,0,0,0,0,0,0,0,0,0,0,0,0,0,0,0,0,0,0,0,0,0,0,0,0,0,0,0,0,0,0,0,0,0,0,0,0,0,0,0,0,0,0,0,0,0,0,0,0,0,0,0,0,0,0,0,0,0,0,0,0,0,0,0],"id":13,"left_children":[1,3,5,7,9,11,13,15,17,-1,19,21,23,25,27,29,31,-1,-1,33,35,37,39,41,43,45,47,49,-1,-1,51,-1,-1,53,55,57,59,61,-1,63,-1,65,67,69,71,73,75,-1,77,79,-1,-1,-1,81,83,85,-1,87,89,91,93,-1,95,-1,97,-1,99,101,103,105,107,-1,109,111,-1,113,-1,115,-1,117,119,-1,-1,-1,-1,-1,-1,-1,-1,-1,-1,-1,-1,-1,-1,-1,-1,-1,-1,-1,-1,-1,-1,-1,-1,-1,-1,-1,-1,-1,-1,-1,-1,-1,-1,-1,-1,-1,-1,-1,-1],"loss_changes":[2.2188564E1,1.5212254E1,1.378901E1,2.2681231E0,9.033443E0,9.526132E0,1.1068211E1,3.9256525E-1,5.5E-1,0E0,5.033951E0,4.829176E0,1.6500366E1,3.5638065E0,5.056114E0,1.421566E-1,2.5E-1,0E0,0E0,9.4275206E-1,1.3417282E0,7.334728E-1,7.5173616E-1,3.9646387E0,7.0204334E0,2.4483051E0,1.1885715E0,5.540761E0,0E0,0E0,4.875E-1,0E0,0E0,7.875E-1,2.2857141E-1,3.8346062E0,1.0576591E0,7.476635E-1,0E0,5.4508924E-1,0E0,1.5486109E0,2.0575533E0,1.9406871E0,2.3089275E0,5.028409E-1,1.5364342E0,0E0,1.2589285E0,8.495612E-1,0E0,0E0,0E0,7.03125E-1,6.7777777E-1,2.5E-1,0E0,1.9092437E0,7.09466E-1,5.3333336E-1,7.362976E-1,0E0,5.875664E-1,0E0,1.1089286E0,0E0,6.1904776E-1,1.2138932E0,2.1798229E-1,1.3875E0,8.000001E-1,0E0,3.3237896E0,6.770834E-1,0E0,1.162899E0,0E0,6.7777777E-1,0E0,3.9583334E-1,4.7428894E-1,0E0,0E0,0E0,0E0,0E0,0E0,0E0,0E0,0E0,0E0,0E0,0E0,0E0,0E0,0E0,0E0,0E0,0E0,0E0,0E0,0E0,0E0,0E0,0E0,0E0,0E0,0E0,0E0,0E0,0E0,0E0,0E0,0E0,0E0,0E0,0E0,0E0,0E0,0E0,0E0],"parents":[2147483647,0,0,1,1,2,2,3,3,4,4,5,5,6,6,7,7,8,8,10,10,11,11,12,12,13,13,14,14,15,15,16,16,19,19,20,20,21,21,22,22,23,23,24,24,25,25,26,26,27,27,30,30,33,33,34,34,35,35,36,36,37,37,39,39,41,41,42,42,43,43,44,44,45,45,46,46,48,48,49,49,53,53,54,54,55,55,57,57,58,58,59,59,60,60,62,62,64,64,66,66,67,67,68,68,69,69,70,70,72,72,73,73,75,75,77,77,79,79,80,80],"right_children":[2,4,6,8,10,12,14,16,18,-1,20,22,24,26,28,30,32,-1,-1,34,36,38,40,42,44,46,48,50,-1,-1,52,-1,-1,54,56,58,60,62,-1,64,-1,66,68,70,72,74,76,-1,78,80,-1,-1,-1,82,84,86,-1,88,90,92,94,-1,96,-1,98,-1,100,102,104,106,108,-1,110,112,-1,114,-1,116,-1,118,120,-1,-1,-1,-1,-1,-1,-1,-1,-1,-1,-1,-1,-1,-1,-1,-1,-1,-1,-1,-1,-1,-1,-1,-1,-1,-1,-1,-1,-1,-1,-1,-1,-1,-1,-1,-1,-1,-1,-1,-1],"split_conditions":[-2.8323647E-1,-3.155921E-1,-2.4879575E-1,4.4659E-2,3.7396774E0,1.3083452E-1,-2.2500928E-1,-2.3527567E-1,-5.19E-3,-4.4335898E-2,-3.7982965E-1,2.9835957E-1,7.1719356E0,4.179602E-1,4.3118593E-1,3.5509E-2,-2.018E-2,1.087162E-2,-1.5967712E-2,4.5653E-2,-3.4128815E-1,3.8535E-2,3.7533E-2,1.0602911E-1,3.5178536E-1,-2.826903E-1,1.32E-4,3.47899E-1,4.9941596E-2,-3.974945E-2,4.2767E-2,-5.435829E-3,1.8006133E-2,2.4443E-2,3.0757E-2,4.1009882E-1,-3.3196366E-1,-1.509E-2,1.1890869E-2,2.3071304E-1,-1.2421512E-2,2.1734E-2,7.007E-3,3.3594108E-1,-2.4947514E-1,1.2804E-2,5.0769E-2,2.8707923E-2,2.3521E-2,3.0045035E-1,3.6352005E-2,3.3974075E-3,-6.013374E-2,4.3321E-2,4.23864E-1,2.2204079E-1,1.2573509E-2,-3.3060285E-1,-3.6744252E-1,-1.755E-2,4.057566E-1,4.076843E-3,4.4585E-2,3.3111E-2,-1.198E-2,6.1152647E-3,-4.61E-3,4.902E-2,4.1823533E-1,3.6118853E-1,1.6443E-2,-4.1734274E-2,-3.6709046E-1,2.785E-3,-4.076843E-3,6.721716E-2,-5.5775833E-3,3.6621E-2,1.6307449E-2,1.23189546E-1,-3.5685813E-1,-5.8975216E-4,3.880924E-2,-2.5493983E-2,9.524078E-3,3.1524085E-2,-1.012577E-2,-3.1972047E-2,8.578377E-3,1.0453967E-2,2.8309936E-2,1.0308037E-2,-2.7846202E-2,3.3070296E-2,-9.703697E-2,-2.9291915E-2,-1.4891929E-2,-1.6891899E-2,4.708099E-3,6.1152647E-3,-2.363411E-2,1.04622645E-2,-1.1617278E-3,3.113182E-2,6.806259E-3,-2.4807548E-2,1.0501976E-2,-1.4287128E-2,5.0323486E-4,-1.4603423E-3,-2.7687568E-2,-1.5118388E-2,2.3781203E-3,2.1670302E-2,3.8390424E-2,-1.1572933E-2,-8.153419E-3,1.0648422E-2,-1.20045505E-1,-1.4970798E-2,-5.6808148E-2],"split_indices":[16,15,15,10,22,6,17,14,7,0,19,2,27,5,4,9,7,0,0,13,17,8,10,2,3,16,9,6,0,0,11,0,0,13,10,5,20,13,0,0,0,13,13,5,16,9,11,0,10,5,0,0,0,11,3,0,0,19,19,7,2,0,12,0,7,0,8,11,3,4,8,0,18,9,0,6,0,12,0,0,18,0,0,0,0,0,0,0,0,0,0,0,0,0,0,0,0,0,0,0,0,0,0,0,0,0,0,0,0,0,0,0,0,0,0,0,0,0,0,0,0],"split_type":[0,0,0,0,0,0,0,0,0,0,0,0,0,0,0,0,0,0,0,0,0,0,0,0,0,0,0,0,0,0,0,0,0,0,0,0,0,0,0,0,0,0,0,0,0,0,0,0,0,0,0,0,0,0,0,0,0,0,0,0,0,0,0,0,0,0,0,0,0,0,0,0,0,0,0,0,0,0,0,0,0,0,0,0,0,0,0,0,0,0,0,0,0,0,0,0,0,0,0,0,0,0,0,0,0,0,0,0,0,0,0,0,0,0,0,0,0,0,0,0,0],"sum_hessian":[1.213E3,4.4E2,7.73E2,4E1,4E2,5.37E2,2.36E2,3.5E1,5E0,1.4E1,3.86E2,1.39E2,3.98E2,1.57E2,7.9E1,3.3E1,2E0,4E0,1E0,3.3E1,3.53E2,1.22E2,1.7E1,1.27E2,2.71E2,1.33E2,2.4E1,6.8E1,1.1E1,2.9E1,4E0,1E0,1E0,2.7E1,6E0,1.39E2,2.14E2,1.21E2,1E0,1.5E1,2E0,1.7E1,1.1E2,7.8E1,1.93E2,1E1,1.23E2,4E0,2E1,5.9E1,9E0,1E0,3E0,1.8E1,9E0,2E0,4E0,5E1,8.9E1,6E0,2.08E2,1E0,1.2E2,6E0,9E0,3E0,1.4E1,5.1E1,5.9E1,4.4E1,3.4E1,4.5E1,1.48E2,7E0,3E0,1.21E2,2E0,1.7E1,3E0,3E0,5.6E1,1.5E1,3E0,8E0,1E0,1E0,1E0,6E0,4.4E1,1.8E1,7.1E1,2E0,4E0,2.07E2,1E0,1.15E2,5E0,3E0,6E0,1E0,1.3E1,4.8E1,3E0,5.6E1,3E0,3E0,4.1E1,2E1,1.4E1,6.6E1,8.2E1,2E0,5E0,1.5E1,1.06E2,8E0,9E0,2E0,1E0,2.8E1,2.8E1],"tree_param":{"num_deleted":"0","num_feature":"28","num_nodes":"121","size_leaf_vector":"1"}},{"base_weights":[4.5580724E-1,6.4172333E-1,3.492894E-1,9.7560965E-2,6.957606E-1,2.6236057E-1,5.4514766E-1,6.944433E-3,6.25E-1,-1.8666671E-3,7.22739E-1,5.749999E-2,3.3358395E-1,8.792857E-1,4.0267855E-1,-1.9117659E-2,2.9999998E-1,3.0399999E-2,-1.0000002E-3,3.632353E-1,7.5522596E-1,3.1666663E-2,2.4444433E-2,6.3789064E-1,1.891544E-1,-1.0000002E-3,8.927536E-1,5.805E-1,1.3913043E-1,-1.9333337E-3,1.6E-1,-1.0000002E-3,1.9E-2,5.15625E-1,2.1578947E-1,2.2727272E-1,7.699128E-1,1.0984837E-2,1.8499998E-2,1.7499998E-1,7.072072E-1,4.3164557E-1,8.943298E-2,9.0661764E-1,-1.0000002E-3,8.5781246E-1,4.4347826E-1,1.7499989E-2,3.42E-2,1.9E-2,-1.5000004E-3,1.6E-1,6.2083334E-1,4.5624998E-1,3.749999E-2,4.583333E-1,-1.6666669E-3,6.7816454E-1,8.433155E-1,1.0921051E-1,-2.8421065E-2,4.5624998E-1,-1.8181823E-3,7.9764706E-1,3.962963E-1,5.9555554E-1,2.0857142E-1,7.195766E-2,6.25E-1,3.7396822E-2,4.583333E-1,8.8709676E-1,-1.0000002E-3,3.242857E-2,3.4375E-1,-1.9230774E-3,6.571428E-2,1.9E-2,-1.5000004E-3,-1.0000002E-3,2.7272727E-2,6.4E-3,2.8499998E-2,-1.8181823E-3,1.9E-2,-1.3333337E-3,2.8499998E-2,2.0612903E-2,3.1010307E-2,3.5836734E-2,2.5365852E-2,1.4857139E-3,2.8499998E-2,2.555555E-3,-1.9743594E-3,2.4999999E-2,-1.3333337E-3,-1.0000002E-3,3.230952E-2,-1.6000004E-3,1.8956522E-2,-1.5000004E-3,2.5666665E-2,1.2307687E-3,1.1999999E-2,2.1639338E-3,2.1142857E-2,3.0399999E-2,-1.0000002E-3,-1.3333337E-3,2.8499998E-2,1.1999999E-2,3.6689654E-2,7.3999995E-3,2.0296294E-2,1.9E-2,1.5882349E-3],"categories":[],"categories_nodes":[],"categories_segments":[],"categories_sizes":[],"default_left":[0,0,0,0,0,0,0,0,0,0,0,0,0,0,0,0,0,0,0,0,0,0,0,0,0,0,0,0,0,0,0,0,0,0,0,0,0,0,0,0,0,0,0,0,0,0,0,0,0,0,0,0,0,0,0,0,0,0,0,0,0,0,0,0,0,0,0,0,0,0,0,0,0,0,0,0,0,0,0,0,0,0,0,0,0,0,0,0,0,0,0,0,0,0,0,0,0,0,0,0,0,0,0,0,0,0,0,0,0,0,0,0,0,0,0,0,0],"id":14,"left_children":[1,3,5,7,9,11,13,15,17,-1,19,21,23,25,27,29,31,-1,-1,33,35,-1,37,39,41,-1,43,45,47,-1,49,-1,-1,51,53,55,57,59,-1,61,63,65,67,69,-1,71,73,75,-1,-1,-1,77,79,81,83,85,-1,87,89,91,93,95,-1,97,99,101,103,105,107,-1,109,111,-1,-1,113,-1,115,-1,-1,-1,-1,-1,-1,-1,-1,-1,-1,-1,-1,-1,-1,-1,-1,-1,-1,-1,-1,-1,-1,-1,-1,-1,-1,-1,-1,-1,-1,-1,-1,-1,-1,-1,-1,-1,-1,-1,-1],"loss_changes":[2.3817154E1,1.28997345E1,1.3034889E1,1.9552424E0,8.065552E0,7.8307076E0,1.0928162E1,2.8069037E-1,5.4550004E-1,0E0,4.2455444E0,3.3782084E0,1.7415733E1,8.748398E-1,7.792467E0,1.8565688E-1,1.825E-1,0E0,0E0,6.526871E-1,2.5699158E0,0E0,7.9088634E-1,3.9832497E0,6.538782E0,0E0,9.0060425E-1,3.419365E0,5.9929733E0,0E0,3.28875E-1,0E0,0E0,4.993019E-1,7.974507E-1,7.026515E-1,1.7447662E0,5.1403254E-1,0E0,1.1367898E0,2.8050728E0,2.7643461E0,1.7707121E0,4.3426895E-1,0E0,8.494568E-1,2.2483606E0,1.92864E-1,0E0,0E0,0E0,3.28875E-1,4.896779E-1,4.9331248E-1,4.5710227E-1,7.7354157E-1,0E0,2.09861E0,1.4893951E0,1.625687E0,1.8676743E-1,6.817709E-1,0E0,7.258148E-1,9.332824E-1,1.3376532E0,5.597364E-1,1.5126636E0,5.4550004E-1,0E0,7.7354157E-1,2.734604E-1,0E0,0E0,1.3610435E0,0E0,3.537101E-1,0E0,0E0,0E0,0E0,0E0,0E0,0E0,0E0,0E0,0E0,0E0,0E0,0E0,0E0,0E0,0E0,0E0,0E0,0E0,0E0,0E0,0E0,0E0,0E0,0E0,0E0,0E0,0E0,0E0,0E0,0E0,0E0,0E0,0E0,0E0,0E0,0E0,0E0,0E0,0E0],"parents":[2147483647,0,0,1,1,2,2,3,3,4,4,5,5,6,6,7,7,8,8,10,10,11,11,12,12,13,13,14,14,15,15,16,16,19,19,20,20,22,22,23,23,24,24,26,26,27,27,28,28,30,30,33,33,34,34,35,35,36,36,37,37,39,39,40,40,41,41,42,42,43,43,45,45,46,46,47,47,51,51,52,52,53,53,54,54,55,55,57,57,58,58,59,59,60,60,61,61,63,63,64,64,65,65,66,66,67,67,68,68,70,70,71,71,74,74,76,76],"right_children":[2,4,6,8,10,12,14,16,18,-1,20,22,24,26,28,30,32,-1,-1,34,36,-1,38,40,42,-1,44,46,48,-1,50,-1,-1,52,54,56,58,60,-1,62,64,66,68,70,-1,72,74,76,-1,-1,-1,78,80,82,84,86,-1,88,90,92,94,96,-1,98,100,102,104,106,108,-1,110,112,-1,-1,114,-1,116,-1,-1,-1,-1,-1,-1,-1,-1,-1,-1,-1,-1,-1,-1,-1,-1,-1,-1,-1,-1,-1,-1,-1,-1,-1,-1,-1,-1,-1,-1,-1,-1,-1,-1,-1,-1,-1,-1,-1,-1],"split_conditions":[-2.8323647E-1,-3.155921E-1,-2.4879575E-1,4.4659E-2,3.7396774E0,1.3083452E-1,-2.09227E-1,-2.3527567E-1,-5.19E-3,-2.2574615E-2,-3.7982965E-1,-2.7382526E-1,7.1719356E0,2.9078E-2,-2.2500928E-1,3.5509E-2,-2.018E-2,1.3929291E-2,-1.5967712E-2,-7.94E-3,1.5221399E-1,5.8095243E-2,2.8484E-2,1.0602911E-1,3.5178536E-1,-2.6691055E-3,5.0769E-2,2.1553706E-1,3.47899E-1,-1.1381267E-2,4.2767E-2,-5.435829E-3,1.8006133E-2,1.3955E-2,3.2587E-2,1.5852E-2,-2.7263024E-1,3.7493E-2,1.7506104E-2,1.7230605E-1,4.105418E-1,3.3594108E-1,5.3817E-2,2.1176E-2,-1.1009217E-3,4.9829E-2,2.6140082E-1,3.6601E-2,4.9941596E-2,3.3974075E-3,-3.5332795E-2,-6.42E-3,-2.726E-2,4.6293265E-1,8E-4,1.417152E-1,-1.6448974E-4,-3.4454492E-1,-2.2676522E-1,3.734E-2,-2.627324E-1,4.1021E-2,-4.416618E-3,1.2216953E-1,7.244E-3,3.6118853E-1,6.171E-3,4.4639E-2,2.9957E-2,5.807091E-2,2.0764917E-1,-3.118E-2,-1.1100922E-2,6.4130895E-2,2.251E-2,-8.051787E-3,1.23189546E-1,2.6428908E-2,-2.387886E-3,-5.354374E-2,4.3075103E-2,1.565628E-2,2.5875129E-2,-5.493927E-4,2.9953612E-2,-9.004974E-4,1.949951E-2,3.831095E-2,4.9514275E-2,6.029429E-2,5.1474284E-2,3.3539005E-3,3.3634108E-2,1.4431724E-2,-7.1794973E-3,1.0531883E-2,-9.852448E-3,-8.689938E-2,5.988637E-2,-8.4037776E-4,1.9944783E-2,-1.8260917E-2,3.880665E-2,9.858055E-3,1.4405635E-2,1.110588E-2,1.3570671E-2,4.223751E-2,-7.6615904E-3,-1.069107E-3,6.2930904E-2,2.2441024E-2,6.1549135E-2,5.694501E-2,4.8350904E-2,1.6986923E-2,1.010033E-2],"split_indices":[16,15,15,10,22,6,14,14,7,0,19,16,27,11,17,9,7,0,0,7,0,0,8,2,3,0,11,2,6,0,11,0,0,9,10,8,15,11,0,0,3,5,13,8,0,11,3,11,0,0,0,9,7,5,7,0,0,17,15,11,16,12,0,0,9,4,9,12,10,0,0,7,0,0,10,0,0,0,0,0,0,0,0,0,0,0,0,0,0,0,0,0,0,0,0,0,0,0,0,0,0,0,0,0,0,0,0,0,0,0,0,0,0,0,0,0,0],"split_type":[0,0,0,0,0,0,0,0,0,0,0,0,0,0,0,0,0,0,0,0,0,0,0,0,0,0,0,0,0,0,0,0,0,0,0,0,0,0,0,0,0,0,0,0,0,0,0,0,0,0,0,0,0,0,0,0,0,0,0,0,0,0,0,0,0,0,0,0,0,0,0,0,0,0,0,0,0,0,0,0,0,0,0,0,0,0,0,0,0,0,0,0,0,0,0,0,0,0,0,0,0,0,0,0,0,0,0,0,0,0,0,0,0,0,0,0,0],"sum_hessian":[1.213E3,4.4E2,7.73E2,4E1,4E2,5.37E2,2.36E2,3.5E1,5E0,1.4E1,3.86E2,1.39E2,3.98E2,6.9E1,1.67E2,3.3E1,2E0,4E0,1E0,3.3E1,3.53E2,5E0,1.34E2,1.27E2,2.71E2,1E0,6.8E1,9.9E1,6.8E1,2.9E1,4E0,1E0,1E0,1.5E1,1.8E1,1E1,3.43E2,1.31E2,3E0,1.7E1,1.1E2,7.8E1,1.93E2,6.7E1,1E0,3.1E1,6.8E1,5.9E1,9E0,1E0,3E0,4E0,1.1E1,7E0,1.1E1,5E0,5E0,1.57E2,1.86E2,3.7E1,9.4E1,7E0,1E1,8.4E1,2.6E1,4.4E1,3.4E1,1.88E2,5E0,6.2E1,5E0,3E1,1E0,1.3E1,5.5E1,2.5E1,3.4E1,1E0,3E0,1E0,1E1,4E0,3E0,1E1,1E0,2E0,3E0,6.1E1,9.6E1,1.46E2,4E1,3.4E1,3E0,1.7E1,7.7E1,5E0,2E0,1E0,8.3E1,4E0,2.2E1,3E0,4.1E1,1.2E1,2.2E1,1.82E2,6E0,4E0,1E0,2E0,3E0,2E0,2.8E1,2.9E1,2.6E1,1E0,3.3E1],"tree_param":{"num_deleted":"0","num_feature":"28","num_nodes":"117","size_leaf_vector":"1"}},{"base_weights":[-3.0753705E-1,-2.2405303E-1,-4.6312055E-1,-4.393116E-1,-1.0870406E-1,-5.6475693E-1,-2.4448529E-1,-8.695946E-1,-2.8029555E-1,-2.8125E-1,-4.6989527E-2,-8.268041E-1,-4.294271E-1,3.1896554E-2,-4.4430378E-1,-4E-1,-3.681818E-2,-3.648E-2,-1.905028E-1,-5.6666666E-1,-1.6479592E-1,-1.23622045E-1,-8.789061E-3,-8.4414893E-1,-2.1249999E-1,-5.678261E-1,-2.1987179E-1,1.9642857E-3,-2.9999998E-1,-5.242647E-1,1.8333333E-3,-4.5624998E-1,1E-3,-3.527174E-1,-1.8749999E-2,-7.2115386E-1,-2.3928571E-1,-3.31E-1,8.163267E-3,-8.6016946E-2,-5.55E-1,3.6688313E-2,-7.6699026E-2,-8.537634E-1,1E-3,-1.9E-2,1.3333333E-3,-6.768421E-1,-4.7619045E-2,-3.2604167E-1,-4.8387095E-2,-1.9E-2,1E-3,-6.653061E-1,-1.525E-1,1E-3,-2.1142857E-2,-5.8863634E-1,-2.746479E-1,1.9649123E-3,-1.390625E-1,1E-3,-7.52E-1,1.6666667E-3,-4E-1,-5.7894737E-2,-4.828125E-1,-2.9999998E-1,2.7659575E-2,9.803923E-3,-1.5661764E-1,1.3333333E-3,-7.0625E-1,-1.6E-1,4.3E-2,-1.75E-1,1.9565218E-3,-8.6358696E-1,1E-3,-2.3055555E-1,-7.711538E-1,-2.4999988E-3,-1.9E-2,-2.5348836E-1,-3.1666663E-2,-3.857143E-1,1.92E-3,-4.7619048E-1,-7.7931035E-1,1.8000001E-3,-3.181818E-1,-2.9571427E-2,-1.1555554E-2,-8.033333E-3,-2.4833333E-2,1.8000001E-3,-8.521739E-3,-3.5076924E-2,-2.276923E-2,-2.24E-2,-6.4E-3,-1.1666666E-2,1.8571429E-3,-6.1999997E-3,-2.4173912E-2,1E-3,-1.9E-2,-1.1999999E-2,1.9555555E-3,-7.1111107E-3,1.9534884E-3,-5.30303E-3,-2.5333332E-2,-1.1999999E-2,-3.1666663E-2,1.5E-3,-1.9E-2,1.9855073E-3,-1.2307691E-3,-1.7052632E-2,-2.05E-3,1E-3,-3.4945052E-2,-1.6363636E-2,1.7499999E-3,-3.2656714E-2,-1.8166665E-2,-2.6666664E-3,1.8333333E-3,-3.3043476E-3,-1.7142856E-2,-6.4E-3,-2.5333332E-2,-2.1263158E-2,1.3333333E-3,-3.235714E-2,1E-3,-1.825E-2,1.5E-3],"categories":[],"categories_nodes":[],"categories_segments":[],"categories_sizes":[],"default_left":[0,0,0,0,0,0,0,0,0,0,0,0,0,0,0,0,0,0,0,0,0,0,0,0,0,0,0,0,0,0,0,0,0,0,0,0,0,0,0,0,0,0,0,0,0,0,0,0,0,0,0,0,0,0,0,0,0,0,0,0,0,0,0,0,0,0,0,0,0,0,0,0,0,0,0,0,0,0,0,0,0,0,0,0,0,0,0,0,0,0,0,0,0,0,0,0,0,0,0,0,0,0,0,0,0,0,0,0,0,0,0,0,0,0,0,0,0,0,0,0,0,0,0,0,0,0,0,0,0,0,0,0,0,0,0,0,0,0,0],"id":15,"left_children":[1,3,5,7,9,11,13,15,17,19,21,23,25,27,29,31,-1,-1,33,35,37,39,41,43,45,47,49,-1,51,53,-1,55,-1,57,59,61,63,65,67,69,71,73,75,77,-1,-1,-1,79,81,83,85,-1,-1,87,89,-1,-1,91,93,-1,95,-1,97,-1,99,101,103,105,107,109,111,-1,113,115,117,119,-1,121,-1,123,125,127,-1,129,-1,131,-1,133,135,-1,137,-1,-1,-1,-1,-1,-1,-1,-1,-1,-1,-1,-1,-1,-1,-1,-1,-1,-1,-1,-1,-1,-1,-1,-1,-1,-1,-1,-1,-1,-1,-1,-1,-1,-1,-1,-1,-1,-1,-1,-1,-1,-1,-1,-1,-1,-1,-1,-1],"loss_changes":[1.5664558E1,1.9617489E1,9.261528E0,1.8640697E1,5.4921064E0,9.858246E0,7.5249357E0,1.3992004E0,1.1340926E1,4.4269743E0,1.1171795E0,8.5414886E-1,5.4435806E0,3.4603605E-1,3.120181E0,2.2656238E-1,0E0,0E0,4.980471E0,1.7999096E0,2.8198612E0,2.012456E0,7.934359E-1,8.0685425E-1,2.7395833E-1,6.489525E0,1.4043314E0,0E0,1.8249997E-1,3.4640675E0,0E0,2.9165184E-1,0E0,1.5327959E0,7.254345E-1,6.1721516E-1,6.4880955E-1,2.0450873E0,3.0269215E-1,7.9980785E-1,9.1339564E-1,1.9806103E-1,1.2803822E0,8.244171E-1,0E0,0E0,0E0,3.8207626E0,4.0375593E-1,1.420888E0,1.026448E0,0E0,0E0,6.8533707E-1,6.687614E-1,0E0,0E0,7.7987766E-1,1.6896162E0,0E0,