{"learner":{"attributes":{"best_iteration":"157","best_score":"0.11833108316475228"},"feature_names":["NDVI_February","NDVI_March","NDVI_April","NDVI_May","NDVI_June","NDVI_July","NDVI_August","GLI_February","GLI_March","GLI_April","GLI_May","GLI_June","GLI_July","GLI_August","NDWI_February","NDWI_March","NDWI_April","NDWI_May","NDWI_June","NDWI_July","NDWI_August","Precipitation_February","Precipitation_March","Precipitation_April","Precipitation_May","Precipitation_June","Precipitation_July","Precipitation_August"],"feature_types":["float","float","float","float","float","float","float","float","float","float","float","float","float","float","float","float","float","float","float","float","float","float","float","float","float","float","float","float"],"gradient_booster":{"model":{"gbtree_model_param":{"num_parallel_tree":"1","num_trees":"504"},"iteration_indptr":[0,3,6,9,12,15,18,21,24,27,30,33,36,39,42,45,48,51,54,57,60,63,66,69,72,75,78,81,84,87,90,93,96,99,102,105,108,111,114,117,120,123,126,129,132,135,138,141,144,147,150,153,156,159,162,165,168,171,174,177,180,183,186,189,192,195,198,201,204,207,210,213,216,219,222,225,228,231,234,237,240,243,246,249,252,255,258,261,264,267,270,273,276,279,282,285,288,291,294,297,300,303,306,309,312,315,318,321,324,327,330,333,336,339,342,345,348,351,354,357,360,363,366,369,372,375,378,381,384,387,390,393,396,399,402,405,408,411,414,417,420,423,426,429,432,435,438,441,444,447,450,453,456,459,462,465,468,471,474,477,480,483,486,489,492,495,498,501,504],"tree_info":[0,1,2,0,1,2,0,1,2,0,1,2,0,1,2,0,1,2,0,1,2,0,1,2,0,1,2,0,1,2,0,1,2,0,1,2,0,1,2,0,1,2,0,1,2,0,1,2,0,1,2,0,1,2,0,1,2,0,1,2,0,1,2,0,1,2,0,1,2,0,1,2,0,1,2,0,1,2,0,1,2,0,1,2,0,1,2,0,1,2,0,1,2,0,1,2,0,1,2,0,1,2,0,1,2,0,1,2,0,1,2,0,1,2,0,1,2,0,1,2,0,1,2,0,1,2,0,1,2,0,1,2,0,1,2,0,1,2,0,1,2,0,1,2,0,1,2,0,1,2,0,1,2,0,1,2,0,1,2,0,1,2,0,1,2,0,1,2,0,1,2,0,1,2,0,1,2,0,1,2,0,1,2,0,1,2,0,1,2,0,1,2,0,1,2,0,1,2,0,1,2,0,1,2,0,1,2,0,1,2,0,1,2,0,1,2,0,1,2,0,1,2,0,1,2,0,1,2,0,1,2,0,1,2,0,1,2,0,1,2,0,1,2,0,1,2,0,1,2,0,1,2,0,1,2,0,1,2,0,1,2,0,1,2,0,1,2,0,1,2,0,1,2,0,1,2,0,1,2,0,1,2,0,1,2,0,1,2,0,1,2,0,1,2,0,1,2,0,1,2,0,1,2,0,1,2,0,1,2,0,1,2,0,1,2,0,1,2,0,1,2,0,1,2,0,1,2,0,1,2,0,1,2,0,1,2,0,1,2,0,1,2,0,1,2,0,1,2,0,1,2,0,1,2,0,1,2,0,1,2,0,1,2,0,1,2,0,1,2,0,1,2,0,1,2,0,1,2,0,1,2,0,1,2,0,1,2,0,1,2,0,1,2,0,1,2,0,1,2,0,1,2,0,1,2,0,1,2,0,1,2,0,1,2,0,1,2,0,1,2,0,1,2,0,1,2,0,1,2,0,1,2,0,1,2,0,1,2,0,1,2,0,1,2,0,1,2,0,1,2,0,1,2,0,1,2,0,1,2,0,1,2,0,1,2,0,1,2,0,1,2,0,1,2,0,1,2,0,1,2,0,1,2,0,1,2,0,1,2,0,1,2,0,1,2,0,1,2,0,1,2,0,1,2],"trees":[{"base_weights":[-3.7943605E-1,-5.446935E-1,-2.1517111E-1,-2.6243162E-1,-5.9962165E-1,-1.5416366E-1,-6.3245255E-1,3.3741689E-3,-3.6657542E-1,-1.0978149E-1,-6.3133293E-1,-1.1830331E-1,-6.905374E-1,-8.9986247E-1,-1.6715367E-1,-6.442382E-2,-2.4989061E-1,-3.5327796E-2,3.3721107E-3,-6.576353E-1,-1.4972676E-1,-9.908621E-2,-6.163009E-1,-5.9673613E-1,-5.7638466E-2,-6.444985E-2,-4.502114E-2,-3.3419433E-1,3.3556449E-3,-3.9753195E-2,-1.0516538E-2,-3.9956905E-2,-5.493454E-2,-2.6723288E-2,3.359013E-3,-4.121593E-3,-1.7980833E-2,-6.4367816E-2,-3.3584688E-2,-2.5634453E-2,-5.085312E-2,3.3185978E-3,-3.8969442E-2],"categories":[],"categories_nodes":[],"categories_segments":[],"categories_sizes":[],"default_left":[0,0,0,0,0,0,0,0,0,0,0,0,0,0,0,0,0,0,0,0,0,0,0,0,0,0,0,0,0,0,0,0,0,0,0,0,0,0,0,0,0,0,0],"id":0,"left_children":[1,3,5,7,9,11,13,-1,15,17,19,21,23,25,27,-1,29,-1,-1,31,33,35,37,39,-1,-1,-1,41,-1,-1,-1,-1,-1,-1,-1,-1,-1,-1,-1,-1,-1,-1,-1],"loss_changes":[2.673465E1,7.6078186E0,1.2571602E1,2.6024823E0,6.380188E0,8.285672E0,7.832985E0,0E0,4.0742006E0,1.64067E0,4.885193E0,3.8624E0,3.9455223E-1,4.636078E-1,8.337492E-1,0E0,1.590195E0,0E0,0E0,3.817215E0,9.745618E-1,2.4728656E0,5.969858E-1,5.622544E-1,0E0,0E0,0E0,1.1987503E0,0E0,0E0,0E0,0E0,0E0,0E0,0E0,0E0,0E0,0E0,0E0,0E0,0E0,0E0,0E0],"parents":[2147483647,0,0,1,1,2,2,3,3,4,4,5,5,6,6,8,8,9,9,10,10,11,11,12,12,13,13,14,14,16,16,19,19,20,20,21,21,22,22,23,23,27,27],"right_children":[2,4,6,8,10,12,14,-1,16,18,20,22,24,26,28,-1,30,-1,-1,32,34,36,38,40,-1,-1,-1,42,-1,-1,-1,-1,-1,-1,-1,-1,-1,-1,-1,-1,-1,-1,-1],"split_conditions":[2.9498348E-1,-2.906E-2,4.5447433E-1,-3.428E-2,7.63E-1,4.1845322E-1,2.6280928E-1,2.8227177E-2,-3.388E-2,1.8316296E-1,-1.06136024E-1,2.6197377E-1,2.4157235E-1,-4.52E-3,-6.67E-3,-1.0357889E-1,1.5001401E-1,-5.201001E-2,2.2730848E-3,-2.0524763E-1,2.4944E-2,-1.454E-2,1.6833E-2,-1.846E-2,-1.6193324E-1,-1.5202653E-1,-1.1850675E-1,-2.338E-2,3.630193E-3,-5.947391E-2,-1.103643E-1,-1.1511405E-1,-1.22238725E-1,-5.472416E-2,2.2730848E-3,-2.1306131E-2,-7.983007E-2,-1.083287E-1,-9.7472034E-2,-7.9151526E-2,-9.543643E-2,1.2451202E-2,-5.3367052E-2],"split_indices":[4,8,6,8,23,4,2,0,8,2,15,2,2,9,8,0,2,0,0,16,12,7,11,7,0,0,0,7,0,0,0,0,0,0,0,0,0,0,0,0,0,0,0],"split_type":[0,0,0,0,0,0,0,0,0,0,0,0,0,0,0,0,0,0,0,0,0,0,0,0,0,0,0,0,0,0,0,0,0,0,0,0,0,0,0,0,0,0,0],"sum_hessian":[9.85E2,4.91E2,4.94E2,8E1,4.11E2,4.31E2,6.3E1,2E1,6E1,2.5E1,3.86E2,4.04E2,2.7E1,4E1,2.3E1,1E1,5E1,7E0,1.8E1,3.66E2,2E1,3.89E2,1.5E1,1.7E1,1E1,3.3E1,7E0,1.3E1,1E1,1.1E1,3.9E1,2.52E2,1.14E2,9E0,1.1E1,3.16E2,7.3E1,4E0,1.1E1,7E0,1E1,5E0,8E0],"tree_param":{"num_deleted":"0","num_feature":"28","num_nodes":"43","size_leaf_vector":"1"}},{"base_weights":[5.686898E-2,2.6225978E-1,-7.050407E-2,3.116192E-1,-4.2286626E-1,2.2576235E-1,-1.4398907E-1,1.5968427E-1,4.1241714E-1,-3.3905048E-2,-2.771699E-1,-3.3880435E-2,2.7581492E-1,-1.1023282E-1,-4.4106904E-1,-0E0,3.5928947E-1,3.3916596E-2,3.9499736E-1,-3.3833947E-2,-6.711258E-3,-2.771699E-1,3.2237875E-1,5.99688E-2,-2.1895814E-1,-3.39163E-2,-3.12158E-1,-6.7792083E-3,2.0337591E-2,2.8893832E-2,-0E0,1.4522444E-2,2.8411478E-2,-3.3852544E-2,-0E0,1.1301249E-2,3.0470429E-2,-3.390036E-2,7.3731164E-3,-1.7757175E-2,2.6366968E-2,-0E0,-3.3889733E-2],"categories":[],"categories_nodes":[],"categories_segments":[],"categories_sizes":[],"default_left":[0,0,0,0,0,0,0,0,0,0,0,0,0,0,0,0,0,0,0,0,0,0,0,0,0,0,0,0,0,0,0,0,0,0,0,0,0,0,0,0,0,0,0],"id":1,"left_children":[1,3,5,7,9,11,13,15,17,-1,19,-1,21,23,25,27,29,-1,31,-1,-1,33,35,37,39,-1,41,-1,-1,-1,-1,-1,-1,-1,-1,-1,-1,-1,-1,-1,-1,-1,-1],"loss_changes":[2.6450075E1,1.3086742E1,1.3584746E1,5.5254936E0,2.8672314E-1,4.4989924E0,5.011142E0,4.5898304E0,3.256035E-1,0E0,3.5203987E-1,0E0,2.9871483E0,8.309715E0,3.8197136E-1,2.3956313E0,1.5299425E0,0E0,7.734604E-1,0E0,0E0,5.5312437E-1,2.1088362E0,4.766175E0,7.1139736E0,0E0,9.3544734E-1,0E0,0E0,0E0,0E0,0E0,0E0,0E0,0E0,0E0,0E0,0E0,0E0,0E0,0E0,0E0,0E0],"parents":[2147483647,0,0,1,1,2,2,3,3,4,4,5,5,6,6,7,7,8,8,10,10,12,12,13,13,14,14,15,15,16,16,18,18,21,21,22,22,23,23,24,24,26,26],"right_children":[2,4,6,8,10,12,14,16,18,-1,20,-1,22,24,26,28,30,-1,32,-1,-1,34,36,38,40,-1,42,-1,-1,-1,-1,-1,-1,-1,-1,-1,-1,-1,-1,-1,-1,-1,-1],"split_conditions":[-2.8323647E-1,3.6396253E-1,2.3716399E-1,-3.4454492E-1,2.4603E-2,1.7342101E-1,4.4375634E-1,-3.5682115E-1,3.5832E-2,-7.9151526E-2,2.1636E-2,-5.16707E-2,-2.8168073E-1,-2.1461171E-1,2.3503E-2,-2.899739E-1,-3.37978E-1,6.300232E-2,3.8507E-2,-8.0508605E-2,-2.3511387E-2,9.757E-3,2.5105E-2,4.951613E-1,-3.3338675E-1,-6.0830954E-2,-8.89E-3,-1.3672547E-2,2.229001E-2,4.8413727E-2,-6.8871686E-3,4.7735173E-2,5.3163476E-2,-2.961818E-2,1.5165321E-2,2.1950733E-2,6.062744E-2,-4.013554E-2,1.3808245E-2,-4.1492615E-2,4.9092248E-2,-1.740453E-2,-5.574193E-2],"split_indices":[18,3,3,19,11,5,5,20,13,0,10,0,18,18,10,18,20,0,13,0,0,10,12,22,20,0,9,0,0,0,0,0,0,0,0,0,0,0,0,0,0,0,0],"split_type":[0,0,0,0,0,0,0,0,0,0,0,0,0,0,0,0,0,0,0,0,0,0,0,0,0,0,0,0,0,0,0,0,0,0,0,0,0,0,0,0,0,0,0],"sum_hessian":[1.011E3,3.87E2,6.24E2,3.61E2,2.6E1,1.24E2,5E2,1.44E2,2.17E2,1.7E1,9E0,8E0,1.16E2,4.49E2,5.1E1,8E1,6.4E1,3.6E1,1.81E2,4E0,5E0,9E0,1.07E2,1.75E2,2.74E2,3.5E1,1.6E1,6E1,2E1,5.4E1,1E1,2.1E1,1.6E2,5E0,4E0,4.8E1,5.9E1,1.4E1,1.61E2,2.56E2,1.8E1,6E0,1E1],"tree_param":{"num_deleted":"0","num_feature":"28","num_nodes":"43","size_leaf_vector":"1"}},{"base_weights":[5.141736E-1,7.167413E-1,3.9461157E-1,7.8331727E-1,-1.191912E-3,3.2666257E-1,7.205918E-1,3.2465792E-1,8.0581135E-1,3.775736E-1,7.493793E-2,-3.3556458E-3,7.984293E-1,3.5327796E-2,1.716149E-1,8.2294625E-1,5.286588E-1,2.9982826E-1,6.017367E-1,-2.216413E-3,2.8315094E-1,6.815734E-1,8.8093966E-1,3.0441293E-2,-3.3185985E-3,5.9045304E-2,5.0773215E-2,5.7638466E-2,1.1644732E-2,3.6224122E-3,2.650743E-2,2.7421615E-3,4.4974685E-2,7.8956885E-3,3.615772E-2,5.4168973E-2,1.35244E-2,5.015652E-2,6.445159E-2],"categories":[],"categories_nodes":[],"categories_segments":[],"categories_sizes":[],"default_left":[0,0,0,0,0,0,0,0,0,0,0,0,0,0,0,0,0,0,0,0,0,0,0,0,0,0,0,0,0,0,0,0,0,0,0,0,0,0,0],"id":2,"left_children":[1,3,5,7,-1,9,11,13,15,17,19,-1,21,-1,23,25,27,29,31,-1,33,35,37,-1,-1,-1,-1,-1,-1,-1,-1,-1,-1,-1,-1,-1,-1,-1,-1],"loss_changes":[2.4334412E1,1.8239105E1,1.3993111E1,3.5222778E0,0E0,6.7000694E0,6.53738E0,4.761312E-1,1.5407562E0,7.576092E0,1.9729408E0,0E0,9.459839E-1,0E0,5.519796E-1,1.0740509E0,2.1706214E0,7.227461E0,3.836174E0,0E0,1.2459905E0,2.3028946E0,5.573883E-1,0E0,0E0,0E0,0E0,0E0,0E0,0E0,0E0,0E0,0E0,0E0,0E0,0E0,0E0,0E0,0E0],"parents":[2147483647,0,0,1,1,2,2,3,3,5,5,6,6,7,7,8,8,9,9,10,10,12,12,14,14,15,15,16,16,17,17,18,18,20,20,21,21,22,22],"right_children":[2,4,6,8,-1,10,12,14,16,18,20,-1,22,-1,24,26,28,30,32,-1,34,36,38,-1,-1,-1,-1,-1,-1,-1,-1,-1,-1,-1,-1,-1,-1,-1,-1],"split_conditions":[-2.8323647E-1,2.021734E-1,-2.3459087E-1,-3.6130226E-1,-5.055148E-3,4.300979E-1,1.7342101E-1,-1.846E-2,-4.09E-3,3.835738E-1,-1.5857577E-1,-2.7582582E-2,2.3521E-2,7.555524E-2,-1.521E-2,3.9580247E-1,-3.0835783E-1,1.04873694E-1,-3.0289528E-1,-7.8031886E-3,-2.1771951E-1,2.0089E-2,-1.6812311E-1,6.8769895E-2,-1.8761573E-2,1.0327355E-1,9.726852E-2,9.591141E-2,7.351965E-2,1.7743792E-2,8.820997E-2,4.308747E-3,1.1932101E-1,3.8914163E-2,7.826939E-2,1.1457124E-1,2.602196E-2,1.1491047E-1,1.1083927E-1],"split_indices":[18,0,17,18,0,5,5,7,7,5,15,0,12,0,9,5,18,0,17,0,18,12,15,0,0,0,0,0,0,0,0,0,0,0,0,0,0,0,0],"split_type":[0,0,0,0,0,0,0,0,0,0,0,0,0,0,0,0,0,0,0,0,0,0,0,0,0,0,0,0,0,0,0,0,0,0,0,0,0,0,0],"sum_hessian":[1.005E3,3.73E2,6.32E2,3.42E2,3.1E1,5.23E2,1.09E2,1.6E1,3.26E2,4.35E2,8.8E1,1E1,9.9E1,7E0,9E0,3.07E2,1.9E1,3.23E2,1.12E2,5.8E1,3E1,4.1E1,5.8E1,4E0,5E0,1.88E2,1.19E2,1E1,9E0,8.7E1,2.36E2,1.1E1,1.01E2,1.8E1,1.2E1,3.3E1,8E0,1.9E1,3.9E1],"tree_param":{"num_deleted":"0","num_feature":"28","num_nodes":"39","size_leaf_vector":"1"}},{"base_weights":[-3.4095728E-1,-6.495047E-1,-2.5930998E-1,-2.5422892E-1,-7.583503E-1,-1.4418246E-1,-5.090335E-1,-1.5498808E-1,-5.471448E-2,-8.864643E-1,-3.645006E-1,-8.481612E-2,-2.5253606E-1,-3.289881E-1,-6.80727E-1,3.359013E-3,-2.3551896E-1,-7.224776E-1,-9.211009E-1,3.3709E-3,-6.581046E-1,-5.496344E-1,-6.435349E-2,-2.122652E-1,-5.877558E-2,-4.942344E-1,-3.8767565E-2,-2.554036E-1,-8.4355855E-1,-2.243871E-2,3.3397677E-3,-6.439893E-2,-4.323356E-2,-4.934112E-2,-6.374298E-2,-6.441967E-2,-3.2771237E-2,-2.367456E-2,-4.4067763E-2,-3.2260658E-3,-3.311539E-2,-4.4067763E-2,-1.2686134E-2,-6.443004E-2,-2.7996827E-2,-3.0441293E-2,7.371648E-5,-2.6448138E-2,3.359013E-3,-4.6341963E-2,-5.930298E-2],"categories":[],"categories_nodes":[],"categories_segments":[],"categories_sizes":[],"default_left":[0,0,0,0,0,0,0,0,0,0,0,0,0,0,0,0,0,0,0,0,0,0,0,0,0,0,0,0,0,0,0,0,0,0,0,0,0,0,0,0,0,0,0,0,0,0,0,0,0,0,0],"id":3,"left_children":[1,3,5,7,9,11,13,15,-1,17,19,21,23,25,27,-1,29,31,33,-1,35,37,39,41,-1,43,45,47,49,-1,-1,-1,-1,-1,-1,-1,-1,-1,-1,-1,-1,-1,-1,-1,-1,-1,-1,-1,-1,-1,-1],"loss_changes":[2.5640572E1,9.158585E0,2.314022E1,2.5152614E0,8.419586E0,3.5424967E0,7.8462906E0,6.432646E-1,0E0,7.0667267E-1,4.989122E0,3.382708E0,4.813162E0,5.943866E0,8.997284E0,0E0,7.603215E-1,4.1666603E-1,3.6026764E-1,0E0,1.2165108E0,2.9508352E-1,2.4256139E0,2.019764E0,0E0,2.9287052E0,7.3750275E-1,1.4768746E0,4.5072174E-1,0E0,0E0,0E0,0E0,0E0,0E0,0E0,0E0,0E0,0E0,0E0,0E0,0E0,0E0,0E0,0E0,0E0,0E0,0E0,0E0,0E0,0E0],"parents":[2147483647,0,0,1,1,2,2,3,3,4,4,5,5,6,6,7,7,9,9,10,10,11,11,12,12,13,13,14,14,16,16,17,17,18,18,20,20,21,21,22,22,23,23,25,25,26,26,27,27,28,28],"right_children":[2,4,6,8,10,12,14,16,-1,18,20,22,24,26,28,-1,30,32,34,-1,36,38,40,42,-1,44,46,48,50,-1,-1,-1,-1,-1,-1,-1,-1,-1,-1,-1,-1,-1,-1,-1,-1,-1,-1,-1,-1,-1,-1],"split_conditions":[-2.059961E-1,3.5178536E-1,-2.1461171E-1,-2.282986E-1,-2.6426825E-1,-2.8323647E-1,-2.4620946E-1,4.091711E-1,-1.8084365E-1,-2.774705E-1,-1.8465614E-1,-3.6130226E-1,1.2506666E0,-2.573404E-1,-1.5166664E-1,1.4155287E-2,2.3108E-2,2.785E-3,3.4539202E-1,8.1103906E-2,4.2513683E-1,7.36E-4,2.6677E-2,-2.8168073E-1,-9.10182E-2,-2.331801E-1,8.973E-3,-1.7584868E-1,4.858E-3,-1.469421E-1,1.1526295E-2,-1.3126786E-1,-1.3330345E-1,-1.4123003E-1,-1.5317233E-1,-1.07303105E-1,-1.2833783E-1,-3.6713295E-2,-8.896073E-2,-1.9779803E-2,-1.0281175E-1,-4.6593226E-2,-4.291776E-2,-1.14767075E-1,-7.9133615E-2,-1.2502841E-2,-1.0429976E-2,-5.179869E-2,7.4545175E-2,-8.0356695E-2,-1.1699777E-1],"split_indices":[14,5,18,14,17,18,19,6,0,14,15,18,23,17,14,0,10,11,6,0,6,10,10,18,0,15,12,14,12,0,0,0,0,0,0,0,0,0,0,0,0,0,0,0,0,0,0,0,0,0,0],"split_type":[0,0,0,0,0,0,0,0,0,0,0,0,0,0,0,0,0,0,0,0,0,0,0,0,0,0,0,0,0,0,0,0,0,0,0,0,0,0,0,0,0,0,0,0,0,0,0,0,0,0,0],"sum_hessian":[1.018E3,2.13E2,8.05E2,4.6E1,1.67E2,5.51E2,2.54E2,3.9E1,7E0,1.26E2,4.1E1,3.56E2,1.95E2,1.24E2,1.3E2,1.1E1,2.8E1,2.2E1,1.04E2,1.7E1,2.4E1,1.5E1,3.41E2,1.83E2,1.2E1,7.9E1,4.5E1,3.6E1,9.4E1,2.1E1,7E0,6E0,1.6E1,9E0,9.5E1,9E0,1.5E1,5E0,1E1,3.28E2,1.3E1,1E1,1.73E2,1.2E1,6.7E1,4E0,4.1E1,2.5E1,1.1E1,1.5E1,7.9E1],"tree_param":{"num_deleted":"0","num_feature":"28","num_nodes":"51","size_leaf_vector":"1"}},{"base_weights":[6.1556097E-2,-2.0038272E-1,1.4759912E-1,-3.2007685E-1,1.8956092E-1,2.393829E-1,-2.9161638E-2,3.3898316E-2,-3.806507E-1,3.1805745E-1,-2.1389516E-1,2.6199275E-1,-2.9662827E-2,-1.942327E-1,2.2994532E-1,3.3873793E-2,-4.1712734E-1,3.0515645E-2,2.0810552E-1,1.1247167E-2,-3.3880435E-2,8.88282E-2,3.0204248E-1,1.22538425E-1,-3.557166E-1,3.1490296E-2,1.38813E-1,-3.0422393E-2,-4.8202365E-3,5.9653046E-3,3.3873793E-2,1.5763627E-2,-3.0336106E-2,2.2181971E-2,-4.056411E-3,1.606749E-3,3.3893116E-2,-2.6459288E-2,3.3833947E-2,3.3889733E-2,5.4661077E-3],"categories":[],"categories_nodes":[],"categories_segments":[],"categories_sizes":[],"default_left":[0,0,0,0,0,0,0,0,0,0,0,0,0,0,0,0,0,0,0,0,0,0,0,0,0,0,0,0,0,0,0,0,0,0,0,0,0,0,0,0,0],"id":4,"left_children":[1,3,5,7,9,11,13,-1,15,17,19,21,-1,23,25,-1,27,-1,29,-1,-1,31,33,35,37,-1,39,-1,-1,-1,-1,-1,-1,-1,-1,-1,-1,-1,-1,-1,-1],"loss_changes":[2.2515184E1,1.1529187E1,1.2201424E1,9.38315E0,3.0074508E0,7.5708084E0,1.099197E1,0E0,5.6482162E0,6.334038E-1,1.5188673E0,3.3198242E0,0E0,8.032366E0,2.1305232E0,0E0,1.8234482E0,0E0,8.3653414E-1,0E0,0E0,6.9195676E0,3.501278E0,1.9722526E0,3.040701E0,0E0,1.5095068E0,0E0,0E0,0E0,0E0,0E0,0E0,0E0,0E0,0E0,0E0,0E0,0E0,0E0,0E0],"parents":[2147483647,0,0,1,1,2,2,3,3,4,4,5,5,6,6,8,8,9,9,10,10,11,11,13,13,14,14,16,16,18,18,21,21,22,22,23,23,24,24,26,26],"right_children":[2,4,6,8,10,12,14,-1,16,18,20,22,-1,24,26,-1,28,-1,30,-1,-1,32,34,36,38,-1,40,-1,-1,-1,-1,-1,-1,-1,-1,-1,-1,-1,-1,-1,-1],"split_conditions":[-2.049149E-1,-3.1779924E-1,-2.0860974E-1,4.951613E-1,-2.282986E-1,2.3562571E-1,-3.5015157E-1,9.7904496E-2,2.8428572E-1,1.8636596E-1,-2.622E-2,-1.8970442E-1,-7.362195E-2,-2.4620946E-1,3.5528E-2,8.751056E-2,-2.059961E-1,3.0873012E-2,2.3108E-2,2.6282646E-2,-6.446166E-2,-1.9104473E-1,2.1355367E-1,-1.9046259E-1,1.52777E-1,5.3013023E-2,7.170483E-2,-5.885295E-2,-4.071745E-3,8.121553E-3,3.051332E-2,2.3093164E-2,-3.571585E-2,4.2770777E-2,-8.482249E-3,9.053902E-3,8.763662E-2,-5.258726E-2,7.53406E-2,4.1160457E-2,8.748597E-3],"split_indices":[14,19,16,22,14,1,20,0,21,1,7,14,0,19,13,0,14,0,10,0,0,14,1,16,1,0,1,0,0,0,0,0,0,0,0,0,0,0,0,0,0],"split_type":[0,0,0,0,0,0,0,0,0,0,0,0,0,0,0,0,0,0,0,0,0,0,0,0,0,0,0,0,0,0,0,0,0,0,0,0,0,0,0,0,0],"sum_hessian":[9.99E2,2.47E2,7.52E2,1.89E2,5.8E1,4.95E2,2.57E2,1.3E1,1.76E2,4.4E1,1.4E1,4.79E2,1.6E1,1.57E2,1E2,7E0,1.69E2,2E1,2.4E1,6E0,8E0,9E1,3.89E2,5.3E1,1.04E2,2.8E1,7.2E1,1.55E2,1.4E1,1.7E1,7E0,7.1E1,1.9E1,3.64E2,2.5E1,4.2E1,1.1E1,1E2,4E0,1E1,6.2E1],"tree_param":{"num_deleted":"0","num_feature":"28","num_nodes":"41","size_leaf_vector":"1"}},{"base_weights":[4.9170217E-1,6.9548714E-1,3.658643E-1,7.567073E-1,8.3659875E-4,6.003619E-1,3.0896357E-1,8.1344837E-1,5.778432E-1,6.3690877E-1,5.0427187E-3,2.5994235E-1,6.4222324E-1,3.1313884E-1,8.3459425E-1,7.638257E-1,3.917331E-1,8.362387E-1,5.1330304E-1,1.968579E-1,4.253649E-1,8.748625E-1,2.6978117E-1,-3.3185985E-3,4.1781157E-2,5.803724E-2,3.649945E-2,4.2854372E-2,6.1212253E-2,1.9214008E-2,5.085312E-2,3.0472273E-2,6.0880084E-2,-3.3309476E-3,3.8357798E-2,6.4432435E-2,1.1193572E-2,5.088211E-2,1.5989302E-2,6.444985E-2,3.5327796E-2,1.2745323E-2,4.7404554E-2],"categories":[],"categories_nodes":[],"categories_segments":[],"categories_sizes":[],"default_left":[0,0,0,0,0,0,0,0,0,0,0,0,0,0,0,0,0,0,0,0,0,0,0,0,0,0,0,0,0,0,0,0,0,0,0,0,0,0,0,0,0,0,0],"id":5,"left_children":[1,3,5,7,-1,9,11,13,15,17,-1,19,21,23,25,27,29,31,33,35,37,39,41,-1,-1,-1,-1,-1,-1,-1,-1,-1,-1,-1,-1,-1,-1,-1,-1,-1,-1,-1,-1],"loss_changes":[2.6125275E1,1.6264969E1,8.401176E0,3.6155548E0,0E0,2.3608322E0,8.277821E0,2.8607483E0,2.970417E0,2.8260193E0,0E0,4.609133E0,5.6256466E0,1.2082623E0,1.5916595E0,7.780857E-1,1.6642957E0,1.0314922E0,2.0790634E0,7.6757393E0,7.505808E0,1.0541897E0,8.737159E-1,0E0,0E0,0E0,0E0,0E0,0E0,0E0,0E0,0E0,0E0,0E0,0E0,0E0,0E0,0E0,0E0,0E0,0E0,0E0,0E0],"parents":[2147483647,0,0,1,1,2,2,3,3,5,5,6,6,7,7,8,8,9,9,11,11,12,12,13,13,14,14,15,15,16,16,17,17,18,18,19,19,20,20,21,21,22,22],"right_children":[2,4,6,8,-1,10,12,14,16,18,-1,20,22,24,26,28,30,32,34,36,38,40,42,-1,-1,-1,-1,-1,-1,-1,-1,-1,-1,-1,-1,-1,-1,-1,-1,-1,-1,-1,-1],"split_conditions":[-2.8323647E-1,2.021734E-1,-1.849E-2,1.4755277E-1,9.299748E-3,-2.982826E-1,-3.3338675E-1,1.5221399E-1,3.9580247E-1,-1.8112706E-1,4.1571435E-2,2.2500385E-1,3.618319E-1,6.171E-3,-6.37E-3,-2.2201216E-1,-1.8661249E-1,-3.79877E-1,1.7342101E-1,-2.0253843E-1,2.4206394E-1,1.3651696E-1,4.0854895E-1,-1.3417071E-3,3.5977926E-2,9.338225E-2,1.02974236E-1,1.205238E-1,1.1582402E-1,7.751832E-2,3.8421005E-2,2.3429269E-2,1.0845872E-1,-2.5711026E-2,9.700411E-2,1.1767076E-1,7.25102E-2,1.0130287E-1,8.520142E-2,9.3454435E-2,7.6355256E-2,2.6550513E-2,9.799314E-2],"split_indices":[18,0,9,0,0,20,20,2,5,15,0,2,5,11,7,15,15,20,5,15,2,0,5,0,0,0,0,0,0,0,0,0,0,0,0,0,0,0,0,0,0,0,0],"split_type":[0,0,0,0,0,0,0,0,0,0,0,0,0,0,0,0,0,0,0,0,0,0,0,0,0,0,0,0,0,0,0,0,0,0,0,0,0,0,0,0,0,0,0],"sum_hessian":[1.019E3,3.89E2,6.3E2,3.57E2,3.2E1,1.23E2,5.07E2,2.71E2,8.6E1,1.15E2,8E0,4.42E2,6.5E1,1.1E1,2.6E2,4.3E1,4.3E1,4.4E1,7.1E1,3.2E2,1.22E2,4E1,2.5E1,5E0,6E0,2.43E2,1.7E1,2.2E1,2.1E1,3.3E1,1E1,6E0,3.8E1,6E0,6.5E1,1.3E1,3.07E2,4.5E1,7.7E1,3.3E1,7E0,2.1E1,4E0],"tree_param":{"num_deleted":"0","num_feature":"28","num_nodes":"43","size_leaf_vector":"1"}},{"base_weights":[-3.2512087E-1,-1.441344E-1,-4.3612483E-1,-7.4984126E-2,-6.0208634E-2,5.5001787E-4,-4.5423517E-1,-3.0518591E-2,-3.6292446E-1,-4.9946213E-1,-2.657415E-1,-1.13586694E-1,1.2251742E-3,3.3556449E-3,-4.7762555E-1,-4.5243755E-1,-7.857389E-1,-5.3683734E-1,-8.227263E-2,-6.205771E-3,-4.7404554E-2,-3.818315E-2,3.3185978E-3,-4.8622385E-2,-2.760843E-2,-5.8893252E-2,3.3309467E-3,-1.8305693E-2,-5.7981122E-2,-3.0472273E-2,-3.167834E-3],"categories":[],"categories_nodes":[],"categories_segments":[],"categories_sizes":[],"default_left":[0,0,0,0,0,0,0,0,0,0,0,0,0,0,0,0,0,0,0,0,0,0,0,0,0,0,0,0,0,0,0],"id":6,"left_children":[1,3,5,7,-1,-1,9,11,13,15,17,19,-1,-1,21,23,25,27,29,-1,-1,-1,-1,-1,-1,-1,-1,-1,-1,-1,-1],"loss_changes":[1.986605E1,1.9318161E1,4.934128E0,4.4022293E0,0E0,0E0,5.017044E0,1.2029533E0,2.178152E0,6.387703E0,5.6667137E0,1.4197723E0,0E0,0E0,1.6159096E0,4.9034195E0,4.602421E0,3.8962107E0,8.8494074E-1,0E0,0E0,0E0,0E0,0E0,0E0,0E0,0E0,0E0,0E0,0E0,0E0],"parents":[2147483647,0,0,1,1,2,2,3,3,6,6,7,7,8,8,9,9,10,10,11,11,14,14,15,15,16,16,17,17,18,18],"right_children":[2,4,6,8,-1,-1,10,12,14,16,18,20,-1,-1,22,24,26,28,30,-1,-1,-1,-1,-1,-1,-1,-1,-1,-1,-1,-1],"split_conditions":[-2.8323647E-1,2.021734E-1,-3.468E-2,3.901373E-1,-1.4991416E-1,-2.8553172E-3,-3.3731693E-1,-3.4128815E-1,1.1794436E-1,-1.310877E-1,-3.128543E-1,-3.472687E-1,3.5231106E-3,1.1846353E-2,-1.192E-2,-2.627324E-1,1.04873694E-1,1.4454386E-1,1.0036E-2,-3.8163047E-2,-5.1127683E-2,-1.05688795E-1,1.8531593E-2,-1.2758566E-1,-9.776344E-2,-1.12723105E-1,3.6293194E-2,-8.5869744E-2,-1.6483146E-1,-1.5528897E-2,-3.7947383E-2],"split_indices":[18,0,7,4,0,0,20,19,0,15,19,19,0,0,7,18,0,0,12,0,0,0,0,0,0,0,0,0,0,0,0],"split_type":[0,0,0,0,0,0,0,0,0,0,0,0,0,0,0,0,0,0,0,0,0,0,0,0,0,0,0,0,0,0,0],"sum_hessian":[9.89E2,3.76E2,6.13E2,3.44E2,3.2E1,2.4E1,5.89E2,2.98E2,4.6E1,4.75E2,1.14E2,1.1E2,1.88E2,1E1,3.6E1,4.08E2,6.7E1,4.6E1,6.8E1,1.06E2,4E0,3.1E1,5E0,6E1,3.48E2,6.1E1,6E0,2.5E1,2.1E1,6E0,6.2E1],"tree_param":{"num_deleted":"0","num_feature":"28","num_nodes":"31","size_leaf_vector":"1"}},{"base_weights":[5.5660576E-2,2.4072628E-1,-5.572379E-2,-3.18016E-1,2.9418704E-1,1.9382177E-1,-1.0187648E-1,3.3852544E-2,-3.1490296E-2,1.5213431E-1,3.8886243E-1,3.0960593E-2,1.1326049E-1,-1.4987864E-1,1.9855525E-1,-2.1038243E-1,2.8994527E-1,4.1871578E-1,2.8711763E-1,-3.3893116E-2,2.1866456E-1,-5.039723E-2,-2.579659E-1,-1.8156973E-1,3.6263776E-1,-0E0,-2.2602476E-2,2.4343189E-2,-6.760676E-3,2.9139977E-2,-0E0,2.2872312E-2,-1.6870683E-2,-1.5387598E-2,2.1117307E-2,-2.2016227E-2,2.434694E-3,3.3880435E-2,-1.9453965E-2,-2.2597319E-2,3.3833947E-2,2.7749948E-2,4.7937687E-3],"categories":[],"categories_nodes":[],"categories_segments":[],"categories_sizes":[],"default_left":[0,0,0,0,0,0,0,0,0,0,0,0,0,0,0,0,0,0,0,0,0,0,0,0,0,0,0,0,0,0,0,0,0,0,0,0,0,0,0,0,0,0,0],"id":7,"left_children":[1,3,5,7,9,11,13,-1,-1,15,17,-1,19,21,23,25,27,29,31,-1,33,35,37,39,41,-1,-1,-1,-1,-1,-1,-1,-1,-1,-1,-1,-1,-1,-1,-1,-1,-1,-1],"loss_changes":[2.0738117E1,1.1291037E1,7.2323017E0,3.9377418E0,4.636917E0,2.069027E0,7.6430616E0,0E0,0E0,6.894752E0,6.2488556E-1,0E0,4.8425474E0,4.9122877E0,4.55414E0,9.8111284E-1,2.6822739E0,7.192745E-1,1.2586045E0,0E0,2.6389813E0,5.6293807E0,4.7648916E0,2.265608E0,6.872835E-1,0E0,0E0,0E0,0E0,0E0,0E0,0E0,0E0,0E0,0E0,0E0,0E0,0E0,0E0,0E0,0E0,0E0,0E0],"parents":[2147483647,0,0,1,1,2,2,3,3,4,4,5,5,6,6,9,9,10,10,12,12,13,13,14,14,15,15,16,16,17,17,18,18,20,20,21,21,22,22,23,23,24,24],"right_children":[2,4,6,8,10,12,14,-1,-1,16,18,-1,20,22,24,26,28,30,32,-1,34,36,38,40,42,-1,-1,-1,-1,-1,-1,-1,-1,-1,-1,-1,-1,-1,-1,-1,-1,-1,-1],"split_conditions":[-2.8323647E-1,-2.1779457E-1,-2.883E-2,4.091711E-1,-3.4519294E-1,-3.428E-2,-3.3338675E-1,6.781742E-2,-8.082989E-2,-1.8661249E-1,4.412315E-1,7.953979E-2,-3.388E-2,-1.968935E-1,-3.128543E-1,-1.266E-2,2.2042E-2,9.48E-4,2.5415E-2,-5.234618E-2,3.6779E-2,-2.627324E-1,-8.31E-3,2.3347E-2,2.1935E-2,5.387762E-3,-1.7300766E-2,3.1085102E-2,-4.877423E-3,5.038597E-2,9.679134E-3,4.7343478E-2,-4.5756456E-3,-2.6436625E-2,5.0218824E-2,-5.474558E-2,2.4833293E-3,6.9521956E-2,-4.096814E-2,-1.7133554E-2,3.6871158E-2,4.0380016E-2,1.4239799E-2],"split_indices":[18,14,8,6,19,8,20,0,0,15,6,0,8,18,19,9,10,9,10,0,13,18,10,10,10,0,0,0,0,0,0,0,0,0,0,0,0,0,0,0,0,0,0],"split_type":[0,0,0,0,0,0,0,0,0,0,0,0,0,0,0,0,0,0,0,0,0,0,0,0,0,0,0,0,0,0,0,0,0,0,0,0,0,0,0,0,0,0,0],"sum_hessian":[1.006E3,3.78E2,6.28E2,3.3E1,3.45E2,9.8E1,5.3E2,5E0,2.8E1,1.38E2,2.07E2,2.3E1,7.5E1,4.57E2,7.3E1,3.8E1,1E2,1.6E2,4.7E1,1.1E1,6.4E1,2.38E2,2.19E2,2.2E1,5.1E1,1.4E1,2.4E1,8.5E1,1.5E1,1.56E2,4E0,4.3E1,4E0,1.1E1,5.3E1,5.7E1,1.81E2,8E0,2.11E2,1.8E1,4E0,4.4E1,7E0],"tree_param":{"num_deleted":"0","num_feature":"28","num_nodes":"43","size_leaf_vector":"1"}},{"base_weights":[4.589587E-1,3.0328247E-1,6.1400497E-1,5.0169265E-1,1.976897E-1,7.051405E-1,3.0647415E-1,6.302829E-1,1.9989485E-1,6.9972545E-1,1.649659E-1,7.616705E-1,4.8743147E-1,6.4664565E-2,5.7952803E-1,6.256596E-2,5.080758E-1,8.321195E-2,6.440782E-2,7.8545E-3,6.443449E-2,1.07872605E-1,3.9990872E-1,8.09978E-1,5.533537E-1,2.748632E-1,6.998627E-1,-3.381116E-3,1.911908E-1,2.8302938E-1,7.276252E-1,1.9810695E-2,4.6076316E-2,5.0815843E-2,-0E0,5.236215E-3,3.230029E-2,7.197888E-3,4.9907736E-2,1.9163387E-2,5.5838857E-2,2.2037027E-2,4.8484586E-2,-3.346384E-3,2.4161328E-2,3.0487763E-2,5.1726915E-2,2.566099E-2,1.1062054E-3,3.4262564E-2,4.1054557E-3,3.535437E-2,5.8275666E-2],"categories":[],"categories_nodes":[],"categories_segments":[],"categories_sizes":[],"default_left":[0,0,0,0,0,0,0,0,0,0,0,0,0,0,0,0,0,0,0,0,0,0,0,0,0,0,0,0,0,0,0,0,0,0,0,0,0,0,0,0,0,0,0,0,0,0,0,0,0,0,0,0,0],"id":8,"left_children":[1,3,5,7,9,11,13,15,17,19,21,23,25,27,29,-1,31,33,-1,-1,-1,35,37,39,41,43,45,-1,47,49,51,-1,-1,-1,-1,-1,-1,-1,-1,-1,-1,-1,-1,-1,-1,-1,-1,-1,-1,-1,-1,-1,-1],"loss_changes":[2.4228561E1,1.0492474E1,1.4092041E1,6.7481003E0,5.3674E0,4.7683105E0,7.589595E0,4.342495E0,4.540867E0,2.91265E0,4.115221E0,3.092041E0,3.6071663E0,8.844484E-1,2.365652E0,0E0,3.1724377E0,2.4927022E0,0E0,0E0,0E0,2.788987E0,5.912122E0,1.7019501E0,2.1313438E0,1.0548189E0,6.193962E-1,0E0,9.4621265E-1,8.857926E-1,9.6832275E-1,0E0,0E0,0E0,0E0,0E0,0E0,0E0,0E0,0E0,0E0,0E0,0E0,0E0,0E0,0E0,0E0,0E0,0E0,0E0,0E0,0E0,0E0],"parents":[2147483647,0,0,1,1,2,2,3,3,4,4,5,5,6,6,7,7,8,8,9,9,10,10,11,11,12,12,13,13,14,14,16,16,17,17,21,21,22,22,23,23,24,24,25,25,26,26,28,28,29,29,30,30],"right_children":[2,4,6,8,10,12,14,16,18,20,22,24,26,28,30,-1,32,34,-1,-1,-1,36,38,40,42,44,46,-1,48,50,52,-1,-1,-1,-1,-1,-1,-1,-1,-1,-1,-1,-1,-1,-1,-1,-1,-1,-1,-1,-1,-1,-1],"split_conditions":[2.9498348E-1,2.6376283E-1,3.4333363E-1,-1.8697558E-1,2.8428572E-1,1.8495372E-1,-3.4196416E-1,1.6047725E-1,1.3639303E-1,1.5881576E-1,-3.4605268E-1,-1.99869E-1,4.1211E-2,3.6492524E-1,1.7346E-2,1.0194626E-1,-3.2812244E-1,6.1174963E-2,9.31484E-2,1.4703515E-3,1.175823E-1,-1.7559324E-1,-3.2167786E-1,-3.864832E-1,2.3376226E-1,1.8855947E-1,1.8855947E-1,-3.874759E-2,4.4421E-2,3.2078305E-1,-3.1779924E-1,7.780772E-2,9.9052705E-2,8.0198154E-2,5.037886E-3,2.7722703E-2,5.9981883E-2,5.9570786E-2,9.1907136E-2,7.211847E-2,8.589253E-2,3.7533145E-2,8.188904E-2,-7.640366E-4,7.7584885E-2,3.9468538E-2,9.334673E-2,4.6333995E-2,2.2341292E-2,4.219395E-2,7.781784E-2,9.383168E-2,9.642622E-2],"split_indices":[4,3,3,19,21,1,19,4,1,1,20,16,13,4,10,0,19,1,0,0,0,19,19,19,3,1,1,0,13,4,19,0,0,0,0,0,0,0,0,0,0,0,0,0,0,0,0,0,0,0,0,0,0],"split_type":[0,0,0,0,0,0,0,0,0,0,0,0,0,0,0,0,0,0,0,0,0,0,0,0,0,0,0,0,0,0,0,0,0,0,0,0,0,0,0,0,0,0,0,0,0,0,0,0,0,0,0,0,0],"sum_hessian":[1.004E3,5.01E2,5.03E2,1.74E2,3.27E2,3.88E2,1.15E2,1.22E2,5.2E1,2E1,3.07E2,3.08E2,8E1,6.1E1,5.4E1,3.6E1,8.6E1,4.5E1,7E0,6E0,1.4E1,2.47E2,6E1,2.5E2,5.8E1,4E1,4E1,3.2E1,2.9E1,1.8E1,3.6E1,3.8E1,4.8E1,5E0,4E1,2.28E2,1.9E1,3.2E1,2.8E1,6E0,2.44E2,2.4E1,3.4E1,8E0,3.2E1,8E0,3.2E1,1.4E1,1.5E1,9E0,9E0,1.4E1,2.2E1],"tree_param":{"num_deleted":"0","num_feature":"28","num_nodes":"53","size_leaf_vector":"1"}},{"base_weights":[-2.9138422E-1,-5.5085313E-1,-2.1404514E-1,-6.634523E-1,-1.498907E-1,-9.856102E-2,-4.6664384E-1,-7.881949E-1,-2.5939357E-1,-1.6870863E-3,-6.4945114E-1,-8.183476E-2,-3.5607892E-1,-3.0588582E-1,-6.2208617E-1,-8.6223245E-1,-4.0429652E-1,-6.438649E-2,-1.660685E-1,-6.439893E-2,-1.347803E-2,-3.2016766E-1,-6.801403E-2,-1.7191857E-1,-5.924653E-1,-4.1584685E-1,1.1185519E-3,-1.9225858E-1,-7.8139895E-1,-6.336072E-2,-5.2710053E-2,-4.7451124E-2,-1.5967617E-2,1.439224E-4,-2.6270144E-2,3.3641947E-3,-4.504774E-2,-2.0680805E-3,-1.0365286E-2,-3.0441293E-2,-6.2742424E-3,-2.5634453E-2,-5.471448E-2,-8.391859E-3,-3.5226088E-2,-3.615772E-2,1.439224E-4,-5.564413E-2,-3.615772E-2],"categories":[],"categories_nodes":[],"categories_segments":[],"categories_sizes":[],"default_left":[0,0,0,0,0,0,0,0,0,0,0,0,0,0,0,0,0,0,0,0,0,0,0,0,0,0,0,0,0,0,0,0,0,0,0,0,0,0,0,0,0,0,0,0,0,0,0,0,0],"id":9,"left_children":[1,3,5,7,9,11,13,15,17,-1,19,21,23,25,27,29,31,-1,33,-1,-1,35,37,39,41,43,-1,45,47,-1,-1,-1,-1,-1,-1,-1,-1,-1,-1,-1,-1,-1,-1,-1,-1,-1,-1,-1,-1],"loss_changes":[1.992244E1,1.0289314E1,2.2312836E1,8.966064E0,3.1192536E0,2.2589474E0,5.9921913E0,3.8585815E0,2.6965344E0,0E0,1.3445277E0,1.6217902E0,1.3888812E0,4.185069E0,8.348881E0,6.873398E-1,1.0915911E0,0E0,1.3779446E0,0E0,0E0,3.434841E0,1.481323E0,3.9277917E-1,6.363716E-1,2.6524334E0,0E0,2.1878023E0,8.4768677E-1,0E0,0E0,0E0,0E0,0E0,0E0,0E0,0E0,0E0,0E0,0E0,0E0,0E0,0E0,0E0,0E0,0E0,0E0,0E0,0E0],"parents":[2147483647,0,0,1,1,2,2,3,3,4,4,5,5,6,6,7,7,8,8,10,10,11,11,12,12,13,13,14,14,15,15,16,16,18,18,21,21,22,22,23,23,24,24,25,25,27,27,28,28],"right_children":[2,4,6,8,10,12,14,16,18,-1,20,22,24,26,28,30,32,-1,34,-1,-1,36,38,40,42,44,-1,46,48,-1,-1,-1,-1,-1,-1,-1,-1,-1,-1,-1,-1,-1,-1,-1,-1,-1,-1,-1,-1],"split_conditions":[-2.0751451E-1,-3.1779924E-1,-2.1461171E-1,-2.6426825E-1,-2.282986E-1,4.484326E-1,-1.459064E-1,2.4265435E-1,-2.293537E-1,-2.635635E-2,2.2192968E-1,4.951613E-1,3.1338245E-1,4.4137892E-1,-2.4620946E-1,-2.4947514E-1,-2.387E-2,-9.338861E-2,4.3548903E-1,-6.532827E-2,-1.584005E-1,4.1487017E-1,1.6293918E-1,3.989E-2,-2.458E-2,2.6571444E-1,2.6077416E-3,-3.1388876E-1,2.2859E-2,-1.4844477E-1,-1.1772305E-1,-1.1408606E-1,-9.726075E-2,-8.228712E-4,-1.1299601E-1,4.282009E-2,-9.586269E-2,-1.3251178E-2,-5.6766786E-2,-5.28396E-2,-1.1329724E-1,-1.1494244E-1,-1.01371616E-1,-3.0038849E-2,-8.3175175E-2,-1.16334684E-1,1.8822541E-3,-9.8659776E-2,-7.960618E-2],"split_indices":[14,19,18,17,14,6,14,1,14,0,2,22,3,6,19,18,7,0,6,0,0,6,1,13,7,3,0,19,11,0,0,0,0,0,0,0,0,0,0,0,0,0,0,0,0,0,0,0,0],"split_type":[0,0,0,0,0,0,0,0,0,0,0,0,0,0,0,0,0,0,0,0,0,0,0,0,0,0,0,0,0,0,0,0,0,0,0,0,0,0,0,0,0,0,0,0,0,0,0,0,0],"sum_hessian":[9.93E2,2.28E2,7.65E2,1.78E2,5E1,5.25E2,2.4E2,1.36E2,4.2E1,4E1,1E1,4.93E2,3.2E1,1.18E2,1.22E2,1.14E2,2.2E1,5E0,3.7E1,6E0,4E0,2.7E1,4.66E2,1.8E1,1.4E1,8.8E1,3E1,3.3E1,8.9E1,6.2E1,5.2E1,8E0,1.4E1,2.1E1,1.6E1,1.3E1,1.4E1,3.23E2,1.43E2,4E0,1.4E1,7E0,7E0,2.3E1,6.5E1,1.2E1,2.1E1,7.7E1,1.2E1],"tree_param":{"num_deleted":"0","num_feature":"28","num_nodes":"49","size_leaf_vector":"1"}},{"base_weights":[5.7208497E-2,-6.8652354E-2,2.2081129E-1,1.0711847E-1,-1.8312365E-1,3.6954537E-1,-3.4127582E-2,4.3605366E-1,1.9743172E-2,-2.2238022E-1,2.7757517E-1,3.2536787E-1,3.1582866E-2,-3.390833E-2,3.1876177E-2,3.391739E-2,8.435392E-3,-2.3428956E-1,1.6366845E-1,-2.5787553E-1,9.3579315E-2,-8.435392E-3,3.0336106E-2,3.5531148E-1,1.6648449E-1,2.947315E-1,-6.8573914E-2,-2.5610708E-2,1.5807828E-2,-3.3889733E-2,1.5477616E-2,-2.81703E-2,-1.4710034E-2,2.3730276E-2,-2.2587001E-2,1.1278071E-2,2.5154173E-2,4.4091414E-3,3.3873793E-2,-0E0,2.5159607E-2,2.1572983E-2,-1.1869788E-2],"categories":[],"categories_nodes":[],"categories_segments":[],"categories_sizes":[],"default_left":[0,0,0,0,0,0,0,0,0,0,0,0,0,0,0,0,0,0,0,0,0,0,0,0,0,0,0,0,0,0,0,0,0,0,0,0,0,0,0,0,0,0,0],"id":10,"left_children":[1,3,5,7,9,11,13,15,17,19,21,23,-1,-1,25,-1,-1,27,29,31,33,-1,-1,35,37,39,41,-1,-1,-1,-1,-1,-1,-1,-1,-1,-1,-1,-1,-1,-1,-1,-1],"loss_changes":[2.0694973E1,1.1428982E1,1.657204E1,6.435456E0,6.2211018E0,1.1650963E0,4.950286E0,9.3144894E-1,6.471044E0,3.5560799E0,1.8410802E0,8.9632607E-1,0E0,0E0,3.7241783E0,0E0,0E0,4.281622E0,4.8267183E0,1.8382702E0,3.4956403E0,0E0,0E0,4.6008492E-1,1.0101364E0,8.7427044E-1,4.1922417E0,0E0,0E0,0E0,0E0,0E0,0E0,0E0,0E0,0E0,0E0,0E0,0E0,0E0,0E0,0E0,0E0],"parents":[2147483647,0,0,1,1,2,2,3,3,4,4,5,5,6,6,7,7,8,8,9,9,10,10,11,11,14,14,17,17,18,18,19,19,20,20,23,23,24,24,25,25,26,26],"right_children":[2,4,6,8,10,12,14,16,18,20,22,24,-1,-1,26,-1,-1,28,30,32,34,-1,-1,36,38,40,42,-1,-1,-1,-1,-1,-1,-1,-1,-1,-1,-1,-1,-1,-1,-1,-1],"split_conditions":[3.1381863E-1,2.6571444E-1,1.8495372E-1,-1.7835133E-1,6.3493333E0,1.3333796E-1,3.8358064E0,1.9924895E-1,-1.6464764E-1,-3.3338675E-1,1.5881576E-1,2.228532E-1,5.3413194E-2,-7.738092E-2,2.29458E-1,7.710201E-2,6.382362E-3,4.2603296E-1,6.176643E-2,1.7897241E-1,-3.222611E-1,-1.1746828E-2,7.211963E-2,2.2129613E-1,2.4208616E-1,2.014E-2,3.2078305E-1,-2.4594575E-2,4.116712E-2,-4.147728E-2,3.5733838E-2,-5.1223133E-2,-2.257687E-2,4.0522672E-2,-6.6790015E-2,1.9243957E-2,3.984237E-2,1.1081734E-2,5.3688083E-2,-3.7887985E-5,4.6073794E-2,1.6820356E-2,-1.591551E-2],"split_indices":[4,3,1,15,25,0,24,2,15,20,1,2,0,0,2,0,0,6,4,2,20,0,0,3,2,12,4,0,0,0,0,0,0,0,0,0,0,0,0,0,0,0,0],"split_type":[0,0,0,0,0,0,0,0,0,0,0,0,0,0,0,0,0,0,0,0,0,0,0,0,0,0,0,0,0,0,0,0,0,0,0,0,0,0,0,0,0,0,0],"sum_hessian":[1.005E3,5.68E2,4.37E2,2.24E2,3.44E2,2.76E2,1.61E2,4.7E1,1.77E2,3.17E2,2.7E1,1.89E2,8.7E1,2E1,1.41E2,3.9E1,8E0,6.4E1,1.13E2,2.85E2,3.2E1,8E0,1.9E1,1.59E2,3E1,3.9E1,1.02E2,4.9E1,1.5E1,1E1,1.03E2,5.9E1,2.26E2,2E1,1.2E1,1.2E1,1.47E2,2.3E1,7E0,8E0,3.1E1,2.2E1,8E1],"tree_param":{"num_deleted":"0","num_feature":"28","num_nodes":"43","size_leaf_vector":"1"}},{"base_weights":[4.4101247E-1,1.8692583E-1,5.250259E-1,6.443919E-2,1.3101092E-1,6.381602E-1,3.4234208E-1,6.441449E-2,1.0176132E-1,5.6060326E-1,8.4678173E-1,1.8309529E-1,5.4995614E-1,1.70086E-2,4.3876714E-1,5.8887196E-1,-3.3679951E-3,6.445227E-2,7.951727E-1,5.0090855E-1,4.6443325E-2,6.303558E-1,2.7123317E-1,3.8969442E-2,-6.1288464E-4,6.440782E-2,2.3381948E-2,4.275581E-2,9.159104E-3,4.5365624E-2,5.923446E-2,2.713225E-2,6.441967E-2,-9.5221745E-5,3.3584688E-2,5.9925128E-2,3.508603E-2,2.7421615E-3,2.8516667E-2],"categories":[],"categories_nodes":[],"categories_segments":[],"categories_sizes":[],"default_left":[0,0,0,0,0,0,0,0,0,0,0,0,0,0,0,0,0,0,0,0,0,0,0,0,0,0,0,0,0,0,0,0,0,0,0,0,0,0,0],"id":11,"left_children":[1,3,5,-1,7,9,11,-1,13,15,17,19,21,23,25,27,-1,-1,29,31,33,35,37,-1,-1,-1,-1,-1,-1,-1,-1,-1,-1,-1,-1,-1,-1,-1,-1],"loss_changes":[2.1385483E1,1.06137295E1,1.555751E1,0E0,5.5471773E0,7.5160065E0,9.517815E0,0E0,6.395437E0,5.8509216E0,6.607971E-1,7.0760717E0,2.7962265E0,2.6008794E0,2.1561203E0,6.061203E0,0E0,0E0,8.188629E-1,2.2131472E0,2.4491172E0,2.7699203E0,9.6068144E-1,0E0,0E0,0E0,0E0,0E0,0E0,0E0,0E0,0E0,0E0,0E0,0E0,0E0,0E0,0E0,0E0],"parents":[2147483647,0,0,1,1,2,2,4,4,5,5,6,6,8,8,9,9,10,10,11,11,12,12,13,13,14,14,15,15,18,18,19,19,20,20,21,21,22,22],"right_children":[2,4,6,-1,8,10,12,-1,14,16,18,20,22,24,26,28,-1,-1,30,32,34,36,38,-1,-1,-1,-1,-1,-1,-1,-1,-1,-1,-1,-1,-1,-1,-1,-1],"split_conditions":[-2.049149E-1,4.8346667E0,-2.09227E-1,9.731155E-2,2.8428572E-1,-2.6311722E-1,-3.5015157E-1,1.0170791E-1,-3.1779924E-1,-2.6721752E-1,-1.6500814E-1,-2.6924244E-1,2.6521865E-1,1.445119E-1,-2.242E-2,3.6396253E-1,-1.9334456E-2,9.91503E-2,-1.522E-2,-1.9046259E-1,-1.9268507E-1,-1.9881883E-1,2.9028234E-1,2.3338158E-2,-2.405782E-3,5.316244E-2,4.7101587E-2,7.4097864E-2,4.9293272E-2,8.705323E-2,8.644513E-2,7.183293E-2,1.014571E-1,-3.014677E-5,6.452573E-2,1.11742504E-1,7.633255E-2,1.370568E-3,7.599145E-2],"split_indices":[14,25,16,0,21,17,20,0,19,17,14,19,3,0,9,3,0,0,9,16,17,16,3,0,0,0,0,0,0,0,0,0,0,0,0,0,0,0,0],"split_type":[0,0,0,0,0,0,0,0,0,0,0,0,0,0,0,0,0,0,0,0,0,0,0,0,0,0,0,0,0,0,0,0,0,0,0,0,0,0,0],"sum_hessian":[1.002E3,2.49E2,7.53E2,1.7E1,2.32E2,4.65E2,2.88E2,8E0,2.24E2,3.39E2,1.26E2,1.63E2,1.25E2,1.79E2,4.5E1,3.24E2,1.5E1,4.2E1,8.4E1,4.9E1,1.14E2,9.7E1,2.8E1,8E0,1.71E2,7E0,3.8E1,2.97E2,2.7E1,3.2E1,5.2E1,4E1,9E0,1.03E2,1.1E1,3E1,6.7E1,1.1E1,1.7E1],"tree_param":{"num_deleted":"0","num_feature":"28","num_nodes":"39","size_leaf_vector":"1"}},{"base_weights":[-2.8625196E-1,-5.54232E-1,-2.0663026E-1,-6.6736144E-1,-1.4597128E-1,-1.1139988E-1,-4.1029572E-1,-3.1944624E-1,-7.832935E-1,-2.1298604E-2,-7.2716755E-1,-3.535437E-2,-1.0046578E-1,-2.8142995E-1,-7.2019607E-1,3.3721107E-3,-5.56947E-1,-6.7965555E-1,-6.1274678E-2,1.5973179E-3,-3.0441293E-2,-6.438649E-2,-3.0441293E-2,-8.662285E-2,-4.4972605E-1,-5.921293E-2,-2.3481534E-1,-5.042719E-3,-7.984016E-1,-5.246502E-2,-1.5079173E-2,-5.828132E-2,-3.631756E-2,-2.7375636E-3,-1.1901696E-2,-1.347803E-2,-3.475185E-2,-1.31219225E-2,-4.877391E-2,-4.0490847E-2,-5.8914457E-2],"categories":[],"categories_nodes":[],"categories_segments":[],"categories_sizes":[],"default_left":[0,0,0,0,0,0,0,0,0,0,0,0,0,0,0,0,0,0,0,0,0,0,0,0,0,0,0,0,0,0,0,0,0,0,0,0,0,0,0,0,0],"id":12,"left_children":[1,3,5,7,9,11,13,15,17,19,21,-1,23,25,27,-1,29,31,-1,-1,-1,-1,-1,33,35,-1,37,-1,39,-1,-1,-1,-1,-1,-1,-1,-1,-1,-1,-1,-1],"loss_changes":[2.1887634E1,1.0849342E1,1.5338703E1,7.4155273E0,3.6913419E0,2.4107933E0,1.0058285E1,4.0356727E0,1.7039337E0,8.0709153E-1,5.482011E-1,0E0,2.535335E0,4.8995695E0,3.7330742E0,0E0,2.0213594E0,1.9082756E0,0E0,0E0,0E0,0E0,0E0,2.0736177E0,3.0963755E-1,0E0,3.3035889E0,0E0,9.217262E-1,0E0,0E0,0E0,0E0,0E0,0E0,0E0,0E0,0E0,0E0,0E0,0E0],"parents":[2147483647,0,0,1,1,2,2,3,3,4,4,5,5,6,6,7,7,8,8,9,9,10,10,12,12,13,13,14,14,16,16,17,17,23,23,24,24,26,26,28,28],"right_children":[2,4,6,8,10,12,14,16,18,20,22,-1,24,26,28,-1,30,32,-1,-1,-1,-1,-1,34,36,-1,38,-1,40,-1,-1,-1,-1,-1,-1,-1,-1,-1,-1,-1,-1],"split_conditions":[-2.0751451E-1,-3.1779924E-1,-2.1461171E-1,1.9824265E-1,-2.282986E-1,-3.6130226E-1,-1.310877E-1,-1.8465614E-1,-2.2582856E-1,2.439E-2,4.291E-3,-7.190117E-2,2.6197377E-1,-2.331801E-1,1.23055816E-1,6.437353E-2,-2.1106435E-1,-2.576301E-1,-1.183421E-1,-1.4058272E-4,-1.2901425E-1,-6.089547E-2,-1.4765242E-1,-2.8323647E-1,-2.368E-2,-9.470236E-2,-1.5802883E-1,-4.621687E-3,-1.8267296E-1,-1.5571645E-1,-1.0532879E-1,-1.0755843E-1,-7.192262E-2,-1.4793239E-2,-4.5888484E-2,-1.244939E-2,-8.8387586E-2,-5.507872E-2,-9.165974E-2,-4.043279E-2,-1.00144155E-1],"split_indices":[14,19,18,2,14,18,15,15,14,11,11,0,2,15,2,0,14,18,0,0,0,0,0,18,8,0,19,0,18,0,0,0,0,0,0,0,0,0,0,0,0],"split_type":[0,0,0,0,0,0,0,0,0,0,0,0,0,0,0,0,0,0,0,0,0,0,0,0,0,0,0,0,0,0,0,0,0,0,0,0,0,0,0,0,0],"sum_hessian":[1.026E3,2.35E2,7.91E2,1.84E2,5.1E1,5.39E2,2.52E2,4.6E1,1.38E2,4.2E1,9E0,1.4E1,5.25E2,1.78E2,7.4E1,1.8E1,2.8E1,7.4E1,6.4E1,3.8E1,4E0,5E0,4E0,5.05E2,2E1,1.3E1,1.65E2,8E0,6.6E1,1.7E1,1.1E1,3.3E1,4.1E1,3.32E2,1.73E2,4E0,1.6E1,1.52E2,1.3E1,1.7E1,4.9E1],"tree_param":{"num_deleted":"0","num_feature":"28","num_nodes":"41","size_leaf_vector":"1"}},{"base_weights":[6.1880685E-2,2.2290814E-1,-4.105401E-2,2.814058E-1,-3.17261E-2,1.435373E-1,-1.3005856E-1,-2.994528E-1,2.9773745E-1,1.9562246E-1,-3.8858467E-1,-3.57087E-1,-6.073065E-2,-3.3864938E-2,-0E0,3.744352E-1,1.5595628E-1,2.856752E-1,-9.078496E-2,-3.3889733E-2,-2.4931632E-1,-4.1559666E-1,-3.296939E-2,-1.5896098E-1,1.4417823E-1,-0E0,2.6318325E-2,-8.842443E-3,2.1897491E-2,2.3089996E-2,-1.5979302E-3,2.1088573E-3,-2.8241469E-2,-3.3833947E-2,-0E0,-1.7939482E-2,-3.0837027E-2,6.7483215E-3,-2.02819E-2,2.0266504E-3,-2.5780749E-2,2.4450308E-2,-5.501079E-4],"categories":[],"categories_nodes":[],"categories_segments":[],"categories_sizes":[],"default_left":[0,0,0,0,0,0,0,0,0,0,0,0,0,0,0,0,0,0,0,0,0,0,0,0,0,0,0,0,0,0,0,0,0,0,0,0,0,0,0,0,0,0,0],"id":13,"left_children":[1,3,5,7,-1,9,11,13,15,17,19,21,23,-1,-1,25,27,29,31,-1,33,35,37,39,41,-1,-1,-1,-1,-1,-1,-1,-1,-1,-1,-1,-1,-1,-1,-1,-1,-1,-1],"loss_changes":[1.6874662E1,1.6034252E1,1.0202627E1,3.472002E0,0E0,5.597514E0,6.592531E0,5.978113E-1,3.868349E0,4.7467527E0,2.7383375E-1,1.8560247E0,6.461257E0,0E0,0E0,1.1618538E0,5.9683733E0,2.3660908E0,1.7470448E0,0E0,4.9726602E-1,4.8386192E-1,5.2933335E-1,9.056934E0,3.4253922E0,0E0,0E0,0E0,0E0,0E0,0E0,0E0,0E0,0E0,0E0,0E0,0E0,0E0,0E0,0E0,0E0,0E0,0E0],"parents":[2147483647,0,0,1,1,2,2,3,3,5,5,6,6,7,7,8,8,9,9,10,10,11,11,12,12,15,15,16,16,17,17,18,18,20,20,21,21,22,22,23,23,24,24],"right_children":[2,4,6,8,-1,10,12,14,16,18,20,22,24,-1,-1,26,28,30,32,-1,34,36,38,40,42,-1,-1,-1,-1,-1,-1,-1,-1,-1,-1,-1,-1,-1,-1,-1,-1,-1,-1],"split_conditions":[-2.8323647E-1,2.021734E-1,2.6376283E-1,1.5221399E-1,-5.905219E-2,-1.5802883E-1,2.7698648E-1,2.0956E-2,1.6893315E-1,-1.483E-2,4.291E-3,4.484929E-1,-3.128543E-1,-9.222796E-3,1.5729176E-3,5.339129E-2,-3.4454492E-1,1.4739266E-1,-1.1436329E-1,-4.4244915E-2,1.821001E-1,8.145E-3,1.4679E-2,3.4232655E-1,-2.2337595E-1,9.850488E-3,4.529539E-2,-1.3053236E-2,3.6716077E-2,5.654065E-2,-9.572427E-3,1.4234007E-2,-2.3874931E-2,-3.9495133E-2,-4.9005277E-2,-2.9426895E-2,-4.8308894E-2,1.9432557E-3,-1.4494499E-3,3.846779E-3,-4.7568996E-2,2.7133038E-2,-3.5511816E-3],"split_indices":[18,0,3,2,0,19,3,11,1,8,11,6,19,0,0,0,19,1,18,0,3,12,10,3,18,0,0,0,0,0,0,0,0,0,0,0,0,0,0,0,0,0,0],"split_type":[0,0,0,0,0,0,0,0,0,0,0,0,0,0,0,0,0,0,0,0,0,0,0,0,0,0,0,0,0,0,0,0,0,0,0,0,0,0,0,0,0,0,0],"sum_hessian":[1.018E3,3.97E2,6.21E2,3.66E2,3.1E1,2.02E2,4.19E2,1E1,3.56E2,1.84E2,1.8E1,9.8E1,3.21E2,6E0,4E0,2.31E2,1.25E2,1.4E2,4.4E1,1E1,8E0,8.3E1,1.5E1,2.17E2,1.04E2,8E0,2.23E2,4.6E1,7.9E1,1.19E2,2.1E1,3.2E1,1.2E1,4E0,4E0,1.7E1,6.6E1,1E1,5E0,1.17E2,1E2,4.3E1,6.1E1],"tree_param":{"num_deleted":"0","num_feature":"28","num_nodes":"43","size_leaf_vector":"1"}},{"base_weights":[4.1281262E-1,1.6948996E-1,4.899414E-1,1.1519363E-1,6.443782E-2,5.905512E-1,3.0969253E-1,6.441449E-2,8.511052E-2,6.180734E-1,1.2837629E-1,1.5621583E-1,5.1775014E-1,7.1116574E-3,3.754154E-1,7.794148E-1,5.5702204E-1,4.502114E-2,-3.3750518E-3,4.6009225E-1,2.2022884E-2,6.203922E-1,2.164844E-1,1.2106162E-2,-2.4207067E-3,1.49361575E-2,6.442382E-2,5.612496E-2,2.824766E-2,3.0532429E-2,4.8877146E-2,2.269542E-2,6.442382E-2,1.3552222E-2,-1.1516832E-3,3.286761E-2,5.9925128E-2,4.5683165E-3,2.789588E-2],"categories":[],"categories_nodes":[],"categories_segments":[],"categories_sizes":[],"default_left":[0,0,0,0,0,0,0,0,0,0,0,0,0,0,0,0,0,0,0,0,0,0,0,0,0,0,0,0,0,0,0,0,0,0,0,0,0,0,0],"id":14,"left_children":[1,3,5,7,-1,9,11,-1,13,15,17,19,21,23,25,27,29,-1,-1,31,33,35,37,-1,-1,-1,-1,-1,-1,-1,-1,-1,-1,-1,-1,-1,-1,-1,-1],"loss_changes":[1.9176453E1,1.0414786E1,1.4067657E1,5.7657137E0,0E0,6.330536E0,8.873417E0,0E0,5.02476E0,4.622238E0,2.6721625E0,6.521862E0,3.6442852E0,1.2834527E0,4.183354E0,2.2289429E0,5.9549255E0,0E0,0E0,3.0050955E0,7.7019614E-1,3.1372948E0,8.683233E-1,0E0,0E0,0E0,0E0,0E0,0E0,0E0,0E0,0E0,0E0,0E0,0E0,0E0,0E0,0E0,0E0],"parents":[2147483647,0,0,1,1,2,2,3,3,5,5,6,6,8,8,9,9,10,10,11,11,12,12,13,13,14,14,15,15,16,16,19,19,20,20,21,21,22,22],"right_children":[2,4,6,8,-1,10,12,-1,14,16,18,20,22,24,26,28,30,-1,-1,32,34,36,38,-1,-1,-1,-1,-1,-1,-1,-1,-1,-1,-1,-1,-1,-1,-1,-1],"split_conditions":[-2.049149E-1,1.675E0,-2.0871861E-1,7.63E-1,9.070856E-2,3.6396253E-1,-3.5015157E-1,9.480667E-2,-3.1779924E-1,2.7519193E-1,-2.278E-2,-2.8018022E-1,2.6521865E-1,1.9443178E-1,2.2144E-2,1.9567E-2,-3.5309502E-1,6.085891E-2,-2.3578066E-2,-1.9046259E-1,2.029751E-1,2.3376226E-1,1.216E-2,2.3330817E-2,-9.440826E-3,4.9871217E-2,5.744239E-2,8.1694745E-2,8.444458E-2,6.889174E-2,8.078611E-2,6.1505433E-2,9.457287E-2,5.9639897E-2,-4.2371927E-3,8.182694E-2,1.0416032E-1,3.1843442E-2,7.083513E-2],"split_indices":[14,23,16,23,0,3,20,0,19,3,8,19,3,2,10,10,20,0,0,16,3,3,10,0,0,0,0,0,0,0,0,0,0,0,0,0,0,0,0],"split_type":[0,0,0,0,0,0,0,0,0,0,0,0,0,0,0,0,0,0,0,0,0,0,0,0,0,0,0,0,0,0,0,0,0,0,0,0,0,0,0],"sum_hessian":[1.022E3,2.46E2,7.76E2,2.3E2,1.6E1,4.98E2,2.78E2,8E0,2.22E2,4.7E2,2.8E1,1.6E2,1.18E2,1.75E2,4.7E1,1.29E2,3.41E2,7E0,2.1E1,4.9E1,1.11E2,8.8E1,3E1,3.5E1,1.4E2,3.7E1,1E1,1.14E2,1.5E1,2.06E2,1.35E2,3.9E1,1E1,2E1,9.1E1,5.8E1,3E1,1.7E1,1.3E1],"tree_param":{"num_deleted":"0","num_feature":"28","num_nodes":"39","size_leaf_vector":"1"}},{"base_weights":[-2.5906733E-1,-5.202253E-1,-1.760112E-1,-2.2683895E-1,-6.279351E-1,-3.5975385E-1,-7.7261694E-2,3.3789712E-3,-4.2354006E-1,-8.2623196E-1,-3.8743153E-1,-2.2929905E-1,-6.2809783E-1,-6.3672714E-2,-3.9972615E-1,-6.9972545E-1,-1.1636316E-1,-8.6947703E-1,-3.0497057E-2,-5.577356E-1,-8.774269E-2,-1.7888273E-1,-5.921293E-2,-5.4975778E-2,-7.881545E-1,-3.097811E-1,-4.9987864E-2,-5.3287643E-1,-1.3524401E-2,-6.441967E-2,-3.3584688E-2,3.3397677E-3,-1.5079173E-2,-3.7245203E-2,-6.0319178E-2,-4.91273E-2,-2.0337591E-2,3.3556449E-3,-1.0872811E-2,-9.382573E-3,-4.7466647E-2,-1.9163387E-2,3.3641947E-3,-4.5365624E-2,-6.0681134E-2,-4.3554407E-2,3.3618198E-3,-7.021843E-3,3.345447E-4,-5.471448E-2,-1.0103918E-2],"categories":[],"categories_nodes":[],"categories_segments":[],"categories_sizes":[],"default_left":[0,0,0,0,0,0,0,0,0,0,0,0,0,0,0,0,0,0,0,0,0,0,0,0,0,0,0,0,0,0,0,0,0,0,0,0,0,0,0,0,0,0,0,0,0,0,0,0,0,0,0],"id":15,"left_children":[1,3,5,7,9,11,13,-1,15,17,19,21,23,25,27,29,31,33,-1,35,37,39,-1,41,43,45,47,49,-1,-1,-1,-1,-1,-1,-1,-1,-1,-1,-1,-1,-1,-1,-1,-1,-1,-1,-1,-1,-1,-1,-1],"loss_changes":[2.175203E1,7.6426697E0,1.3805576E1,3.5390024E0,8.434692E0,9.307114E0,2.166542E0,0E0,3.2193813E0,1.573288E0,4.0795355E0,5.8002253E0,7.9760857E0,1.597815E0,5.2969193E-1,1.0145626E0,3.1648183E-1,5.354309E-1,0E0,2.1824036E0,2.8904557E-1,3.5050263E0,0E0,4.5310706E-1,8.5446167E-1,2.9865844E0,1.3226192E0,1.2548871E0,0E0,0E0,0E0,0E0,0E0,0E0,0E0,0E0,0E0,0E0,0E0,0E0,0E0,0E0,0E0,0E0,0E0,0E0,0E0,0E0,0E0,0E0,0E0],"parents":[2147483647,0,0,1,1,2,2,3,3,4,4,5,5,6,6,8,8,9,9,10,10,11,11,12,12,13,13,14,14,15,15,16,16,17,17,19,19,20,20,21,21,23,23,24,24,25,25,26,26,27,27],"right_children":[2,4,6,8,10,12,14,-1,16,18,20,22,24,26,28,30,32,34,-1,36,38,40,-1,42,44,46,48,50,-1,-1,-1,-1,-1,-1,-1,-1,-1,-1,-1,-1,-1,-1,-1,-1,-1,-1,-1,-1,-1,-1,-1],"split_conditions":[-2.049149E-1,1.9824265E-1,2.6007503E-1,-2.173943E-1,2.3815137E-1,-1.310877E-1,2.6197377E-1,2.0824581E-2,-2.1003768E-1,-1.6870596E-1,-3.1779924E-1,2.3562571E-1,1.23055816E-1,5.451613E-1,8E-4,-2.5762016E-1,1.8697955E-1,-3.3174884E-1,-7.5740896E-2,-3.206893E-1,2.5454295E-1,-1.5802883E-1,-8.8276416E-2,-2.122E-2,-1.528E-2,2.9498348E-1,-3.3202475E-1,3.9333E-2,-9.844664E-3,-1.4515045E-1,-7.644223E-2,1.2486792E-2,-9.8181844E-2,-2.1089274E-2,-1.1082425E-1,-9.790816E-2,-6.403564E-2,1.7629528E-2,-1.2026015E-1,-4.2911004E-2,-8.5440286E-2,-1.0462325E-2,5.584514E-4,-6.73949E-2,-9.239902E-2,-8.6244315E-2,4.0918376E-2,-5.0226066E-2,1.8882196E-4,-4.8434045E-2,-6.8547875E-2],"split_indices":[14,2,4,16,0,15,2,0,14,15,19,1,2,22,9,17,2,17,0,17,0,19,0,9,9,4,19,12,0,0,0,0,0,0,0,0,0,0,0,0,0,0,0,0,0,0,0,0,0,0,0],"split_type":[0,0,0,0,0,0,0,0,0,0,0,0,0,0,0,0,0,0,0,0,0,0,0,0,0,0,0,0,0,0,0,0,0,0,0,0,0,0,0,0,0,0,0,0,0,0,0,0,0,0,0],"sum_hessian":[1.003E3,2.42E2,7.61E2,6.5E1,1.77E2,2.66E2,4.95E2,2.7E1,3.8E1,9.7E1,8E1,1.79E2,8.7E1,4.75E2,2E1,2E1,1.8E1,8.7E1,1E1,5.1E1,2.9E1,1.66E2,1.3E1,1.9E1,6.8E1,2.5E1,4.5E2,1.2E1,8E0,9E0,1.1E1,7E0,1.1E1,5E0,8.2E1,3.1E1,2E1,1E1,1.9E1,1.54E2,1.2E1,6E0,1.3E1,3.2E1,3.6E1,1.3E1,1.2E1,2.28E2,2.22E2,7E0,5E0],"tree_param":{"num_deleted":"0","num_feature":"28","num_nodes":"51","size_leaf_vector":"1"}},{"base_weights":[5.3017385E-2,1.4648812E-1,-1.01035535E-1,2.8569925E-1,-4.5433864E-2,-2.3806268E-1,7.0166294E-3,4.3400574E-1,2.3624371E-1,-2.1238257E-1,1.8463545E-1,-3.3923686E-1,-3.56168E-2,2.5334972E-1,-1.21389546E-1,3.4986314E-1,3.3919636E-2,1.3554691E-1,3.128679E-1,-6.243174E-2,-3.766373E-1,7.368097E-2,3.1989056E-1,-3.957763E-1,-0E0,2.853235E-1,-1.4272703E-1,3.029474E-1,-1.4487111E-2,2.6164427E-1,-1.890297E-1,3.11979E-2,1.1284253E-2,-1.2103513E-2,1.5828442E-2,1.6434994E-2,2.9240942E-2,-1.8369352E-2,1.6951866E-2,1.1247167E-2,-2.885766E-2,-7.815033E-3,1.4529511E-2,1.129524E-2,3.3910755E-2,-7.800776E-3,-2.9834867E-2,3.3880435E-2,-3.3880435E-2,-0E0,2.7104381E-2,8.435392E-3,-1.3958999E-2,1.0652154E-2,3.17261E-2,3.3873793E-2,9.666923E-3,-1.603481E-2,2.6346324E-2],"categories":[],"categories_nodes":[],"categories_segments":[],"categories_sizes":[],"default_left":[0,0,0,0,0,0,0,0,0,0,0,0,0,0,0,0,0,0,0,0,0,0,0,0,0,0,0,0,0,0,0,0,0,0,0,0,0,0,0,0,0,0,0,0,0,0,0,0,0,0,0,0,0,0,0,0,0,0,0],"id":16,"left_children":[1,3,5,7,9,11,13,15,17,19,21,23,25,27,29,31,-1,33,35,37,39,41,43,45,47,49,51,53,-1,55,57,-1,-1,-1,-1,-1,-1,-1,-1,-1,-1,-1,-1,-1,-1,-1,-1,-1,-1,-1,-1,-1,-1,-1,-1,-1,-1,-1,-1],"loss_changes":[1.4529283E1,1.6780014E1,5.642379E0,2.6661224E0,1.0140335E1,3.4389791E0,6.738061E0,4.9984932E-1,2.1039705E0,3.7660155E0,1.6636467E0,2.1481895E0,1.9242809E0,1.6907992E0,3.6267917E0,8.036437E-1,0E0,3.6203477E0,1.2894144E0,5.2033257E0,1.9278631E0,1.6185354E0,1.3762097E0,1.1808777E0,3.9890685E0,4.5589256E-1,7.069834E-1,1.5824189E0,0E0,5.910754E-1,3.2475986E0,0E0,0E0,0E0,0E0,0E0,0E0,0E0,0E0,0E0,0E0,0E0,0E0,0E0,0E0,0E0,0E0,0E0,0E0,0E0,0E0,0E0,0E0,0E0,0E0,0E0,0E0,0E0,0E0],"parents":[2147483647,0,0,1,1,2,2,3,3,4,4,5,5,6,6,7,7,8,8,9,9,10,10,11,11,12,12,13,13,14,14,15,15,17,17,18,18,19,19,20,20,21,21,22,22,23,23,24,24,25,25,26,26,27,27,29,29,30,30],"right_children":[2,4,6,8,10,12,14,16,18,20,22,24,26,28,30,32,-1,34,36,38,40,42,44,46,48,50,52,54,-1,56,58,-1,-1,-1,-1,-1,-1,-1,-1,-1,-1,-1,-1,-1,-1,-1,-1,-1,-1,-1,-1,-1,-1,-1,-1,-1,-1,-1,-1],"split_conditions":[1.5243949E-1,-2.09227E-1,3.8358064E0,2.6571444E-1,-3.5015157E-1,-1.6798408E-1,3.0711982E-1,-1.522E-2,-2.295796E-1,-1.310877E-1,-2.32E-2,-2.83E-3,-2.3126212E-1,-8.6E-3,-2.789158E-1,1.9824E-2,5.270416E-2,2.8602898E-1,1.3008602E-1,-2.0022954E-1,4.777139E-2,9.611E-3,2.3376226E-1,-1.899E-2,3.490424E-1,-2.356E-2,-9.1E-4,1.760668E-1,-2.2733761E-2,-2.265E-2,-2.2606383E-1,6.459969E-2,2.3790937E-2,-2.2961898E-2,2.610547E-2,2.8912058E-2,4.5064732E-2,-1.717992E-2,3.3553258E-2,2.2550566E-2,-4.379094E-2,-1.1284601E-2,1.6099514E-2,2.545859E-2,4.6826895E-2,-1.4043985E-2,-5.9500247E-2,2.2474272E-2,-5.587643E-2,2.5695236E-3,1.8130517E-2,3.4984425E-3,-1.9954706E-2,3.117356E-2,6.097293E-2,1.7149506E-2,8.070399E-3,-3.7867602E-2,3.4797154E-2],"split_indices":[0,16,24,3,20,15,3,9,16,15,8,9,16,8,16,11,0,3,0,16,0,11,3,9,3,7,11,0,0,7,16,0,0,0,0,0,0,0,0,0,0,0,0,0,0,0,0,0,0,0,0,0,0,0,0,0,0,0,0],"split_type":[0,0,0,0,0,0,0,0,0,0,0,0,0,0,0,0,0,0,0,0,0,0,0,0,0,0,0,0,0,0,0,0,0,0,0,0,0,0,0,0,0,0,0,0,0,0,0,0,0,0,0,0,0,0,0,0,0,0,0],"sum_hessian":[1.009E3,6.28E2,3.81E2,3.64E2,2.64E2,1.68E2,2.13E2,9.1E1,2.73E2,1.53E2,1.11E2,1.12E2,5.6E1,7.3E1,1.4E2,4E1,5.1E1,1.18E2,1.55E2,8E1,7.3E1,6.1E1,5E1,9.6E1,1.6E1,1.4E1,4.2E1,6.6E1,7E0,2.1E1,1.19E2,2.5E1,1.5E1,2.8E1,9E1,9.7E1,5.8E1,4.8E1,3.2E1,6E0,6.7E1,2.6E1,3.5E1,2.7E1,2.3E1,1.3E1,8.3E1,8E0,8E0,4E0,1E1,8E0,3.4E1,3.5E1,3.1E1,7E0,1.4E1,1.1E2,9E0],"tree_param":{"num_deleted":"0","num_feature":"28","num_nodes":"59","size_leaf_vector":"1"}},{"base_weights":[3.8761833E-1,4.5311424E-1,1.3657671E-1,3.101207E-1,5.325136E-1,5.304683E-1,6.794684E-2,4.4203448E-1,5.303648E-2,4.3284148E-1,7.439061E-1,1.3132146E-1,7.4972534E-1,4.7354856E-1,1.365949E-2,2.981076E-1,8.0175006E-1,4.494521E-1,7.408518E-3,-1.5973186E-3,4.8844397E-1,8.114962E-1,4.9270052E-1,-3.3185985E-3,1.9163387E-2,5.8586496E-1,6.441967E-2,1.4945352E-1,7.676824E-1,2.4379592E-1,-9.666961E-4,6.019697E-2,1.48506025E-2,5.982628E-2,3.0497057E-2,4.1781157E-2,1.347803E-2,2.2006081E-2,-1.6701858E-3,4.005868E-2,2.0259373E-2,5.7227775E-2,2.2006081E-2,4.2733032E-2,1.0140997E-2,5.3090043E-2,2.3674559E-2,2.3674559E-2,-3.3185985E-3,6.438649E-2,4.1781157E-2,-3.346384E-3,3.4262564E-2],"categories":[],"categories_nodes":[],"categories_segments":[],"categories_sizes":[],"default_left":[0,0,0,0,0,0,0,0,0,0,0,0,0,0,0,0,0,0,0,0,0,0,0,0,0,0,0,0,0,0,0,0,0,0,0,0,0,0,0,0,0,0,0,0,0,0,0,0,0,0,0,0,0],"id":17,"left_children":[1,3,5,7,9,11,13,15,17,19,21,23,25,27,29,31,33,35,37,-1,39,41,43,-1,-1,45,-1,47,49,51,-1,-1,-1,-1,-1,-1,-1,-1,-1,-1,-1,-1,-1,-1,-1,-1,-1,-1,-1,-1,-1,-1,-1],"loss_changes":[1.6603394E1,9.089615E0,5.646575E0,9.696407E0,1.08446045E1,2.7081785E0,3.9167314E0,9.779037E0,1.7520082E0,8.884125E0,2.794403E0,3.0083585E-1,6.4593315E-1,1.9968672E0,1.009545E0,6.295723E0,1.5135612E0,4.1266346E-1,8.8454E-1,0E0,6.03302E0,2.0140305E0,1.6425743E0,0E0,0E0,5.0614095E-1,0E0,3.9727533E-1,2.9429007E-1,1.3037858E0,0E0,0E0,0E0,0E0,0E0,0E0,0E0,0E0,0E0,0E0,0E0,0E0,0E0,0E0,0E0,0E0,0E0,0E0,0E0,0E0,0E0,0E0,0E0],"parents":[2147483647,0,0,1,1,2,2,3,3,4,4,5,5,6,6,7,7,8,8,9,9,10,10,11,11,12,12,13,13,14,14,15,15,16,16,17,17,18,18,20,20,21,21,22,22,25,25,27,27,28,28,29,29],"right_children":[2,4,6,8,10,12,14,16,18,20,22,24,26,28,30,32,34,36,38,-1,40,42,44,-1,-1,46,-1,48,50,52,-1,-1,-1,-1,-1,-1,-1,-1,-1,-1,-1,-1,-1,-1,-1,-1,-1,-1,-1,-1,-1,-1,-1],"split_conditions":[3.4333363E-1,1.8461439E-1,1.4755277E-1,2.6521865E-1,-2.6108736E-1,3.496036E-1,-2.789158E-1,2.414364E-1,9.090998E-2,2.7698648E-1,1.6122E-2,-2.102E-2,-7.94E-3,1.767E-2,2.4633212E-1,-1.8196931E-1,3.8382486E-1,2.3455E-2,-2.117E-2,-1.6521955E-3,1.5058103E-1,-8.6E-3,3.7888E-2,-2.4039296E-3,3.2680605E-2,-1.346E-2,7.695538E-2,-8.89E-3,-1.124E-2,1.7475057E-1,-2.509957E-3,8.971667E-2,6.0890805E-2,8.476301E-2,5.431862E-2,3.8549714E-2,3.1108202E-2,2.9470187E-2,-3.9556907E-3,6.415775E-2,5.4875374E-2,8.07737E-2,2.4434611E-2,8.447539E-2,8.6860165E-2,8.1460334E-2,2.0357722E-2,2.2454277E-2,-4.0087495E-3,3.929537E-2,5.3544685E-2,-3.5634118E-3,4.9331836E-2],"split_indices":[3,2,0,3,17,3,16,3,1,3,10,8,9,10,5,15,5,10,9,0,0,8,12,0,0,9,0,9,8,0,0,0,0,0,0,0,0,0,0,0,0,0,0,0,0,0,0,0,0,0,0,0,0],"split_type":[0,0,0,0,0,0,0,0,0,0,0,0,0,0,0,0,0,0,0,0,0,0,0,0,0,0,0,0,0,0,0,0,0,0,0,0,0,0,0,0,0,0,0,0,0,0,0,0,0,0,0,0,0],"sum_hessian":[1.01E3,8.01E2,2.09E2,2.86E2,5.15E2,3.1E1,1.78E2,1.89E2,9.7E1,3.5E2,1.65E2,1.1E1,2E1,2.1E1,1.57E2,1.35E2,5.4E1,1E1,8.7E1,3.8E1,3.12E2,1.3E2,3.5E1,5E0,6E0,1.1E1,9E0,1E1,1.1E1,1.7E1,1.4E2,1.6E1,1.19E2,4.4E1,1E1,6E0,4E0,8E0,7.9E1,2.03E2,1.09E2,1.22E2,8E0,2.5E1,1E1,6E0,5E0,5E0,5E0,5E0,6E0,8E0,9E0],"tree_param":{"num_deleted":"0","num_feature":"28","num_nodes":"53","size_leaf_vector":"1"}},{"base_weights":[-2.2644165E-1,-4.2765412E-1,-1.6850197E-1,-6.694452E-1,-2.8798965E-1,-8.4714495E-2,-3.444005E-1,-8.175662E-1,3.36623E-3,-4.9921855E-1,-7.668364E-2,-7.2277196E-2,-3.9972615E-1,-4.3615758E-1,-1.0706481E-1,-6.1792903E-2,-5.379127E-1,-1.0760722E-1,-6.4220214E-1,-4.2223696E-2,-3.0472273E-2,-1.4158404E-1,-3.8219236E-2,-4.7404554E-2,-3.2465795E-1,-1.4987856E-1,-5.30842E-1,-4.4954342E-1,-3.611277E-2,-6.4367816E-2,-2.789588E-2,3.3618198E-3,-2.5634453E-2,-5.182852E-2,-4.105456E-3,3.3807417E-3,-8.570612E-3,-1.9960742E-2,-3.6452496E-3,9.814887E-4,-6.1284876E-3,3.3185978E-3,-3.3584688E-2,-4.7404554E-2,-6.5280995E-3,-2.9250465E-2,-5.9925128E-2,-4.7451124E-2,3.3000743E-3,7.7580696E-4,-3.0472273E-2],"categories":[],"categories_nodes":[],"categories_segments":[],"categories_sizes":[],"default_left":[0,0,0,0,0,0,0,0,0,0,0,0,0,0,0,0,0,0,0,0,0,0,0,0,0,0,0,0,0,0,0,0,0,0,0,0,0,0,0,0,0,0,0,0,0,0,0,0,0,0,0],"id":18,"left_children":[1,3,5,7,9,11,13,15,-1,17,19,21,23,25,27,-1,29,31,33,35,-1,37,39,-1,41,43,45,47,49,-1,-1,-1,-1,-1,-1,-1,-1,-1,-1,-1,-1,-1,-1,-1,-1,-1,-1,-1,-1,-1,-1],"loss_changes":[1.1678246E1,7.559166E0,1.1463892E1,8.737789E0,6.334877E0,2.062153E0,5.4631176E0,1.7626991E0,0E0,3.9714794E0,9.08461E-1,1.1957669E0,4.431653E-1,4.902504E0,1.698319E0,0E0,8.77862E-1,8.0852866E-1,3.674406E0,5.035136E-1,0E0,2.2370253E0,9.336528E-1,0E0,1.020321E0,1.3209786E0,4.7727776E0,1.4967203E0,1.1412414E0,0E0,0E0,0E0,0E0,0E0,0E0,0E0,0E0,0E0,0E0,0E0,0E0,0E0,0E0,0E0,0E0,0E0,0E0,0E0,0E0,0E0,0E0],"parents":[2147483647,0,0,1,1,2,2,3,3,4,4,5,5,6,6,7,7,9,9,10,10,11,11,12,12,13,13,14,14,16,16,17,17,18,18,19,19,21,21,22,22,24,24,25,25,26,26,27,27,28,28],"right_children":[2,4,6,8,10,12,14,16,-1,18,20,22,24,26,28,-1,30,32,34,36,-1,38,40,-1,42,44,46,48,50,-1,-1,-1,-1,-1,-1,-1,-1,-1,-1,-1,-1,-1,-1,-1,-1,-1,-1,-1,-1,-1,-1],"split_conditions":[-2.0751451E-1,-2.576301E-1,-2.1461171E-1,-2.6788965E-1,4.368935E-1,2.6197377E-1,3.7617475E-1,2.8232E-2,4.9044784E-2,1.9288668E-1,4.798469E-1,3.0935174E-1,3.111E-3,4.1510355E-1,-1.8024148E-1,-1.2752897E-1,2.1722971E-1,-2.1238714E-1,2.284335E-1,3.5178536E-1,-1.5124392E-2,-2.5201258E-1,3.7266183E-1,-6.389661E-2,2.0166E-2,-2.049149E-1,3.1216457E-1,1.6272E-2,4.5937917E-1,-9.9342816E-2,-9.2403196E-2,1.5225081E-3,-1.1274247E-2,-9.632258E-2,-1.6744224E-2,1.1421749E-2,-6.863737E-2,-5.973226E-2,-1.6460882E-2,1.7422648E-3,-3.645976E-2,2.3500903E-3,-7.910371E-2,-4.922196E-2,-6.636984E-2,-6.647914E-2,-9.228727E-2,-5.6739375E-2,7.0394E-3,-1.5164494E-2,-1.9634323E-2],"split_indices":[14,18,18,17,6,2,5,10,0,2,5,4,10,6,18,0,2,14,4,5,0,18,5,0,10,14,5,10,5,0,0,0,0,0,0,0,0,0,0,0,0,0,0,0,0,0,0,0,0,0,0],"split_type":[0,0,0,0,0,0,0,0,0,0,0,0,0,0,0,0,0,0,0,0,0,0,0,0,0,0,0,0,0,0,0,0,0,0,0,0,0,0,0,0,0,0,0,0,0,0,0,0,0,0,0],"sum_hessian":[1.002E3,2.24E2,7.78E2,8.2E1,1.42E2,5.27E2,2.51E2,6.8E1,1.4E1,7.1E1,7.1E1,5.07E2,2E1,1.81E2,7E1,5.1E1,1.7E1,1.9E1,5.2E1,6.5E1,6E0,1.67E2,3.4E2,4E0,1.6E1,4.5E1,1.36E2,1.2E1,5.8E1,4E0,1.3E1,1.2E1,7E0,4.3E1,9E0,3.1E1,3.4E1,6.1E1,1.06E2,1.69E2,1.71E2,5E0,1.1E1,4E0,4.1E1,1.06E2,3E1,8E0,4E0,5.2E1,6E0],"tree_param":{"num_deleted":"0","num_feature":"28","num_nodes":"51","size_leaf_vector":"1"}},{"base_weights":[5.0444096E-2,2.0368925E-1,-4.252735E-2,2.579093E-1,-4.0304914E-1,-8.822422E-2,1.307272E-1,-2.6880997E-1,2.7842674E-1,-1.3533674E-2,-3.3909217E-2,-1.4587687E-1,5.7103854E-2,-2.4972653E-1,1.999503E-1,-0E0,-3.3873793E-2,-1.8715835E-1,3.0186957E-1,-1.8336844E-1,2.0572154E-1,1.8228863E-1,-1.362643E-1,2.2556052E-2,-3.390036E-2,3.0336106E-2,1.482916E-1,-0E0,-2.0319028E-2,1.7975738E-2,2.9870402E-2,-1.938492E-2,-1.3761321E-3,8.782139E-3,3.3873793E-2,-2.6346324E-2,1.695858E-2,1.605112E-2,-2.2607634E-2,1.4535293E-2,-1.4513611E-2],"categories":[],"categories_nodes":[],"categories_segments":[],"categories_sizes":[],"default_left":[0,0,0,0,0,0,0,0,0,0,0,0,0,0,0,0,0,0,0,0,0,0,0,0,0,0,0,0,0,0,0,0,0,0,0,0,0,0,0,0,0],"id":19,"left_children":[1,3,5,7,9,11,13,15,17,-1,-1,19,21,23,25,-1,-1,27,29,31,33,35,37,-1,-1,-1,39,-1,-1,-1,-1,-1,-1,-1,-1,-1,-1,-1,-1,-1,-1],"loss_changes":[1.426255E1,1.243443E1,4.932178E0,3.7500591E0,6.064358E-1,4.13111E0,3.4234357E0,8.0516696E-1,3.6461182E0,0E0,0E0,4.653119E0,3.3891983E0,2.9102907E0,1.4010525E0,0E0,0E0,3.3627057E-1,1.6217918E0,5.321415E0,7.5789595E-1,3.2796524E0,4.0383224E0,0E0,0E0,0E0,2.1727643E0,0E0,0E0,0E0,0E0,0E0,0E0,0E0,0E0,0E0,0E0,0E0,0E0,0E0,0E0],"parents":[2147483647,0,0,1,1,2,2,3,3,4,4,5,5,6,6,7,7,8,8,11,11,12,12,13,13,14,14,17,17,18,18,19,19,20,20,21,21,22,22,26,26],"right_children":[2,4,6,8,10,12,14,16,18,-1,-1,20,22,24,26,-1,-1,28,30,32,34,36,38,-1,-1,-1,40,-1,-1,-1,-1,-1,-1,-1,-1,-1,-1,-1,-1,-1,-1],"split_conditions":[-2.8323647E-1,2.021734E-1,4.5841E-2,1.5221399E-1,4.370597E-1,-3.4605268E-1,-2.173863E-1,1.5852E-2,-3.6130226E-1,-2.8727569E-2,-6.495042E-2,2.767939E-1,3.618658E-1,2.1771E-2,-2.5038946E-1,2.3172821E-3,-1.1995058E-2,-1.266E-2,-2.8018022E-1,3.835738E-1,2.881E-2,-2.816359E-1,1.3281944E-1,1.6873838E-2,-3.1548105E-2,4.5382492E-2,5.0769E-2,9.303037E-3,-1.4941973E-2,2.7198138E-2,5.4007687E-2,-3.4715228E-2,-2.5437688E-3,6.648613E-3,2.8969264E-2,-1.0194812E-2,3.274936E-2,4.0144697E-2,-3.8685087E-2,3.8256705E-2,-8.888987E-3],"split_indices":[18,0,13,2,6,20,14,10,18,0,0,0,5,12,18,0,0,9,19,5,10,18,1,0,0,0,13,0,0,0,0,0,0,0,0,0,0,0,0,0,0],"split_type":[0,0,0,0,0,0,0,0,0,0,0,0,0,0,0,0,0,0,0,0,0,0,0,0,0,0,0,0,0,0,0,0,0,0,0,0,0,0,0,0,0],"sum_hessian":[1.001E3,3.78E2,6.23E2,3.47E2,3.1E1,4.93E2,1.3E2,1.3E1,3.34E2,1E1,2.1E1,3.53E2,1.4E2,2E1,1.1E2,6E0,7E0,1.6E1,3.18E2,3.19E2,3.4E1,8.5E1,5.5E1,6E0,1.4E1,1.9E1,9.1E1,6E0,1E1,2.51E2,6.7E1,1.96E2,1.23E2,2.7E1,7E0,9E0,7.6E1,1.9E1,3.6E1,7.7E1,1.4E1],"tree_param":{"num_deleted":"0","num_feature":"28","num_nodes":"41","size_leaf_vector":"1"}},{"base_weights":[3.5098466E-1,5.2782196E-1,2.4476153E-1,6.16647E-1,2.7994528E-1,4.860542E-1,1.376305E-1,2.7417645E-1,6.6898555E-1,1.777789E-1,6.640243E-1,7.8041536E-1,3.5736683E-1,5.56947E-1,1.0891084E-1,6.438649E-2,1.6857919E-1,7.339167E-1,5.374315E-1,-3.3784444E-3,2.895194E-1,4.9495625E-1,5.7638466E-2,8.5185295E-1,2.2006081E-2,6.4432435E-2,2.9421744E-1,-3.3515296E-3,8.444475E-1,4.9624685E-2,2.3901977E-1,2.6723288E-2,5.4416973E-3,3.6758114E-2,5.545071E-2,3.4993406E-2,6.4367816E-2,3.7294813E-2,1.2668195E-2,6.4367816E-2,1.5941111E-2,6.444783E-2,4.969412E-2,3.4297E-2,8.576064E-3,4.502114E-2,6.443004E-2,2.171996E-3,1.5591543E-2,5.932579E-3,3.335373E-2],"categories":[],"categories_nodes":[],"categories_segments":[],"categories_sizes":[],"default_left":[0,0,0,0,0,0,0,0,0,0,0,0,0,0,0,0,0,0,0,0,0,0,0,0,0,0,0,0,0,0,0,0,0,0,0,0,0,0,0,0,0,0,0,0,0,0,0,0,0,0,0],"id":20,"left_children":[1,3,5,7,9,11,13,15,17,19,21,23,25,27,29,-1,31,33,35,-1,37,39,-1,41,-1,-1,43,-1,45,47,49,-1,-1,-1,-1,-1,-1,-1,-1,-1,-1,-1,-1,-1,-1,-1,-1,-1,-1,-1,-1],"loss_changes":[1.896782E1,8.33979E0,1.6307896E1,4.995758E0,3.9193983E0,7.3426094E0,5.258993E0,2.6301067E0,2.0602036E0,2.010175E0,6.509867E-1,1.9159431E0,5.041891E0,4.885397E0,3.1533113E0,0E0,6.344879E-1,2.585846E0,7.0628166E-1,0E0,1.4134803E0,1.291142E0,0E0,5.8766174E-1,0E0,0E0,4.321603E0,0E0,3.5247803E-1,8.9030117E-1,4.8968E0,0E0,0E0,0E0,0E0,0E0,0E0,0E0,0E0,0E0,0E0,0E0,0E0,0E0,0E0,0E0,0E0,0E0,0E0,0E0,0E0],"parents":[2147483647,0,0,1,1,2,2,3,3,4,4,5,5,6,6,7,7,8,8,9,9,10,10,11,11,12,12,13,13,14,14,16,16,17,17,18,18,20,20,21,21,23,23,26,26,28,28,29,29,30,30],"right_children":[2,4,6,8,10,12,14,16,18,20,22,24,26,28,30,-1,32,34,36,-1,38,40,-1,42,-1,-1,44,-1,46,48,50,-1,-1,-1,-1,-1,-1,-1,-1,-1,-1,-1,-1,-1,-1,-1,-1,-1,-1,-1,-1],"split_conditions":[-2.8323647E-1,1.8306829E-1,2.6376283E-1,1.22513585E-1,-2.2696872E-1,-2.1771729E-1,7.63E-1,7.170483E-2,3.09931E-1,4.140645E0,2.334E-2,1.4739266E-1,-1.7835133E-1,1.5881576E-1,2.7156064E-1,5.969108E-2,-3.3923343E-1,2.4011147E-1,-3.319E-1,-7.655537E-3,-1.266E-2,-1.294E-2,9.765594E-2,3.9751613E0,2.7824147E-2,6.976262E-2,1.1632282E-1,-6.1468483E-4,1.2414E-2,-3.3338675E-1,4.140645E0,4.815592E-2,2.2955313E-2,6.2518634E-2,7.820641E-2,4.2471204E-2,7.173363E-2,4.540883E-2,5.755573E-2,2.6671136E-2,5.830071E-2,7.753514E-2,6.03522E-2,7.1676716E-2,5.4896906E-2,3.714517E-2,9.617802E-2,6.6601783E-3,5.9861086E-2,3.3865914E-2,6.644465E-2],"split_indices":[18,1,3,1,16,16,23,1,3,24,11,1,15,1,4,0,18,3,20,0,9,8,0,24,0,0,1,0,11,20,24,0,0,0,0,0,0,0,0,0,0,0,0,0,0,0,0,0,0,0,0],"split_type":[0,0,0,0,0,0,0,0,0,0,0,0,0,0,0,0,0,0,0,0,0,0,0,0,0,0,0,0,0,0,0,0,0,0,0,0,0,0,0,0,0,0,0,0,0,0,0,0,0,0,0],"sum_hessian":[1.01E3,3.79E2,6.31E2,2.79E2,1E2,1.94E2,4.37E2,3.7E1,2.42E2,7.9E1,2.1E1,5.9E1,1.35E2,2.8E1,4.09E2,5E0,3.2E1,1.62E2,8E1,2.6E1,5.3E1,1.1E1,1E1,5.1E1,8E0,1.3E1,1.22E2,9E0,1.9E1,2.81E2,1.28E2,9E0,2.3E1,4.9E1,1.13E2,7.6E1,4E0,1.5E1,3.8E1,4E0,7E0,2.8E1,2.3E1,5.4E1,6.8E1,7E0,1.2E1,2.56E2,2.5E1,8E1,4.8E1],"tree_param":{"num_deleted":"0","num_feature":"28","num_nodes":"51","size_leaf_vector":"1"}},{"base_weights":[-2.1393877E-1,-1.518896E-1,-3.8606963E-1,-7.319207E-2,-3.0455986E-1,-4.9819553E-1,-6.586289E-2,-1.2165037E-1,-2.8718663E-2,-2.0665525E-1,-5.905393E-1,-7.7486265E-1,-4.2767212E-1,-1.3405424E-2,-4.1781157E-2,-9.929655E-2,-5.3287643E-1,-1.497814E-1,-1.54783465E-2,-7.760148E-2,-3.3703792E-1,-3.3069175E-1,-7.173141E-1,-6.6978043E-1,-6.4436264E-2,-7.703719E-1,-3.143604E-1,-4.7404554E-2,2.236349E-3,-5.5253226E-3,-3.8969442E-2,-6.4367816E-2,-2.2006081E-2,-2.0814305E-2,3.359013E-3,-3.3896053E-3,1.5217573E-3,-2.1019842E-2,4.37158E-4,-3.051938E-3,-2.8644241E-2,3.3185978E-3,-3.0510997E-2,-5.1951956E-2,-2.367456E-2,-5.246502E-2,-3.0487763E-2,-5.766334E-2,-3.4262564E-2,-3.2603804E-2,-1.3319546E-2],"categories":[],"categories_nodes":[],"categories_segments":[],"categories_sizes":[],"default_left":[0,0,0,0,0,0,0,0,0,0,0,0,0,0,0,0,0,0,0,0,0,0,0,0,0,0,0,0,0,0,0,0,0,0,0,0,0,0,0,0,0,0,0,0,0,0,0,0,0,0,0],"id":21,"left_children":[1,3,5,7,9,11,13,15,17,19,21,23,25,27,-1,29,31,33,35,37,39,41,43,45,-1,47,49,-1,-1,-1,-1,-1,-1,-1,-1,-1,-1,-1,-1,-1,-1,-1,-1,-1,-1,-1,-1,-1,-1,-1,-1],"loss_changes":[1.072036E1,8.864843E0,9.547241E0,1.0487158E0,7.0233192E0,3.8371925E0,1.9869273E0,2.1383944E0,4.0623698E-1,3.1442676E0,2.1025677E0,7.2574234E-1,6.0906773E0,2.005111E0,0E0,1.8720562E0,1.0335455E0,7.834534E-1,2.9941443E-1,1.8359098E0,2.309124E0,9.505377E-1,7.5954247E-1,5.6335735E-1,0E0,8.149643E-1,2.3108683E0,0E0,0E0,0E0,0E0,0E0,0E0,0E0,0E0,0E0,0E0,0E0,0E0,0E0,0E0,0E0,0E0,0E0,0E0,0E0,0E0,0E0,0E0,0E0,0E0],"parents":[2147483647,0,0,1,1,2,2,3,3,4,4,5,5,6,6,7,7,8,8,9,9,10,10,11,11,12,12,13,13,15,15,16,16,17,17,18,18,19,19,20,20,21,21,22,22,23,23,25,25,26,26],"right_children":[2,4,6,8,10,12,14,16,18,20,22,24,26,28,-1,30,32,34,36,38,40,42,44,46,-1,48,50,-1,-1,-1,-1,-1,-1,-1,-1,-1,-1,-1,-1,-1,-1,-1,-1,-1,-1,-1,-1,-1,-1,-1,-1],"split_conditions":[1.7074808E-1,-2.1461171E-1,-3.1270656E-1,-1.7061515E-1,-1.310877E-1,1.9817807E-1,2.5509E-2,-1.7184967E-1,-2.9279983E-1,1.6047725E-1,-1.8267296E-1,-9.4E-5,-3.835173E-1,1.7177632E-1,-1.214604E-1,2.8232E-2,-2.8E-3,-1.223E-2,1.2723E-2,2.7692232E-2,-3.6709046E-1,2.2487572E-1,2.3503E-2,2.2502E-2,-1.1312841E-1,2.8232E-2,1.6108E-2,-4.2707685E-2,1.0180576E-2,-3.63979E-2,-9.260205E-2,-1.184467E-2,-1.1127743E-2,-5.6467526E-2,2.1299519E-2,-2.5134837E-2,3.3540735E-3,-4.5938022E-2,2.4978325E-4,-1.8265756E-2,-7.513197E-2,9.0529956E-4,-2.8605396E-2,-8.443178E-2,-3.0935362E-2,-8.462985E-2,-8.598689E-2,-8.953497E-2,-9.656829E-2,-1.00210644E-1,-8.314559E-2],"split_indices":[0,18,19,15,15,4,11,15,17,4,18,11,20,0,0,10,10,9,10,4,20,4,10,10,0,10,10,0,0,0,0,0,0,0,0,0,0,0,0,0,0,0,0,0,0,0,0,0,0,0,0],"split_type":[0,0,0,0,0,0,0,0,0,0,0,0,0,0,0,0,0,0,0,0,0,0,0,0,0,0,0,0,0,0,0,0,0,0,0,0,0,0,0,0,0,0,0,0,0,0,0,0,0,0,0],"sum_hessian":[1.004E3,7.38E2,2.66E2,4.87E2,2.51E2,1.97E2,6.9E1,2.33E2,2.54E2,1.87E2,6.4E1,4E1,1.57E2,6.3E1,6E0,2.21E2,1.2E1,2.5E1,2.29E2,9.4E1,9.3E1,2.1E1,4.3E1,2.5E1,1.5E1,3.9E1,1.18E2,4E0,5.9E1,2.13E2,8E0,4E0,8E0,1.4E1,1.1E1,1.2E2,1.09E2,2.5E1,6.9E1,2.1E1,7.2E1,5E0,1.6E1,3.8E1,5E0,1.7E1,8E0,3E1,9E0,4.9E1,6.9E1],"tree_param":{"num_deleted":"0","num_feature":"28","num_nodes":"51","size_leaf_vector":"1"}},{"base_weights":[5.543697E-2,2.1772724E-1,-4.3362588E-2,-3.516491E-1,2.62303E-1,-1.0117964E-1,2.2892086E-1,-9.945377E-2,-3.3905048E-2,1.1866573E-1,3.5919672E-1,-4.522505E-1,-6.925225E-2,2.777225E-1,-2.5398755E-2,-3.3833947E-2,1.1247167E-2,-1.9541448E-1,1.8098736E-1,4.1768685E-1,1.665528E-1,-3.3916596E-2,-1.1247167E-2,-3.7722975E-2,-2.8560262E-2,1.4272703E-1,3.7709692E-1,1.6870683E-2,-1.9622367E-2,-1.5387598E-2,1.5182805E-2,3.1165617E-2,1.8406868E-2,3.3893116E-2,4.574705E-3,3.390036E-2,-3.805532E-3,1.6953154E-2,-3.3864938E-2,3.39141E-2,1.6950209E-2],"categories":[],"categories_nodes":[],"categories_segments":[],"categories_sizes":[],"default_left":[0,0,0,0,0,0,0,0,0,0,0,0,0,0,0,0,0,0,0,0,0,0,0,0,0,0,0,0,0,0,0,0,0,0,0,0,0,0,0,0,0],"id":22,"left_children":[1,3,5,7,9,11,13,15,-1,17,19,21,23,25,-1,-1,-1,27,29,31,33,-1,-1,35,-1,37,39,-1,-1,-1,-1,-1,-1,-1,-1,-1,-1,-1,-1,-1,-1],"loss_changes":[1.5762576E1,9.441019E0,9.61805E0,1.0046954E0,4.7989464E0,5.646375E0,3.149446E0,1.0604781E0,0E0,2.7207088E0,2.3179703E0,5.690918E-1,5.119907E0,1.3252554E0,0E0,0E0,0E0,9.5792025E-1,2.0230336E0,9.587803E-1,1.5812019E0,0E0,0E0,4.1808023E0,0E0,2.8862212E0,8.862753E-1,0E0,0E0,0E0,0E0,0E0,0E0,0E0,0E0,0E0,0E0,0E0,0E0,0E0,0E0],"parents":[2147483647,0,0,1,1,2,2,3,3,4,4,5,5,6,6,7,7,9,9,10,10,11,11,12,12,13,13,17,17,18,18,19,19,20,20,23,23,25,25,26,26],"right_children":[2,4,6,8,10,12,14,16,-1,18,20,22,24,26,-1,-1,-1,28,30,32,34,-1,-1,36,-1,38,40,-1,-1,-1,-1,-1,-1,-1,-1,-1,-1,-1,-1,-1,-1],"split_conditions":[-2.8323647E-1,-3.1367922E-1,-2.3459087E-1,4.370597E-1,-2.790567E-1,-3.7758952E-1,-1.6938303E-1,-2.458E-2,-5.906041E-2,-3.478119E-1,-1.590866E-1,-1.469619E-1,-1.1646121E-1,2.3521E-2,-3.1690825E-2,-5.908785E-2,4.46004E-3,1.7613E-2,1.7534E-2,4.412315E-1,2.0131E-2,-4.9726702E-2,-1.5438722E-2,-3.585E-2,-5.3496897E-2,2.0089E-2,-1.5352249E-1,1.8641762E-2,-1.7320795E-2,-8.660527E-3,2.1178963E-2,4.667903E-2,2.4628872E-2,4.8012845E-2,5.164155E-3,6.304389E-2,-6.497935E-3,5.190421E-2,-3.1378176E-2,4.6692103E-2,2.3398338E-2],"split_indices":[18,17,17,6,17,19,19,7,0,18,15,15,15,12,0,0,0,12,12,6,12,0,0,7,0,12,14,0,0,0,0,0,0,0,0,0,0,0,0,0,0],"split_type":[0,0,0,0,0,0,0,0,0,0,0,0,0,0,0,0,0,0,0,0,0,0,0,0,0,0,0,0,0,0,0,0,0,0,0,0,0,0,0,0,0],"sum_hessian":[9.83E2,3.72E2,6.11E2,2.7E1,3.45E2,5.04E2,1.07E2,1E1,1.7E1,1.39E2,2.06E2,4.2E1,4.62E2,9.9E1,8E0,4E0,6E0,2.3E1,1.16E2,1.58E2,4.8E1,3.6E1,6E0,4.24E2,3.8E1,4.2E1,5.7E1,4E0,1.9E1,1.1E1,1.05E2,1.23E2,3.5E1,1.1E1,3.7E1,1.4E1,4.1E2,3.6E1,6E0,2.9E1,2.8E1],"tree_param":{"num_deleted":"0","num_feature":"28","num_nodes":"41","size_leaf_vector":"1"}},{"base_weights":[3.183114E-1,1.7220981E-1,4.3153694E-1,6.443782E-2,1.429283E-1,4.9640194E-1,1.0783722E-1,1.2148438E-1,6.442721E-2,3.205911E-1,5.723399E-1,-2.105443E-3,2.8320307E-1,5.5932805E-2,1.07622E-1,1.7070822E-1,4.953715E-1,4.3480697E-1,6.6354024E-1,7.676824E-1,1.1111409E-1,-8.286768E-4,1.0176841E-2,1.6489105E-2,-3.3731947E-3,1.5976451E-2,4.1834936E-2,2.5355792E-2,6.443449E-2,4.6960045E-2,4.1054557E-3,3.0441293E-2,6.440782E-2,1.5907119E-4,1.9194322E-2],"categories":[],"categories_nodes":[],"categories_segments":[],"categories_sizes":[],"default_left":[0,0,0,0,0,0,0,0,0,0,0,0,0,0,0,0,0,0,0,0,0,0,0,0,0,0,0,0,0,0,0,0,0,0,0],"id":23,"left_children":[1,3,5,-1,7,9,11,13,-1,15,17,-1,19,-1,21,23,25,27,29,31,33,-1,-1,-1,-1,-1,-1,-1,-1,-1,-1,-1,-1,-1,-1],"loss_changes":[1.6704552E1,1.0033307E1,1.1943871E1,0E0,7.3449783E0,6.3233566E0,2.314857E0,4.0284595E0,0E0,3.7424755E0,4.1457367E0,0E0,3.4968922E0,0E0,2.061677E0,1.2281771E0,2.0740166E0,4.1463966E0,3.4203491E0,6.2945175E-1,5.776066E-1,0E0,0E0,0E0,0E0,0E0,0E0,0E0,0E0,0E0,0E0,0E0,0E0,0E0,0E0],"parents":[2147483647,0,0,1,1,2,2,4,4,5,5,6,6,7,7,9,9,10,10,12,12,14,14,15,15,16,16,17,17,18,18,19,19,20,20],"right_children":[2,4,6,-1,8,10,12,14,-1,16,18,-1,20,-1,22,24,26,28,30,32,34,-1,-1,-1,-1,-1,-1,-1,-1,-1,-1,-1,-1,-1,-1],"split_conditions":[2.7156064E-1,5.528387E0,-7.41E-3,7.3811814E-2,-1.0291468E-1,-2.8697082E-1,-1.8448074E-1,-3.479E-2,6.760692E-2,-3.4196416E-1,3.2738742E-1,-1.3816409E-3,-1.9565468E-1,6.502898E-2,-2.9449463E-1,4.370597E-1,-1.9336782E-1,-1.7737485E-1,-1.16107404E-1,-2.3E-4,4.2777768E-1,-1.3476599E-3,4.658068E-2,3.385926E-2,-2.9522919E-3,4.471543E-2,5.8338787E-2,6.43362E-2,7.9386875E-2,6.5832704E-2,4.85458E-3,2.9051315E-2,5.4600436E-2,1.4782263E-2,7.0796624E-2],"split_indices":[4,26,7,0,17,17,14,8,0,19,4,0,15,0,17,6,14,17,14,10,6,0,0,0,0,0,0,0,0,0,0,0,0,0,0],"split_type":[0,0,0,0,0,0,0,0,0,0,0,0,0,0,0,0,0,0,0,0,0,0,0,0,0,0,0,0,0,0,0,0,0,0,0],"sum_hessian":[1.01E3,4.41E2,5.69E2,1.6E1,4.25E2,4.74E2,9.5E1,4.14E2,1.1E1,1.43E2,3.31E2,5.3E1,4.2E1,8E0,4.06E2,7.7E1,6.6E1,1.32E2,1.99E2,1.1E1,3.1E1,1.06E2,3E2,5.8E1,1.9E1,2.1E1,4.5E1,1.18E2,1.4E1,1.9E2,9E0,4E0,7E0,1.9E1,1.2E1],"tree_param":{"num_deleted":"0","num_feature":"28","num_nodes":"35","size_leaf_vector":"1"}},{"base_weights":[-1.8968028E-1,-3.6045644E-1,-1.4010714E-1,-4.360029E-1,-8.989076E-2,-5.473229E-2,-2.9273686E-1,-2.518352E-1,-7.033494E-1,-3.8767565E-2,-3.7245203E-2,-4.9590714E-2,-4.7404554E-2,-1.3994536E-1,-3.7619957E-1,-4.7925058E-1,-1.4436854E-1,-1.9163387E-2,-7.409628E-1,-0E0,-2.367456E-2,-7.893983E-3,-9.401044E-2,-9.8878056E-2,-5.3090043E-2,-4.8631382E-1,-2.1019907E-1,-6.438649E-2,-2.701174E-2,-1.860393E-2,-4.7408915E-4,-4.0018883E-2,-5.637444E-2,-1.3547585E-2,3.1959516E-4,-3.0497057E-2,-5.342264E-3,-1.7800039E-2,-9.790016E-4,-5.4007765E-2,-2.649089E-2,-5.3993423E-2,-5.648311E-3],"categories":[],"categories_nodes":[],"categories_segments":[],"categories_sizes":[],"default_left":[0,0,0,0,0,0,0,0,0,0,0,0,0,0,0,0,0,0,0,0,0,0,0,0,0,0,0,0,0,0,0,0,0,0,0,0,0,0,0,0,0,0,0],"id":24,"left_children":[1,3,5,7,9,11,13,15,17,19,-1,21,-1,23,25,27,29,-1,31,-1,-1,33,35,37,-1,39,41,-1,-1,-1,-1,-1,-1,-1,-1,-1,-1,-1,-1,-1,-1,-1,-1],"loss_changes":[8.615566E0,4.6779537E0,1.0279354E1,8.808136E0,1.170102E0,1.671096E0,3.6061115E0,2.5871892E0,1.1501808E0,5.4104817E-1,0E0,9.292269E-1,0E0,2.6336474E0,3.3412552E0,1.2886567E0,1.2824582E0,0E0,9.0242004E-1,0E0,0E0,6.270682E-1,1.3167572E0,1.2960128E0,0E0,3.2598782E0,5.4218225E0,0E0,0E0,0E0,0E0,0E0,0E0,0E0,0E0,0E0,0E0,0E0,0E0,0E0,0E0,0E0,0E0],"parents":[2147483647,0,0,1,1,2,2,3,3,4,4,5,5,6,6,7,7,8,8,9,9,11,11,13,13,14,14,15,15,16,16,18,18,21,21,22,22,23,23,25,25,26,26],"right_children":[2,4,6,8,10,12,14,16,18,20,-1,22,-1,24,26,28,30,-1,32,-1,-1,34,36,38,-1,40,42,-1,-1,-1,-1,-1,-1,-1,-1,-1,-1,-1,-1,-1,-1,-1,-1],"split_conditions":[-2.0751451E-1,-2.6426825E-1,-2.1771951E-1,-2.2582856E-1,-1.219E-2,4.5447433E-1,-3.0834424E-1,-2.576301E-1,-3.079E-2,1.767E-2,-5.708687E-2,-1.5164265E-1,-9.001577E-2,1.8338333E-1,1.04873694E-1,1.1249E-2,-3.2489094E-1,-4.3615445E-2,-2.469E-2,-3.2032385E-2,-8.709014E-2,-3.6130226E-1,-1.4695632E-1,-1.8024148E-1,-6.281802E-2,-1.3730647E-1,-2.6274377E-1,-9.520516E-2,-8.030525E-2,-5.1403563E-2,-2.0306872E-2,-1.0061972E-1,-1.1219147E-1,-5.867066E-2,1.4280569E-3,-3.7310377E-2,-2.1989053E-2,-7.2343245E-2,-2.3028508E-2,-8.3214E-2,-3.2371417E-2,-7.0926435E-2,-1.8410612E-2],"split_indices":[14,17,18,14,8,6,19,18,8,10,0,14,0,0,0,10,19,0,7,0,0,18,14,18,0,14,19,0,0,0,0,0,0,0,0,0,0,0,0,0,0,0,0],"split_type":[0,0,0,0,0,0,0,0,0,0,0,0,0,0,0,0,0,0,0,0,0,0,0,0,0,0,0,0,0,0,0,0,0,0,0,0,0,0,0,0,0,0,0],"sum_hessian":[1.018E3,2.29E2,7.89E2,1.79E2,5E1,5.06E2,2.83E2,1.06E2,7.3E1,4.5E1,5E0,5.02E2,4E0,1E2,1.83E2,3.4E1,7.2E1,6E0,6.7E1,4E1,5E0,2.59E2,2.43E2,9.4E1,6E0,1.1E2,7.3E1,5E0,2.9E1,3.7E1,3.5E1,2.5E1,4.2E1,1.6E1,2.43E2,1E1,2.33E2,3.2E1,6.2E1,2.6E1,8.4E1,1.3E1,6E1],"tree_param":{"num_deleted":"0","num_feature":"28","num_nodes":"43","size_leaf_vector":"1"}},{"base_weights":[4.061639E-2,-6.281332E-2,1.8508302E-1,1.5300547E-1,-1.0661395E-1,3.185117E-1,-3.4997076E-2,-3.0500837E-2,3.3662298E-1,2.997811E-1,-1.2880903E-1,4.210046E-1,2.3789331E-1,-1.18278906E-1,3.8440478E-1,2.305589E-1,-3.25849E-1,3.391315E-2,1.3611527E-1,3.3898316E-2,8.287821E-2,-2.638509E-1,-6.686159E-2,3.2010313E-2,3.37082E-1,2.7095062E-1,-7.103851E-2,2.1098961E-1,-2.9063407E-1,1.24317065E-1,3.3906262E-2,2.4215829E-2,-2.02819E-2,-3.3898316E-2,-6.7483215E-3,3.3880435E-2,-4.8202365E-3,2.2556052E-2,-1.1247167E-2,-2.2169791E-2,1.39480885E-2,-1.2243618E-2,4.443042E-3,3.7284927E-3,2.792889E-2,2.0698028E-2,-2.5812683E-3,8.435392E-3,-2.2556052E-2,8.176475E-3,2.5421973E-2,-3.2262884E-2,-8.285011E-3,3.3833947E-2,-1.6870683E-2],"categories":[],"categories_nodes":[],"categories_segments":[],"categories_sizes":[],"default_left":[0,0,0,0,0,0,0,0,0,0,0,0,0,0,0,0,0,0,0,0,0,0,0,0,0,0,0,0,0,0,0,0,0,0,0,0,0,0,0,0,0,0,0,0,0,0,0,0,0,0,0,0,0,0,0],"id":25,"left_children":[1,3,5,7,9,11,13,15,17,19,21,23,25,27,29,31,33,-1,35,-1,37,39,41,-1,43,45,47,49,51,53,-1,-1,-1,-1,-1,-1,-1,-1,-1,-1,-1,-1,-1,-1,-1,-1,-1,-1,-1,-1,-1,-1,-1,-1,-1],"loss_changes":[1.4897983E1,5.4919405E0,1.2217386E1,3.3037798E0,4.3557153E0,2.1364708E0,5.4823346E0,3.7785993E0,1.5996923E0,1.0802362E0,3.8295927E0,4.811058E-1,1.4818974E0,7.434838E0,7.7622104E-1,1.7393005E0,9.013548E-1,0E0,1.6575822E0,0E0,7.4545324E-1,4.2508993E0,4.720437E0,0E0,9.0152884E-1,1.3812618E0,7.1601576E-1,6.63749E-1,2.6758113E0,1.118175E0,0E0,0E0,0E0,0E0,0E0,0E0,0E0,0E0,0E0,0E0,0E0,0E0,0E0,0E0,0E0,0E0,0E0,0E0,0E0,0E0,0E0,0E0,0E0,0E0,0E0],"parents":[2147483647,0,0,1,1,2,2,3,3,4,4,5,5,6,6,7,7,8,8,9,9,10,10,11,11,12,12,13,13,14,14,15,15,16,16,18,18,20,20,21,21,22,22,24,24,25,25,26,26,27,27,28,28,29,29],"right_children":[2,4,6,8,10,12,14,16,18,20,22,24,26,28,30,32,34,-1,36,-1,38,40,42,-1,44,46,48,50,52,54,-1,-1,-1,-1,-1,-1,-1,-1,-1,-1,-1,-1,-1,-1,-1,-1,-1,-1,-1,-1,-1,-1,-1,-1,-1],"split_conditions":[3.1381863E-1,-2.906E-2,1.8495372E-1,3.8332576E-1,7.63E-1,-1.4572364E-1,-2.2696872E-1,2.989788E-1,4.0426546E-1,3.9553455E-1,1.909799E-1,-2.137E-2,1.6879709E-1,3.5178536E-1,-2.096E-2,-1.10725485E-1,-2.5201258E-1,7.0591815E-2,-2.1685569E-1,6.466538E-2,3.3393E-2,4.1412553E-1,-1.8715636E-1,4.6130806E-2,1.3294E-2,-6.37E-3,2.2902E-2,2.737E-2,-2.0751451E-1,3.338366E-1,4.378767E-2,5.527375E-2,-3.0848714E-2,-3.2789703E-2,-2.4973456E-2,3.875109E-2,-4.7615264E-3,1.6549673E-2,-8.943571E-3,-3.7992492E-2,2.3934724E-2,-1.950749E-2,6.330626E-3,3.4219805E-2,3.6800493E-2,2.8821075E-2,-7.311119E-3,1.6426107E-2,-2.9894494E-2,8.578215E-3,2.5137918E-2,-5.3885642E-2,-1.1834964E-2,4.1927762E-2,-1.00437775E-2],"split_indices":[4,8,1,5,23,14,16,5,5,5,4,7,1,5,7,14,18,0,16,0,12,5,14,0,12,7,12,12,14,4,0,0,0,0,0,0,0,0,0,0,0,0,0,0,0,0,0,0,0,0,0,0,0,0,0],"split_type":[0,0,0,0,0,0,0,0,0,0,0,0,0,0,0,0,0,0,0,0,0,0,0,0,0,0,0,0,0,0,0,0,0,0,0,0,0,0,0,0,0,0,0,0,0,0,0,0,0,0,0,0,0,0,0],"sum_hessian":[9.97E2,5.81E2,4.16E2,9.8E1,4.83E2,2.59E2,1.57E2,4.9E1,4.9E1,2.5E1,4.58E2,1.14E2,1.45E2,1.31E2,2.6E1,2.6E1,2.3E1,2.7E1,2.2E1,1.3E1,1.2E1,1.44E2,3.14E2,7.1E1,4.3E1,1.31E2,1.4E1,4.5E1,8.6E1,8E0,1.8E1,2.1E1,5E0,1.3E1,1E1,8E0,1.4E1,6E0,6E0,1.27E2,1.7E1,1.69E2,1.45E2,9E0,3.4E1,1.18E2,1.3E1,8E0,6E0,2.9E1,1.6E1,4.1E1,4.5E1,4E0,4E0],"tree_param":{"num_deleted":"0","num_feature":"28","num_nodes":"55","size_leaf_vector":"1"}},{"base_weights":[3.0281705E-1,3.646271E-1,7.6734915E-2,5.389111E-1,2.8078806E-1,1.9712958E-1,-6.5366435E-4,4.108947E-1,6.699561E-1,2.4291824E-1,8.853065E-1,4.7908938E-1,1.3047966E-1,6.9344896E-1,2.8701717E-1,7.538677E-1,2.9758817E-1,8.5450006E-1,2.1581124E-1,6.44468E-2,3.72452E-2,2.8272542E-1,6.9931364E-1,2.107507E-1,-7.6868554E-4,5.087974E-2,1.347803E-2,-3.3309476E-3,2.1128323E-2,5.5241834E-2,3.5363223E-2,6.4367816E-2,1.0872811E-2,3.0441293E-2,6.443919E-2,2.1633845E-2,7.2262976E-3,-3.3185985E-3,4.7404554E-2,3.0441293E-2,6.4367816E-2,3.5327796E-2,1.0516537E-2],"categories":[],"categories_nodes":[],"categories_segments":[],"categories_sizes":[],"default_left":[0,0,0,0,0,0,0,0,0,0,0,0,0,0,0,0,0,0,0,0,0,0,0,0,0,0,0,0,0,0,0,0,0,0,0,0,0,0,0,0,0,0,0],"id":26,"left_children":[1,3,5,7,9,11,-1,13,15,17,19,21,23,25,27,29,31,33,35,-1,-1,37,39,41,-1,-1,-1,-1,-1,-1,-1,-1,-1,-1,-1,-1,-1,-1,-1,-1,-1,-1,-1],"loss_changes":[1.3859947E1,1.137812E1,2.2158587E0,4.238388E0,1.2035557E1,1.6692119E0,0E0,4.4749126E0,3.9000015E0,8.200329E0,6.642494E-1,7.297828E-1,8.206717E-1,1.0831013E0,7.3020554E-1,1.4230385E0,2.0505936E0,8.0356216E-1,5.3355446E0,0E0,0E0,1.2448969E0,4.9234152E-1,7.9121447E-1,0E0,0E0,0E0,0E0,0E0,0E0,0E0,0E0,0E0,0E0,0E0,0E0,0E0,0E0,0E0,0E0,0E0,0E0,0E0],"parents":[2147483647,0,0,1,1,2,2,3,3,4,4,5,5,7,7,8,8,9,9,10,10,11,11,12,12,13,13,14,14,15,15,16,16,17,17,18,18,21,21,22,22,23,23],"right_children":[2,4,6,8,10,12,-1,14,16,18,20,22,24,26,28,30,32,34,36,-1,-1,38,40,42,-1,-1,-1,-1,-1,-1,-1,-1,-1,-1,-1,-1,-1,-1,-1,-1,-1,-1,-1],"split_conditions":[3.4333363E-1,-2.9167312E-1,3.718228E-1,-2.7263024E-1,-1.7163628E-1,-2.7382526E-1,-4.114834E-3,-3.6430833E-1,-2.324692E-1,-3.428E-2,-1.1047334E-1,2.9957E-2,3.5178536E-1,-3.08E-3,-2.06E-2,-1.9995096E-1,2.684299E-1,-2.782717E-1,-2.09227E-1,7.015695E-2,2.5557596E-2,-3.1272545E-1,-5.62E-3,-2.485E-2,-1.7906537E-2,6.1037574E-2,1.051804E-3,-1.7326877E-3,3.9211374E-2,7.095305E-2,4.978246E-2,4.2560276E-2,5.3813428E-2,6.106068E-2,6.9287255E-2,5.630502E-2,3.6940817E-2,-3.0285215E-2,5.548878E-2,8.39146E-3,2.7059203E-2,1.6767196E-2,3.442487E-2],"split_indices":[3,18,5,17,17,18,0,20,17,8,18,12,5,9,9,16,5,18,16,0,0,17,9,8,0,0,0,0,0,0,0,0,0,0,0,0,0,0,0,0,0,0,0],"split_type":[0,0,0,0,0,0,0,0,0,0,0,0,0,0,0,0,0,0,0,0,0,0,0,0,0,0,0,0,0,0,0,0,0,0,0,0,0,0,0,0,0,0,0],"sum_hessian":[9.92E2,7.79E2,2.13E2,2.53E2,5.26E2,8.9E1,1.24E2,1.28E2,1.25E2,4.95E2,3.1E1,1.7E1,7.2E1,3.9E1,8.9E1,1.02E2,2.3E1,2.1E1,4.74E2,2.6E1,5E0,9E0,8E0,4.6E1,2.6E1,3.5E1,4E0,6E0,8.3E1,8.1E1,2.1E1,4E0,1.9E1,4E0,1.7E1,2.44E2,2.3E2,5E0,4E0,4E0,4E0,7E0,3.9E1],"tree_param":{"num_deleted":"0","num_feature":"28","num_nodes":"43","size_leaf_vector":"1"}},{"base_weights":[-1.706565E-1,-1.0918784E-1,-2.8427008E-1,-2.3502117E-1,-4.698508E-2,-3.6420304E-1,-1.1211295E-1,-5.030749E-1,-1.595481E-1,-3.248635E-2,-2.2256157E-1,3.3772562E-3,-4.1043964E-1,3.3848102E-3,-2.3116454E-1,-2.4972652E-1,-6.905374E-1,-1.0667565E-1,-3.740765E-1,-1.1876021E-1,-1.1902605E-2,-6.4367816E-2,-1.222254E-1,-4.4487E-1,-5.4975778E-2,-2.7717325E-1,3.3515287E-3,-3.8969442E-2,-2.2309264E-3,-5.5389114E-2,-3.615772E-2,-4.502114E-2,-5.1529063E-3,-4.5921702E-2,-1.5096039E-2,3.3826798E-3,-1.865053E-2,-2.9337264E-3,2.3459378E-3,-1.1062061E-3,-1.5967617E-2,-1.7869394E-2,-3.6580335E-2,-3.0441293E-2,3.3679942E-3,-2.3739561E-2,-5.629782E-3],"categories":[],"categories_nodes":[],"categories_segments":[],"categories_sizes":[],"default_left":[0,0,0,0,0,0,0,0,0,0,0,0,0,0,0,0,0,0,0,0,0,0,0,0,0,0,0,0,0,0,0,0,0,0,0,0,0,0,0,0,0,0,0,0,0,0,0],"id":27,"left_children":[1,3,5,7,9,11,13,15,17,19,21,-1,23,-1,25,27,29,31,33,35,37,-1,39,41,43,45,-1,-1,-1,-1,-1,-1,-1,-1,-1,-1,-1,-1,-1,-1,-1,-1,-1,-1,-1,-1,-1],"loss_changes":[6.960573E0,5.0626473E0,4.813759E0,4.32578E0,1.1008683E0,4.5766296E0,2.1417346E0,2.227047E0,1.8915963E0,7.096226E-1,2.3982153E0,0E0,2.628601E0,0E0,8.27363E-1,1.4044138E0,5.279703E-1,2.2891998E0,1.509398E0,2.0279427E0,4.704158E-1,0E0,3.4603736E-1,3.3482666E0,7.846176E-1,7.7405405E-1,0E0,0E0,0E0,0E0,0E0,0E0,0E0,0E0,0E0,0E0,0E0,0E0,0E0,0E0,0E0,0E0,0E0,0E0,0E0,0E0,0E0],"parents":[2147483647,0,0,1,1,2,2,3,3,4,4,5,5,6,6,7,7,8,8,9,9,10,10,12,12,14,14,15,15,16,16,17,17,18,18,19,19,20,20,22,22,23,23,24,24,25,25],"right_children":[2,4,6,8,10,12,14,16,18,20,22,-1,24,-1,26,28,30,32,34,36,38,-1,40,42,44,46,-1,-1,-1,-1,-1,-1,-1,-1,-1,-1,-1,-1,-1,-1,-1,-1,-1,-1,-1,-1,-1],"split_conditions":[-2.1771951E-1,-2.8697082E-1,-2.4879575E-1,-3.8257977E-1,4.484326E-1,-3.7786984E-1,-2.4620946E-1,1.1387E-2,3.907247E-1,1.7185739E-1,1.7596067E-1,5.569453E-3,-3.3338675E-1,3.1983778E-2,1.8922259E-1,-2.55E-3,3.1381863E-1,2.7156064E-1,-3.1006092E-1,3.798771E-1,-2.6333222E-1,-9.527239E-2,1.9803E-2,-3.3359906E-1,1.7552502E-1,1.6961254E-1,8.360924E-2,-9.875686E-2,-6.038199E-3,-8.390787E-2,-8.2516536E-2,-1.0707008E-1,-1.0349508E-2,-1.05606265E-1,-5.4670103E-2,4.821086E-3,-4.8837975E-2,-1.34713035E-2,9.136877E-3,-3.7521463E-2,-9.635092E-2,-6.062084E-2,-6.699793E-2,-8.643054E-3,5.8207074E-3,-5.455561E-2,-1.7202051E-2],"split_indices":[18,17,17,19,6,20,19,11,4,2,2,0,20,0,2,11,4,4,17,6,17,0,11,19,1,4,0,0,0,0,0,0,0,0,0,0,0,0,0,0,0,0,0,0,0,0,0],"split_type":[0,0,0,0,0,0,0,0,0,0,0,0,0,0,0,0,0,0,0,0,0,0,0,0,0,0,0,0,0,0,0,0,0,0,0,0,0,0,0,0,0,0,0,0,0,0,0],"sum_hessian":[9.97E2,6.47E2,3.5E2,2.14E2,4.33E2,2.39E2,1.11E2,4.7E1,1.67E2,4E2,3.3E1,2.4E1,2.15E2,4.7E1,6.4E1,2E1,2.7E1,1.34E2,3.3E1,7.7E1,3.23E2,4E0,2.9E1,1.96E2,1.9E1,5.5E1,9E0,8E0,1.2E1,1.5E1,1.2E1,7E0,1.27E2,1.1E1,2.2E1,3.7E1,4E1,1.93E2,1.3E2,1.5E1,1.4E1,6.7E1,1.29E2,4E0,1.5E1,4E1,1.5E1],"tree_param":{"num_deleted":"0","num_feature":"28","num_nodes":"47","size_leaf_vector":"1"}},{"base_weights":[5.478237E-2,2.1389641E-1,-4.1130602E-2,3.078097E-1,-4.99454E-2,1.6137429E-1,-9.206839E-2,3.386876E-1,7.5592086E-2,-4.2286626E-1,8.100728E-2,-3.3885602E-2,2.1181807E-1,-5.457323E-2,-4.5733023E-1,3.950666E-1,2.6185265E-1,-2.4180453E-2,1.9209744E-1,-6.711258E-3,-3.3909217E-2,1.7297181E-1,-1.3611527E-1,1.1170044E-1,3.185948E-2,5.552522E-2,-1.2587963E-1,-2.4931632E-1,-3.391739E-2,2.9442504E-2,1.924579E-2,1.3308402E-2,3.1302862E-2,3.3889733E-2,-0E0,2.6764859E-2,3.07304E-3,8.435392E-3,-1.9360298E-2,-3.6013648E-3,2.1417761E-2,-6.7792083E-3,9.044091E-3,2.3730276E-2,-1.1044539E-2,-0E0,-3.3833947E-2],"categories":[],"categories_nodes":[],"categories_segments":[],"categories_sizes":[],"default_left":[0,0,0,0,0,0,0,0,0,0,0,0,0,0,0,0,0,0,0,0,0,0,0,0,0,0,0,0,0,0,0,0,0,0,0,0,0,0,0,0,0,0,0,0,0,0,0],"id":28,"left_children":[1,3,5,7,9,11,13,15,17,19,21,-1,23,25,27,29,31,-1,33,-1,-1,35,37,39,-1,41,43,45,-1,-1,-1,-1,-1,-1,-1,-1,-1,-1,-1,-1,-1,-1,-1,-1,-1,-1,-1],"loss_changes":[1.5460438E1,9.441923E0,6.518799E0,2.012621E0,4.885368E0,4.231538E0,6.913459E0,1.0707169E0,1.6598282E0,6.442251E-1,1.4778037E0,0E0,3.0414157E0,3.5960162E0,4.116993E-1,6.1504173E-1,1.372891E0,0E0,1.5350947E0,0E0,0E0,1.468096E0,8.557725E-1,2.8578773E0,0E0,2.1758366E0,4.876507E0,4.9726602E-1,0E0,0E0,0E0,0E0,0E0,0E0,0E0,0E0,0E0,0E0,0E0,0E0,0E0,0E0,0E0,0E0,0E0,0E0,0E0],"parents":[2147483647,0,0,1,1,2,2,3,3,4,4,5,5,6,6,7,7,8,8,9,9,10,10,12,12,13,13,14,14,15,15,16,16,18,18,21,21,22,22,23,23,25,25,26,26,27,27],"right_children":[2,4,6,8,10,12,14,16,18,20,22,-1,24,26,28,30,32,-1,34,-1,-1,36,38,40,-1,42,44,46,-1,-1,-1,-1,-1,-1,-1,-1,-1,-1,-1,-1,-1,-1,-1,-1,-1,-1,-1],"split_conditions":[-2.8323647E-1,1.8306829E-1,2.370612E-1,-1.16107404E-1,-1.9285627E-1,1.7342101E-1,4.477204E-1,3.816364E-1,2.2129613E-1,-2.137E-2,3.983078E-1,-2.6284037E-2,-1.8990064E-1,-2.1461171E-1,1.491831E-1,-1.263695E-1,4.4344103E-1,-2.187667E-2,3.549E-2,-2.7095053E-2,-6.1553575E-2,-1.311E-2,1.0475E-2,6.031E-3,5.2415226E-2,-1.665E-2,-1.899E-2,-2.358E-2,-5.0592527E-2,4.372801E-2,2.347282E-2,1.3495564E-2,3.467828E-2,1.9021807E-2,-4.908613E-4,1.817426E-2,9.500081E-3,4.903113E-4,-1.6360264E-2,-1.1846547E-3,3.4803268E-2,-8.771214E-3,1.0650859E-2,4.2816106E-2,-2.1266064E-2,1.4122123E-2,-1.703348E-2],"split_indices":[18,1,3,14,14,5,5,5,3,8,5,0,18,18,1,14,5,0,13,0,0,8,10,10,0,9,9,8,0,0,0,0,0,0,0,0,0,0,0,0,0,0,0,0,0,0,0],"split_type":[0,0,0,0,0,0,0,0,0,0,0,0,0,0,0,0,0,0,0,0,0,0,0,0,0,0,0,0,0,0,0,0,0,0,0,0,0,0,0,0,0,0,0,0,0,0,0],"sum_hessian":[1.013E3,3.81E2,6.32E2,2.81E2,1E2,1.27E2,5.05E2,2.48E2,3.3E1,2.6E1,7.4E1,9E0,1.18E2,4.58E2,4.7E1,1.43E2,1.05E2,7E0,2.6E1,5E0,2.1E1,5.2E1,2.2E1,8.5E1,3.3E1,1.8E2,2.78E2,8E0,3.9E1,1.06E2,3.7E1,7.9E1,2.6E1,1E1,1.6E1,1.9E1,3.3E1,8E0,1.4E1,4.7E1,3.8E1,6E1,1.2E2,2E1,2.58E2,4E0,4E0],"tree_param":{"num_deleted":"0","num_feature":"28","num_nodes":"47","size_leaf_vector":"1"}},{"base_weights":[2.8199852E-1,7.4300873E-1,2.536979E-1,1.9163387E-2,7.9604816E-1,1.0382998E-1,3.371409E-1,8.457188E-1,1.347803E-2,6.443004E-2,7.268263E-2,4.4862267E-1,1.6664389E-1,5.8586496E-1,6.261718E-2,4.140901E-1,4.0585693E-2,6.166285E-1,3.4010997E-1,-4.078381E-3,3.0873683E-1,2.3674559E-2,5.3090043E-2,5.1715262E-2,-3.3618205E-3,1.638255E-2,1.5587907E-3,6.1296485E-2,3.3553742E-2,-3.3731947E-3,2.5543159E-2,1.918401E-2,-2.0319123E-3,1.4451916E-3,3.0148854E-2],"categories":[],"categories_nodes":[],"categories_segments":[],"categories_sizes":[],"default_left":[0,0,0,0,0,0,0,0,0,0,0,0,0,0,0,0,0,0,0,0,0,0,0,0,0,0,0,0,0,0,0,0,0,0,0],"id":29,"left_children":[1,3,5,-1,7,9,11,13,-1,-1,15,17,19,21,-1,23,25,27,29,31,33,-1,-1,-1,-1,-1,-1,-1,-1,-1,-1,-1,-1,-1,-1],"loss_changes":[1.3080566E1,1.4110031E0,1.1815224E1,0E0,1.5373421E0,8.897906E0,1.1534073E1,9.5347595E-1,0E0,0E0,3.5698693E0,6.6854706E0,5.8236876E0,5.0614095E-1,0E0,4.5224233E0,1.0527649E0,5.0349617E0,3.1602936E0,8.072667E-1,5.1027803E0,0E0,0E0,0E0,0E0,0E0,0E0,0E0,0E0,0E0,0E0,0E0,0E0,0E0,0E0],"parents":[2147483647,0,0,1,1,2,2,4,4,5,5,6,6,7,7,10,10,11,11,12,12,13,13,15,15,16,16,17,17,18,18,19,19,20,20],"right_children":[2,4,6,-1,8,10,12,14,-1,-1,16,18,20,22,-1,24,26,28,30,32,34,-1,-1,-1,-1,-1,-1,-1,-1,-1,-1,-1,-1,-1,-1],"split_conditions":[-3.468E-2,1.18980624E-1,-1.8715636E-1,4.9145278E-2,2.0894913E-1,2.8428572E-1,-2.0524763E-1,1.8316296E-1,2.7696085E-3,8.267081E-2,4.951613E-1,2.935519E-1,-3.5541236E-1,4.106493E-1,6.806559E-2,-1.9695927E-1,-2.789158E-1,-1.5622707E-1,2.988837E-1,-3.1343433E-1,-1.3730647E-1,4.324446E-2,4.3450303E-2,6.560918E-2,-3.3068866E-2,3.7597187E-2,5.5079074E-3,6.1040152E-2,5.616091E-2,-8.328757E-3,4.507057E-2,4.9272563E-2,-7.0451437E-3,4.9455337E-2,5.9689E-2],"split_indices":[7,1,14,0,1,21,16,2,0,0,22,3,20,6,0,14,16,14,3,18,14,0,0,0,0,0,0,0,0,0,0,0,0,0,0],"split_type":[0,0,0,0,0,0,0,0,0,0,0,0,0,0,0,0,0,0,0,0,0,0,0,0,0,0,0,0,0,0,0,0,0,0,0],"sum_hessian":[1.003E3,5.8E1,9.45E2,6E0,5.2E1,3.38E2,6.07E2,4.8E1,4E0,1.2E1,3.26E2,3.67E2,2.4E2,1.1E1,3.7E1,2.8E1,2.98E2,1.44E2,2.23E2,1.09E2,1.31E2,5E0,6E0,1.6E1,1.2E1,2.4E1,2.74E2,4.3E1,1.01E2,1.9E1,2.04E2,9E0,1E2,4.2E1,8.9E1],"tree_param":{"num_deleted":"0","num_feature":"28","num_nodes":"35","size_leaf_vector":"1"}},{"base_weights":[-1.4264601E-1,-8.312801E-2,-2.6418287E-1,-1.8642627E-1,-3.8783383E-2,-4.249149E-2,-3.0738097E-1,-1.6022839E-1,-5.5932805E-2,5.09439E-4,-9.483429E-2,-2.4945305E-1,4.4214153E-3,-2.624772E-1,-5.985004E-1,-2.4819763E-1,-3.635235E-2,-4.494521E-1,-7.7424206E-2,-3.0472273E-2,3.3000743E-3,3.3821077E-3,-1.7161492E-1,-1.6946776E-1,-3.602096E-1,-7.323699E-1,-3.7818033E-1,-5.734353E-3,-2.6150573E-2,-1.0167483E-2,3.3846388E-3,-1.0103918E-2,-5.0815843E-2,-1.042883E-3,-9.894446E-3,-2.367456E-2,3.3000743E-3,-2.7238995E-2,-6.191323E-3,-1.0165717E-2,-2.9360067E-2,-5.6456413E-2,-3.0472273E-2,-5.3090043E-2,-5.042719E-3],"categories":[],"categories_nodes":[],"categories_segments":[],"categories_sizes":[],"default_left":[0,0,0,0,0,0,0,0,0,0,0,0,0,0,0,0,0,0,0,0,0,0,0,0,0,0,0,0,0,0,0,0,0,0,0,0,0,0,0,0,0,0,0,0,0],"id":30,"left_children":[1,3,5,7,9,11,13,15,-1,-1,17,19,21,23,25,27,29,31,33,-1,-1,-1,35,37,39,41,43,-1,-1,-1,-1,-1,-1,-1,-1,-1,-1,-1,-1,-1,-1,-1,-1,-1,-1],"loss_changes":[7.2823696E0,3.0953398E0,3.1679592E0,3.3870115E0,1.2277546E0,5.256328E-1,3.6163387E0,2.123417E0,0E0,0E0,1.3183429E0,5.972738E-1,3.5116133E-1,2.1787148E0,1.0852108E0,2.5575972E0,7.9327625E-1,8.9507914E-1,8.6495256E-1,0E0,0E0,0E0,3.530749E-1,2.2291722E0,1.7811232E0,6.423235E-1,1.7149856E0,0E0,0E0,0E0,0E0,0E0,0E0,0E0,0E0,0E0,0E0,0E0,0E0,0E0,0E0,0E0,0E0,0E0,0E0],"parents":[2147483647,0,0,1,1,2,2,3,3,4,4,5,5,6,6,7,7,10,10,11,11,12,12,13,13,14,14,15,15,16,16,17,17,18,18,22,22,23,23,24,24,25,25,26,26],"right_children":[2,4,6,8,10,12,14,16,-1,-1,18,20,22,24,26,28,30,32,34,-1,-1,-1,36,38,40,42,44,-1,-1,-1,-1,-1,-1,-1,-1,-1,-1,-1,-1,-1,-1,-1,-1,-1,-1],"split_conditions":[-2.1461171E-1,5.732258E-1,2.3428641E-1,3.2019E-2,3.7266183E-1,1.7342101E-1,-1.22976385E-1,-1.7248975E-1,-9.844049E-2,1.1213033E-3,2.2129613E-1,-2.117E-2,-1.448E-2,2.0234092E-1,2.785E-3,3.5178536E-1,2.1501198E-1,1.4723574E-1,3.0380368E-1,-8.176557E-3,1.539074E-3,3.493988E-2,-1.821E-2,2.4199718E-1,3.229469E-1,3.476E-2,4.0471E-2,-3.9261036E-2,-8.6320564E-2,-7.535724E-2,3.1641982E-2,-2.3127396E-2,-7.043464E-2,-6.2418035E-3,-4.1864075E-2,-1.6034802E-2,1.38209285E-2,-6.0685743E-2,-2.6633916E-2,-2.3215024E-2,-6.748771E-2,-6.353883E-2,-7.145402E-2,-7.8127675E-2,-2.209371E-2],"split_indices":[18,22,3,11,5,5,15,15,0,0,3,9,8,2,11,5,2,2,3,0,0,0,9,3,5,12,13,0,0,0,0,0,0,0,0,0,0,0,0,0,0,0,0,0,0],"split_type":[0,0,0,0,0,0,0,0,0,0,0,0,0,0,0,0,0,0,0,0,0,0,0,0,0,0,0,0,0,0,0,0,0,0,0,0,0,0,0,0,0,0,0,0,0],"sum_hessian":[1.007E3,6.76E2,3.31E2,2.03E2,4.73E2,5.4E1,2.77E2,1.95E2,8E0,2.59E2,2.14E2,1E1,4.4E1,2.4E2,3.7E1,1.14E2,8.1E1,1E1,2.04E2,6E0,4E0,3.5E1,9E0,1.23E2,1.17E2,2.3E1,1.4E1,5.2E1,6.2E1,3.5E1,4.6E1,5E0,5E0,1.07E2,9.7E1,5E0,4E0,3.1E1,9.2E1,3E1,8.7E1,1.7E1,6E0,6E0,8E0],"tree_param":{"num_deleted":"0","num_feature":"28","num_nodes":"45","size_leaf_vector":"1"}},{"base_weights":[4.8217807E-2,1.8156457E-1,-3.5528168E-2,2.3064336E-1,-3.7079114E-1,-1.907535E-1,1.6544241E-2,1.3116692E-1,2.980506E-1,-4.2286626E-1,-6.711258E-3,1.5205511E-1,-3.39571E-1,1.6026093E-1,-1.0653499E-1,3.1490296E-2,4.8624247E-2,3.1497264E-1,-8.435392E-3,-1.8807046E-2,-3.3905048E-2,4.2701155E-2,3.3893116E-2,1.4487111E-2,-3.7873256E-1,8.3298326E-2,3.8668913E-1,-2.1183352E-1,1.7156021E-1,5.595992E-3,-2.0319028E-2,2.7657775E-2,1.8342923E-2,1.3552222E-2,-1.1284253E-2,-1.8840043E-2,-3.1406935E-2,-1.99207E-3,2.009797E-2,3.24108E-2,-8.435392E-3,2.4206987E-2,-1.7689679E-2,-5.205275E-3,2.2333063E-2],"categories":[],"categories_nodes":[],"categories_segments":[],"categories_sizes":[],"default_left":[0,0,0,0,0,0,0,0,0,0,0,0,0,0,0,0,0,0,0,0,0,0,0,0,0,0,0,0,0,0,0,0,0,0,0,0,0,0,0,0,0,0,0,0,0],"id":31,"left_children":[1,3,5,7,9,11,13,15,17,19,-1,21,23,25,27,-1,29,31,-1,-1,-1,33,-1,-1,35,37,39,41,43,-1,-1,-1,-1,-1,-1,-1,-1,-1,-1,-1,-1,-1,-1,-1,-1],"loss_changes":[1.1000544E1,1.0300642E1,4.8911405E0,2.3378544E0,4.3606043E-1,7.755448E0,8.013204E0,3.8719335E0,1.4876823E0,2.8672314E-1,0E0,1.744796E0,2.296793E0,3.6395736E0,7.145279E0,0E0,1.3301116E0,8.233967E-1,0E0,0E0,0E0,1.148846E0,0E0,0E0,8.377943E-1,3.7429938E0,2.4656181E0,4.9176507E0,2.6225247E0,0E0,0E0,0E0,0E0,0E0,0E0,0E0,0E0,0E0,0E0,0E0,0E0,0E0,0E0,0E0,0E0],"parents":[2147483647,0,0,1,1,2,2,3,3,4,4,5,5,6,6,7,7,8,8,9,9,11,11,12,12,13,13,14,14,16,16,17,17,21,21,24,24,25,25,26,26,27,27,28,28],"right_children":[2,4,6,8,10,12,14,16,18,20,-1,22,24,26,28,-1,30,32,-1,-1,-1,34,-1,-1,36,38,40,42,44,-1,-1,-1,-1,-1,-1,-1,-1,-1,-1,-1,-1,-1,-1,-1,-1],"split_conditions":[-2.8323647E-1,2.021734E-1,1.04873694E-1,-3.4454492E-1,-3.5755312E-1,-2.4620946E-1,1.5543559E-1,-3.8127685E-1,-1.863972E-1,-1.605E-2,-1.52754905E-2,-1.6099998E-1,8.596755E-2,-1.6447465E-1,-3.03692E-1,3.462224E-2,-1.940311E-1,-3.1879213E-1,-5.4401453E-3,-4.870285E-2,-3.7098516E-2,-3.3520207E-1,6.379787E-2,3.7387772E-3,-1.528E-2,-1.208E-2,-2.09227E-1,7.63E-1,1.8508191E-1,3.7588375E-3,-1.3818016E-2,4.9705412E-2,2.806008E-2,1.9190313E-2,-8.822238E-3,-2.6852906E-2,-3.5969254E-2,-3.5083431E-3,3.118469E-2,5.601973E-2,-1.0535286E-2,6.524036E-2,-3.8442552E-2,-1.0087943E-2,2.2305766E-2],"split_indices":[18,0,0,19,20,19,0,19,16,9,0,18,1,18,19,0,16,18,0,0,0,19,0,0,9,9,16,23,0,0,0,0,0,0,0,0,0,0,0,0,0,0,0,0,0],"split_type":[0,0,0,0,0,0,0,0,0,0,0,0,0,0,0,0,0,0,0,0,0,0,0,0,0,0,0,0,0,0,0,0,0,0,0,0,0,0,0,0,0,0,0,0,0],"sum_hessian":[9.85E2,3.8E2,6.05E2,3.49E2,3.1E1,1.52E2,4.53E2,1.41E2,2.08E2,2.6E1,5E0,4.6E1,1.06E2,2.09E2,2.44E2,2.8E1,1.13E2,2E2,8E0,9E0,1.7E1,3.5E1,1.1E1,7E0,9.9E1,1.56E2,5.3E1,1.77E2,6.7E1,1.03E2,1E1,6.5E1,1.35E2,2E1,1.5E1,4.5E1,5.4E1,1.02E2,5.4E1,4.5E1,8E0,1.4E1,1.63E2,2.6E1,4.1E1],"tree_param":{"num_deleted":"0","num_feature":"28","num_nodes":"45","size_leaf_vector":"1"}},{"base_weights":[2.568679E-1,6.589911E-1,2.3424798E-1,6.247769E-3,7.4155223E-1,1.3263592E-1,3.1665653E-1,7.907842E-1,1.347803E-2,2.684365E-1,5.674212E-2,4.0085122E-1,1.6646667E-1,5.924653E-1,8.8315E-1,5.7482857E-1,1.8995626E-1,9.607979E-3,2.1975446E-1,1.248634E-1,4.3691018E-1,5.9673613E-1,1.2511036E-1,3.0497057E-2,6.4367816E-2,6.44468E-2,3.0441293E-2,6.443004E-2,2.3730276E-2,-3.3849753E-3,2.3039049E-2,1.5079172E-2,-1.1294055E-4,5.015652E-2,-3.0001078E-4,8.3659875E-4,3.8969442E-2,2.2908118E-2,3.9013058E-2,2.2006081E-2,5.6880396E-2,1.3567335E-2,5.354959E-4],"categories":[],"categories_nodes":[],"categories_segments":[],"categories_sizes":[],"default_left":[0,0,0,0,0,0,0,0,0,0,0,0,0,0,0,0,0,0,0,0,0,0,0,0,0,0,0,0,0,0,0,0,0,0,0,0,0,0,0,0,0,0,0],"id":32,"left_children":[1,3,5,-1,7,9,11,13,-1,15,17,19,21,23,25,27,29,31,33,35,37,39,41,-1,-1,-1,-1,-1,-1,-1,-1,-1,-1,-1,-1,-1,-1,-1,-1,-1,-1,-1,-1],"loss_changes":[9.3912735E0,2.5697289E0,8.187027E0,0E0,1.2775841E0,4.5124373E0,6.825306E0,7.979088E-1,0E0,3.7710009E0,2.1577973E0,3.4402657E0,3.4481616E0,7.0544815E-1,8.6102104E-1,2.6920557E0,4.4861293E0,5.237002E-1,7.3399687E0,2.0199406E0,4.1896973E0,1.1122608E0,1.5516005E0,0E0,0E0,0E0,0E0,0E0,0E0,0E0,0E0,0E0,0E0,0E0,0E0,0E0,0E0,0E0,0E0,0E0,0E0,0E0,0E0],"parents":[2147483647,0,0,1,1,2,2,4,4,5,5,6,6,7,7,9,9,10,10,11,11,12,12,13,13,14,14,15,15,16,16,17,17,18,18,19,19,20,20,21,21,22,22],"right_children":[2,4,6,-1,8,10,12,14,-1,16,18,20,22,24,26,28,30,32,34,36,38,40,42,-1,-1,-1,-1,-1,-1,-1,-1,-1,-1,-1,-1,-1,-1,-1,-1,-1,-1,-1,-1],"split_conditions":[-3.468E-2,-3.6265758E-1,2.7156064E-1,3.7223408E-3,3.8714254E-1,2.6376283E-1,3.255082E-1,1.824719E-1,3.3022273E-2,-3.6592892E-1,-1.4750293E-1,1.257188E-1,2.0080328E-1,-2.4593645E-1,1.6293918E-1,1.2842236E-1,-3.5541236E-1,-3.850551E-1,-1.2497355E-1,-2.2553118E-1,-3.5309502E-1,1.1022992E-1,-1.393E-2,4.050203E-2,4.5810554E-2,7.272713E-2,2.956531E-2,5.441271E-2,4.5509715E-2,-6.6988133E-3,5.2935366E-2,4.925632E-2,8.760973E-4,7.706125E-2,-8.7052287E-4,1.0655098E-2,6.442096E-2,4.6406534E-2,5.8963448E-2,1.397371E-2,6.064258E-2,3.522723E-2,7.4558686E-3],"split_indices":[7,19,4,0,4,3,3,2,0,20,18,1,2,18,1,4,20,20,18,19,20,0,7,0,0,0,0,0,0,0,0,0,0,0,0,0,0,0,0,0,0,0,0],"split_type":[0,0,0,0,0,0,0,0,0,0,0,0,0,0,0,0,0,0,0,0,0,0,0,0,0,0,0,0,0,0,0,0,0,0,0,0,0,0,0,0,0,0,0],"sum_hessian":[1.033E3,5.5E1,9.78E2,7E0,4.8E1,4.38E2,5.4E2,4.4E1,4E0,1.57E2,2.81E2,3.46E2,1.94E2,1.4E1,3E1,3.2E1,1.25E2,2.18E2,6.3E1,4E1,3.06E2,1.7E1,1.77E2,1E1,4E0,2.6E1,4E0,1.2E1,2E1,4.8E1,7.7E1,1.1E1,2.07E2,1.9E1,4.4E1,3.2E1,8E0,1.78E2,1.28E2,8E0,9E0,1.08E2,6.9E1],"tree_param":{"num_deleted":"0","num_feature":"28","num_nodes":"43","size_leaf_vector":"1"}},{"base_weights":[-1.3495998E-1,-2.6911983E-1,-1.0430685E-1,-1.3798748E-1,-4.8513407E-1,-9.408194E-2,-5.825871E-2,-5.21037E-1,-8.5869305E-2,3.3556449E-3,-5.728609E-1,-1.6972782E-1,-4.6374578E-2,-7.2716755E-1,-1.0103918E-2,-4.5686595E-2,-3.4262564E-2,-6.284734E-1,3.3185978E-3,-8.076069E-3,-2.3067777E-1,-3.332136E-2,-1.8796508E-1,-3.0441293E-2,-6.438649E-2,-2.5634453E-2,-1.2826261E-3,-4.894106E-2,-3.2132093E-2,1.6917164E-3,-3.0472273E-2,-2.4511945E-2,-5.0854757E-3,1.803302E-3,-4.7008526E-3,3.3556449E-3,-1.7800039E-2],"categories":[],"categories_nodes":[],"categories_segments":[],"categories_sizes":[],"default_left":[0,0,0,0,0,0,0,0,0,0,0,0,0,0,0,0,0,0,0,0,0,0,0,0,0,0,0,0,0,0,0,0,0,0,0,0,0],"id":33,"left_children":[1,3,5,7,9,11,-1,13,15,-1,17,19,21,23,-1,25,-1,27,-1,29,31,33,35,-1,-1,-1,-1,-1,-1,-1,-1,-1,-1,-1,-1,-1,-1],"loss_changes":[4.155615E0,5.321973E0,6.3421736E0,2.3324559E0,3.3325977E0,2.9292188E0,0E0,1.0691202E0,1.7314787E0,0E0,2.1124344E0,3.092435E0,9.192016E-1,5.482011E-1,0E0,8.3396304E-1,0E0,7.985611E-1,0E0,1.2542018E0,4.633648E0,9.823579E-1,7.426913E-1,0E0,0E0,0E0,0E0,0E0,0E0,0E0,0E0,0E0,0E0,0E0,0E0,0E0,0E0],"parents":[2147483647,0,0,1,1,2,2,3,3,4,4,5,5,7,7,8,8,10,10,11,11,12,12,13,13,15,15,17,17,19,19,20,20,21,21,22,22],"right_children":[2,4,6,8,10,12,-1,14,16,-1,18,20,22,24,-1,26,-1,28,-1,30,32,34,36,-1,-1,-1,-1,-1,-1,-1,-1,-1,-1,-1,-1,-1,-1],"split_conditions":[-2.1069221E-1,-2.2582856E-1,2.3839714E-1,3.503E-3,1.5752651E-1,1.3751423E-1,-5.6988448E-2,-6.67E-3,3.285E-2,1.4885674E-2,1.9548604E-1,4.106493E-1,4.516238E-1,1.8306829E-1,-2.0868806E-2,-5.44E-3,-6.1197218E-2,1.7595164E-1,8.323948E-2,4.1242948E-1,3.200729E-1,1.5246275E-1,7.266E-3,-4.4549476E-2,-5.081992E-2,-6.456417E-2,-1.2852095E-2,-9.339157E-2,-7.029567E-2,4.073858E-3,-4.159829E-2,-5.404488E-2,-3.060689E-2,4.7114147E-3,-1.9410996E-2,1.236876E-3,-7.00438E-2],"split_indices":[14,14,1,10,1,1,0,8,10,0,1,6,6,1,0,11,0,1,0,5,5,1,11,0,0,0,0,0,0,0,0,0,0,0,0,0,0],"split_type":[0,0,0,0,0,0,0,0,0,0,0,0,0,0,0,0,0,0,0,0,0,0,0,0,0,0,0,0,0,0,0,0,0,0,0,0,0],"sum_hessian":[1.011E3,1.88E2,8.23E2,1.17E2,7.1E1,8.12E2,1.1E1,1.4E1,1.03E2,1E1,6.1E1,3.14E2,4.98E2,9E0,5E0,9.4E1,9E0,5.6E1,5E0,8.6E1,2.28E2,4.56E2,4.2E1,4E0,5E0,7E0,8.7E1,3.5E1,2.1E1,8E1,6E0,1.24E2,1.04E2,1.71E2,2.85E2,1E1,3.2E1],"tree_param":{"num_deleted":"0","num_feature":"28","num_nodes":"37","size_leaf_vector":"1"}},{"base_weights":[4.481528E-2,-1.5936477E-1,1.0515424E-1,-1.9904876E-1,3.3898316E-2,1.879739E-1,-5.9824478E-2,-3.8068372E-1,-1.396768E-2,1.3682772E-1,3.308421E-1,-1.5190351E-1,1.537761E-1,2.909065E-2,-3.0972717E-2,-6.695401E-2,3.3889733E-2,1.5831815E-1,-2.4972653E-1,3.1865116E-2,1.999219E-1,3.8391545E-2,-2.960634E-1,3.390036E-2,7.803967E-2,3.3864938E-2,-1.5387598E-2,-1.6277503E-2,7.932457E-3,8.0661075E-3,2.6238346E-2,-0E0,-2.4206987E-2,1.2428352E-3,2.129432E-2,-1.2103513E-2,1.08492E-2,1.6917072E-2,-2.320925E-2,-1.8239792E-2,1.1301704E-2],"categories":[],"categories_nodes":[],"categories_segments":[],"categories_sizes":[],"default_left":[0,0,0,0,0,0,0,0,0,0,0,0,0,0,0,0,0,0,0,0,0,0,0,0,0,0,0,0,0,0,0,0,0,0,0,0,0,0,0,0,0],"id":34,"left_children":[1,3,5,7,-1,9,11,13,15,17,19,21,23,25,-1,27,-1,29,31,-1,33,35,37,-1,39,-1,-1,-1,-1,-1,-1,-1,-1,-1,-1,-1,-1,-1,-1,-1,-1],"loss_changes":[1.2368998E1,5.9865975E0,1.0589899E1,7.259161E0,0E0,3.7679405E0,5.0940385E0,3.3870115E0,2.908494E0,3.1562457E0,2.4671955E0,4.9667654E0,2.0398312E0,2.0458503E0,0E0,3.0848825E0,0E0,3.2400255E0,5.345423E-1,0E0,1.4461839E0,2.0541952E0,2.5836353E0,0E0,1.9644423E0,0E0,0E0,0E0,0E0,0E0,0E0,0E0,0E0,0E0,0E0,0E0,0E0,0E0,0E0,0E0,0E0],"parents":[2147483647,0,0,1,1,2,2,3,3,5,5,6,6,7,7,8,8,9,9,10,10,11,11,12,12,13,13,15,15,17,17,18,18,20,20,21,21,22,22,24,24],"right_children":[2,4,6,8,-1,10,12,14,16,18,20,22,24,26,-1,28,-1,30,32,-1,34,36,38,-1,40,-1,-1,-1,-1,-1,-1,-1,-1,-1,-1,-1,-1,-1,-1,-1,-1],"split_conditions":[-2.0751451E-1,1.675E0,-2.0860974E-1,2.1928595E-1,5.063129E-2,-2.6311722E-1,1.1030016E-1,1.5687355E-1,-2.2582856E-1,-2.6721752E-1,-1.5555917E-1,4.0129E-2,-1.7630972E-1,2.2178E-2,-5.3575583E-2,2.4265435E-1,6.325886E-2,-2.7263024E-1,2.014E-2,4.6853717E-2,4.2364E-2,-3.5541236E-1,1.2611876E-1,5.226099E-2,-1.7475592E-1,2.504551E-2,-4.8087E-3,-2.4275003E-2,5.1771617E-3,9.695441E-3,3.5614315E-2,-9.649303E-4,-2.9094057E-2,1.3410599E-3,3.874967E-2,-1.611265E-2,9.881937E-3,1.571371E-2,-2.2709947E-2,-2.2813356E-2,2.5977504E-2],"split_indices":[14,23,16,0,0,17,0,1,14,17,14,13,15,12,0,1,0,17,12,0,13,20,2,0,15,0,0,0,0,0,0,0,0,0,0,0,0,0,0,0,0],"split_type":[0,0,0,0,0,0,0,0,0,0,0,0,0,0,0,0,0,0,0,0,0,0,0,0,0,0,0,0,0,0,0,0,0,0,0,0,0,0,0,0,0],"sum_hessian":[1.004E3,2.29E2,7.75E2,2.16E2,1.3E1,5.16E2,2.59E2,1.09E2,1.07E2,3.8E2,1.36E2,1.81E2,7.8E1,1.7E1,9.2E1,9.7E1,1E1,3.6E2,2E1,6.6E1,7E1,7.8E1,1.03E2,1.4E1,6.4E1,6E0,1.1E1,5E1,4.7E1,3.07E2,5.3E1,6E0,1.4E1,2.7E1,4.3E1,2.8E1,5E1,8E0,9.5E1,1.3E1,5.1E1],"tree_param":{"num_deleted":"0","num_feature":"28","num_nodes":"41","size_leaf_vector":"1"}},{"base_weights":[2.4376312E-1,8.248282E-1,2.2476457E-1,3.0441293E-2,8.78375E-1,4.544994E-2,2.705058E-1,6.444419E-2,4.1781157E-2,3.18133E-1,1.663633E-2,3.3040398E-1,1.4274913E-1,4.4960862E-1,-3.3185985E-3,1.6857919E-1,-1.6179347E-2,2.4579719E-1,5.4727864E-1,2.4651399E-1,-1.8706113E-3,5.0815843E-2,1.918401E-2,-3.3556458E-3,1.8180298E-2,4.1363314E-3,-2.7835479E-3,5.5389114E-2,1.5095084E-2,5.1212292E-2,3.1787343E-2,1.4305623E-2,6.440782E-2,-1.9294879E-3,1.5079172E-2],"categories":[],"categories_nodes":[],"categories_segments":[],"categories_sizes":[],"default_left":[0,0,0,0,0,