{"learner":{"attributes":{"best_iteration":"256","best_score":"0.10617755657178225"},"feature_names":["NDVI_February","NDVI_March","NDVI_April","NDVI_May","NDVI_June","NDVI_July","NDVI_August","NDVI_September","NDVI_October","GLI_February","GLI_March","GLI_April","GLI_May","GLI_June","GLI_July","GLI_August","GLI_September","GLI_October","NDWI_February","NDWI_March","NDWI_April","NDWI_May","NDWI_June","NDWI_July","NDWI_August","NDWI_September","NDWI_October","Precipitation_February","Precipitation_March","Precipitation_April","Precipitation_May","Precipitation_June","Precipitation_July","Precipitation_August","Precipitation_September","Precipitation_October"],"feature_types":["float","float","float","float","float","float","float","float","float","float","float","float","float","float","float","float","float","float","float","float","float","float","float","float","float","float","float","float","float","float","float","float","float","float","float","float"],"gradient_booster":{"model":{"gbtree_model_param":{"num_parallel_tree":"1","num_trees":"801"},"iteration_indptr":[0,3,6,9,12,15,18,21,24,27,30,33,36,39,42,45,48,51,54,57,60,63,66,69,72,75,78,81,84,87,90,93,96,99,102,105,108,111,114,117,120,123,126,129,132,135,138,141,144,147,150,153,156,159,162,165,168,171,174,177,180,183,186,189,192,195,198,201,204,207,210,213,216,219,222,225,228,231,234,237,240,243,246,249,252,255,258,261,264,267,270,273,276,279,282,285,288,291,294,297,300,303,306,309,312,315,318,321,324,327,330,333,336,339,342,345,348,351,354,357,360,363,366,369,372,375,378,381,384,387,390,393,396,399,402,405,408,411,414,417,420,423,426,429,432,435,438,441,444,447,450,453,456,459,462,465,468,471,474,477,480,483,486,489,492,495,498,501,504,507,510,513,516,519,522,525,528,531,534,537,540,543,546,549,552,555,558,561,564,567,570,573,576,579,582,585,588,591,594,597,600,603,606,609,612,615,618,621,624,627,630,633,636,639,642,645,648,651,654,657,660,663,666,669,672,675,678,681,684,687,690,693,696,699,702,705,708,711,714,717,720,723,726,729,732,735,738,741,744,747,750,753,756,759,762,765,768,771,774,777,780,783,786,789,792,795,798,801],"tree_info":[0,1,2,0,1,2,0,1,2,0,1,2,0,1,2,0,1,2,0,1,2,0,1,2,0,1,2,0,1,2,0,1,2,0,1,2,0,1,2,0,1,2,0,1,2,0,1,2,0,1,2,0,1,2,0,1,2,0,1,2,0,1,2,0,1,2,0,1,2,0,1,2,0,1,2,0,1,2,0,1,2,0,1,2,0,1,2,0,1,2,0,1,2,0,1,2,0,1,2,0,1,2,0,1,2,0,1,2,0,1,2,0,1,2,0,1,2,0,1,2,0,1,2,0,1,2,0,1,2,0,1,2,0,1,2,0,1,2,0,1,2,0,1,2,0,1,2,0,1,2,0,1,2,0,1,2,0,1,2,0,1,2,0,1,2,0,1,2,0,1,2,0,1,2,0,1,2,0,1,2,0,1,2,0,1,2,0,1,2,0,1,2,0,1,2,0,1,2,0,1,2,0,1,2,0,1,2,0,1,2,0,1,2,0,1,2,0,1,2,0,1,2,0,1,2,0,1,2,0,1,2,0,1,2,0,1,2,0,1,2,0,1,2,0,1,2,0,1,2,0,1,2,0,1,2,0,1,2,0,1,2,0,1,2,0,1,2,0,1,2,0,1,2,0,1,2,0,1,2,0,1,2,0,1,2,0,1,2,0,1,2,0,1,2,0,1,2,0,1,2,0,1,2,0,1,2,0,1,2,0,1,2,0,1,2,0,1,2,0,1,2,0,1,2,0,1,2,0,1,2,0,1,2,0,1,2,0,1,2,0,1,2,0,1,2,0,1,2,0,1,2,0,1,2,0,1,2,0,1,2,0,1,2,0,1,2,0,1,2,0,1,2,0,1,2,0,1,2,0,1,2,0,1,2,0,1,2,0,1,2,0,1,2,0,1,2,0,1,2,0,1,2,0,1,2,0,1,2,0,1,2,0,1,2,0,1,2,0,1,2,0,1,2,0,1,2,0,1,2,0,1,2,0,1,2,0,1,2,0,1,2,0,1,2,0,1,2,0,1,2,0,1,2,0,1,2,0,1,2,0,1,2,0,1,2,0,1,2,0,1,2,0,1,2,0,1,2,0,1,2,0,1,2,0,1,2,0,1,2,0,1,2,0,1,2,0,1,2,0,1,2,0,1,2,0,1,2,0,1,2,0,1,2,0,1,2,0,1,2,0,1,2,0,1,2,0,1,2,0,1,2,0,1,2,0,1,2,0,1,2,0,1,2,0,1,2,0,1,2,0,1,2,0,1,2,0,1,2,0,1,2,0,1,2,0,1,2,0,1,2,0,1,2,0,1,2,0,1,2,0,1,2,0,1,2,0,1,2,0,1,2,0,1,2,0,1,2,0,1,2,0,1,2,0,1,2,0,1,2,0,1,2,0,1,2,0,1,2,0,1,2,0,1,2,0,1,2,0,1,2,0,1,2,0,1,2,0,1,2,0,1,2,0,1,2,0,1,2,0,1,2,0,1,2,0,1,2,0,1,2,0,1,2,0,1,2,0,1,2,0,1,2,0,1,2,0,1,2,0,1,2,0,1,2,0,1,2,0,1,2,0,1,2,0,1,2,0,1,2,0,1,2,0,1,2,0,1,2,0,1,2,0,1,2,0,1,2,0,1,2,0,1,2,0,1,2,0,1,2,0,1,2,0,1,2,0,1,2,0,1,2,0,1,2,0,1,2,0,1,2,0,1,2,0,1,2,0,1,2,0,1,2,0,1,2,0,1,2,0,1,2,0,1,2,0,1,2,0,1,2,0,1,2,0,1,2,0,1,2,0,1,2,0,1,2,0,1,2,0,1,2],"trees":[{"base_weights":[-3.8793954E-1,-5.411653E-1,-1.9509746E-1,-7.04513E-1,-4.1469422E-1,-5.6283217E-2,-4.431572E-1,-1.5366303E-3,-7.3694927E-1,-6.9009674E-1,-2.1549815E-1,4.7868481E-4,-1.3415936E-1,-1.9161219E-2,-3.6984032E-1,-6.3143057E-1,-1.8512845E-2,-8.295874E-1,-3.098686E-1,-4.964671E-1,-1.727028E-1,-9.6004106E-2,-8.901368E-3,-3.1818226E-1,-1.8993808E-2,-6.804223E-1,5.648845E-4,-1.8308857E-2,-2.5592581E-3,-5.174851E-1,6.862325E-4,-3.7944087E-4,-1.6516155E-2,-6.656451E-2,-3.6160943E-1,-1.51316775E-2,-1.7045543E-1,-4.530676E-1,-1.3658115E-1,-4.203479E-1,-7.766181E-1,-4.0883124E-3,-1.4965388E-2,-2.3669787E-1,4.2509302E-4,5.19379E-4,-4.364475E-1,-9.858164E-2,8.978517E-4,-7.909237E-3,-8.847522E-2,-6.0633236E-1,-1.2609676E-1,-1.4798534E-2,-2.0841746E-2,-2.2854E-3,-1.2651015E-2,-7.097494E-3,-1.7947411E-2,-2.3100413E-3,-7.7681015E-3,-2.726112E-3,-1.1094197E-2,-0E0,-4.4507436E-3,-4.3683024E-3,-4.5876484E-4,-1.045652E-2,-1.8961718E-2,-6.639017E-3,-0E0,8.7271596E-4,-3.0110902E-3],"categories":[],"categories_nodes":[],"categories_segments":[],"categories_sizes":[],"default_left":[0,0,0,0,0,0,0,0,0,0,0,0,0,0,0,0,0,0,0,0,0,0,0,0,0,0,0,0,0,0,0,0,0,0,0,0,0,0,0,0,0,0,0,0,0,0,0,0,0,0,0,0,0,0,0,0,0,0,0,0,0,0,0,0,0,0,0,0,0,0,0,0,0],"id":0,"left_children":[1,3,5,7,9,11,13,-1,15,17,19,-1,21,-1,23,25,-1,27,29,31,33,35,-1,37,-1,39,-1,-1,-1,41,-1,-1,-1,43,45,47,49,51,53,55,57,-1,-1,59,-1,-1,61,63,-1,-1,65,67,69,-1,71,-1,-1,-1,-1,-1,-1,-1,-1,-1,-1,-1,-1,-1,-1,-1,-1,-1,-1],"loss_changes":[3.3740875E1,1.29263E1,1.7404465E1,5.4741974E0,1.958191E1,2.0580244E0,6.299526E0,0E0,4.374649E0,7.7291718E0,2.3608694E0,0E0,1.7950101E0,0E0,4.3036118E0,5.4559937E0,0E0,5.0126266E0,3.0427766E0,3.83773E0,3.5641227E0,8.515971E-1,0E0,3.4316254E0,0E0,3.5340424E0,0E0,0E0,0E0,1.5527182E0,0E0,0E0,0E0,1.8076613E0,1.9837475E0,3.7370217E-1,1.2368772E0,3.9796581E0,4.110735E0,2.4080262E0,4.609787E0,0E0,0E0,6.082134E-1,0E0,0E0,1.6227245E0,3.5548872E-1,0E0,0E0,4.0630615E-1,1.3426056E0,6.299397E-1,0E0,4.532024E-1,0E0,0E0,0E0,0E0,0E0,0E0,0E0,0E0,0E0,0E0,0E0,0E0,0E0,0E0,0E0,0E0,0E0,0E0],"parents":[2147483647,0,0,1,1,2,2,3,3,4,4,5,5,6,6,8,8,9,9,10,10,12,12,14,14,15,15,17,17,18,18,19,19,20,20,21,21,23,23,25,25,29,29,33,33,34,34,35,35,36,36,37,37,38,38,39,39,40,40,43,43,46,46,47,47,50,50,51,51,52,52,54,54],"right_children":[2,4,6,8,10,12,14,-1,16,18,20,-1,22,-1,24,26,-1,28,30,32,34,36,-1,38,-1,40,-1,-1,-1,42,-1,-1,-1,44,46,48,50,52,54,56,58,-1,-1,60,-1,-1,62,64,-1,-1,66,68,70,-1,72,-1,-1,-1,-1,-1,-1,-1,-1,-1,-1,-1,-1,-1,-1,-1,-1,-1,-1],"split_conditions":[3.1381863E-1,-1.8715636E-1,1.8636596E-1,1.3113031E-1,1.1996316E-1,-1.4572364E-1,1.24E0,-4.321138E-3,4.0591577E-1,3.200729E-1,2.191709E-1,2.0228769E-3,1.6832022E-1,-4.972886E-2,2.959076E-1,2.926571E-1,-4.5924477E-2,1.04873694E-1,-1.1055808E-1,5.836E-3,4.2928034E-1,3.816364E-1,-3.2471474E-2,-3.6312288E-1,-4.4506766E-2,1.4430137E-1,5.7456817E-4,-3.7571173E-2,-6.768991E-3,3.9586627E-1,3.6343795E-3,-6.361025E-3,-8.79562E-2,1.2110434E-1,-3.195E-2,-2.406E-2,4.0842384E-1,4.5458367E-1,1.8855947E-1,3.7432787E-1,3.4963346E-1,-9.0128705E-3,-4.2058915E-2,-2.4199748E-2,5.541689E-4,2.4104626E-3,3.523E-3,6.031E-3,5.694662E-3,-2.9105682E-2,3.0708E-2,2.1493512E-1,-9.58E-3,-3.369541E-2,4.3237445E-1,-2.5739875E-2,-2.4148766E-2,-2.6290651E-2,-4.328284E-2,-1.5010113E-2,-6.0009856E-2,-1.635643E-2,-1.6723616E-2,-4.52513E-3,-6.157032E-3,-1.9824225E-2,-7.880724E-3,-3.0278599E-2,-4.4098783E-2,-1.717238E-2,-3.7390215E-5,1.8494928E-3,-4.933096E-3],"split_indices":[4,18,1,1,8,18,29,0,7,5,7,0,1,0,0,4,0,0,18,16,7,5,0,24,0,1,0,0,0,6,0,0,0,1,10,10,7,6,1,7,5,0,0,10,0,0,12,12,0,0,16,0,10,0,6,0,0,0,0,0,0,0,0,0,0,0,0,0,0,0,0,0,0],"split_type":[0,0,0,0,0,0,0,0,0,0,0,0,0,0,0,0,0,0,0,0,0,0,0,0,0,0,0,0,0,0,0,0,0,0,0,0,0,0,0,0,0,0,0,0,0,0,0,0,0,0,0,0,0,0,0,0,0,0,0,0,0,0,0,0,0,0,0,0,0,0,0,0,0],"sum_hessian":[1.148E3,6.39E2,5.09E2,2.78E2,3.61E2,3.27E2,1.82E2,1.4E1,2.64E2,1.51E2,2.1E2,1.6E2,1.67E2,2.3E1,1.59E2,1.64E2,1E2,1.1E2,4.1E1,2.7E1,1.83E2,1.49E2,1.8E1,1.46E2,1.3E1,1.53E2,1.1E1,1E2,1E1,2.6E1,1.5E1,1.1E1,1.6E1,1.18E2,6.5E1,7.3E1,7.6E1,8.3E1,6.3E1,4.2E1,1.11E2,1.1E1,1.5E1,4.1E1,7.7E1,1E1,5.5E1,3.2E1,4.1E1,2E1,5.6E1,5.6E1,2.7E1,1E1,5.3E1,1.7E1,2.5E1,2.2E1,8.9E1,2.3E1,1.8E1,1.5E1,4E1,1.8E1,1.4E1,1.8E1,3.8E1,4.4E1,1.2E1,1E1,1.7E1,3.4E1,1.9E1],"tree_param":{"num_deleted":"0","num_feature":"36","num_nodes":"73","size_leaf_vector":"1"}},{"base_weights":[6.737835E-2,1.6760524E-1,-1.6215603E-1,-5.1460695E-2,2.8321558E-1,-3.1068876E-1,1.5544696E-1,1.7159878E-1,-3.2866624E-1,7.272775E-2,3.594679E-1,1.0197467E-2,-4.5608857E-1,-2.6627782E-1,3.2193264E-1,-1.3532151E-1,3.7776753E-1,-4.387707E-1,1.706642E-1,-8.3386354E-2,3.2878911E-1,3.8248536E-1,-1.9884433E-3,-2.2572225E-1,6.3388404E-3,-2.3265984E-3,-9.769514E-3,-8.862323E-3,-0E0,-1.5054462E-3,4.326129E-1,-4.0127006E-1,9.921308E-3,4.4413963E-1,9.6207415E-4,-9.666801E-3,-4.786848E-3,9.698836E-3,-1.2827655E-3,-2.1165673E-1,1.5721096E-2,1.9461527E-1,9.258493E-3,-0E0,3.931693E-1,-6.74851E-2,-9.86569E-3,4.013627E-3,1.0097242E-2,-5.388242E-3,-9.999173E-3,9.7896485E-3,5.4706833E-3,-5.649455E-3,-4.7216268E-4,-3.5846073E-2,3.5377983E-3,-0E0,7.1458505E-3,2.773566E-1,4.1338155E-1,-5.4706833E-3,2.982665E-3,1.0237034E-3,-5.6190775E-3,7.142266E-3,2.8095387E-3,6.10561E-3,9.059356E-3],"categories":[],"categories_nodes":[],"categories_segments":[],"categories_sizes":[],"default_left":[0,0,0,0,0,0,0,0,0,0,0,0,0,0,0,0,0,0,0,0,0,0,0,0,0,0,0,0,0,0,0,0,0,0,0,0,0,0,0,0,0,0,0,0,0,0,0,0,0,0,0,0,0,0,0,0,0,0,0,0,0,0,0,0,0,0,0,0,0],"id":1,"left_children":[1,3,5,7,9,11,13,15,17,19,21,23,25,27,29,31,33,35,37,39,41,43,-1,45,-1,-1,-1,-1,-1,-1,47,49,-1,51,-1,-1,-1,-1,-1,53,55,57,-1,-1,59,61,-1,-1,-1,-1,-1,-1,-1,-1,-1,63,-1,-1,-1,65,67,-1,-1,-1,-1,-1,-1,-1,-1],"loss_changes":[2.6549704E1,2.0419205E1,1.6549149E1,1.7166372E1,8.35239E0,1.1260389E1,7.807093E0,9.740931E0,6.8831253E0,5.6966643E0,4.1297874E0,5.267855E0,1.1433334E0,1.3882232E0,3.5920382E0,1.0064691E1,1.8981886E0,5.5729485E-1,1.6673093E0,1.1540719E0,7.471614E-1,1.5038147E0,0E0,1.5380647E0,0E0,0E0,0E0,0E0,0E0,0E0,7.571373E-1,3.391695E-1,0E0,2.9480362E-1,0E0,0E0,0E0,0E0,0E0,4.063928E-1,4.2413098E-1,8.1810236E-1,0E0,0E0,6.685219E-1,1.145082E0,0E0,0E0,0E0,0E0,0E0,0E0,0E0,0E0,0E0,7.767782E-1,0E0,0E0,0E0,4.3915653E-1,8.797188E-1,0E0,0E0,0E0,0E0,0E0,0E0,0E0,0E0],"parents":[2147483647,0,0,1,1,2,2,3,3,4,4,5,5,6,6,7,7,8,8,9,9,10,10,11,11,12,12,13,13,14,14,15,15,16,16,17,17,18,18,19,19,20,20,21,21,23,23,30,30,31,31,33,33,39,39,40,40,41,41,44,44,45,45,55,55,59,59,60,60],"right_children":[2,4,6,8,10,12,14,16,18,20,22,24,26,28,30,32,34,36,38,40,42,44,-1,46,-1,-1,-1,-1,-1,-1,48,50,-1,52,-1,-1,-1,-1,-1,54,56,58,-1,-1,60,62,-1,-1,-1,-1,-1,-1,-1,-1,-1,64,-1,-1,-1,66,68,-1,-1,-1,-1,-1,-1,-1,-1],"split_conditions":[7.1719356E0,1.3146888E-1,-1.6465259E-1,-1.6812311E-1,-3.4919307E-1,3.5178536E-1,1.3312109E-1,-7.244304E-2,3.5439786E-1,4.2763042E-1,3.4333363E-1,3.3555353E-1,1.6348809E-1,-1.5288316E-1,3.5178745E-1,-2.6333222E-1,1.4830188E-1,4.3727E-2,-9.25E-3,-3.6312288E-1,-2.5979272E-1,3.3572917E0,-1.044078E-2,2.014E-2,7.510161E-3,-6.972983E-3,-2.0028219E-2,-9.420836E-3,8.8055705E-4,-6.361025E-3,3.7432787E-1,3.7493E-2,2.7296986E-2,3.9203197E-1,7.918136E-3,-1.717238E-2,-1.4316542E-2,1.8423522E-2,-4.8311097E-3,4.3772E-2,3.1382013E-2,4.2724E-2,1.6893607E-2,5.6742667E-3,8.843975E-2,4.5841E-2,-2.1048142E-2,3.838372E-3,1.7301572E-2,-1.1868689E-2,-2.3496015E-2,1.6179642E-2,7.3061683E-3,-5.7490566E-3,-4.117145E-3,1.9948E-2,2.4104626E-3,1.0845399E-3,1.4037769E-2,5.994882E-2,2.1602796E-1,-1.1256731E-2,2.1044835E-3,1.5945117E-3,-3.9131623E-3,8.326112E-3,6.898193E-3,1.49557255E-2,1.9953419E-2],"split_indices":[35,8,19,19,23,5,1,26,5,5,3,5,0,19,8,21,0,15,17,24,21,30,0,14,0,0,0,0,0,0,7,15,0,5,0,0,0,0,0,15,17,15,0,0,0,15,0,0,0,0,0,0,0,0,0,17,0,0,0,0,7,0,0,0,0,0,0,0,0],"split_type":[0,0,0,0,0,0,0,0,0,0,0,0,0,0,0,0,0,0,0,0,0,0,0,0,0,0,0,0,0,0,0,0,0,0,0,0,0,0,0,0,0,0,0,0,0,0,0,0,0,0,0,0,0,0,0,0,0,0,0,0,0,0,0,0,0,0,0,0,0],"sum_hessian":[1.154E3,8.04E2,3.5E2,2.77E2,5.27E2,2.39E2,1.11E2,1.53E2,1.24E2,1.41E2,3.86E2,7.4E1,1.65E2,3.1E1,8E1,6.1E1,9.2E1,1.02E2,2.2E1,8.7E1,5.4E1,3.68E2,1.8E1,4.1E1,3.3E1,1.1E1,1.54E2,1.9E1,1.2E1,1.7E1,6.3E1,4.3E1,1.8E1,7.6E1,1.6E1,8.6E1,1.6E1,1E1,1.2E1,3.9E1,4.8E1,2.7E1,2.7E1,1E1,3.58E2,2.6E1,1.5E1,1.4E1,4.9E1,1.8E1,2.5E1,6.2E1,1.4E1,2.8E1,1.1E1,3.5E1,1.3E1,1.2E1,1.5E1,5.5E1,3.03E2,1.4E1,1.2E1,2.5E1,1E1,3.5E1,2E1,6.6E1,2.37E2],"tree_param":{"num_deleted":"0","num_feature":"36","num_nodes":"69","size_leaf_vector":"1"}},{"base_weights":[5.178704E-1,7.211514E-1,3.7610972E-1,7.763203E-1,1.6062404E-3,2.9494503E-1,7.275954E-1,3.938653E-1,8.140466E-1,2.5592581E-3,-8.1137294E-4,6.012915E-1,2.4185298E-1,4.086031E-3,7.960233E-1,1.2717255E-2,2.742449E-1,7.073329E-1,8.6891073E-1,7.1109724E-1,1.6415132E-4,4.1121017E-2,3.1663153E-1,4.599137E-3,8.49555E-1,8.678896E-3,3.4853285E-3,7.5909144E-1,5.193787E-4,8.91377E-1,1.1600057E-2,7.797184E-3,7.7025634E-1,8.165791E-3,-8.134716E-5,6.1445594E-1,1.7308022E-1,1.8571513E-2,1.1988995E-2,6.704554E-1,1.8080775E-2,1.8748168E-2,7.4889296E-1,1.6947046E-2,1.11481175E-2,6.945562E-1,2.3773062E-1,1.0672062E-1,1.56136025E-2,1.9100765E-2,1.1906779E-2,1.05264345E-2,1.9151326E-2,2.2338764E-3,1.5746495E-2,8.678896E-3,5.193787E-4,6.1759576E-3,6.805745E-4],"categories":[],"categories_nodes":[],"categories_segments":[],"categories_sizes":[],"default_left":[0,0,0,0,0,0,0,0,0,0,0,0,0,0,0,0,0,0,0,0,0,0,0,0,0,0,0,0,0,0,0,0,0,0,0,0,0,0,0,0,0,0,0,0,0,0,0,0,0,0,0,0,0,0,0,0,0,0,0],"id":2,"left_children":[1,3,5,7,9,11,13,15,17,-1,-1,19,21,-1,23,-1,25,27,29,31,-1,33,35,-1,37,-1,-1,39,-1,41,-1,-1,43,-1,-1,45,47,-1,-1,49,-1,-1,51,-1,-1,53,55,57,-1,-1,-1,-1,-1,-1,-1,-1,-1,-1,-1],"loss_changes":[3.295703E1,1.8585587E1,1.9148277E1,6.0377502E0,1.9528775E-1,8.787407E0,4.3378296E0,8.7815475E-1,1.9492493E0,0E0,0E0,5.100004E0,6.997141E0,0E0,3.1570358E0,0E0,2.757764E-1,4.6425705E0,1.4090424E0,1.0401344E0,0E0,2.1873732E0,1.4471054E1,0E0,1.2578964E0,0E0,0E0,1.0506668E0,0E0,5.49942E-1,0E0,0E0,4.3400574E-1,0E0,0E0,3.1207428E0,8.905278E0,0E0,0E0,1.3802567E0,0E0,0E0,1.4565277E0,0E0,0E0,3.903164E0,6.863384E-1,2.9231398E0,0E0,0E0,0E0,0E0,0E0,0E0,0E0,0E0,0E0,0E0,0E0],"parents":[2147483647,0,0,1,1,2,2,3,3,4,4,5,5,6,6,7,7,8,8,11,11,12,12,14,14,16,16,17,17,18,18,19,19,21,21,22,22,24,24,27,27,29,29,32,32,35,35,36,36,39,39,42,42,45,45,46,46,47,47],"right_children":[2,4,6,8,10,12,14,16,18,-1,-1,20,22,-1,24,-1,26,28,30,32,-1,34,36,-1,38,-1,-1,40,-1,42,-1,-1,44,-1,-1,46,48,-1,-1,50,-1,-1,52,-1,-1,54,56,58,-1,-1,-1,-1,-1,-1,-1,-1,-1,-1,-1],"split_conditions":[-2.8323647E-1,3.7491128E-1,-2.3459087E-1,-3.7982965E-1,2.8150922E-1,-2.8990177E-2,5.7746913E-2,3.2782936E-1,-2.790567E-1,4.4227995E-2,-2.2302591E-3,4.46724E-1,1.3146888E-1,2.6481045E-2,2.2693E-2,5.42234E-2,3.2577E-2,1.8757263E-1,2.2042E-2,4.6802264E-2,7.102176E-3,-2.665228E-1,7.1719356E0,2.3217222E-2,-1.46E-2,4.463596E-2,2.1585321E-2,-2.2696872E-1,4.851174E-2,4.0021122E-1,3.1784713E-2,3.0152814E-2,7.1719356E0,3.2192703E-2,-5.4736366E-4,-1.9847551E-1,3.8793543E-1,3.2131504E-2,2.5981264E-2,-1.921956E-1,3.9005898E-2,4.186172E-2,2.8326E-2,3.6476456E-2,3.0764792E-2,-3.2249874E-1,8.843975E-2,2.2178E-2,2.129974E-2,5.442739E-2,2.2890843E-2,1.934146E-2,3.1927507E-2,5.470274E-3,2.9938644E-2,1.9953419E-2,1.3833776E-2,1.0967748E-2,5.9394566E-3],"split_indices":[22,3,21,25,8,10,8,3,21,0,0,7,8,0,15,0,14,0,12,8,0,22,35,0,10,0,0,20,0,8,0,0,35,0,0,20,3,0,0,18,0,0,14,0,0,21,0,14,0,0,0,0,0,0,0,0,0,0,0],"split_type":[0,0,0,0,0,0,0,0,0,0,0,0,0,0,0,0,0,0,0,0,0,0,0,0,0,0,0,0,0,0,0,0,0,0,0,0,0,0,0,0,0,0,0,0,0,0,0,0,0,0,0,0,0,0,0,0,0,0,0],"sum_hessian":[1.153E3,4.73E2,6.8E2,4.39E2,3.4E1,5.53E2,1.27E2,4E1,3.99E2,1E1,2.4E1,8.1E1,4.72E2,1.5E1,1.12E2,1.3E1,2.7E1,1.37E2,2.62E2,6.8E1,1.3E1,1.29E2,3.43E2,1E1,1.02E2,1E1,1.7E1,1.27E2,1E1,2.43E2,1.9E1,1.1E1,5.7E1,1.5E1,1.14E2,1.11E2,2.32E2,8.2E1,2E1,7.6E1,5.1E1,2.02E2,4.1E1,4.4E1,1.3E1,9.1E1,2E1,2.09E2,2.3E1,1.8E1,5.8E1,1.9E1,2.2E1,1.1E1,8E1,1E1,1E1,5.6E1,1.53E2],"tree_param":{"num_deleted":"0","num_feature":"36","num_nodes":"59","size_leaf_vector":"1"}},{"base_weights":[-3.7885347E-1,-1.7637524E-1,-5.202274E-1,-7.582468E-1,-1.18024506E-1,-5.987425E-1,-1.7641427E-1,-8.821914E-3,-1.850284E-2,-5.2651703E-1,-8.0364265E-2,-2.8828955E-1,-6.5460384E-1,-9.1933444E-2,-1.524123E-2,-1.2651015E-2,-5.942748E-3,-1.7503075E-1,-2.1881022E-2,-1.6325308E-2,-1.7506589E-1,-8.504106E-1,-5.761332E-1,-1.614497E-2,-3.5644218E-1,-3.0350128E-1,-0E0,1.331897E-2,-7.26405E-2,-2.7075243E-1,-0E0,-8.009842E-3,-1.8317202E-2,-6.873227E-1,-2.1271661E-1,-1.0337459E-1,5.662897E-4,-2.5592581E-3,-1.027897E-2,-1.3033983E-1,-4.6715027E-1,9.08704E-4,-2.10177E-3,-3.0110902E-3,8.150655E-4,-1.9576772E-4,-1.6352713E-1,-4.0552187E-1,-9.685036E-4,-8.186701E-1,-3.899318E-1,2.2605217E-4,-3.703109E-1,6.623963E-4,-4.685258E-3,-8.009842E-3,-1.7312629E-4,-3.3024277E-3,-1.1979101E-2,-4.4347066E-3,-2.628258E-4,-1.1416456E-2,-3.6626249E-3,-1.7679594E-2,-1.1732443E-2,-1.2627742E-2,-3.7177347E-3,5.19379E-4,-9.8711485E-3],"categories":[],"categories_nodes":[],"categories_segments":[],"categories_sizes":[],"default_left":[0,0,0,0,0,0,0,0,0,0,0,0,0,0,0,0,0,0,0,0,0,0,0,0,0,0,0,0,0,0,0,0,0,0,0,0,0,0,0,0,0,0,0,0,0,0,0,0,0,0,0,0,0,0,0,0,0,0,0,0,0,0,0,0,0,0,0,0,0],"id":3,"left_children":[1,3,5,7,9,11,13,-1,-1,15,17,19,21,23,-1,-1,-1,25,27,-1,29,31,33,35,37,39,41,43,45,47,-1,-1,-1,49,51,53,-1,-1,-1,55,57,-1,-1,-1,-1,-1,59,61,-1,63,65,-1,67,-1,-1,-1,-1,-1,-1,-1,-1,-1,-1,-1,-1,-1,-1,-1,-1],"loss_changes":[3.291971E1,1.5946426E1,1.8166077E1,1.7558537E0,6.512319E0,9.3589325E0,5.9176993E0,0E0,0E0,5.6938934E-1,2.149632E0,4.688322E0,6.8408203E0,2.133757E0,0E0,0E0,0E0,3.41847E0,4.5587993E-1,0E0,1.2267523E0,2.5778275E0,1.3315857E1,3.5175565E-1,6.6300607E-1,2.3187628E0,2.8038758E-1,5.865939E-1,5.5341774E-1,1.2730019E0,0E0,0E0,0E0,9.703178E0,2.874427E0,5.803102E-1,0E0,0E0,0E0,1.2760465E0,1.4292078E0,0E0,0E0,0E0,0E0,0E0,2.7623153E-1,7.9388714E-1,0E0,1.7163086E0,3.5623293E0,0E0,2.2255588E0,0E0,0E0,0E0,0E0,0E0,0E0,0E0,0E0,0E0,0E0,0E0,0E0,0E0,0E0,0E0,0E0],"parents":[2147483647,0,0,1,1,2,2,3,3,4,4,5,5,6,6,9,9,10,10,11,11,12,12,13,13,17,17,18,18,20,20,21,21,22,22,23,23,24,24,25,25,26,26,27,27,28,28,29,29,33,33,34,34,35,35,39,39,40,40,46,46,47,47,49,49,50,50,52,52],"right_children":[2,4,6,8,10,12,14,-1,-1,16,18,20,22,24,-1,-1,-1,26,28,-1,30,32,34,36,38,40,42,44,46,48,-1,-1,-1,50,52,54,-1,-1,-1,56,58,-1,-1,-1,-1,-1,60,62,-1,64,66,-1,68,-1,-1,-1,-1,-1,-1,-1,-1,-1,-1,-1,-1,-1,-1,-1,-1],"split_conditions":[-2.8323647E-1,-3.155921E-1,-2.3459087E-1,-1.5451985E-2,-3.7982965E-1,-2.851E-2,-1.6938303E-1,-4.298692E-2,-4.8592065E-2,-2.934262E-1,-3.4128815E-1,-3.6638147E-1,1.3146888E-1,-1.46E-2,-8.616199E-2,-2.9630361E-2,-1.6022777E-2,5.7753334E0,4.1819668E-1,-3.7246335E-2,-2.4986395E-1,-2.665228E-1,-1.8416144E-1,1.2117763E-1,1.4657809E-1,-3.5561666E-1,4.1108564E-1,5.5176668E-2,-2.065E-2,1.3294943E-1,-7.2696633E-3,-3.300807E-2,-3.7115585E-2,-3.1779924E-1,-2.7495438E-1,5.834106E-2,2.1926754E-3,-5.0072344E-3,-3.8345125E-2,1.4482541E-1,-3.3498546E-1,5.4494194E-3,-1.941984E-2,-5.827446E-3,2.879173E-3,-4.4861212E-3,-1.192E-2,-1.6763483E-1,-3.1384572E-2,-2.058803E-1,1.7177632E-1,-5.7882573E-3,-3.6056268E-1,1.9006951E-3,-1.0452082E-2,-2.8817933E-2,-7.88315E-3,-1.0186363E-2,-2.7919374E-2,-3.624067E-2,-3.7565492E-2,-4.1122116E-2,-2.5585432E-2,-4.46307E-2,-4.242764E-2,-2.9107215E-2,-1.1597572E-2,1.3162056E-3,-2.0659516E-2],"split_indices":[22,21,21,10,25,10,23,0,0,21,23,25,8,10,0,0,0,31,6,0,21,22,18,1,1,23,8,0,9,1,0,0,0,23,21,1,0,0,0,1,22,0,0,0,0,0,10,22,0,18,0,0,25,0,0,0,0,0,0,0,0,0,0,0,0,0,0,0,0],"split_type":[0,0,0,0,0,0,0,0,0,0,0,0,0,0,0,0,0,0,0,0,0,0,0,0,0,0,0,0,0,0,0,0,0,0,0,0,0,0,0,0,0,0,0,0,0,0,0,0,0,0,0,0,0,0,0,0,0,0,0,0,0,0,0,0,0,0,0,0,0],"sum_hessian":[1.156E3,4.76E2,6.8E2,4.3E1,4.33E2,5.53E2,1.27E2,1.4E1,2.9E1,3.6E1,3.97E2,8.5E1,4.68E2,1.11E2,1.6E1,2.5E1,1.1E1,1.5E2,2.47E2,1.5E1,7E1,1.33E2,3.35E2,8.7E1,2.4E1,8.7E1,6.3E1,1.43E2,1.04E2,4.6E1,2.4E1,1.3E1,1.2E2,2.56E2,7.9E1,3.1E1,5.6E1,1E1,1.4E1,4.3E1,4.4E1,4.5E1,1.8E1,1.9E1,1.24E2,6.3E1,4.1E1,2.8E1,1.8E1,1.77E2,7.9E1,3.2E1,4.7E1,1.4E1,1.7E1,1.3E1,3E1,1.3E1,3.1E1,2.9E1,1.2E1,1.6E1,1.2E1,1.47E2,3E1,3.7E1,4.2E1,1E1,3.7E1],"tree_param":{"num_deleted":"0","num_feature":"36","num_nodes":"69","size_leaf_vector":"1"}},{"base_weights":[5.264698E-2,2.5381437E-1,-8.033806E-2,3.712031E-1,-3.601979E-2,-2.0746084E-1,3.357428E-2,9.526444E-3,2.7961308E-1,1.4632566E-1,-1.0067671E-2,-3.070987E-1,-6.860114E-3,-2.5003368E-1,2.0506409E-1,1.6773918E-1,3.8223693E-1,-1.0377104E-1,3.4442666E-1,-3.580321E-1,9.81435E-3,2.416036E-1,-2.9911005E-1,4.420809E-2,-4.2737922E-1,4.0164483E-1,6.533293E-2,2.863647E-1,-3.8294783E-3,4.1889107E-1,1.5393187E-3,-2.2515376E-1,4.181034E-3,2.5565699E-3,4.1678494E-1,-9.298893E-2,-4.108457E-1,3.0328962E-1,-0E0,-3.9114392E-1,-0E0,-1.9461527E-1,3.2310885E-1,-9.841588E-3,-3.0660918E-3,2.7358165E-1,9.4606355E-3,9.921308E-3,-0E0,3.7754142E-1,-2.3265984E-3,9.211307E-3,3.5791981E-3,-2.4205986E-3,-7.889906E-3,5.4706833E-3,9.999173E-3,-8.207954E-3,9.782263E-3,-1.7870322E-1,-4.6878392E-1,3.7513566E-1,1.9686602E-3,-3.5377983E-3,-1.0006874E-2,-9.6207415E-4,-7.889906E-3,9.841854E-3,1.5393187E-3,1.5393187E-3,7.1902154E-3,1.4779717E-1,-1.9509225E-1,5.480939E-3,9.99083E-3,7.6965935E-4,-9.86569E-3,-9.984105E-3,-6.5215086E-3,9.961035E-3,3.5377983E-3,-5.4975663E-4,5.773187E-3,-7.2131627E-3,2.473233E-4],"categories":[],"categories_nodes":[],"categories_segments":[],"categories_sizes":[],"default_left":[0,0,0,0,0,0,0,0,0,0,0,0,0,0,0,0,0,0,0,0,0,0,0,0,0,0,0,0,0,0,0,0,0,0,0,0,0,0,0,0,0,0,0,0,0,0,0,0,0,0,0,0,0,0,0,0,0,0,0,0,0,0,0,0,0,0,0,0,0,0,0,0,0,0,0,0,0,0,0,0,0,0,0,0,0],"id":4,"left_children":[1,3,5,7,9,11,13,-1,15,17,-1,19,21,23,25,27,29,31,33,35,-1,37,39,41,43,45,47,49,-1,51,-1,53,-1,-1,55,57,59,61,-1,63,-1,65,67,-1,-1,69,-1,-1,71,73,-1,-1,-1,-1,-1,-1,-1,-1,-1,75,77,79,-1,-1,-1,-1,-1,-1,-1,-1,-1,81,83,-1,-1,-1,-1,-1,-1,-1,-1,-1,-1,-1,-1],"loss_changes":[3.0914669E1,1.5732948E1,1.0092381E1,2.6949806E0,1.109759E1,6.498823E0,1.774106E1,0E0,1.8053198E0,4.7162275E0,0E0,8.761957E0,8.001597E0,7.243022E0,6.1482162E0,3.481963E0,8.5697174E-1,1.5414369E0,7.072072E-1,2.7599297E0,0E0,8.7931013E-1,1.4039407E0,3.42854E0,1.1571865E0,5.670891E-1,3.6859934E0,2.3282151E0,0E0,4.585123E-1,0E0,3.9232624E-1,0E0,0E0,2.3928022E-1,6.1808076E0,2.1410522E0,5.8251476E-1,0E0,6.81201E-1,0E0,6.5857375E-1,8.102734E-1,0E0,0E0,3.9520717E-1,0E0,0E0,3.3447533E0,4.3694496E-1,0E0,0E0,0E0,0E0,0E0,0E0,0E0,0E0,0E0,2.4193792E0,2.2037315E-1,6.1379147E-1,0E0,0E0,0E0,0E0,0E0,0E0,0E0,0E0,0E0,1.6223617E0,1.726144E0,0E0,0E0,0E0,0E0,0E0,0E0,0E0,0E0,0E0,0E0,0E0,0E0],"parents":[2147483647,0,0,1,1,2,2,3,3,4,4,5,5,6,6,8,8,9,9,11,11,12,12,13,13,14,14,15,15,16,16,17,17,18,18,19,19,21,21,22,22,23,23,24,24,25,25,26,26,27,27,29,29,31,31,34,34,35,35,36,36,37,37,39,39,41,41,42,42,45,45,48,48,49,49,59,59,60,60,61,61,71,71,72,72],"right_children":[2,4,6,8,10,12,14,-1,16,18,-1,20,22,24,26,28,30,32,34,36,-1,38,40,42,44,46,48,50,-1,52,-1,54,-1,-1,56,58,60,62,-1,64,-1,66,68,-1,-1,70,-1,-1,72,74,-1,-1,-1,-1,-1,-1,-1,-1,-1,76,78,80,-1,-1,-1,-1,-1,-1,-1,-1,-1,82,84,-1,-1,-1,-1,-1,-1,-1,-1,-1,-1,-1,-1],"split_conditions":[-2.8323647E-1,1.8636596E-1,-1.8416144E-1,-1.4572364E-1,7.1232257E0,-3.1779924E-1,-3.18E-3,1.9750379E-2,-3.4128815E-1,-3.4919307E-1,-2.91051E-2,5.367376E0,3.7310305E-1,-2.4620946E-1,-2.1685569E-1,-3.5561666E-1,-1.211E-2,-1.2025593E-2,2.0572E-2,7.1719356E0,2.898403E-2,-2.0074452E-1,4.7187E-2,-3.128543E-1,4.3727E-2,3.520173E-1,-1.7835133E-1,-1.19657874E-1,-3.8333433E-3,2.5364E-2,2.7724688E-3,3.9848E-2,1.3543078E-2,4.2982795E-3,-2.5169116E-1,2.7156064E-1,1.391966E-1,-6.43E-3,6.399232E-4,3.391E-2,3.5980786E-4,3.0578727E-2,4.606E-3,-1.8046012E-2,-6.9305156E-3,-2.30979E-1,1.8451506E-2,2.1828746E-2,-2.6397765E-1,4.2724E-2,-6.4477497E-3,1.6359562E-2,1.4654707E-2,-2.3679757E-3,-9.303569E-3,7.7150585E-3,2.7339445E-2,-2.3016732E-2,2.3422157E-2,4.6728E-2,-5.66E-3,4.5034E-2,2.257264E-3,-3.0715615E-3,-1.9242946E-2,-3.0569225E-3,-7.5216778E-3,1.8047715E-2,7.2592166E-3,3.0233355E-3,1.1947827E-2,-1.6125229E-1,-1.922E-2,8.797458E-3,1.3208113E-2,1.0364113E-3,-9.228671E-3,-1.9659102E-2,-1.1052174E-2,1.0416774E-2,5.7250606E-3,-2.1898565E-3,7.12484E-3,-1.3354279E-2,7.208802E-4],"split_indices":[22,1,18,18,35,23,17,0,23,23,0,33,7,23,20,23,9,9,13,35,0,18,15,23,15,7,19,18,0,13,0,16,0,0,20,4,1,9,0,16,0,16,13,0,0,20,0,0,23,15,0,0,0,0,0,0,0,0,0,15,9,15,0,0,0,0,0,0,0,0,0,19,9,0,0,0,0,0,0,0,0,0,0,0,0],"split_type":[0,0,0,0,0,0,0,0,0,0,0,0,0,0,0,0,0,0,0,0,0,0,0,0,0,0,0,0,0,0,0,0,0,0,0,0,0,0,0,0,0,0,0,0,0,0,0,0,0,0,0,0,0,0,0,0,0,0,0,0,0,0,0,0,0,0,0,0,0,0,0,0,0,0,0,0,0,0,0,0,0,0,0,0,0],"sum_hessian":[1.154E3,4.6E2,6.94E2,3.28E2,1.32E2,3.29E2,3.65E2,1.59E2,1.69E2,9.4E1,3.8E1,2.19E2,1.1E2,1.37E2,2.28E2,8.2E1,8.7E1,4.1E1,5.3E1,2.06E2,1.3E1,5.9E1,5.1E1,5.1E1,8.6E1,9.4E1,1.34E2,6.2E1,2E1,7.7E1,1E1,3E1,1.1E1,1.4E1,3.9E1,3.5E1,1.71E2,4.7E1,1.2E1,3.9E1,1.2E1,2.7E1,2.4E1,7.1E1,1.5E1,3.2E1,6.2E1,1.8E1,1.16E2,5.1E1,1.1E1,6.7E1,1E1,1.9E1,1.1E1,1.4E1,2.5E1,2.3E1,1.2E1,3.5E1,1.36E2,3.4E1,1.3E1,1.3E1,2.6E1,1.6E1,1.1E1,1.4E1,1E1,1E1,2.2E1,6.6E1,5E1,2.7E1,2.4E1,2E1,1.5E1,1.18E2,1.8E1,2.1E1,1.3E1,2.8E1,3.8E1,2.9E1,2.1E1],"tree_param":{"num_deleted":"0","num_feature":"36","num_nodes":"85","size_leaf_vector":"1"}},{"base_weights":[5.071653E-1,3.5863858E-1,6.917725E-1,6.7070746E-1,2.5302413E-1,7.835478E-1,3.3447745E-1,-6.3489325E-4,7.33588E-1,1.11056805E-1,3.7376297E-1,8.490912E-1,6.553901E-1,3.343582E-2,5.5253464E-1,3.8981423E-1,8.1462175E-1,1.0309029E-2,2.1140556E-1,1.313705E-1,6.6585135E-1,7.7522266E-1,9.190118E-1,1.8313663E-2,5.4540837E-1,3.235036E-3,-8.3454704E-4,3.235036E-3,7.117352E-1,2.4919834E-3,1.4286393E-2,1.9222429E-2,7.653933E-1,-5.428233E-4,5.0418326E-3,4.7032896E-2,3.3941987E-1,5.454599E-2,5.877306E-1,4.685258E-3,7.375461E-1,1.7133677E-2,6.592778E-1,1.933607E-2,7.377306E-1,3.4891933E-1,6.9099295E-1,1.7799433E-2,7.364857E-3,9.65162E-3,8.03956E-1,4.685258E-3,-8.6351467E-4,5.335041E-1,1.7807683E-1,1.92376E-2,8.678896E-3,1.8878292E-2,4.599137E-3,1.7706985E-2,4.987392E-1,4.599137E-3,7.6422083E-1,1.0718776E-2,1.8878292E-2,1.52149275E-2,2.0014878E-1,8.762323E-3,7.582468E-1,1.4967463E-2,1.9178629E-2,1.52149275E-2,7.5916816E-3,8.821914E-3,-0E0,-1.7091265E-4,6.639017E-3,1.4286393E-2,7.631466E-3,1.8274315E-2,1.1416456E-2,-5.1937916E-4,6.5126666E-3,1.7243307E-2,1.0462223E-2],"categories":[],"categories_nodes":[],"categories_segments":[],"categories_sizes":[],"default_left":[0,0,0,0,0,0,0,0,0,0,0,0,0,0,0,0,0,0,0,0,0,0,0,0,0,0,0,0,0,0,0,0,0,0,0,0,0,0,0,0,0,0,0,0,0,0,0,0,0,0,0,0,0,0,0,0,0,0,0,0,0,0,0,0,0,0,0,0,0,0,0,0,0,0,0,0,0,0,0,0,0,0,0,0,0],"id":5,"left_children":[1,3,5,7,9,11,13,-1,15,17,19,21,23,25,27,29,31,33,35,37,39,41,43,-1,45,-1,-1,-1,47,-1,-1,-1,49,-1,-1,51,53,55,57,-1,59,-1,61,-1,63,65,67,-1,-1,-1,69,-1,-1,71,73,75,-1,-1,-1,-1,77,-1,79,-1,-1,-1,81,-1,83,-1,-1,-1,-1,-1,-1,-1,-1,-1,-1,-1,-1,-1,-1,-1,-1],"loss_changes":[3.1520966E1,2.0965958E1,1.6645737E1,7.321686E0,8.125841E0,3.074768E0,6.8145046E0,0E0,3.8551865E0,2.1899946E0,1.8141579E1,9.78775E-1,3.3780708E0,4.4759527E-1,3.6121254E0,2.2085423E0,3.3538055E-1,1.0335118E0,2.2197952E0,4.8208623E0,3.4213562E0,6.300354E-1,3.038864E-1,0E0,2.519579E0,0E0,0E0,0E0,2.122675E0,0E0,0E0,0E0,6.783562E-1,0E0,0E0,8.457738E-1,1.7355509E0,1.4886398E0,2.164567E0,0E0,2.7809143E0,0E0,1.987917E0,0E0,4.4095135E-1,2.2481742E0,6.755905E-1,0E0,0E0,0E0,3.2575226E-1,0E0,0E0,6.507735E-1,1.5402662E0,1.0249611E0,0E0,0E0,0E0,0E0,6.40892E-1,0E0,6.9296265E-1,0E0,0E0,0E0,9.052006E-1,0E0,5.852852E-1,0E0,0E0,0E0,0E0,0E0,0E0,0E0,0E0,0E0,0E0,0E0,0E0,0E0,0E0,0E0,0E0],"parents":[2147483647,0,0,1,1,2,2,3,3,4,4,5,5,6,6,8,8,9,9,10,10,11,11,12,12,13,13,14,14,15,15,16,16,17,17,18,18,19,19,20,20,21,21,22,22,24,24,28,28,32,32,35,35,36,36,37,37,38,38,40,40,42,42,44,44,45,45,46,46,50,50,53,53,54,54,55,55,60,60,62,62,66,66,68,68],"right_children":[2,4,6,8,10,12,14,-1,16,18,20,22,24,26,28,30,32,34,36,38,40,42,44,-1,46,-1,-1,-1,48,-1,-1,-1,50,-1,-1,52,54,56,58,-1,60,-1,62,-1,64,66,68,-1,-1,-1,70,-1,-1,72,74,76,-1,-1,-1,-1,78,-1,80,-1,-1,-1,82,-1,84,-1,-1,-1,-1,-1,-1,-1,-1,-1,-1,-1,-1,-1,-1,-1,-1],"split_conditions":[3.1381863E-1,2.3716399E-1,3.4384617E-1,1.69193E-1,5.732258E-1,3.09931E-1,-2.318932E-1,-9.96101E-3,-2.826903E-1,3.5965E-2,1.090422E-1,3.533602E-1,3.3692506E-1,3.7491128E-1,2.5654E-2,3.00693E-1,1.9243054E-1,-1.6481492E-1,2.9869968E-1,3.8332576E-1,1.0602911E-1,-1.945E-2,4.064604E-1,4.0643983E-2,4.1211E-2,3.8332615E-2,-3.133302E-3,1.5643176E-2,-1.077E-2,1.355158E-2,3.4194615E-2,3.415851E-2,-1.14E-3,-1.7292561E-3,1.0346234E-2,2.1875E-2,2.0885658E-1,4.9829E-2,1.5939084E-1,4.7467286E-3,3.990708E-1,3.0886564E-2,2.386565E-1,4.5617923E-2,2.4944E-2,-2.567E-2,3.1142893E-1,3.5729505E-2,1.54391825E-2,2.5825609E-2,4.2315677E-2,5.246536E-3,-2.157639E-3,4.3974E-2,4.1525942E-1,3.4448296E-1,2.9537724E-2,3.1040648E-2,2.594087E-2,3.4661446E-2,1.3905336E-2,1.767314E-2,2.935519E-1,1.8946918E-2,2.6501317E-2,2.8665923E-2,-1.8636191E-2,2.0506412E-2,3.1821E-2,3.1894244E-2,2.702596E-2,4.8716977E-2,2.177371E-2,2.0852204E-2,1.6671309E-3,-9.0337294E-4,3.153602E-2,2.2677146E-2,1.0381363E-2,2.6810238E-2,1.7877134E-2,-1.1162983E-3,4.5440473E-2,2.670529E-2,2.0098446E-2],"split_indices":[4,3,3,5,28,3,26,0,22,17,8,4,5,3,14,4,4,19,3,5,4,9,8,0,15,0,0,0,9,0,0,0,13,0,0,14,4,15,4,0,5,0,3,0,14,9,3,0,0,0,15,0,0,15,6,3,0,0,0,0,12,0,3,0,0,0,9,0,17,0,0,0,0,0,0,0,0,0,0,0,0,0,0,0,0],"split_type":[0,0,0,0,0,0,0,0,0,0,0,0,0,0,0,0,0,0,0,0,0,0,0,0,0,0,0,0,0,0,0,0,0,0,0,0,0,0,0,0,0,0,0,0,0,0,0,0,0,0,0,0,0,0,0,0,0,0,0,0,0,0,0,0,0,0,0,0,0,0,0,0,0,0,0,0,0,0,0,0,0,0,0,0,0],"sum_hessian":[1.159E3,6.43E2,5.16E2,1.62E2,4.81E2,4.1E2,1.06E2,1.3E1,1.49E2,2.22E2,2.59E2,2.7E2,1.4E2,4.5E1,6.1E1,2.9E1,1.2E2,1.12E2,1.1E2,1.42E2,1.17E2,1.33E2,1.37E2,4.3E1,9.7E1,1.8E1,2.7E1,1.8E1,4.3E1,1.6E1,1.3E1,3.2E1,8.8E1,9.6E1,1.6E1,4.9E1,6.1E1,1.22E2,2E1,1.7E1,1E2,8.4E1,4.9E1,1.17E2,2E1,4.2E1,5.5E1,2.9E1,1.4E1,1.1E1,7.7E1,1.7E1,3.2E1,2.7E1,3.4E1,1.12E2,1E1,1E1,1E1,6.4E1,3.6E1,1E1,3.9E1,1E1,1E1,1.1E1,3.1E1,1.2E1,4.3E1,5.2E1,2.5E1,1.1E1,1.6E1,1.4E1,2E1,1.02E2,1E1,1.3E1,2.3E1,2.3E1,1.6E1,1E1,2.1E1,3.1E1,1.2E1],"tree_param":{"num_deleted":"0","num_feature":"36","num_nodes":"85","size_leaf_vector":"1"}},{"base_weights":[-3.6258072E-1,-2.6483202E-1,-5.970287E-1,-1.413849E-1,-4.836366E-1,-7.6523966E-1,-3.230829E-1,-1.18543E-1,-5.801845E-1,-3.6361572E-1,-8.370495E-1,-1.328697E-1,-8.547216E-1,5.580415E-4,-5.904741E-1,-5.4682568E-2,-2.5034347E-1,-5.362524E-3,-1.742467E-2,-7.04715E-1,-2.4910805E-1,-1.11481175E-2,-1.8275488E-2,-4.4507436E-3,-2.628258E-4,-5.647755E-1,-8.974816E-1,-1.729689E-2,-4.7460023E-1,-7.4109426E-3,-2.1339484E-1,-3.477692E-1,-2.6624745E-2,-5.8207256E-1,-1.9100765E-2,-3.521552E-2,-5.160363E-1,-1.7069362E-2,-6.4407033E-3,-1.2758655E-2,-1.8650966E-2,-5.920165E-1,-2.9936868E-3,-1.14746645E-1,1.1826911E-2,-1.082574E-1,-4.0210047E-1,-1.2065986E-2,-2.8051278E-1,-3.0110902E-3,8.530862E-4,-1.5263485E-2,-2.5592581E-3,-4.5991377E-3,-1.7744745E-4,-7.667692E-1,-8.9059725E-2,-1.8961718E-2,-4.201845E-1,5.648845E-4,-3.5729252E-3,-2.3100413E-3,5.71231E-4,-4.7211414E-3,3.7636669E-6,-2.628258E-4,-1.4650141E-2,-7.4536577E-3,-1.2276912E-3,-1.3953177E-2,-1.902131E-2,6.862325E-4,-5.362524E-3,-5.9078005E-3,-1.15060555E-2],"categories":[],"categories_nodes":[],"categories_segments":[],"categories_sizes":[],"default_left":[0,0,0,0,0,0,0,0,0,0,0,0,0,0,0,0,0,0,0,0,0,0,0,0,0,0,0,0,0,0,0,0,0,0,0,0,0,0,0,0,0,0,0,0,0,0,0,0,0,0,0,0,0,0,0,0,0,0,0,0,0,0,0,0,0,0,0,0,0,0,0,0,0,0,0],"id":6,"left_children":[1,3,5,7,9,11,13,15,17,19,21,23,25,-1,27,29,31,-1,-1,33,35,-1,-1,-1,-1,37,39,-1,41,43,45,47,49,51,-1,53,55,-1,-1,-1,-1,57,-1,59,61,63,65,-1,67,-1,-1,-1,-1,-1,-1,69,71,-1,73,-1,-1,-1,-1,-1,-1,-1,-1,-1,-1,-1,-1,-1,-1,-1,-1],"loss_changes":[2.5936798E1,2.1617325E1,1.5169975E1,5.0004187E0,1.2006279E1,1.1470886E1,1.213235E1,4.057816E0,1.899518E0,8.241634E0,8.9445496E-1,2.0945436E-1,1.8852386E0,0E0,1.8532925E0,2.4366755E0,3.373685E0,0E0,0E0,1.1615582E0,9.171044E0,0E0,0E0,0E0,0E0,1.3429375E0,3.41156E-1,0E0,1.781908E0,5.559367E-1,1.3627665E0,1.5892248E0,4.3172562E-1,2.5172977E0,0E0,4.0160507E-1,7.4980965E0,0E0,0E0,0E0,0E0,1.814764E0,0E0,3.8896197E-1,4.1608995E-1,7.1130896E-1,3.0192757E0,0E0,1.522675E0,0E0,0E0,0E0,0E0,0E0,0E0,2.2036743E-1,6.321198E-1,0E0,2.6014853E-1,0E0,0E0,0E0,0E0,0E0,0E0,0E0,0E0,0E0,0E0,0E0,0E0,0E0,0E0,0E0,0E0],"parents":[2147483647,0,0,1,1,2,2,3,3,4,4,5,5,6,6,7,7,8,8,9,9,10,10,11,11,12,12,14,14,15,15,16,16,19,19,20,20,25,25,26,26,28,28,29,29,30,30,31,31,32,32,33,33,35,35,36,36,41,41,43,43,44,44,45,45,46,46,48,48,55,55,56,56,58,58],"right_children":[2,4,6,8,10,12,14,16,18,20,22,24,26,-1,28,30,32,-1,-1,34,36,-1,-1,-1,-1,38,40,-1,42,44,46,48,50,52,-1,54,56,-1,-1,-1,-1,58,-1,60,62,64,66,-1,68,-1,-1,-1,-1,-1,-1,70,72,-1,74,-1,-1,-1,-1,-1,-1,-1,-1,-1,-1,-1,-1,-1,-1,-1,-1],"split_conditions":[7.1719356E0,-1.1281532E-1,-1.6481492E-1,3.4384617E-1,-1.310877E-1,-2.789158E-1,-2.3806201E-1,3.9553455E-1,-8.586967E-3,-2.3506382E-1,2.1003902E-1,1.9567E-2,3.4963346E-1,1.4117277E-3,-3.750733E-1,-1.9611906E-1,4.289587E-1,-3.1239564E-2,-2.9209519E-2,1.8855947E-1,-1.6954426E-1,-3.1579383E-2,-3.7220586E-2,-1.6585497E-2,-1.8983607E-3,-3.2783124E-1,1.5105028E-1,-4.0434025E-2,2.1636E-2,-2.06E-2,-2.761147E-1,-3.7982965E-1,2.8428572E-1,-1.0482782E-1,-4.4294644E-2,-3.520575E-1,-1.9864474E-1,-4.7804847E-2,-3.952706E-2,-1.5583043E-2,-4.372028E-2,4.3598133E-1,-7.858754E-3,-2.5E-4,-2.4182202E-1,-3.170531E-1,-3.3074912E-1,-2.761842E-2,2.5586E-2,-1.6001845E-2,4.663045E-3,-3.5457343E-2,-1.9587297E-2,-3.1302456E-2,-3.108994E-3,-3.5685813E-1,2.618783E-1,-4.2908482E-2,8.902E-3,1.3344921E-3,-7.4478365E-3,-1.0348047E-2,2.2681523E-3,-1.5893789E-2,-2.6325996E-3,-1.746588E-2,-8.44044E-2,-2.4359759E-2,-8.509865E-3,-3.0778911E-2,-3.604765E-2,1.1823012E-2,-1.6548283E-2,-1.6494006E-2,-1.4046134E-2],"split_indices":[35,26,19,3,19,20,20,5,11,20,3,12,5,0,24,20,5,0,0,1,19,0,0,0,0,25,1,0,12,11,26,25,27,26,0,25,20,0,0,0,0,6,0,12,20,25,25,0,13,0,0,0,0,0,0,24,3,0,13,0,0,0,0,0,0,0,0,0,0,0,0,0,0,0,0],"split_type":[0,0,0,0,0,0,0,0,0,0,0,0,0,0,0,0,0,0,0,0,0,0,0,0,0,0,0,0,0,0,0,0,0,0,0,0,0,0,0,0,0,0,0,0,0,0,0,0,0,0,0,0,0,0,0,0,0,0,0,0,0,0,0,0,0,0,0,0,0,0,0,0,0,0,0],"sum_hessian":[1.141E3,8.06E2,3.35E2,5.16E2,2.9E2,2.07E2,1.28E2,4.91E2,2.5E1,2.17E2,7.3E1,2.6E1,1.81E2,5.5E1,7.3E1,3.32E2,1.59E2,1.2E1,1.3E1,5.4E1,1.63E2,1.3E1,6E1,1.4E1,1.2E1,2.4E1,1.57E2,2.2E1,5.1E1,2.57E2,7.5E1,1.1E2,4.9E1,3.6E1,1.8E1,9.1E1,7.2E1,1.1E1,1.3E1,1E1,1.47E2,3.7E1,1.4E1,4.1E1,2.16E2,4.9E1,2.6E1,2.3E1,8.7E1,1.9E1,3E1,2.6E1,1E1,1E1,8.1E1,4.5E1,2.7E1,1.2E1,2.5E1,1.1E1,3E1,2.3E1,1.93E2,2.4E1,2.5E1,1.2E1,1.4E1,6.2E1,2.5E1,3.1E1,1.4E1,1.5E1,1.2E1,1.4E1,1.1E1],"tree_param":{"num_deleted":"0","num_feature":"36","num_nodes":"75","size_leaf_vector":"1"}},{"base_weights":[5.64975E-2,-9.123387E-2,2.4315971E-1,-1.9212498E-1,2.6052177E-1,6.662013E-2,4.236294E-1,-8.899869E-2,-3.386146E-1,3.3271348E-1,-6.0617724E-3,-1.062393E-1,3.1843975E-1,4.530028E-1,2.2807685E-1,-3.155769E-1,1.927833E-1,-1.1066563E-1,-4.13991E-1,4.0148667E-1,1.1070112E-2,2.9873922E-1,-2.3294541E-1,3.6202723E-1,-1.5393187E-3,9.571819E-3,4.4260114E-3,7.505091E-3,1.5054462E-3,-4.3588153E-1,-4.420809E-2,2.8321034E-1,-6.832159E-2,-0E0,-2.8773063E-1,-4.4897616E-1,-0E0,2.3265984E-3,4.328453E-1,3.5791981E-3,-1.9686602E-3,8.117434E-3,2.5565699E-3,-5.521489E-2,-9.68094E-3,3.982051E-1,3.0660918E-3,-1.9686602E-3,-9.741365E-3,-2.7096146E-1,9.86569E-3,-2.5565699E-3,3.5422158E-1,8.773063E-2,-6.6760746E-3,3.5377983E-3,-2.4205986E-3,-1.5393187E-3,-9.698836E-3,-9.838741E-3,-3.0660918E-3,9.580434E-3,5.641461E-3,-1.7694177E-1,1.2054121E-1,2.8301612E-1,1.0082987E-2,-9.183221E-3,2.3265984E-3,1.6269082E-3,9.131623E-3,5.6190775E-3,-1.5393187E-3,-6.07555E-3,-7.6965935E-4,6.9277403E-3,-1.9686602E-3,1.9686602E-3,7.5513176E-3],"categories":[],"categories_nodes":[],"categories_segments":[],"categories_sizes":[],"default_left":[0,0,0,0,0,0,0,0,0,0,0,0,0,0,0,0,0,0,0,0,0,0,0,0,0,0,0,0,0,0,0,0,0,0,0,0,0,0,0,0,0,0,0,0,0,0,0,0,0,0,0,0,0,0,0,0,0,0,0,0,0,0,0,0,0,0,0,0,0,0,0,0,0,0,0,0,0,0,0],"id":7,"left_children":[1,3,5,7,9,11,13,15,17,19,-1,21,23,25,27,29,31,33,35,37,39,41,43,45,-1,-1,-1,-1,-1,47,49,51,53,55,57,59,-1,-1,61,-1,-1,-1,-1,63,-1,65,-1,-1,-1,67,-1,-1,69,71,-1,-1,-1,-1,-1,-1,-1,-1,-1,73,75,77,-1,-1,-1,-1,-1,-1,-1,-1,-1,-1,-1,-1,-1],"loss_changes":[3.1887405E1,2.283814E1,1.6160181E1,7.463644E0,5.7659388E0,1.1326184E1,1.2803726E0,1.8864603E1,3.41074E0,2.7080593E0,0E0,7.834783E0,1.8902483E0,6.6680145E-1,6.251308E-1,5.236286E0,3.1457644E0,1.0189404E0,2.230465E0,8.0319405E-1,4.2612892E-1,4.9086356E-1,4.894738E0,6.007204E-1,0E0,0E0,0E0,0E0,0E0,1.456934E0,6.0520782E0,2.8992376E0,1.3923353E0,6.585623E-1,6.6179955E-1,1.258894E0,0E0,0E0,3.5193443E-1,0E0,0E0,0E0,0E0,1.4686483E0,0E0,7.057915E-1,0E0,0E0,0E0,2.5666237E0,0E0,0E0,2.024706E0,6.617998E-1,0E0,0E0,0E0,0E0,0E0,0E0,0E0,0E0,0E0,6.076937E-1,1.3435047E0,5.032666E-1,0E0,0E0,0E0,0E0,0E0,0E0,0E0,0E0,0E0,0E0,0E0,0E0,0E0],"parents":[2147483647,0,0,1,1,2,2,3,3,4,4,5,5,6,6,7,7,8,8,9,9,11,11,12,12,13,13,14,14,15,15,16,16,17,17,18,18,19,19,20,20,21,21,22,22,23,23,29,29,30,30,31,31,32,32,33,33,34,34,35,35,38,38,43,43,45,45,49,49,52,52,53,53,63,63,64,64,65,65],"right_children":[2,4,6,8,10,12,14,16,18,20,-1,22,24,26,28,30,32,34,36,38,40,42,44,46,-1,-1,-1,-1,-1,48,50,52,54,56,58,60,-1,-1,62,-1,-1,-1,-1,64,-1,66,-1,-1,-1,68,-1,-1,70,72,-1,-1,-1,-1,-1,-1,-1,-1,-1,74,76,78,-1,-1,-1,-1,-1,-1,-1,-1,-1,-1,-1,-1,-1],"split_conditions":[3.1381863E-1,-2.3459087E-1,-2.790567E-1,7.1719356E0,-1.6938303E-1,-2.3259352E-1,4.064604E-1,1.3146888E-1,1.5543559E-1,4.179602E-1,-1.930978E-2,3.2157797E-1,-2.8089267E-1,2.2042E-2,-2.436E-2,-2.4986395E-1,-1.9847551E-1,-1.9798541E-1,4.2459008E-1,6.387982E-2,2.1734E-2,-1.307E-2,7.1232257E0,3.901373E-1,-5.150395E-4,2.1387378E-2,9.087592E-3,1.4922177E-2,6.368573E-3,-3.123787E-1,5.379548E-2,1.00754544E-1,8.843975E-2,3.74928E-1,3.2577E-2,-3.3170953E-1,-1.5200037E-3,1.4142586E-2,-1.7109087E-1,3.2391462E-3,-6.5708146E-3,7.294321E-3,4.5570736E-3,-1.916714E-1,-2.208577E-2,1.7963E-2,2.6781762E-2,-1.6631564E-2,-1.8927103E-2,1.8336084E-1,2.3697207E-2,-1.5163959E-2,-3.4338716E-1,4.81E-4,-5.5902456E-3,5.183408E-3,-1.8592391E-3,-1.9305762E-3,-2.3625558E-2,-1.8810663E-2,-5.5514546E-3,1.8616017E-2,1.0250074E-2,4.1254038E-1,8.643E-3,2.1875E-2,1.3152951E-2,-1.3081867E-2,7.9435725E-3,1.8106338E-3,2.039393E-2,5.6395903E-3,-1.9149062E-3,-8.495302E-3,-2.7276473E-3,1.4301971E-2,-3.1431708E-3,4.5358494E-4,1.207311E-2],"split_indices":[4,21,21,35,23,20,8,8,0,7,0,4,21,12,9,21,20,18,8,8,17,9,35,4,0,0,0,0,0,21,8,4,0,8,14,24,0,0,20,0,0,0,0,19,0,12,0,0,0,2,0,0,23,17,0,0,0,0,0,0,0,0,0,4,17,14,0,0,0,0,0,0,0,0,0,0,0,0,0],"split_type":[0,0,0,0,0,0,0,0,0,0,0,0,0,0,0,0,0,0,0,0,0,0,0,0,0,0,0,0,0,0,0,0,0,0,0,0,0,0,0,0,0,0,0,0,0,0,0,0,0,0,0,0,0,0,0,0,0,0,0,0,0,0,0,0,0,0,0,0,0,0,0,0,0,0,0,0,0,0,0],"sum_hessian":[1.155E3,6.44E2,5.11E2,5.01E2,1.43E2,2.59E2,2.52E2,2.95E2,2.06E2,1.27E2,1.6E1,1.53E2,1.06E2,2.18E2,3.4E1,1.64E2,1.31E2,5.2E1,1.54E2,1.04E2,2.3E1,3.6E1,1.17E2,9.6E1,1E1,2.03E2,1.5E1,1.7E1,1.7E1,1.13E2,5.1E1,9.8E1,3.3E1,3.2E1,2E1,1.42E2,1.2E1,1.1E1,9.3E1,1E1,1.3E1,2.2E1,1.4E1,6.8E1,4.9E1,8.1E1,1.5E1,1.3E1,1E2,3.6E1,1.5E1,1.4E1,8.4E1,2E1,1.3E1,1.3E1,1.9E1,1E1,1E1,1.27E2,1.5E1,7.4E1,1.9E1,4.1E1,2.7E1,3.8E1,4.3E1,2.5E1,1.1E1,2.2E1,6.2E1,1E1,1E1,2.1E1,2E1,1.4E1,1.3E1,1.3E1,2.5E1],"tree_param":{"num_deleted":"0","num_feature":"36","num_nodes":"79","size_leaf_vector":"1"}},{"base_weights":[4.8764542E-1,3.326603E-1,6.7998946E-1,2.2806534E-1,7.0909137E-1,8.1693727E-1,4.4066638E-1,1.077451E-1,3.3253613E-1,-6.3489325E-4,7.880369E-1,8.3808696E-1,9.452814E-3,5.817146E-1,1.06332354E-1,2.0446558E-1,1.462176E-2,1.1496258E-1,5.873329E-1,8.485605E-1,1.06707895E-2,1.885344E-2,7.764145E-1,6.5730435E-1,-6.6239655E-4,-0E0,8.821914E-3,1.3360491E-2,1.5347658E-1,-2.2543732E-4,5.942748E-3,1.55619215E-2,5.42016E-2,3.4853285E-3,6.524249E-1,7.5328964E-1,1.8908402E-2,1.7194165E-2,6.8006146E-1,5.1350164E-1,1.7238863E-2,3.741136E-1,8.613432E-2,2.6266474E-1,-0E0,4.086031E-3,7.250512E-1,1.7617192E-2,1.2340894E-2,8.901368E-3,1.5354427E-2,-5.6488474E-4,6.241895E-1,3.3024272E-3,1.2758655E-2,3.4773094E-4,4.9707536E-3,1.6838415E-2,-7.4185064E-4,1.7433407E-2,1.04934955E-2,1.57389E-2,7.484038E-3],"categories":[],"categories_nodes":[],"categories_segments":[],"categories_sizes":[],"default_left":[0,0,0,0,0,0,0,0,0,0,0,0,0,0,0,0,0,0,0,0,0,0,0,0,0,0,0,0,0,0,0,0,0,0,0,0,0,0,0,0,0,0,0,0,0,0,0,0,0,0,0,0,0,0,0,0,0,0,0,0,0,0,0],"id":8,"left_children":[1,3,5,7,9,11,13,15,17,-1,19,21,-1,23,25,27,29,31,33,35,-1,-1,37,39,-1,-1,-1,-1,41,-1,-1,-1,43,-1,45,47,-1,-1,49,51,-1,53,55,57,-1,-1,59,-1,-1,-1,-1,-1,61,-1,-1,-1,-1,-1,-1,-1,-1,-1,-1],"loss_changes":[3.4003723E1,2.4850494E1,1.6472076E1,6.164366E0,8.250008E0,2.110733E0,8.649559E0,2.0448542E0,1.4573917E1,0E0,1.6677094E0,1.2085876E0,0E0,6.2351646E0,1.9852844E0,2.397286E0,9.2125195E-1,5.4685416E0,3.1052818E0,3.4186554E-1,0E0,0E0,7.7939606E-1,2.8261337E0,0E0,0E0,0E0,0E0,1.4025967E0,0E0,0E0,0E0,1.5440059E0,0E0,3.2206726E0,4.0880585E-1,0E0,0E0,1.0360641E0,4.159912E0,0E0,1.033638E0,7.958875E-1,4.9058723E0,0E0,0E0,2.1204681E0,0E0,0E0,0E0,0E0,0E0,1.8441029E0,0E0,0E0,0E0,0E0,0E0,0E0,0E0,0E0,0E0,0E0],"parents":[2147483647,0,0,1,1,2,2,3,3,4,4,5,5,6,6,7,7,8,8,10,10,11,11,13,13,14,14,15,15,16,16,17,17,18,18,19,19,22,22,23,23,28,28,32,32,34,34,35,35,38,38,39,39,41,41,42,42,43,43,46,46,52,52],"right_children":[2,4,6,8,10,12,14,16,18,-1,20,22,-1,24,26,28,30,32,34,36,-1,-1,38,40,-1,-1,-1,-1,42,-1,-1,-1,44,-1,46,48,-1,-1,50,52,-1,54,56,58,-1,-1,60,-1,-1,-1,-1,-1,62,-1,-1,-1,-1,-1,-1,-1,-1,-1,-1],"split_conditions":[3.1381863E-1,-2.3459087E-1,1.8636596E-1,5.732258E-1,1.69193E-1,3.4333363E-1,-2.0253843E-1,1.5687355E-1,1.1996316E-1,-9.757815E-3,4.179602E-1,-1.5551648E-1,4.2596966E-2,2.959076E-1,-2.3527567E-1,-2.3566562E-1,4.210802E-1,1.557326E-1,1.0602911E-1,3.1688908E-1,2.8902575E-2,4.5119796E-2,3.816364E-1,-3.6312288E-1,-5.3992093E-4,4.10985E-3,2.8081179E-2,2.6672082E-2,2.0885658E-1,-2.095808E-3,6.2303147E-3,3.0407466E-2,-1.5166664E-1,4.649907E-3,1.6623545E-1,-1.5352249E-1,2.8438797E-2,2.6914546E-2,4.0842384E-1,2.7949053E-1,4.793976E-2,-2.1809606E-1,-2.204843E-1,1.957218E-1,9.418407E-5,1.0445098E-2,3.990708E-1,3.3209827E-2,3.127423E-2,2.3040328E-2,3.141182E-2,-1.46554075E-2,3.7387225E-1,2.1329561E-2,1.7308012E-2,5.936418E-3,8.003863E-3,3.089272E-2,-5.1165065E-3,3.4576565E-2,2.090903E-2,2.8445186E-2,2.034923E-2],"split_indices":[4,21,1,28,5,3,19,1,8,0,7,18,0,0,20,20,8,2,4,8,0,0,5,24,0,0,0,0,4,0,0,0,18,0,2,18,0,0,7,7,0,20,23,1,0,0,5,0,0,0,0,0,5,0,0,0,0,0,0,0,0,0,0],"split_type":[0,0,0,0,0,0,0,0,0,0,0,0,0,0,0,0,0,0,0,0,0,0,0,0,0,0,0,0,0,0,0,0,0,0,0,0,0,0,0,0,0,0,0,0,0,0,0,0,0,0,0,0,0,0,0,0,0,0,0,0,0,0,0],"sum_hessian":[1.149E3,6.37E2,5.12E2,4.99E2,1.38E2,3.25E2,1.87E2,2.33E2,2.66E2,1.3E1,1.25E2,3.06E2,1.9E1,1.31E2,5.6E1,1.13E2,1.2E2,1.44E2,1.22E2,1.01E2,2.4E1,1.26E2,1.8E2,1.17E2,1.4E1,4.2E1,1.4E1,1.1E1,1.02E2,1.09E2,1.1E1,1.2E1,1.32E2,1.7E1,1.05E2,4.7E1,5.4E1,1.05E2,7.5E1,6.7E1,5E1,2.3E1,7.9E1,2.8E1,1.04E2,1.5E1,9E1,2.6E1,2.1E1,1.8E1,5.7E1,1.1E1,5.6E1,1.3E1,1E1,5.6E1,2.3E1,1E1,1.8E1,5.5E1,3.5E1,3.5E1,2.1E1],"tree_param":{"num_deleted":"0","num_feature":"36","num_nodes":"63","size_leaf_vector":"1"}},{"base_weights":[-3.6542585E-1,-5.139978E-1,-1.8134502E-1,-6.629138E-1,-3.914873E-1,-4.986162E-2,-4.1825753E-1,-4.5739815E-1,-7.7737355E-1,-1.09960385E-1,-5.72641E-1,1.7621066E-2,-1.17196456E-1,-1.9161219E-2,-3.4085196E-1,-6.410363E-1,-1.7312629E-4,-5.722003E-1,-8.395262E-1,-2.2061113E-1,1.4358931E-2,-7.530052E-1,-3.3863708E-1,-3.1976078E-2,9.7180885E-4,-7.229644E-2,-3.208487E-1,-3.731657E-2,-4.52214E-1,-7.8509223E-1,-3.024824E-1,-1.6832624E-2,-3.485329E-3,-1.8287022E-2,-6.938653E-1,-7.989639E-2,-5.573625E-1,9.254943E-4,-2.5592581E-3,-5.5015692E-3,-8.375461E-1,-4.6217117E-1,-7.515375E-2,3.3333426E-4,-1.2879108E-1,8.345468E-4,-1.0231466E-1,-1.0885629E-2,-1.5366303E-3,-4.4507436E-3,8.473325E-4,-1.4896846E-1,-6.3668466E-1,-1.1600057E-2,-1.8559357E-2,-1.0718776E-2,-1.9627253E-3,-5.045484E-1,-1.9084405E-2,-2.3773062E-1,2.2605217E-4,-1.4798534E-2,-7.797184E-3,-8.6766607E-1,-1.2162122E-2,-3.5695317E-1,-1.8923799E-2,7.6965935E-4,-6.639017E-3,5.648845E-4,-6.639017E-3,-5.8384582E-2,-2.8773063E-1,-6.3776135E-2,-7.797184E-3,-1.753991E-2,-4.001318E-1,-1.4286393E-2,-4.5991377E-3,-8.678896E-3,-5.193789E-4,-1.4726698E-2,-1.867419E-2,-2.10177E-3,-9.95499E-3,-2.9071383E-4,-5.0418326E-3,-2.5592581E-3,-8.678896E-3,-0E0,-4.5991377E-3,-2.726112E-3,-1.19889965E-2],"categories":[],"categories_nodes":[],"categories_segments":[],"categories_sizes":[],"default_left":[0,0,0,0,0,0,0,0,0,0,0,0,0,0,0,0,0,0,0,0,0,0,0,0,0,0,0,0,0,0,0,0,0,0,0,0,0,0,0,0,0,0,0,0,0,0,0,0,0,0,0,0,0,0,0,0,0,0,0,0,0,0,0,0,0,0,0,0,0,0,0,0,0,0,0,0,0,0,0,0,0,0,0,0,0,0,0,0,0,0,0,0,0],"id":9,"left_children":[1,3,5,7,9,11,13,15,17,19,21,23,25,-1,27,29,-1,31,33,35,37,39,41,43,-1,45,47,49,51,53,55,-1,-1,-1,57,59,61,-1,-1,-1,63,65,67,-1,69,-1,71,-1,-1,-1,-1,73,75,-1,-1,-1,-1,77,-1,79,-1,-1,-1,81,-1,83,-1,-1,-1,-1,-1,85,87,89,-1,-1,91,-1,-1,-1,-1,-1,-1,-1,-1,-1,-1,-1,-1,-1,-1,-1,-1],"loss_changes":[3.095282E1,1.1216583E1,1.5740507E1,6.354088E0,1.7478382E1,1.5148455E0,6.986307E0,8.24921E0,1.9617004E0,1.9214313E0,8.595367E0,2.4504218E-1,1.4214294E0,0E0,5.220646E0,3.2446117E0,0E0,4.121375E0,7.544937E-1,3.302794E0,2.535134E-1,4.5496597E0,2.862671E0,2.9890665E-1,0E0,4.80635E-1,1.365659E0,6.5663457E-1,6.240299E0,9.869957E-1,8.5928655E-1,0E0,0E0,0E0,1.4769325E0,8.0230814E-1,3.4638882E-1,0E0,0E0,0E0,3.6766815E-1,2.7215958E0,9.182797E-1,0E0,7.1935564E-1,0E0,8.110548E-1,0E0,0E0,0E0,0E0,7.649541E-1,3.43894E0,0E0,0E0,0E0,0E0,1.0296993E0,0E0,6.8633854E-1,0E0,0E0,0E0,2.1105194E-1,0E0,1.5522437E0,0E0,0E0,0E0,0E0,0E0,6.8567646E-1,3.1179976E-1,3.7410372E-1,0E0,0E0,1.572753E0,0E0,0E0,0E0,0E0,0E0,0E0,0E0,0E0,0E0,0E0,0E0,0E0,0E0,0E0,0E0,0E0],"parents":[2147483647,0,0,1,1,2,2,3,3,4,4,5,5,6,6,7,7,8,8,9,9,10,10,11,11,12,12,14,14,15,15,17,17,18,18,19,19,20,20,21,21,22,22,23,23,25,25,26,26,27,27,28,28,29,29,30,30,34,34,35,35,36,36,40,40,41,41,42,42,44,44,46,46,51,51,52,52,57,57,59,59,63,63,65,65,71,71,72,72,73,73,76,76],"right_children":[2,4,6,8,10,12,14,16,18,20,22,24,26,-1,28,30,-1,32,34,36,38,40,42,44,-1,46,48,50,52,54,56,-1,-1,-1,58,60,62,-1,-1,-1,64,66,68,-1,70,-1,72,-1,-1,-1,-1,74,76,-1,-1,-1,-1,78,-1,80,-1,-1,-1,82,-1,84,-1,-1,-1,-1,-1,86,88,90,-1,-1,92,-1,-1,-1,-1,-1,-1,-1,-1,-1,-1,-1,-1,-1,-1,-1,-1],"split_conditions":[3.1381863E-1,-1.8416144E-1,1.8636596E-1,1.9824265E-1,-1.8013144E-1,-1.4572364E-1,1.24E0,4.896129E0,3.2591286E-1,1.8316296E-1,3.200729E-1,-3.4984997E-1,2.145058E-1,-4.6764754E-2,2.29458E-1,-2.90717E-1,-2.3082662E-2,1.6590056E-1,-2.059961E-1,1.4834417E-1,2.962157E-1,-2.9116094E-2,-7.244304E-2,2.4008E-2,6.539212E-3,-2.678E-2,2.333799E-1,2.1495E-2,3.5178536E-1,-3.0546995E-2,-2.340535E-2,-3.473405E-2,-1.17006665E-2,-4.3001827E-2,-2.9388976E-1,-3.180987E-1,9.611E-3,2.6543122E-3,-9.051545E-3,-2.9495005E-2,2.5017E-2,-8.470306E-2,-1.483E-2,1.0831493E-3,-2.065E-2,3.2785304E-3,-1.16107404E-1,-3.0602315E-2,-9.80499E-3,-3.6735788E-2,6.264709E-4,3.707E-2,4.0221757E-1,-3.9458465E-2,-5.616925E-2,-4.936915E-2,-1.8770957E-2,2.1132019E-1,-3.9635826E-2,6.031E-3,-1.8400925E-3,-1.4254951E-2,-1.567543E-2,8.9499265E-2,-4.161202E-2,1.308E-3,-3.9540287E-2,6.076897E-3,-3.6935072E-2,1.3001951E-3,-5.4256916E-2,5.0044E-2,7.921717E-2,2.1734E-2,-1.6247176E-2,-4.146194E-2,8.037E-3,-3.916975E-2,-2.4378128E-2,-2.5773939E-2,-2.0621035E-6,-2.4730837E-2,-6.237461E-2,-1.621072E-2,-1.48417195E-2,-7.454937E-3,-1.8697286E-2,-5.5566295E-3,-2.773317E-2,-1.4260535E-3,-5.435821E-3,-2.8613688E-2,-2.7789393E-2],"split_indices":[4,18,1,2,26,18,29,33,5,2,5,24,2,0,2,26,0,1,18,1,4,10,26,13,0,9,2,13,5,9,10,0,0,0,26,26,13,0,0,0,17,26,10,0,9,0,18,0,0,0,0,16,5,0,0,0,0,2,0,12,0,0,0,4,0,17,0,0,0,0,0,17,1,17,0,0,12,0,0,0,0,0,0,0,0,0,0,0,0,0,0,0,0],"split_type":[0,0,0,0,0,0,0,0,0,0,0,0,0,0,0,0,0,0,0,0,0,0,0,0,0,0,0,0,0,0,0,0,0,0,0,0,0,0,0,0,0,0,0,0,0,0,0,0,0,0,0,0,0,0,0,0,0,0,0,0,0,0,0,0,0,0,0,0,0,0,0,0,0,0,0,0,0,0,0,0,0,0,0,0,0,0,0,0,0,0,0,0,0],"sum_hessian":[1.138E3,6.29E2,5.09E2,2.83E2,3.46E2,3.28E2,1.81E2,1.02E2,1.81E2,1.36E2,2.1E2,1.62E2,1.66E2,2.3E1,1.58E2,7.2E1,3E1,4.3E1,1.38E2,7.3E1,6.3E1,1.18E2,9.2E1,5.8E1,1.04E2,1.37E2,2.9E1,4.3E1,1.15E2,5E1,2.2E1,2.6E1,1.7E1,9.8E1,4E1,5.2E1,2.1E1,5.3E1,1E1,1.8E1,1E2,6.2E1,3E1,3.7E1,2.1E1,2.7E1,1.1E2,1.5E1,1.4E1,1.4E1,2.9E1,4.4E1,7.1E1,1.9E1,3.1E1,1E1,1.2E1,2.3E1,1.7E1,2E1,3.2E1,1E1,1.1E1,8.8E1,1.2E1,5.1E1,1.1E1,2E1,1E1,1.1E1,1E1,9E1,2E1,3.3E1,1.1E1,3.6E1,3.5E1,1.3E1,1E1,1E1,1E1,2.3E1,6.5E1,1.8E1,3.3E1,7.4E1,1.6E1,1E1,1E1,2.3E1,1E1,1.5E1,2E1],"tree_param":{"num_deleted":"0","num_feature":"36","num_nodes":"93","size_leaf_vector":"1"}},{"base_weights":[6.261154E-2,-8.49055E-2,2.4331667E-1,-1.8214494E-1,2.6633778E-1,-1.3993587E-1,3.1720868E-1,-1.3225752E-1,-4.1671968E-1,-9.698836E-3,3.262079E-1,2.644175E-1,-4.3376762E-1,1.7820229E-1,4.1377756E-1,8.50577E-3,-1.5352033E-1,-2.3265984E-3,-4.5729753E-1,3.9587605E-1,-3.773063E-2,8.611621E-3,2.4205986E-3,-1.006411E-2,-4.6825646E-3,3.3435595E-1,3.425908E-2,2.1108164E-1,4.413921E-1,-2.996891E-1,-6.820005E-2,-1.011597E-2,-6.0617724E-3,2.8655443E-1,9.775991E-3,-5.6190775E-3,3.5791981E-3,-2.3265984E-3,4.0339485E-1,-1.2764515E-1,2.120568E-1,7.336697E-3,9.6207415E-4,3.799472E-1,9.994523E-3,-3.5308865E-1,3.0660918E-3,-2.8540012E-1,6.983515E-2,8.502983E-3,1.073625E-1,4.3468633E-1,3.5791981E-3,1.1070112E-2,-2.597928E-1,3.5360733E-1,-3.0551702E-4,4.1476014E-1,3.905304E-3,-2.2893162E-3,-8.550417E-3,-7.294849E-3,3.5377983E-3,-7.810608E-4,4.214158E-3,4.181034E-3,-0E0,5.4706833E-3,9.701272E-3,-3.5791981E-3,3.5377983E-3,-2.3265984E-3,-7.1458505E-3,9.81435E-3,4.786848E-3,6.660553E-3,9.68094E-3],"categories":[],"categories_nodes":[],"categories_segments":[],"categories_sizes":[],"default_left":[0,0,0,0,0,0,0,0,0,0,0,0,0,0,0,0,0,0,0,0,0,0,0,0,0,0,0,0,0,0,0,0,0,0,0,0,0,0,0,0,0,0,0,0,0,0,0,0,0,0,0,0,0,0,0,0,0,0,0,0,0,0,0,0,0,0,0,0,0,0,0,0,0,0,0,0,0],"id":10,"left_children":[1,3,5,7,9,11,13,15,17,-1,19,21,23,25,27,-1,29,-1,31,33,35,-1,-1,-1,-1,37,39,41,43,45,47,-1,-1,49,-1,-1,-1,-1,51,53,55,-1,-1,57,-1,59,-1,61,63,-1,65,67,-1,69,71,73,-1,75,-1,-1,-1,-1,-1,-1,-1,-1,-1,-1,-1,-1,-1,-1,-1,-1,-1,-1,-1],"loss_changes":[3.1014404E1,2.1804192E1,1.4854502E1,5.728155E0,6.0921774E0,1.0021752E1,5.7477303E0,4.7701316E0,9.282818E-1,0E0,3.3333158E0,6.7200875E-1,4.1900158E-1,3.9779305E0,1.284008E0,0E0,4.8857183E0,0E0,2.7531433E-1,7.963791E-1,1.0381837E0,0E0,0E0,0E0,0E0,2.7333736E0,2.7554028E0,6.7953813E-1,4.609337E-1,3.5580826E0,7.638154E0,0E0,0E0,9.919603E-1,0E0,0E0,0E0,0E0,3.8520622E-1,9.5924723E-1,1.561388E0,0E0,0E0,5.205898E-1,0E0,1.9544258E0,0E0,3.325364E0,2.318408E0,0E0,2.2005531E-1,2.6006794E-1,0E0,6.960693E-1,2.2902644E-1,2.6420784E-1,0E0,2.5213718E-1,0E0,0E0,0E0,0E0,0E0,0E0,0E0,0E0,0E0,0E0,0E0,0E0,0E0,0E0,0E0,0E0,0E0,0E0,0E0],"parents":[2147483647,0,0,1,1,2,2,3,3,4,4,5,5,6,6,7,7,8,8,10,10,11,11,12,12,13,13,14,14,16,16,18,18,19,19,20,20,25,25,26,26,27,27,28,28,29,29,30,30,33,33,38,38,39,39,40,40,43,43,45,45,47,47,48,48,50,50,51,51,53,53,54,54,55,55,57,57],"right_children":[2,4,6,8,10,12,14,16,18,-1,20,22,24,26,28,-1,30,-1,32,34,36,-1,-1,-1,-1,38,40,42,44,46,48,-1,-1,50,-1,-1,-1,-1,52,54,56,-1,-1,58,-1,60,-1,62,64,-1,66,68,-1,70,72,74,-1,76,-1,-1,-1,-1,-1,-1,-1,-1,-1,-1,-1,-1,-1,-1,-1,-1,-1,-1,-1],"split_conditions":[3.1381863E-1,-2.3459087E-1,-3.155921E-1,4.3966925E-1,1.69193E-1,-3.3290187E-1,-2.790567E-1,-3.585E-2,8.9896865E-2,-3.1130057E-2,4.179602E-1,2.7589E-2,2.4603E-2,3.8808E-1,-3.27731E-1,2.1388214E-2,-2.049149E-1,-7.1371538E-3,2.2309E-2,3.1688908E-1,3.6255E-2,6.338721E-3,2.1182667E-3,-2.1011978E-2,-1.7249504E-2,3.8408992E-1,-3.5682115E-1,-2.548E-2,3.515899E-1,2.926571E-1,1.1996316E-1,-1.8927172E-2,-1.054655E-2,-1.5352249E-1,1.874237E-2,-6.309482E-3,3.7308605E-3,-3.7523084E-3,-3.705109E-3,-7.891617E-3,-1.453895E-1,1.5813395E-2,3.825377E-3,-1.3069926E-1,2.3128727E-2,2.2178E-2,2.232437E-2,3.787386E-1,-2.541068E-1,1.4639183E-2,2.7749E-2,1.7899E-2,8.37748E-3,-1.554E-2,-1.846E-2,2.346E-2,-6.914466E-4,-3.0303678E-1,6.891277E-3,-8.702018E-3,-1.4867756E-2,-1.6229473E-2,1.5870258E-2,-1.413319E-3,7.281365E-3,1.0244977E-2,5.6474397E-5,3.672538E-3,1.5362573E-2,-6.4348616E-3,6.7332736E-3,-3.7300726E-4,-9.058159E-3,8.237442E-3,6.872446E-3,1.262908E-2,1.9829128E-2],"split_indices":[4,21,21,7,5,21,21,9,4,0,7,16,13,5,26,0,18,0,13,8,16,0,0,0,0,6,24,9,4,4,8,0,0,18,0,0,0,0,11,11,18,0,0,18,0,14,0,5,26,0,14,14,0,11,9,13,0,22,0,0,0,0,0,0,0,0,0,0,0,0,0,0,0,0,0,0,0],"split_type":[0,0,0,0,0,0,0,0,0,0,0,0,0,0,0,0,0,0,0,0,0,0,0,0,0,0,0,0,0,0,0,0,0,0,0,0,0,0,0,0,0,0,0,0,0,0,0,0,0,0,0,0,0,0,0,0,0,0,0,0,0,0,0,0,0,0,0,0,0,0,0,0,0,0,0,0,0],"sum_hessian":[1.162E3,6.39E2,5.23E2,5.01E2,1.38E2,8.4E1,4.39E2,4.14E2,8.7E1,1E1,1.28E2,3.5E1,4.9E1,1.81E2,2.58E2,1.5E1,3.99E2,1.1E1,7.6E1,1.08E2,2E1,1.6E1,1.9E1,3.7E1,1.2E1,8.6E1,9.5E1,3.2E1,2.26E2,1.46E2,2.53E2,6E1,1.6E1,4.8E1,6E1,1E1,1E1,1.1E1,7.5E1,4.9E1,4.6E1,1.6E1,1.6E1,1.02E2,1.24E2,1.31E2,1.5E1,9.9E1,1.54E2,2.7E1,2.1E1,6.5E1,1E1,2.3E1,2.6E1,2.9E1,1.7E1,8.5E1,1.7E1,2.9E1,1.02E2,8.6E1,1.3E1,8.5E1,6.9E1,1.1E1,1E1,1.4E1,5.1E1,1E1,1.3E1,1.1E1,1.5E1,1.3E1,1.6E1,3.6E1,4.9E1],"tree_param":{"num_deleted":"0","num_feature":"36","num_nodes":"77","size_leaf_vector":"1"}},{"base_weights":[4.9996072E-1,6.883325E-1,3.7007973E-1,8.078664E-2,7.503621E-1,2.8470784E-1,7.1290153E-1,6.3167573E-3,-8.411683E-4,6.1943823E-1,8.218349E-1,6.0554403E-1,2.2784713E-1,1.962725E-3,7.706017E-1,1.6236493E-2,4.5322293E-1,8.666856E-1,4.7358164E-1,7.145596E-1,1.6415132E-4,3.772098E-2,3.0361745E-1,4.8715654E-3,8.3067214E-1,1.5484619E-2,3.6539698E-1,1.8682688E-2,7.1257687E-1,3.766908E-3,1.524123E-2,7.797184E-3,7.7335536E-1,5.365665E-3,7.0624235E-3,6.048058E-1,1.63836E-1,1.7994089E-2,1.1600057E-2,1.4798534E-2,2.9143485E-1,8.173316E-1,1.1914798E-2,1.7454391E-2,9.57898E-3,-9.1778464E-4,8.675388E-4,7.56114E-1,4.128641E-1,6.656763E-1,8.94704E-2,1.6558111E-3,8.688973E-3,1.3193083E-2,1.9100765E-2,1.7574672E-2,4.599137E-3,1.386202E-2,6.4137373E-3,8.009842E-3,1.779108E-2,5.823414E-3,7.5586705E-4],"categories":[],"categories_nodes":[],"categories_segments":[],"categories_sizes":[],"default_left":[0,0,0,0,0,0,0,0,0,0,0,0,0,0,0,0,0,0,0,0,0,0,0,0,0,0,0,0,0,0,0,0,0,0,0,0,0,0,0,0,0,0,0,0,0,0,0,0,0,0,0,0,0,0,0,0,0,0,0,0,0,0,0],"id":11,"left_children":[1,3,5,7,9,11,13,-1,-1,15,17,19,21,-1,23,-1,25,27,29,31,-1,33,35,-1,37,-1,39,-1,41,-1,-1,-1,43,45,-1,47,49,-1,-1,-1,51,53,-1,-1,-1,-1,-1,55,57,59,61,-1,-1,-1,-1,-1,-1,-1,-1,-1,-1,-1,-1],"loss_changes":[2.8022858E1,1.7546066E1,1.9803314E1,1.2947081E0,3.641983E0,9.810898E0,4.626549E0,0E0,0E0,4.15308E0,3.966446E0,5.16387E0,6.6438026E0,0E0,3.6986923E0,0E0,1.846281E0,1.4423523E0,2.3007092E0,1.0646324E0,0E0,1.2512479E0,1.3830866E1,0E0,1.1401138E0,0E0,1.4015961E0,0E0,4.63665E-1,0E0,0E0,0E0,1.1248665E0,2.2771357E-1,0E0,2.7625923E0,8.32358E0,0E0,0E0,0E0,1.3463583E0,2.61261E-1,0E0,0E0,0E0,0E0,0E0,2.9784927E0,9.900503E-1,1.3244667E0,1.9653673E0,0E0,0E0,0E0,0E0,0E0,0E0,0E0,0E0,0E0,0E0,0E0,0E0],"parents":[2147483647,0,0,1,1,2,2,3,3,4,4,5,5,6,6,9,9,10,10,11,11,12,12,14,14,16,16,17,17,18,18,19,19,21,21,22,22,24,24,26,26,28,28,32,32,33,33,35,35,36,36,40,40,41,41,47,47,48,48,49,49,50,50],"right_children":[2,4,6,8,10,12,14,-1,-1,16,18,20,22,-1,24,-1,26,28,30,32,-1,34,36,-1,38,-1,40,-1,42,-1,-1,-1,44,46,-1,48,50,-1,-1,-1,52,54,-1,-1,-1,-1,-1,56,58,60,62,-1,-1,-1,-1,-1,-1,-1,-1,-1,-1,-1,-1],"split_conditions":[-2.8323647E-1,-3.155921E-1,-2.3459087E-1,4.370597E-1,-2.790567E-1,-2.8990177E-2,4.200456E-2,4.4432238E-2,-1.4886892E-2,2.1809109E-1,-1.19657874E-1,4.46724E-1,1.3146888E-1,2.477376E-2,3.154541E-1,3.0544436E-2,4.0177312E-1,4.412315E-1,2.2500826E-1,4.6802264E-2,6.871473E-3,3.4448296E-1,7.1719356E0,1.9472422E-2,-1.4480997E-2,4.5617327E-2,5.732258E-1,4.1400705E-2,-1.759E-2,1.0232041E-2,2.5875954E-2,2.8305015E-2,7.1719356E0,-1.3730647E-1,3.0262554E-2,-2.1685569E-1,-3.332889E-1,3.131005E-2,2.4411667E-2,5.146619E-2,1.2723E-2,2.386565E-1,2.4765499E-2,3.4279224E-2,2.8586784E-2,-3.8858403E-3,4.1390257E-3,-1.3444927E-1,-1.4631115E-1,-9.58E-3,1.5543559E-1,1.9119589E-2,2.7000513E-2,1.9666124E-2,3.1731687E-2,2.7354592E-2,2.914968E-2,4.776598E-2,1.6266676E-2,8.622432E-3,2.0861696E-2,1.9094666E-2,3.192763E-3],"split_indices":[22,21,21,6,21,10,8,0,0,2,18,7,8,0,6,0,6,6,3,8,0,3,35,0,10,0,28,0,10,0,0,0,35,18,0,20,21,0,0,0,12,3,0,0,0,0,0,22,18,10,0,0,0,0,0,0,0,0,0,0,0,0,0],"split_type":[0,0,0,0,0,0,0,0,0,0,0,0,0,0,0,0,0,0,0,0,0,0,0,0,0,0,0,0,0,0,0,0,0,0,0,0,0,0,0,0,0,0,0,0,0,0,0,0,0,0,0,0,0,0,0,0,0,0,0,0,0,0,0],"sum_hessian":[1.156E3,4.71E2,6.85E2,4.4E1,4.27E2,5.49E2,1.36E2,1.6E1,2.8E1,1.52E2,2.75E2,8.2E1,4.67E2,1.2E1,1.24E2,7.3E1,7.9E1,2.43E2,3.2E1,6.9E1,1.3E1,1.34E2,3.33E2,1.3E1,1.11E2,1.7E1,6.2E1,1.83E2,6E1,1.6E1,1.6E1,1.1E1,5.8E1,1.22E2,1.2E1,1.05E2,2.28E2,9.2E1,1.9E1,1E1,5.2E1,3.2E1,2.8E1,4.5E1,1.3E1,4.9E1,7.3E1,5.8E1,4.7E1,2.9E1,1.99E2,2.1E1,3.1E1,1.4E1,1.8E1,4.8E1,1E1,1.2E1,3.5E1,1.3E1,1.6E1,4.1E1,1.58E2],"tree_param":{"num_deleted":"0","num_feature":"36","num_nodes":"63","size_leaf_vector":"1"}},{"base_weights":[-3.4463915E-1,-1.5326598E-1,-4.7649434E-1,-9.195003E-2,-6.9488776E-1,-6.4553255E-1,-3.8902113E-1,-5.4179065E-2,-3.3847523E-1,5.19379E-4,-1.8173506E-2,-4.29466E-1,-7.6714504E-1,-5.976309E-1,-2.4121578E-1,-4.0733E-2,-9.65162E-3,-0E0,-4.688653E-1,-5.711658E-1,-0E0,-6.0733247E-1,-1.7914506E-2,-2.3374255E-1,-7.349604E-1,-5.221121E-1,-1.6035871E-1,-2.7325468E-2,-6.8058707E-3,-2.8773063E-1,-1.3008935E-2,-3.7944087E-4,-6.812191E-1,-2.1157329E-1,-8.188653E-1,-8.207257E-2,-1.1416456E-2,-8.379194E-3,-7.855095E-1,-3.614391E-1,-6.9123614E-1,-3.4293035E-1,-7.934216E-2,9.643219E-4,-5.4510202E-2,-2.5592581E-3,-8.678896E-3,-7.856477E-1,-8.165791E-3,-9.65162E-3,5.648845E-4,-1.9193461E-2,-1.11481175E-2,-0E0,-4.8715654E-3,-4.8773062E-1,-8.4437746E-1,-1.0462223E-2,-5.1583317E-3,-9.57898E-3,-1.7685227E-2,-0E0,-4.6640462E-1,-1.1248651E-3,-2.1451178E-1,-2.4266501E-3,-7.098955E-5,-1.7682439E-2,-1.15060555E-2,-1.2758655E-2,-6.639017E-3,-1.4282401E-2,-1.8405296E-2,-6.4731827E-3,-1.6107196E-2,-2.9936868E-3,4.4015242E-4,-7.696593E-4,-6.4731827E-3],"categories":[],"categories_nodes":[],"categories_segments":[],"categories_sizes":[],"default_left":[0,0,0,0,0,0,0,0,0,0,0,0,0,0,0,0,0,0,0,0,0,0,0,0,0,0,0,0,0,0,0,0,0,0,0,0,0,0,0,0,0,0,0,0,0,0,0,0,0,0,0,0,0,0,0,0,0,0,0,0,0,0,0,0,0,0,0,0,0,0,0,0,0,0,0,0,0,0,0],"id":12,"left_children":[1,3,5,7,9,11,13,15,17,-1,-1,19,21,23,25,27,-1,-1,29,31,-1,33,-1,35,37,39,41,43,-1,45,-1,-1,47,49,51,53,-1,-1,55,57,59,61,63,-1,65,-1,-1,67,-1,-1,-1,-1,-1,-1,-1,69,71,-1,-1,-1,-1,-1,73,75,77,-1,-1,-1,-1,-1,-1,-1,-1,-1,-1,-1,-1,-1,-1],"loss_changes":[2.9242538E1,1.5614908E1,9.933914E0,3.8889666E0,6.9902134E0,5.8550415E0,1.3823463E1,1.9695497E0,2.3777204E0,0E0,0E0,5.201254E0,2.280243E0,9.157143E0,5.8967543E0,1.3291318E0,0E0,0E0,9.963989E-1,3.720211E0,0E0,4.937538E0,0E0,2.4130101E0,1.9351578E0,1.3449326E0,2.9729757E0,7.034474E-1,0E0,3.1179976E-1,0E0,0E0,1.2637482E0,1.4861882E0,9.6461105E-1,4.9893954E-1,0E0,0E0,1.7240753E0,3.217826E-1,7.626934E-1,2.5976524E0,1.4801128E0,0E0,8.119142E-1,0E0,0E0,3.325367E-1,0E0,0E0,0E0,0E0,0E0,0E0,0E0,2.1364498E-1,4.167099E-1,0E0,0E0,0E0,0E0,0E0,1.9447393E0,3.3819428E-1,8.5805583E-1,0E0,0E0,0E0,0E0,0E0,0E0,0E0,0E0,0E0,0E0,0E0,0E0,0E0,0E0],"parents":[2147483647,0,0,1,1,2,2,3,3,4,4,5,5,6,6,7,7,8,8,11,11,12,12,13,13,14,14,15,15,18,18,19,19,21,21,23,23,24,24,25,25,26,26,27,27,29,29,32,32,33,33,34,34,35,35,38,38,39,39,40,40,41,41,42,42,44,44,47,47,55,55,56,56,62,62,63,63,64,64],"right_children":[2,4,6,8,10,12,14,16,18,-1,-1,20,22,24,26,28,-1,-1,30,32,-1,34,-1,36,38,40,42,44,-1,46,-1,-1,48,50,52,54,-1,-1,56,58,60,62,64,-1,66,-1,-1,68,-1,-1,-1,-1,-1,-1,-1,70,72,-1,-1,-1,-1,-1,74,76,78,-1,-1,-1,-1,-1,-1,-1,-1,-1,-1,-1,-1,-1,-1],"split_conditions":[-2.8323647E-1,2.021734E-1,3.623E-3,4.4901225E-1,1.8737E-2,8.842217E-3,-2.049149E-1,2.9443E-2,3.7644735E-1,3.540371E-2,-4.623947E-2,4.824E-3,3.7559742E-1,3.5178536E-1,1.7914987E-1,-2.49E-3,-2.9978061E-2,-1.1404988E-3,1.3905336E-2,-3.223E-2,-1.8388044E-2,1.32591E-1,-3.4839477E-2,3.212156E-1,7.1719356E0,-1.968935E-1,-1.8416144E-1,3.9751613E0,-1.8749928E-2,1.7490365E-1,-2.7222529E-2,-1.8322412E-2,3.200729E-1,-2.4135445E-1,3.126096E-1,-1.307E-2,-3.068515E-2,-2.9613107E-2,1.6116156E-1,4.1373E-2,9.1732234E-2,7.1719356E0,-1.9881883E-1,5.6023616E-3,-2.2399801E-1,-1.4829792E-2,-2.8029997E-2,-1.2025593E-2,-5.5513028E-2,-3.0765688E-2,5.877578E-3,-4.1728813E-2,-3.8496554E-2,-4.7011096E-3,-1.591576E-2,1.74E-2,-2.3613557E-1,-1.0572968E-2,-8.062591E-3,-1.8104957E-2,-4.0763192E-2,-1.1461988E-2,8.902E-3,-2.692206E-1,9.090998E-2,-1.0597831E-2,-3.8369324E-3,-7.512745E-2,-3.4039937E-2,-2.4573911E-2,-3.8653564E-2,-2.3857515E-2,-4.8236933E-2,-2.350976E-2,-3.8827308E-2,-8.866908E-3,1.1240994E-3,-1.6470933E-2,-3.579088E-2],"split_indices":[22,0,17,7,15,12,18,12,5,0,0,12,7,5,8,9,0,0,12,9,0,0,0,7,35,22,18,30,0,1,0,0,5,20,7,9,0,0,0,15,0,35,20,0,20,0,0,9,0,0,0,0,0,0,0,12,18,0,0,0,0,0,13,22,1,0,0,0,0,0,0,0,0,0,0,0,0,0,0],"split_type":[0,0,0,0,0,0,0,0,0,0,0,0,0,0,0,0,0,0,0,0,0,0,0,0,0,0,0,0,0,0,0,0,0,0,0,0,0,0,0,0,0,0,0,0,0,0,0,0,0,0,0,0,0,0,0,0,0,0,0,0,0,0,0,0,0,0,0,0,0,0,0,0,0,0,0,0,0,0,0],"sum_hessian":[1.165E3,4.76E2,6.89E2,4.28E2,4.8E1,2.34E2,4.55E2,3.72E2,5.6E1,1E1,3.8E1,8.5E1,1.49E2,1.88E2,2.67E2,3.61E2,1.1E1,1.6E1,4E1,6.4E1,2.1E1,6.2E1,8.7E1,5.2E1,1.36E2,5.9E1,2.08E2,3.46E2,1.5E1,2E1,2E1,1.1E1,5.3E1,2.2E1,4E1,3.6E1,1.6E1,1.9E1,1.17E2,3.1E1,2.8E1,6.3E1,1.45E2,9E1,2.56E2,1E1,1E1,3.8E1,1.5E1,1.1E1,1.1E1,2.7E1,1.3E1,2.3E1,1.3E1,2E1,9.7E1,1.2E1,1.9E1,1.3E1,1.5E1,1.7E1,4.6E1,9.3E1,5.2E1,1.11E2,1.45E2,2.7E1,1.1E1,1E1,1E1,2.9E1,6.8E1,3.2E1,1.4E1,1.4E1,7.9E1,2E1,3.2E1],"tree_param":{"num_deleted":"0","num_feature":"36","num_nodes":"79","size_leaf_vector":"1"}},{"base_weights":[5.8917053E-2,-8.738968E-2,2.4170823E-1,-1.8763503E-1,2.642171E-1,-1.3894583E-1,3.138158E-1,1.3548073E-1,-2.4295203E-1,3.3138582E-1,-5.785931E-3,2.574886E-1,-4.309492E-1,1.785978E-1,4.0529147E-1,2.5855276E-1,-8.245212E-3,-2.8159842E-1,2.3671936E-2,3.9856052E-1,5.0184503E-2,1.073625E-1,9.81435E-3,-3.5791981E-3,-1.006411E-2,2.4009678E-1,-1.9810885E-1,4.269263E-1,1.3773063E-1,1.0184503E-2,8.852244E-3,-1.4477152E-1,-3.5671386E-1,-3.4545773E-1,2.7358165E-1,8.983493E-3,1.9686602E-3,-4.181034E-3,5.4706833E-3,6.0354704E-3,-1.5393187E-3,3.0946404E-1,-4.3262504E-2,-1.0995133E-3,-7.6589566E-3,4.5877308E-1,2.4318369E-1,-0E0,5.6190775E-3,-6.0354704E-3,5.4706833E-3,2.6524853E-2,-9.245164E-3,-3.8386998E-1,1.9686602E-3,-9.7443415E-3,-3.5791981E-3,9.935943E-3,-3.9952228E-4,2.169796E-1,4.213817E-1,-4.254976E-3,4.181034E-3,9.627206E-3,5.1069367E-3,3.4545773E-1,1.7061721E-3,3.0420143E-3,-3.2481137E-3,-2.3265984E-3,-8.088796E-3,1.4835928E-3,6.7561977E-3,9.608597E-3,4.181034E-3,9.7443415E-3,3.5791981E-3],"categories":[],"categories_nodes":[],"categories_segments":[],"categories_sizes":[],"default_left":[0,0,0,0,0,0,0,0,0,0,0,0,0,0,0,0,0,0,0,0,0,0,0,0,0,0,0,0,0,0,0,0,0,0,0,0,0,0,0,0,0,0,0,0,0,0,0,0,0,0,0,0,0,0,0,0,0,0,0,0,0,0,0,0,0,0,0,0,0,0,0,0,0,0,0,0,0],"id":13,"left_children":[1,3,5,7,9,11,13,15,17,19,-1,21,23,25,27,29,-1,31,33,35,37,39,-1,-1,-1,41,43,45,47,49,-1,51,53,55,57,-1,-1,-1,-1,-1,-1,59,61,-1,-1,63,65,-1,-1,-1,-1,67,-1,69,-1,-1,-1,-1,-1,71,73,-1,-1,-1,-1,75,-1,-1,-1,-1,-1,-1,-1,-1,-1,-1,-1],"loss_changes":[3.0792984E1,2.2468761E1,1.4096312E1,8.909645E0,5.200363E0,9.419141E0,5.1878242E0,4.74648E0,4.442518E0,2.2699747E0,0E0,9.9709225E-1,5.8539677E-1,4.064542E0,1.3433342E0,2.4613707E0,0E0,3.7002888E0,4.871564E0,1.144455E0,1.4060909E0,7.7783793E-1,0E0,0E0,0E0,3.0333567E0,5.084551E-1,1.2087288E0,3.7939453E-1,1.9672984E0,0E0,7.131933E0,3.0120697E0,3.1179142E-1,2.1176674E0,0E0,0E0,0E0,0E0,0E0,0E0,1.1061325E0,1.1910115E0,0E0,0E0,3.7200546E-1,4.821198E-1,0E0,0E0,0E0,0E0,1.9333158E0,0E0,6.468811E-1,0E0,0E0,0E0,0E0,0E0,1.0213251E0,4.1442013E-1,0E0,0E0,0E0,0E0,3.1179142E-1,0E0,0E0,0E0,0E0,0E0,0E0,0E0,0E0,0E0,0E0,0E0],"parents":[2147483647,0,0,1,1,2,2,3,3,4,4,5,5,6,6,7,7,8,8,9,9,11,11,12,12,13,13,14,14,15,15,17,17,18,18,19,19,20,20,21,21,25,25,26,26,27,27,28,28,29,29,31,31,32,32,33,33,34,34,41,41,42,42,45,45,46,46,51,51,53,53,59,59,60,60,65,65],"right_children":[2,4,6,8,10,12,14,16,18,20,-1,22,24,26,28,30,-1,32,34,36,38,40,-1,-1,-1,42,44,46,48,50,-1,52,54,56,58,-1,-1,-1,-1,-1,-1,60,62,-1,-1,64,66,-1,-1,-1,-1,68,-1,70,-1,-1,-1,-1,-1,72,74,-1,-1,-1,-1,76,-1,-1,-1,-1,-1,-1,-1,-1,-1,-1,-1],"split_conditions":[3.1381863E-1,-2.3459087E-1,-3.155921E-1,-2.8990177E-2,-1.6938303E-1,-3.3290187E-1,-2.790567E-1,4.3966925E-1,-3.3338675E-1,4.179602E-1,-1.7260933E-2,2.6397E-2,-1.6651848E-2,4.493468E-1,2.2042E-2,-1.6763483E-1,-1.4712407E-2,-2.1461171E-1,-3.237282E-1,-1.46E-2,3.6255E-2,3.5705E-2,7.904607E-3,-1.6101273E-2,-2.1206614E-2,-2.8157368E-1,2.4443E-2,4.0515736E-1,2.3101513E-1,4.230354E-1,2.1659458E-2,4.4048792E-1,4.4030288E-1,3.0578727E-2,-3.222611E-1,1.746125E-2,1.2146742E-2,-6.0534794E-3,3.6547573E-3,2.7866021E-3,-4.0445826E-3,1.7963E-2,4.1211E-2,-3.7997465E-3,-8.976365E-3,-1.5299483E-1,-1.962E-2,2.6617865E-3,1.3338745E-2,-1.3492926E-2,1.6349144E-2,-2.934417E-1,-2.0295406E-2,-3.3330786E-1,1.2596145E-3,-6.562839E-3,-9.040339E-3,1.8450573E-2,-1.8278018E-3,4.1367897E-1,3.882713E-1,-3.0073444E-3,6.87373E-3,2.0479312E-2,1.5073995E-2,-2.6895413E-1,6.8075093E-3,3.461046E-3,-2.9421353E-3,-7.404313E-4,-1.7020913E-2,3.8103973E-3,1.05998535E-2,1.376847E-2,8.847377E-3,1.6730778E-2,5.827193E-3],"split_indices":[4,21,21,10,23,21,21,7,24,7,0,12,10,7,12,22,0,22,23,10,16,16,0,0,0,21,17,8,8,6,0,6,8,16,24,0,0,0,0,0,0,12,15,0,0,19,10,0,0,0,0,23,0,21,0,0,0,0,0,7,4,0,0,0,0,21,0,0,0,0,0,0,0,0,0,0,0],"split_type":[0,0,0,0,0,0,0,0,0,0,0,0,0,0,0,0,0,0,0,0,0,0,0,0,0,0,0,0,0,0,0,0,0,0,0,0,0,0,0,0,0,0,0,0,0,0,0,0,0,0,0,0,0,0,0,0,0,0,0,0,0,0,0,0,0,0,0,0,0,0,0,0,0,0,0,0,0],"sum_hessian":[1.15E3,6.38E2,5.12E2,4.97E2,1.41E2,8.1E1,4.31E2,7.2E1,4.25E2,1.26E2,1.5E1,3.4E1,4.7E1,1.75E2,2.56E2,5.9E1,1.3E1,3.72E2,5.3E1,1.01E2,2.5E1,2.1E1,1.3E1,1E1,3.7E1,1.51E2,2.4E1,2.36E2,2E1,2.5E1,3.4E1,1.33E2,2.39E2,2.1E1,3.2E1,8.8E1,1.3E1,1.1E1,1.4E1,1.1E1,1E1,1.22E2,2.9E1,1.4E1,1E1,2E2,3.6E1,1E1,1E1,1.1E1,1.4E1,8.5E1,4.8E1,2.26E2,1.3E1,1.1E1,1E1,1.9E1,1.3E1,6.8E1,5.4E1,1.8E1,1.1E1,1.87E2,1.3E1,2.1E1,1.5E1,5.2E1,3.3E1,1.1E1,2.15E2,3.1E1,3.7E1,4.3E1,1.1E1,1.1E1,1E1],"tree_param":{"num_deleted":"0","num_feature":"36","num_nodes":"77","size_leaf_vector":"1"}},{"base_weights":[4.7400916E-1,3.288771E-1,6.57362E-1,6.449964E-1,2.642544E-1,7.810112E-1,4.4605613E-1,4.0847105E-3,7.3616236E-1,4.5830867E-1,1.8770623E-1,5.835751E-1,8.545262E-1,2.5834507E-4,5.1990443E-1,5.362524E-3,8.0582833E-1,1.3033982E-1,5.8661675E-1,2.003689E-2,2.6706746E-1,3.7580034E-1,7.295022E-1,1.9295428E-2,1.6755853E-2,2.8006148E-1,7.2621644E-1,1.2162122E-2,8.402214E-1,-6.8623276E-4,2.2695044E-1,6.601554E-1,1.5366301E-3,4.088312E-3,4.790458E-4,1.6563286E-1,5.2992517E-1,3.4853285E-3,1.0969057E-2,1.0684903E-2,1.6831772E-2,5.488056E-1,-0E0,1.9128574E-2,6.584032E-1,1.15060555E-2,1.8175181E-2,-5.6488474E-4,8.285045E-3,3.3024272E-3,7.37094E-1,1.9374692E-3,-3.2307688E-4,7.053677E-2,4.2509225E-1,6.2990546E-1,2.7261116E-3,4.0552187E-1,1.8878292E-2,5.688653E-1,1.6048055E-2,1.6305419E-2,8.009842E-3,4.20342E-3,1.9023693E-4,-7.0708944E-4,1.3231985E-2,7.755305E-3,1.667258E-2,1.11481175E-2,5.4459507E-3,1.4820918E-2,8.45541E-3],"categories":[],"categories_nodes":[],"categories_segments":[],"categories_sizes":[],"default_left":[0,0,0,0,0,0,0,0,0,0,0,0,0,0,0,0,0,0,0,0,0,0,0,0,0,0,0,0,0,0,0,0,0,0,0,0,0,0,0,0,0,0,0,0,0,0,0,0,0,0,0,0,0,0,0,0,0,0,0,0,0,0,0,0,0,0,0,0,0,0,0,0,0],"id":14,"left_children":[1,3,5,7,9,11,13,-1,15,17,19,21,23,-1,25,-1,27,29,31,33,35,37,39,-1,-1,41,43,-1,45,-1,47,49,-1,-1,51,53,55,-1,-1,-1,-1,57,-1,-1,59,-1,-1,-1,-1,-1,61,-1,-1,63,65,67,-1,69,-1,71,-1,-1,-1,-1,-1,-1,-1,-1,-1,-1,-1,-1,-1],"loss_changes":[3.0519562E1,1.2973679E1,1.3024078E1,4.1897697E0,7.8183403E0,4.306259E0,5.9183006E0,0E0,2.7051811E0,6.1783066E0,5.065835E0,2.3969288E0,2.713623E-1,0E0,7.7197495E0,0E0,2.0982742E-1,7.286535E-1,3.8802567E0,3.916885E-1,6.788328E0,1.054007E0,6.722584E-1,0E0,0E0,5.5625443E0,8.4186554E-1,0E0,5.683594E-1,0E0,1.370587E0,3.3829384E0,0E0,0E0,1.9520532E-1,4.541684E0,2.6653194E0,0E0,0E0,0E0,0E0,1.7242012E0,0E0,0E0,4.2562103E-1,0E0,0E0,0E0,0E0,0E0,1.4438934E0,0E0,0E0,1.1002392E0,5.2901106E0,2.3739872E0,0E0,3.4731722E-1,0E0,6.936569E-1,0E0,0E0,0E0,0E0,0E0,0E0,0E0,0E0,0E0,0E0,0E0,0E0,0E0],"parents":[2147483647,0,0,1,1,2,2,3,3,4,4,5,5,6,6,8,8,9,9,10,10,11,11,12,12,14,14,16,16,17,17,18,18,19,19,20,20,21,21,22,22,25,25,26,26,28,28,30,30,31,31,34,34,35,35,36,36,41,41,44,44,50,50,53,53,54,54,55,55,57,57,59,59],"right_children":[2,4,6,8,10,12,14,-1,16,18,20,22,24,-1,26,-1,28,30,32,34,36,38,40,-1,-1,42,44,-1,46,-1,48,50,-1,-1,52,54,56,-1,-1,-1,-1,58,-1,-1,60,-1,-1,-1,-1,-1,62,-1,-1,64,66,68,-1,70,-1,72,-1,-1,-1,-1,-1,-1,-1,-1,-1,-1,-1,-1,-1],"split_conditions":[3.1381863E-1,-2.9116094E-2,2.29458E-1,-3.65074E-1,4.129972E-1,-3.4571633E-1,1.7032285E-1,2.9204207E-2,4.6802264E-2,-3.2167786E-1,1.3146888E-1,3.7342E-2,1.1769667E1,8.194033E-3,-3.097666E-1,2.7727626E-2,1.1641666E1,4.896129E0,-1.649701E-1,-3.3896324E-1,5.732258E-1,-3.1633064E-1,3.942074E-2,4.736928E-2,2.58166E-2,4.2677683E-1,-3.8399702E-1,3.300881E-2,-2.5811088E-1,-7.031364E-3,-3.24E-3,3.154541E-1,1.2730259E-2,2.426841E-2,5.959E-3,2.3108985E-1,4.4558245E-1,3.7286427E-2,2.0778904E-2,4.082167E-2,3.2083783E-2,2.4208616E-1,9.028037E-3,2.3665994E-2,1.8354E-2,3.1975113E-2,3.1809006E-2,-3.2054815E-3,4.6791617E-2,1.868999E-2,3.8967618E-1,7.4533937E-3,-1.3058173E-3,1.8697955E-1,3.1246266E-1,1.7914987E-1,2.3084586E-2,3.2577E-2,4.776065E-2,1.3346E-2,1.9831385E-2,2.926293E-2,2.099801E-2,9.108835E-3,3.1378693E-3,-1.3695868E-3,2.532329E-2,2.0514105E-2,2.7512679E-2,3.3131037E-2,1.9634357E-2,1.9228084E-2,2.6645593E-2],"split_indices":[4,10,2,25,6,23,8,0,8,23,8,14,34,0,22,0,34,33,25,23,28,22,15,0,0,6,23,0,22,0,17,6,0,0,14,2,7,0,0,0,0,2,0,0,12,0,0,0,0,0,8,0,0,2,8,8,0,14,0,17,0,0,0,0,0,0,0,0,0,0,0,0,0],"split_type":[0,0,0,0,0,0,0,0,0,0,0,0,0,0,0,0,0,0,0,0,0,0,0,0,0,0,0,0,0,0,0,0,0,0,0,0,0,0,0,0,0,0,0,0,0,0,0,0,0,0,0,0,0,0,0,0,0,0,0,0,0,0,0,0,0,0,0,0,0,0,0,0,0],"sum_hessian":[1.156E3,6.46E2,5.1E2,1.09E2,5.37E2,3.21E2,1.89E2,1.9E1,9E1,1.51E2,3.86E2,8.8E1,2.33E2,2.8E1,1.61E2,1.2E1,7.8E1,4.3E1,1.08E2,1.25E2,2.61E2,3.7E1,5.1E1,6E1,1.73E2,7.5E1,8.6E1,1.2E1,6.6E1,1.5E1,2.8E1,9.4E1,1.4E1,1.1E1,1.14E2,1.89E2,7.2E1,1.7E1,2E1,1.7E1,3.4E1,3.8E1,3.7E1,2E1,6.6E1,1.1E1,5.5E1,1.1E1,1.7E1,1.3E1,8.1E1,1.9E1,9.5E1,1.39E2,5E1,5.7E1,1.5E1,2.8E1,1E1,4E1,2.6E1,6.8E1,1.3E1,4.2E1,9.7E1,1.6E1,3.4E1,2.5E1,3.2E1,1.3E1,1.5E1,1.9E1,2.1E1],"tree_param":{"num_deleted":"0","num_feature":"36","num_nodes":"73","size_leaf_vector":"1"}},{"base_weights":[-3.3546558E-1,-5.972653E-1,-2.682607E-1,-1.5622127E-1,-7.363386E-1,-5.107753E-1,-1.773134E-1,-7.3055727E-3,-4.880559E-2,-7.9791933E-1,6.34893E-4,-6.404338E-1,-2.2537483E-1,-1.0803251E-1,-3.9568081E-1,1.12639675E-4,-4.5991377E-3,-7.797184E-3,-8.258362E-1,-8.3525115E-1,-3.791164E-1,-1.4734698E-2,-1.6226377E-2,-4.6226095E-2,-2.193625E-1,-6.175205E-1,-0E0,-1.8540854E-2,-7.362449E-1,-8.6766607E-1,-1.0718776E-2,-6.9318366E-1,-7.512138E-2,4.6767012E-4,-3.6626249E-3,-8.678896E-3,-3.360816E-2,-3.0044764E-1,-4.7535803E-2,-8.4645396E-1,-4.6217117E-1,9.035303E-4,-2.726112E-3,-1.7062519E-2,-9.42678E-3,-1.3605469E-2,-1.8471977E-2,-1.8993808E-2,-1.1179082E-2,3.7636669E-6,-4.8715654E-3,-9.742248E-2,1.1046305E-2,6.0280575E-4,-3.386783E-1,3.6854483E-4,-1.8773063E-1,-1.15060555E-2,-1.9212E-2,-1.726182E-2,-3.6509225E-1,-1.2427821E-3,-1.0718776E-2,5.9005665E-4,-1.3734843E-3,-1.3862022E-2,-6.006115E-3,-6.639017E-3,-5.193789E-4,-8.768511E-3,-3.3024277E-3],"categories":[],"categories_nodes":[],"categories_segments":[],"categories_sizes":[],"default_left":[0,0,0,0,0,0,0,0,0,0,0,0,0,0,0,0,0,0,0,0,0,0,0,0,0,0,0,0,0,0,0,0,0,0,0,0,0,0,0,0,0,0,0,0,0,0,0,0,0,0,0,0,0,0,0,0,0,0,0,0,0,0,0,0,0,0,0,0,0,0,0],"id":15,"left_children":[1,3,5,7,9,11,13,-1,15,17,-1,19,21,23,25,-1,-1,-1,27,29,31,33,-1,35,37,39,41,-1,43,45,-1,47,49,-1,-1,-1,51,53,55,57,59,-1,-1,-1,-1,-1,-1,-1,-1,-1,-1,61,63,-1,65,-1,67,-1,-1,-1,69,-1,-1,-1,-1,-1,-1,-1,-1,-1,-1],"loss_changes":[2.0179337E1,1.4256607E1,2.0188873E1,1.1364124E0,8.647881E0,9.075691E0,1.0042875E1,0E0,4.186661E-1,1.6298981E0,0E0,8.458389E0,9.287694E0,3.4509711E0,1.4070459E1,0E0,0E0,0E0,7.500534E-1,6.4224243E-1,6.87661E0,3.9844885E-1,0E0,1.4664545E0,2.436409E0,3.342041E0,3.522597E-1,0E0,1.7688789E0,2.8305817E-1,0E0,8.804283E-1,5.269906E-1,0E0,0E0,0E0,9.3306583E-1,1.615016E0,5.8426654E-1,7.346592E-1,2.0142946E0,0E0,0E0,0E0,0E0,0E0,0E0,0E0,0E0,0E0,0E0,1.949542E0,2.5123212E-1,0E0,1.4199486E0,0E0,3.6087716E-1,0E0,0E0,0E0,5.1277256E-1,0E0,0E0,0E0,0E0,0E0,0E0,0E0,0E0,0E0,0E0],"parents":[2147483647,0,0,1,1,2,2,3,3,4,4,5,5,6,6,8,8,9,9,11,11,12,12,13,13,14,14,18,18,19,19,20,20,21,21,23,23,24,24,25,25,26,26,28,28,29,29,31,31,32,32,36,36,37,37,38,38,39,39,40,40,51,51,52,52,54,54,56,56,60,60],"right_children":[2,4,6,8,10,12,14,-1,16,18,-1,20,22,24,26,-1,-1,-1,28,30,32,34,-1,36,38,40,42,-1,44,46,-1,48,50,-1,-1,-1,52,54,56,58,60,-1,-1,-1,-1,-1,-1,-1,-1,-1,-1,62,64,-1,66,-1,68,-1,-1,-1,70,-1,-1,-1,-1,-1,-1,-1,-1,-1,-1],"split_conditions":[-3.0289528E-1,3.5693836E-1,1.3146888E-1,4.896129E0,-8.7037176E-2,1.2254055E-1,7.1719356E0,-5.2206915E-2,3.2577E-2,-3.3290187E-1,8.110097E-4,-2.4986395E-1,1.5058103E-1,3.9580247E-1,2.2500385E-1,-5.166502E-4,-6.028462E-3,-2.4875367E-2,-3.206893E-1,2.4140982E-1,2.2253175E-1,3.8647E-2,-4.1036047E-2,3.5093548E0,4.2763042E-1,-2.1028522E-1,1.5073739E-1,-3.9699964E-2,2.1928595E-1,-1.806E-2,-3.0138109E-2,1.0264543E-1,-1.416E-2,1.8615298E-3,-8.015999E-3,-7.987777E-2,-1.617E-2,-1.7391703E-1,5.76129E-1,2.929234E-1,3.7728196E-1,7.4484386E-3,-3.6105484E-2,-3.99485E-2,-2.638988E-2,-3.9931677E-2,-3.4987252E-2,-3.3345573E-2,-2.2858214E-2,-3.2386754E-3,-2.6909126E-2,-1.649701E-1,4.412315E-1,7.015976E-3,-1.821E-2,2.3766728E-4,3.7533E-2,-3.1736296E-2,-5.4013487E-2,-6.202632E-2,-1.665E-2,-5.2566617E-3,-1.3234093E-2,7.183805E-4,-7.386612E-3,-2.7089192E-2,-2.047288E-2,-1.7933393E-2,-1.201967E-2,-1.954001E-2,-2.3455705E-2],"split_indices":[21,5,8,33,26,0,35,0,14,21,0,21,0,5,2,0,0,0,21,2,5,14,0,30,5,18,0,0,0,11,0,0,11,0,0,0,11,18,28,7,7,0,0,0,0,0,0,0,0,0,0,25,6,0,11,0,14,0,0,0,11,0,0,0,0,0,0,0,0,0,0],"split_type":[0,0,0,0,0,0,0,0,0,0,0,0,0,0,0,0,0,0,0,0,0,0,0,0,0,0,0,0,0,0,0,0,0,0,0,0,0,0,0,0,0,0,0,0,0,0,0,0,0,0,0,0,0,0,0,0,0,0,0,0,0,0,0,0,0,0,0,0,0,0,0],"sum_hessian":[1.159E3,2.36E2,9.23E2,5.7E1,1.79E2,2.51E2,6.72E2,1.9E1,3.8E1,1.66E2,1.3E1,1.72E2,7.9E1,5.11E2,1.61E2,2.8E1,1E1,1.1E1,1.55E2,9.8E1,7.4E1,5.8E1,2.1E1,3.3E2,1.81E2,1.03E2,5.8E1,7.9E1,7.6E1,8.8E1,1E1,3.6E1,3.8E1,4.6E1,1.2E1,1E1,3.2E2,1.22E2,5.9E1,4.1E1,6.2E1,4.3E1,1.5E1,5.5E1,2.1E1,1.5E1,7.3E1,1.3E1,2.3E1,2.5E1,1.3E1,1.34E2,1.86E2,1.2E1,1.1E2,3.9E1,2E1,1.1E1,3E1,1.2E1,5E1,1.24E2,1E1,1.54E2,3.2E1,1.2E1,9.8E1,1E1,1E1,3.7E1,1.3E1],"tree_param":{"num_deleted":"0","num_feature":"36","num_nodes":"71","size_leaf_vector":"1"}},{"base_weights":[5.5728197E-2,-8.674193E-2,2.3208258E-1,-1.8023014E-1,2.4643606E-1,3.3104175E-1,-9.961536E-2,-3.006811E-1,-7.84303E-2,-9.81435E-3,3.234493E-1,2.0936513E-1,4.1704574E-1,2.0727465E-1,-2.3198329E-1,-1.2339483E-1,-3.865435E-1,-3.196758E-1,1.7751613E-1,2.473233E-4,3.8337725E-1,5.1660515E-2,3.0344284E-1,4.5543033E-1,2.6073644E-1,7.1458505E-3,1.7895991E-3,1.9461527E-1,-4.4204664E-1,-2.2924355E-1,5.785931E-3,-4.2575806E-1,-0E0,-9.048863E-3,-6.9247074E-2,-3.905304E-3,2.3468958E-1,2.6572108E-1,9.753705E-3,8.611621E-3,-6.9247074E-2,8.672624E-3,2.5006318E-1,3.5276094E-1,1.0160594E-2,3.0551702E-4,7.992664E-3,8.50577E-3,-1.2827655E-3,-1.00802155E-2,-5.4706833E-3,-8.290931E-3,-1.0429479E-1,-9.329482E-3,-3.0660918E-3,-6.9919606E-3,2.8773063E-1,8.790844E-3,9.335243E-2,8.290931E-3,1.1477552E-1,-7.1458505E-3,5.4831643E-2,7.6531665E-3,1.7563005E-1,4.208442E-1,3.0660918E-3,-6.6760746E-3,2.2581693E-4,9.698836E-3,1.5393187E-3,-5.4452306E-4,7.909237E-3,5.1069367E-3,-4.7216268E-4,-4.181034E-3,4.1328077E-3,5.252457E-3,-3.9952228E-4,1.0006874E-2,5.785931E-3],"categories":[],"categories_nodes":[],"categories_segments":[],"categories_sizes":[],"default_left":[0,0,0,0,0,0,0,0,0,0,0,0,0,0,0,0,0,0,0,0,0,0,0,0,0,0,0,0,0,0,0,0,0,0,0,0,0,0,0,0,0,0,0,0,0,0,0,0,0,0,0,0,0,0,0,0,0,0,0,0,0,0,0,0,0,0,0,0,0,0,0,0,0,0,0,0,0,0,0,0,0],"id":16,"left_children":[1,3,5,7,9,11,13,15,17,-1,19,21,23,25,27,29,31,33,35,-1,37,39,41,43,45,-1,-1,47,49,51,-1,53,-1,-1,55,-1,57,59,-1,-1,61,-1,63,65,-1,-1,-1,-1,-1,-1,-1,-1,67,-1,-1,-1,69,-1,71,-1,73,-1,75,-1,77,79,-1,-1,-1,-1,-1,-1,-1,-1,-1,-1,-1,-1,-1,-1,-1],"loss_changes":[2.9005056E1,1.9825167E1,1.6994257E1,6.0133896E0,7.7497234E0,4.0112305E0,4.7995057E0,3.3303146E0,1.676803E1,0E0,2.2537384E0,2.3757195E0,1.2162323E0,4.9096644E-1,7.4985733E0,3.217966E0,2.3040352E0,4.2188683E0,2.7740483E0,0E0,9.882908E-1,2.9087868E0,5.034895E-1,6.0162735E-1,1.4142861E0,0E0,0E0,1.6328374E0,3.202896E-1,1.2031167E0,0E0,1.0519409E0,0E0,0E0,4.602549E0,0E0,3.033564E0,8.916788E-1,0E0,0E0,1.7115662E0,0E0,5.44662E-1,6.317334E-1,0E0,0E0,0E0,0E0,0E0,0E0,0E0,0E0,1.0036727E0,0E0,0E0,0E0,6.6179955E-1,0E0,2.4563081E0,0E0,5.045392E-1,0E0,1.2278949E0,0E0,8.094418E-1,2.0220661E-1,0E0,0E0,0E0,0E0,0E0,0E0,0E0,0E0,0E0,0E0,0E0,0E0,0E0,0E0,0E0],"parents":[2147483647,0,0,1,1,2,2,3,3,4,4,5,5,6,6,7,7,8,8,10,10,11,11,12,12,13,13,14,14,15,15,16,16,17,17,18,18,20,20,21,21,22,22,23,23,24,24,27,27,28,28,29,29,31,31,34,34,36,36,37,37,40,40,42,42,43,43,52,52,56,56,58,58,60,60,62,62,64,64,65,65],"right_children":[2,4,6,8,10,12,14,16,18,-1,20,22,24,26,28,30,32,34,36,-1,38,40,42,44,46,-1,-1,48,50,52,-1,54,-1,-1,56,-1,58,60,-1,-1,62,-1,64,66,-1,-1,-1,-1,-1,-1,-1,-1,68,-1,-1,-1,70,-1,72,-1,74,-1,76,-1,78,80,-1,-1,-1,-1,-1,-1,-1,-1,-1,-1,-1,-1,-1,-1,-1],"split_conditions":[3.1381863E-1,-2.3459087E-1,3.4333363E-1,5.732258E-1,1.69193E-1,-2.7263024E-1,-3.314357E-1,1.5543559E-1,1.1996316E-1,-2.8281962E-2,-3.5782522E-1,4.1211E-2,-2.1965134E-1,2.3226E-2,1.4755277E-1,-3.1289107E-1,4.2459008E-1,-2.4986395E-1,1.0602911E-1,2.0294404E-3,3.1688908E-1,3.2167E-2,-2.9187584E-1,-3.4827507E-1,-2.105202E-1,7.168163E-3,1.9616634E-3,4.0175986E-1,3.2912E-2,9.603E-3,1.9910464E-2,-3.3170953E-1,-1.5088274E-3,-1.828609E-2,2.414364E-1,-1.3082198E-2,-1.459064E-1,-1.8353273E-1,1.8513836E-2,2.1390568E-2,3.623E-3,1.20335985E-2,7.007E-3,-1.590866E-1,2.2101158E-2,2.4584942E-3,1.706333E-2,1.3919393E-2,-3.1568273E-3,-2.0150758E-2,-1.8703269E-2,-1.6044196E-2,-1.894E-2,-1.7902229E-2,-5.001048E-3,-1.2136743E-2,-1.416E-2,1.8041188E-2,2.9882863E-1,1.3058659E-2,-3.1210652E-1,-3.909495E-3,1.9548235E-2,9.858343E-3,-7.72E-3,4.0564E-2,7.112467E-3,-4.7035604E-3,1.0343589E-4,1.6532604E-2,2.0663094E-2,-1.5052577E-3,1.9605896E-2,9.683657E-3,-4.2743902E-4,-2.9948745E-3,4.286646E-3,9.633009E-3,-3.8757818E-4,2.0571524E-2,1.3952094E-2],"split_indices":[4,21,3,28,5,21,21,0,8,0,25,15,21,13,0,25,8,21,4,0,8,15,21,24,21,0,0,5,13,17,0,24,0,0,3,0,18,19,0,0,17,0,17,19,0,0,0,0,0,0,0,0,11,0,0,0,11,0,3,0,25,0,13,0,11,17,0,0,0,0,0,0,0,0,0,0,0,0,0,0,0],"split_type":[0,0,0,0,0,0,0,0,0,0,0,0,0,0,0,0,0,0,0,0,0,0,0,0,0,0,0,0,0,0,0,0,0,0,0,0,0,0,0,0,0,0,0,0,0,0,0,0,0,0,0,0,0,0,0,0,0,0,0,0,0,0,0,0,0,0,0,0,0,0,0,0,0,0,0,0,0,0,0,0,0],"sum_hessian":[1.153E3,6.37E2,5.16E2,4.98E2,1.39E2,3.98E2,1.18E2,2.27E2,2.71E2,1.3E1,1.26E2,1.66E2,2.32E2,3.5E1,8.3E1,7.5E1,1.52E2,1.4E2,1.31E2,2.1E1,1.05E2,6.3E1,1.03E2,1.85E2,4.7E1,1.5E1,2E1,2.7E1,5.6E1,6E1,1.5E1,1.38E2,1.4E1,9.3E1,4.7E1,1.7E1,1.14E2,4.8E1,5.7E1,1.6E1,4.7E1,3E1,7.3E1,5.6E1,1.29E2,1.7E1,3E1,1.5E1,1.2E1,4.2E1,1.4E1,2.4E1,3.6E1,1.23E2,1.5E1,2.7E1,2E1,4.7E1,6.7E1,2.4E1,2.4E1,1.5E1,3.2E1,2.6E1,4.7E1,4.1E1,1.5E1,1.3E1,2.3E1,1E1,1E1,4.7E1,2E1,1.3E1,1.1E1,1.1E1,2.1E1,3.4E1,1.3E1,2.6E1,1.5E1],"tree_param":{"num_deleted":"0","num_feature":"36","num_nodes":"81","size_leaf_vector":"1"}},{"base_weights":[4.7009906E-1,6.643715E-1,3.3683348E-1,7.1848637E-1,2.4448976E-2,6.503873E-1,2.5541136E-1,7.7083457E-1,4.8443264E-1,4.599137E-3,-8.3454704E-4,-5.6488474E-4,7.096509E-1,1.4982475E-1,3.4984183E-1,8.122758E-1,4.308875E-1,1.4888502E-2,2.0670033E-1,8.016105E-1,4.427827E-1,9.363664E-2,1.4070589E-2,1.15093656E-1,6.275161E-1,1.8934162E-2,7.5452423E-1,1.3661921E-3,6.4810884E-1,1.6558111E-3,7.085116E-3,5.8984154E-1,1.8640094E-2,1.5855532E-2,2.2402915E-1,2.093889E-1,-1.2079227E-3,5.1136844E-2,5.3773063E-1,7.156662E-1,1.9374692E-3,8.2995754E-1,6.375549E-1,1.726182E-2,8.762323E-3,1.7069362E-2,4.610701E-1,7.797184E-3,5.193787E-4,-7.903619E-5,2.8443265E-1,-4.589061E-4,4.599137E-3,1.948104E-2,8.678896E-3,1.8878292E-2,2.5592581E-3,4.438653E-1,1.7609432E-2,1.7897477E-2,1.4778982E-2,6.3167573E-3,1.4505526E-2,1.2758655E-2,6.4407033E-3,7.5757387E-3,1.9258126E-3,6.4407033E-3,-2.5356133E-4,1.4798534E-2,6.972724E-3],"categories":[],"categories_nodes":[],"categories_segments":[],"categories_sizes":[],"default_left":[0,0,0,0,0,0,0,0,0,0,0,0,0,0,0,0,0,0,0,0,0,0,0,0,0,0,0,0,0,0,0,0,0,0,0,0,0,0,0,0,0,0,0,0,0,0,0,0,0,0,0,0,0,0,0,0,0,0,0,0,0,0,0,0,0,0,0,0,0,0,0],"id":17,"left_children":[1,3,5,7,9,11,13,15,17,-1,-1,-1,19,21,23,25,27,-1,29,31,33,35,-1,37,39,-1,41,-1,43,-1,-1,45,-1,-1,47,49,51,53,55,57,-1,59,61,-1,-1,-1,63,-1,-1,-1,65,-1,-1,67,-1,-1,-1,69,-1,-1,-1,-1,-1,-1,-1,-1,-1,-1,-1,-1,-1],"loss_changes":[2.9708847E1,1.6093475E1,1.7316994E1,4.9972076E0,5.3140235E-1,5.8334846E0,5.321335E0,4.667938E0,5.223488E0,0E0,0E0,0E0,2.8849869E0,7.6655116E0,1.8525444E1,1.68927E0,2.9074678E0,0E0,5.6566584E-1,1.9115028E0,2.2421403E0,2.6310258E0,0E0,4.07226E0,5.95063E0,0E0,1.5016251E0,0E0,7.2609997E-1,0E0,0E0,7.6268864E-1,0E0,0E0,5.5967295E-1,1.7812829E0,5.6786114E-1,1.5023543E0,2.9391055E0,4.1722107E0,0E0,2.4202728E-1,1.7750854E0,0E0,0E0,0E0,3.1853628E-1,0E0,0E0,0E0,1.2074971E0,0E0,0E0,1.2656292E0,0E0,0E0,0E0,8.8751984E-1,0E0,0E0,0E0,0E0,0E0,0E0,0E0,0E0,0E0,0E0,0E0,0E0,0E0],"parents":[2147483647,0,0,1,1,2,2,3,3,4,4,5,5,6,6,7,7,8,8,12,12,13,13,14,14,15,15,16,16,18,18,19,19,20,20,21,21,23,23,24,24,26,26,28,28,31,31,34,34,35,35,36,36,37,37,38,38,39,39,41,41,42,42,46,46,50,50,53,53,57,57],"right_children":[2,4,6,8,10,12,14,16,18,-1,-1,-1,20,22,24,26,28,-1,30,32,34,36,-1,38,40,-1,42,-1,44,-1,-1,46,-1,-1,48,50,52,54,56,58,-1,60,62,-1,-1,-1,64,-1,-1,-1,66,-1,-1,68,-1,-1,-1,70,-1,-1,-1,-1,-1,-1,-1,-1,-1,-1,-1,-1,-1],"split_conditions":[-2.8323647E-1,3.6396253E-1,2.3716399E-1,1.91676E-1,2.1493512E-1,1.69193E-1,5.732258E-1,-1.16107404E-1,3.7644735E-1,3.998895E-2,-6.188789E-3,-1.0629735E-2,1.4739266E-1,3.8793543E-1,1.090422E-1,5.732258E-1,2.2500826E-1,3.5621267E-2,1.9595155E-1,1.0336319E-1,2.2064911E-1,1.5687355E-1,1.8502135E-2,3.8332576E-1,-1.2497355E-1,4.599075E-2,3.9580247E-1,9.594986E-3,-2.567E-2,2.4592051E-2,4.3712527E-2,2.6951E-2,3.0678399E-2,1.5102417E-2,1.52777E-1,1.4236E-2,4.210802E-1,4.9829E-2,8.145962E-2,1.0882111E-1,3.4895258E-3,-2.1115245E-1,3.942074E-2,2.482148E-2,9.017889E-3,2.8608475E-2,3.5832E-2,1.5397395E-2,6.7589134E-3,3.1893088E-3,3.241112E-1,-1.7292191E-3,5.521535E-3,-2.665228E-1,2.7162006E-2,2.8439071E-2,2.3773368E-2,3.9523208E-1,3.1158049E-2,2.773603E-2,2.5626715E-2,2.0893076E-2,2.7263874E-2,3.0033039E-2,2.0159375E-2,1.8471962E-2,1.5495948E-2,2.9048305E-2,-1.2226643E-3,2.103363E-2,1.9542372E-2],"split_indices":[22,3,3,1,0,5,28,18,5,0,0,0,1,3,8,28,3,0,1,0,8,1,0,5,22,0,5,0,9,0,0,17,0,0,1,17,8,15,0,0,0,20,15,0,0,0,15,0,0,0,3,0,0,22,0,0,0,5,0,0,0,0,0,0,0,0,0,0,0,0,0],"split_type":[0,0,0,0,0,0,0,0,0,0,0,0,0,0,0,0,0,0,0,0,0,0,0,0,0,0,0,0,0,0,0,0,0,0,0,0,0,0,0,0,0,0,0,0,0,0,0,0,0,0,0,0,0,0,0,0,0,0,0,0,0,0,0,0,0,0,0,0,0,0,0],"sum_hessian":[1.157E3,4.7E2,6.87E2,4.33E2,3.7E1,1.41E2,5.46E2,3.53E2,8E1,1E1,2.7E1,1.1E1,1.3E2,2.59E2,2.87E2,3.14E2,3.9E1,4.2E1,3.8E1,9.6E1,3.4E1,2.35E2,2.4E1,1.56E2,1.31E2,1.03E2,2.11E2,1.5E1,2.4E1,2.1E1,1.7E1,3.4E1,6.2E1,1.3E1,2.1E1,1.07E2,1.28E2,1.36E2,2E1,1.12E2,1.9E1,1.27E2,8.4E1,1.2E1,1.2E1,1.1E1,2.3E1,1.1E1,1E1,2.7E1,8E1,1.18E2,1E1,1.26E2,1E1,1E1,1E1,4E1,7.2E1,8.6E1,4.1E1,1.6E1,6.8E1,1E1,1.3E1,5.4E1,2.6E1,1.3E1,1.13E2,1E1,3E1],"tree_param":{"num_deleted":"0","num_feature":"36","num_nodes":"71","size_leaf_vector":"1"}},{"base_weights":[-3.4184337E-1,-4.7691828E-1,-1.7389673E-1,-1.8596633E-1,-5.7319045E-1,-7.898438E-2,-5.3106123E-1,-1.8993808E-2,-1.18398726E-1,-5.2596796E-1,-1.8004239E-2,-3.430056E-3,-1.6563287E-1,-3.434502E-1,-8.438653E-1,-6.898881E-2,-3.741136E-1,-6.644707E-1,-3.7377307E-1,1.9679843E-2,-9.371516E-2,-2.729551E-1,3.5612527E-4,-1.6730774E-2,-6.0572382E-2,-1.9186331E-2,-1.3193083E-2,-1.7605025E-1,4.925176E-3,-4.8715654E-3,-1.0718776E-2,-7.282506E-1,-2.8608164E-1,-6.177013E-1,-1.9134445E-1,6.137925E-4,-2.5592581E-3,-5.9078005E-3,-6.466574E-5,-3.6560288E-1,-1.1857853E-1,8.023046E-4,-1.8773063E-1,-1.7312629E-4,-3.9339146E-1,9.23678E-4,-8.7730624E-2,-6.6143095E-1,-1.846279E-2,-4.621244E-1,5.648845E-4,-7.1792305E-1,-2.726112E-3,-1.2301167E-2,-1.1241868E-1,-1.1324402E-1,-4.7460023E-1,5.648845E-4,-3.4996246E-3,-6.639017E-3,-5.193789E-4,-1.2162122E-2,-2.5592581E-3,-4.5991377E-3,5.19379E-4,-8.768511E-3,-1.5207323E-2,-1.4798534E-2,-4.0883124E-3,-1.2014714E-2,-1.9178629E-2,-0E0,-6.8642637E-3,5.19379E-4,-4.8715654E-3,-1.3360491E-2,-8.544346E-3],"categories":[],"categories_nodes":[],"categories_segments":[],"categories_sizes":[],"default_left":[0,0,0,0,0,0,0,0,0,0,0,0,0,0,0,0,0,0,0,0,0,0,0,0,0,0,0,0,0,0,0,0,0,0,0,0,0,0,0,0,0,0,0,0,0,0,0,0,0,0,0,0,0,0,0,0,0,0,0,0,0,0,0,0,0,0,0,0,0,0,0,0,0,0,0,0,0],"id":18,"left_children":[1,3,5,7,9,11,13,-1,15,17,-1,19,21,23,25,27,29,31,33,35,37,39,-1,-1,41,-1,-1,43,45,-1,-1,47,49,51,53,-1,-1,-1,-1,55,57,-1,59,-1,61,-1,63,65,-1,67,-1,69,-1,-1,71,73,75,-1,-1,-1,-1,-1,-1,-1,-1,-1,-1,-1,-1,-1,-1,-1,-1,-1,-1,-1,-1],"loss_changes":[2.610997E1,1.7768494E1,1.7376255E1,7.7982235E0,6.6825867E0,2.6361015E0,6.0466824E0,0E0,1.748591E0,8.556419E0,0E0,4.7719285E-1,3.776496E0,8.954186E0,3.728752E-1,1.0232458E0,2.834251E-1,5.0122223E0,8.701372E0,2.3798111E-1,7.6183E-1,1.5975056E0,0E0,0E0,5.826675E-1,0E0,0E0,1.79514E0,2.5880596E-1,0E0,0E0,1.8134613E0,1.874207E0,3.9146729E0,3.561122E0,0E0,0E0,0E0,0E0,1.8912287E0,3.9178884E-1,0E0,3.6087716E-1,0E0,1.0184612E0,0E0,3.608773E-1,2.3593216E0,0E0,1.2200489E0,0E0,1.6307144E0,0E0,0E0,2.5108576E0,4.5295817E-1,2.4917793E-1,0E0,0E0,0E0,0E0,0E0,0E0,0E0,0E0,0E0,0E0,0E0,0E0,0E0,0E0,0E0,0E0,0E0,0E0,0E0,0E0],"parents":[2147483647,0,0,1,1,2,2,3,3,4,4,5,5,6,6,8,8,9,9,11,11,12,12,13,13,14,14,15,15,16,16,17,17,18,18,19,19,20,20,21,21,24,24,27,27,28,28,31,31,32,32,33,33,34,34,39,39,40,40,42,42,44,44,46,46,47,47,49,49,51,51,54,54,55,55,56,56],"right_children":[2,4,6,8,10,12,14,-1,16,18,-1,20,22,24,26,28,30,32,34,36,38,40,-1,-1,42,-1,-1,44,46,-1,-1,48,50,52,54,-1,-1,-1,-1,56,58,-1,60,-1,62,-1,64,66,-1,68,-1,70,-1,-1,72,74,76,-1,-1,-1,-1,-1,-1,-1,-1,-1,-1,-1,-1,-1,-1,-1,-1,-1,-1,-1,-1],"split_conditions":[3.1381863E-1,2.3716399E-1,3.4384617E-1,1.69193E-1,-1.310877E-1,2.9712817E-1,3.6431912E-1,-7.824836E-2,4.179602E-1,5.732258E-1,-3.503687E-2,4.064604E-1,3.1346598E-1,3.1737262E-1,3.1034052E-2,3.141974E-1,2.4022709E-1,-2.1593541E-1,1.090422E-1,1.8764E-2,3.8507E-2,-2.3259352E-1,6.4609013E-4,-3.912897E-2,4.4487E-2,-4.1727547E-2,-5.1141955E-2,-1.8112706E-1,2.1444015E-1,-6.9995183E-3,-1.410967E-2,4.477204E-1,1.9212E-2,-1.5787552E-1,1.0602911E-1,3.1308292E-3,-1.4232404E-3,-1.7567564E-2,-6.2702377E-3,2.3187691E-1,3.3692506E-1,6.4127136E-4,1.9567E-2,-4.730895E-3,9.852E-3,3.0814887E-3,2.535417E-1,-3.5960817E-1,-4.9806464E-2,4.4701E-2,1.165497E-3,3.241955E-2,-2.6360217E-2,-2.8199205E-2,3.990708E-1,1.3905336E-2,3.7357334E-2,1.4518959E-3,-2.5354965E-2,-1.5580553E-2,-1.413533E-3,-6.616959E-3,-1.089526E-2,-1.4641615E-2,2.655639E-4,-2.5045294E-2,-3.771762E-2,-1.1764105E-2,-1.4474487E-2,-3.2413926E-2,-3.9795652E-2,-1.9110494E-3,-1.2232135E-2,2.5976861E-3,-3.1838294E-3,-2.952333E-2,-2.1414272E-2],"split_indices":[4,3,3,5,19,3,7,0,7,28,0,8,8,7,13,8,4,23,8,12,15,20,0,0,15,0,0,19,3,0,0,5,14,19,4,0,0,0,0,7,5,0,12,0,12,0,4,23,0,15,0,8,0,0,5,12,15,0,0,0,0,0,0,0,0,0,0,0,0,0,0,0,0,0,0,0,0],"split_type":[0,0,0,0,0,0,0,0,0,0,0,0,0,0,0,0,0,0,0,0,0,0,0,0,0,0,0,0,0,0,0,0,0,0,0,0,0,0,0,0,0,0,0,0,0,0,0,0,0,0,0,0,0,0,0,0,0,0,0,0,0,0,0,0,0,0,0,0,0,0,0,0,0,0,0,0,0],"sum_hessian":[1.158E3,6.41E2,5.17E2,1.6E2,4.81E2,4.09E2,1.08E2,1.3E1,1.47E2,4.18E2,6.3E1,2.2E2,1.89E2,6.8E1,4E1,1.24E2,2.3E1,2.18E2,2E2,1.73E2,4.7E1,1.2E2,6.9E1,2.5E1,4.3E1,2.6E1,1.4E1,5.2E1,7.2E1,1.3E1,1E1,1.86E2,3.2E1,8.5E1,1.15E2,1.63E2,1E1,1.4E1,3.3E1,7.4E1,4.6E1,2.3E1,2E1,3E1,2.2E1,5.2E1,2E1,1.36E2,5E1,2.1E1,1.1E1,7E1,1.5E1,1.8E1,9.7E1,2.3E1,5.1E1,1.1E1,3.5E1,1E1,1E1,1.2E1,1E1,1E1,1E1,3.7E1,9.9E1,1E1,1.1E1,4.5E1,2.5E1,6.4E1,3.3E1,1E1,1.3E1,1.1E1,4E1],"tree_param":{"num_deleted":"0","num_feature":"36","num_nodes":"77","size_leaf_vector":"1"}},{"base_weights":[6.2936515E-2,-7.485049E-2,2.3311701E-1,1.5195855E-1,-1.3337523E-1,3.7198368E-1,-9.333045E-3,2.0628844E-1,-9.698836E-3,-1.8593733E-1,1.8668468E-1,2.7667716E-1,4.2670485E-1,-1.0879619E-1,8.852244E-3,9.493719E-3,9.2316814E-2,-2.6049876E-1,-2.0048234E-3,-6.305162E-3,3.4730765E-1,1.00521725E-2,1.9039333E-1,4.3784067E-1,4.181034E-3,-2.6183596E-1,2.2405443E-1,1.9591022E-1,-1.564422E-1,-4.2292142E-1,-1.8867876E-1,-1.958387E-1,3.5805938E-1,8.659816E-3,4.7216268E-4,2.3361333E-1,-1.2827655E-3,3.1074584E-1,9.422578E-3,-8.197608E-2,-9.670138E-3,7.992664E-3,-8.55177E-4,2.9889297E-1,-2.7335735E-4,-7.889906E-3,3.9952228E-4,-5.5472413E-3,-9.554281E-3,-2.201722E-1,4.4260114E-3,-3.0521488E-1,5.785931E-3,9.3799E-3,1.9686602E-3,3.457239E-1,1.3701458E-1,3.905304E-3,8.611621E-3,-2.1886532E-1,4.254976E-3,-0E0,8.063849E-3,-1.3470605E-3,-6.207339E-3,-7.606464E-3,4.7216268E-4,9.841854E-3,4.849418E-3,-1.9686602E-3,5.102943E-3,-6.4341454E-3,-1.5054462E-3],"categories":[],"categories_nodes":[],"categories_segments":[],"categories_sizes":[],"default_left":[0,0,0,0,0,0,0,0,0,0,0,0,0,0,0,0,0,0,0,0,0,0,0,0,0,0,0,0,0,0,0,0,0,0,0,0,0,0,0,0,0,0,0,0,0,0,0,0,0,0,0,0,0,0,0,0,0,0,0,0,0,0,0,0,0,0,0,0,0,0,0,0,0],"id":19,"left_children":[1,3,5,7,9,11,13,15,-1,17,19,21,23,25,-1,-1,27,29,31,-1,33,-1,35,37,-1,39,41,43,45,47,49,51,53,-1,-1,55,-1,57,-1,59,-1,-1,-1,61,-1,-1,-1,-1,-1,63,-1,65,-1,-1,-1,67,69,-1,-1,71,-1,-1,-1,-1,-1,-1,-1,-1,-1,-1,-1,-1,-1],"loss_changes":[2.7145489E1,8.464212E0,1.7529133E1,4.3653417E0,8.545913E0,1.5484428E0,8.209362E0,3.4069862E0,0E0,5.9287214E0,5.6633615E0,2.1072197E0,3.558693E-1,7.853937E0,0E0,0E0,2.1743472E0,3.4661293E0,8.823859E0,0E0,1.241828E0,0E0,1.0052011E0,4.1324615E-1,0E0,3.909534E0,2.2277143E0,1.3633814E0,1.0632186E0,4.6342468E-1,2.7602725E0,4.358116E0,1.0346384E0,0E0,0E0,7.0460224E-1,0E0,2.8805947E-1,0E0,2.3094895E0,0E0,0E0,0E0,1.1815543E0,0E0,0E0,0E0,0E0,0E0,2.5154934E0,0E0,1.5968652E0,0E0,0E0,0E0,3.2538033E-1,1.1474221E0,0E0,0E0,4.6474516E-1,0E0,0E0,0E0,0E0,0E0,0E0,0E0,0E0,0E0,0E0,0E0,0E0,0E0],"parents":[2147483647,0,0,1,1,2,2,3,3,4,4,5,5,6,6,7,7,9,9,10,10,11,11,12,12,13,13,16,16,17,17,18,18,20,20,22,22,23,23,25,25,26,26,27,27,28,28,29,29,30,30,31,31,32,32,35,35,37,37,39,39,43,43,49,49,51,51,55,55,56,56,59,59],"right_children":[2,4,6,8,10,12,14,16,-1,18,20,22,24,26,-1,-1,28,30,32,-1,34,-1,36,38,-1,40,42,44,46,48,50,52,54,-1,-1,56,-1,58,-1,60,-1,-1,-1,62,-1,-1,-1,-1,-1,64,-1,66,-1,-1,-1,68,70,-1,-1,72,-1,-1,-1,-1,-1,-1,-1,-1,-1,-1,-1,-1,-1],"split_conditions":[3.1381863E-1,-1.849E-2,1.8636596E-1,-2.982826E-1,-3.3338675E-1,-3.4571633E-1,-2.2696872E-1,-1.8403442E-1,-2.4808709E-2,3.663705E-1,-3.237282E-1,-3.7870988E-1,8E-4,-3.128543E-1,1.696758E-2,1.931009E-2,1.5182E-2,-3.7108636E-1,-3.1157658E-1,-6.326942E-3,-3.031618E-1,1.42591335E-2,1.6879709E-1,-2.06E-2,1.2063169E-2,7.1232257E0,2.6445E-2,3.925193E-1,-3.3957568E-1,4.2264E-2,4.7491E-2,-2.1593541E-1,-3.492229E-1,1.05548175E-2,9.740131E-4,-3.1244984E-1,-3.0924354E-3,3.9848E-2,1.8503683E-2,3.9333E-2,-2.030847E-2,7.2953617E-3,-1.6390512E-3,3.4878E-2,-1.6365125E-3,-9.845143E-3,4.18393E-4,-1.0569505E-2,-1.5336486E-2,4.0147E-2,8.743396E-3,4.4030288E-1,3.5550273E-3,1.813618E-2,8.692953E-3,4.0129E-2,3.7342E-2,4.0647364E-3,1.951563E-2,1.9595155E-1,6.6523748E-3,1.098537E-3,1.3339339E-2,-4.983997E-3,-9.831876E-3,-1.9539908E-2,1.5007833E-3,1.9358268E-2,6.131188E-3,-1.3399003E-3,7.933553E-3,-3.829754E-3,-2.9337895E-3],"split_indices":[4,11,1,24,24,23,20,19,0,8,23,23,11,23,0,0,12,24,26,0,24,0,1,11,0,35,16,8,23,15,15,23,24,0,0,22,0,16,0,14,0,0,0,15,0,0,0,0,0,15,0,8,0,0,0,15,14,0,0,1,0,0,0,0,0,0,0,0,0,0,0,0,0],"split_type":[0,0,0,0,0,0,0,0,0,0,0,0,0,0,0,0,0,0,0,0,0,0,0,0,0,0,0,0,0,0,0,0,0,0,0,0,0,0,0,0,0,0,0,0,0,0,0,0,0,0,0,0,0,0,0,0,0,0,0,0,0,0,0,0,0,0,0,0,0,0,0,0,0],"sum_hessian":[1.156E3,6.38E2,5.18E2,1.3E2,5.08E2,3.3E2,1.88E2,1.2E2,1E1,4.37E2,7.1E1,1.22E2,2.08E2,1.54E2,3.4E1,3.6E1,8.4E1,3.1E2,1.27E2,1.7E1,5.4E1,3.4E1,8.8E1,1.97E2,1.1E1,1.06E2,4.8E1,6E1,2.4E1,9.4E1,2.16E2,8.3E1,4.4E1,4.3E1,1.1E1,7.6E1,1.2E1,3.3E1,1.64E2,5.8E1,4.8E1,3E1,1.8E1,4.1E1,1.9E1,1.1E1,1.3E1,2.3E1,7.1E1,2.01E2,1.5E1,6.8E1,1.5E1,3.1E1,1.3E1,3.4E1,4.2E1,1.7E1,1.6E1,4E1,1.8E1,1E1,3.1E1,7.2E1,1.29E2,5.7E1,1.1E1,1.4E1,2E1,1.3E1,2.9E1,2.3E1,1.7E1],"tree_param":{"num_deleted":"0","num_feature":"36","num_nodes":"73","size_leaf_vector":"1"}},{"base_weights":[4.6444362E-1,3.2265612E-1,6.372694E-1,2.318183E-1,6.592934E-1,4.452466E-1,8.298254E-1,5.701898E-1,1.7008124E-1,7.3128843E-1,1.3661921E-3,7.1394014E-1,3.0322447E-1,7.050971E-1,9.049976E-1,6.6930175E-1,2.628256E-4,1.3432871E-1,4.1706815E-1,7.944348E-1,4.3884602E-1,8.901368E-3,7.7992517E-1,6.610816E-1,2.196758E-1,1.9100765E-2,6.506742E-1,1.9203652E-2,1.1416456E-2,5.5805933E-1,1.816912E-2,2.4966626E-1,6.710806E-2,1.7884476E-2,1.9318368E-1,1.8870765E-2,6.532211E-1,2.5592581E-3,1.386202E-2,1.1416456E-2,1.7103883E-2,1.6325308E-2,1.0684903E-2,3.3286053E-1,-4.4256717E-4,7.490133E-1,5.1441747E-1,7.482543E-1,5.5015683E-3,3.941719E-1,4.0119994E-3,7.364857E-3,4.7554303E-2,-0E0,1.027897E-2,7.76517E-1,5.362524E-3,4.1239193E-1,1.4231373E-3,6.446153E-1,1.804178E-2,3.8773063E-1,1.3605469E-2,1.8923799E-2,1.2245548E-2,9.550364E-3,1.2170589E-3,2.9936868E-3,-8.8465324E-4,8.678896E-3,5.846323E-4,1.8274315E-2,1.11481175E-2,1.3092362E-2,5.0307275E-3,1.0684903E-2,1.6838415E-2,1.0718776E-2,4.599137E-3],"categories":[],"categories_nodes":[],"categories_segments":[],"categories_sizes":[],"default_left":[0,0,0,0,0,0,0,0,0,0,0,0,0,0,0,0,0,0,0,0,0,0,0,0,0,0,0,0,0,0,0,0,0,0,0,0,0,0,0,0,0,0,0,0,0,0,0,0,0,0,0,0,0,0,0,0,0,0,0,0,0,0,0,0,0,0,0,0,0,0,0,0,0,0,0,0,0,0,0],"id":20,"left_children":[1,3,5,7,9,11,13,15,17,19,-1,21,23,25,27,29,-1,31,33,35,37,-1,39,41,43,-1,45,-1,-1,47,-1,49,51,-1,53,-1,55,-1,-1,-1,-1,-1,-1,57,-1,59,61,63,-1,65,67,-1,69,-1,-1,71,-1,73,-1,75,-1,77,-1,-1,-1,-1,-1,-1,-1,-1,-1,-1,-1,-1,-1,-1,-1,-1,-1],"loss_changes":[2.8189682E1,1.9290985E1,1.8988129E1,1.0326048E1,5.561058E0,9.748436E0,2.042694E0,4.085745E0,3.6264477E0,1.9133682E0,0E0,1.3499451E0,4.9264135E0,8.56617E-1,1.6562042E0,1.2453384E0,0E0,2.8141613E0,5.191886E0,1.4208603E0,1.4619923E0,0E0,5.854492E-1,2.8669834E-1,3.9010963E0,0E0,7.7531433E-1,0E0,0E0,2.1633587E0,0E0,4.730077E0,1.2619035E0,0E0,2.2113078E0,0E0,2.0550365E0,0E0,0E0,0E0,0E0,0E0,0E0,1.890418E0,0E0,2.7521133E-1,4.176321E-1,3.152771E-1,0E0,1.9748411E0,3.7029868E-1,0E0,1.4808369E0,0E0,0E0,6.3419914E-1,0E0,2.5584002E0,0E0,2.5882626E-1,0E0,2.6272225E-1,0E0,0E0,0E0,0E0,0E0,0E0,0E0,0E0,0E0,0E0,0E0,0E0,0E0,0E0,0E0,0E0,0E0],"parents":[2147483647,0,0,1,1,2,2,3,3,4,4,5,5,6,6,7,7,8,8,9,9,11,11,12,12,13,13,14,14,15,15,17,17,18,18,19,19,20,20,22,22,23,23,24,24,26,26,29,29,31,31,32,32,34,34,36,36,43,43,45,45,46,46,47,47,49,49,50,50,52,52,55,55,57,57,59,59,61,61],"right_children":[2,4,6,8,10,12,14,16,18,20,-1,22,24,26,28,30,-1,32,34,36,38,-1,40,42,44,-1,46,-1,-1,48,-1,50,52,-1,54,-1,56,-1,-1,-1,-1,-1,-1,58,-1,60,62,64,-1,66,68,-1,70,-1,-1,72,-1,74,-1,76,-1,78,-1,-1,-1,-1,-1,-1,-1,-1,-1,-1,-1,-1,-1,-1,-1,-1,-1],"split_conditions":[3.1381863E-1,-2.3459087E-1,-2.790567E-1,-2.8990177E-2,-1.6938303E-1,2.1809109E-1,-3.4984997E-1,4.3966925E-1,-3.3338675E-1,4.179602E-1,4.892418E-3,-3.669988E-1,3.2157797E-1,-3.1879213E-1,-2.1654552E-1,-2.4986395E-1,6.070521E-3,-2.1461171E-1,2.1346572E-1,-2.7921495E-1,3.6255E-2,3.4466054E-2,2.0498E-2,2.346E-2,3.7491128E-1,3.151705E-2,-1.827E-2,4.0691637E-2,3.897813E-2,-1.6607565E-1,2.9665055E-2,4.4048792E-1,-3.79877E-1,4.5872387E-2,2.8476995E-1,2.6598085E-2,-1.733E-2,3.9261864E-3,2.8024899E-2,4.853878E-2,2.4949243E-2,1.3536308E-2,1.9654179E-2,-2.8376326E-1,-3.0741277E-3,-2.9978615E-1,2.4123E-2,3.3117E-2,2.0041272E-2,2.1527784E-2,2.6492918E-2,2.4938611E-2,-2.013E-2,1.9485155E-2,2.8455762E-2,-3.2887715E-1,1.0264139E-2,3.882713E-1,2.248547E-2,3.9874E-2,2.7580692E-2,1.9710065E-1,2.4550974E-2,3.5600115E-2,3.251583E-2,2.4641037E-2,6.6210446E-3,9.508145E-3,-3.5101539E-3,2.5754582E-2,3.4457745E-3,3.2014955E-2,2.4824671E-2,1.8284176E-2,3.917089E-2,2.054032E-2,1.6678603E-2,2.2511108E-2,1.4898172E-2],"split_indices":[4,21,21,10,23,2,24,7,24,7,0,23,4,22,21,21,0,22,4,26,16,0,14,13,3,0,10,0,0,19,0,6,24,0,4,0,10,0,0,0,0,0,0,21,0,23,13,16,0,12,14,0,11,0,0,24,0,4,0,16,0,2,0,0,0,0,0,0,0,0,0,0,0,0,0,0,0,0,0],"split_type":[0,0,0,0,0,0,0,0,0,0,0,0,0,0,0,0,0,0,0,0,0,0,0,0,0,0,0,0,0,0,0,0,0,0,0,0,0,0,0,0,0,0,0,0,0,0,0,0,0,0,0,0,0,0,0,0,0,0,0,0,0,0,0,0,0,0,0,0,0,0,0,0,0,0,0,0,0,0,0],"sum_hessian":[1.16E3,6.38E2,5.22E2,5.03E2,1.35E2,2.62E2,2.6E2,7.7E1,4.26E2,1.2E2,1.5E1,9E1,1.72E2,9.9E1,1.61E2,6.5E1,1.2E1,3.73E2,5.3E1,9.8E1,2.2E1,1.8E1,7.2E1,3.2E1,1.4E2,1.8E1,8.1E1,1.45E2,1.6E1,4.4E1,2.1E1,1.36E2,2.37E2,1.7E1,3.6E1,5E1,4.8E1,1E1,1.2E1,1.6E1,5.6E1,1.5E1,1.7E1,9.6E1,4.4E1,4.6E1,3.5E1,2.6E1,1.8E1,8.5E1,5.1E1,1.4E1,2.23E2,2.2E1,1.4E1,3.6E1,1.2E1,7.3E1,2.3E1,2.7E1,1.9E1,2E1,1.5E1,1.1E1,1.5E1,6.9E1,1.6E1,1.4E1,3.7E1,1E1,2.13E2,2.3E1,1.3E1,3E1,4.3E1,1.7E1,1E1,1E1,1E1],"tree_param":{"num_deleted":"0","num_feature":"36","num_nodes":"79","size_leaf_vector":"1"}},{"base_weights":[-3.3023962E-1,-4.8494485E-1,-1.8656237E-1,-5.603045E-1,-1.7710653E-1,-5.381526E-1,-9.535859E-2,-7.6018506E-1,-4.734777E-1,-1.1600057E-2,-9.1717914E-2,7.6965935E-4,-6.534766E-1,-2.163965E-1,-2.7883975E-2,-1.9627253E-3,-8.2400507E-1,-6.074741E-1,-1.9509517E-1,-0E0,-1.7405443E-1,-1.5468523E-1,-8.884726E-1,-3.1950983E-1,-1.7107191E-6,-7.289499E-3,-2.0848708E-1,-1.7897477E-2,-6.858461E-1,-3.9557195E-1,-7.3272777E-1,-1.269138E-2,-1.1181897E-1,-2.8608164E-1,7.070892E-4,-8.009842E-3,-0E0,-1.3966305E-2,-1.9284409E-2,-1.144175E-1,-4.0839246E-1,1.1316372E-2,-1.3762812E-1,-8.285045E-3,6.34893E-4,-9.65162E-3,-1.5770487E-2,-2.4175207E-1,-1.4920537E-2,-4.960125E-1,-8.7289643E-1,-1.0113427E-3,-2.9692298E-1,-1.6611876E-1,-1.0718776E-2,5.648845E-4,-3.8711918E-3,-2.9313052E-1,-5.429889E-1,-1.2879108E-1,5.2911596E-4,-7.957359E-5,-2.1157329E-1,6.862325E-4,-7.220447E-3,-5.8576576E-3,-1.3694347E-2,-1.894827E-2,-1.4515237E-2,-1.9374694E-3,8.7692234E-4,-5.193789E-4,-8.45541E-3,-2.628258E-4,-6.639017E-3,-8.901368E-3,-3.6755465E-3,-5.362524E-3,-1.3839795E-2,-6.639017E-3,5.648845E-4,-5.193789E-4,-7.062424E-3],"categories":[],"categories_nodes":[],"categories_segments":[],"categories_sizes":[],"default_left":[0,0,0,0,0,0,0,0,0,0,0,0,0,0,0,0,0,0,0,0,0,0,0,0,0,0,0,0,0,0,0,0,0,0,0,0,0,0,0,0,0,0,0,0,0,0,0,0,0,0,0,0,0,0,0,0,0,0,0,0,0,0,0,0,0,0,0,0,0,0,0,0,0,0,0,0,0,0,0,0,0,0,0],"id":21,"left_children":[1,3,5,7,9,11,13,15,17,-1,19,-1,21,23,25,-1,27,29,31,-1,33,35,37,39,-1,41,43,-1,45,47,49,-1,51,53,-1,-1,-1,-1,-1,55,57,59,61,-1,-1,-1,-1,63,-1,65,67,69,71,73,-1,-1,-1,75,77,79,-1,-1,81,-1,-1,-1,-1,-1,-1,-1,-1,-1,-1,-1,-1,-1,-1,-1,-1,-1,-1,-1,-1],"loss_changes":[2.5308083E1,1.2601486E1,1.8924025E1,7.3681793E0,3.4823146E0,8.253506E0,3.8030415E0,5.409981E0,1.13294525E1,0E0,6.9706136E-1,0E0,1.1699848E1,3.668767E0,1.0814762E0,0E0,5.086746E-1,5.243767E0,3.4119158E0,0E0,1.184034E0,1.2147816E0,4.001541E-1,1.9316034E0,0E0,6.9788784E-1,1.512921E0,0E0,3.4380913E-1,3.790945E0,3.9774933E0,0E0,1.6703205E0,7.492285E-1,0E0,0E0,0E0,0E0,0E0,4.1459158E-1,1.0049067E0,4.643962E-1,3.0311066E-1,0E0,0E0,0E0,0E0,1.7473373E0,0E0,1.5589962E0,3.2915115E-1,2.3602782E-1,8.815303E-1,4.541427E-1,0E0,0E0,0E0,5.443616E-1,1.0971308E0,7.1935564E-1,0E0,0E0,4.600914E-1,0E0,0E0,0E0,0E0,0E0,0E0,0E0,0E0,0E0,0E0,0E0,0E0,0E0,0E0,0E0,0E0,0E0,0E0,0E0,0E0],"parents":[2147483647,0,0,1,1,2,2,3,3,4,4,5,5,6,6,7,7,8,8,10,10,12,12,13,13,14,14,16,16,17,17,18,18,20,20,21,21,22,22,23,23,25,25,26,26,28,28,29,29,30,30,32,32,33,33,39,39,40,40,41,41,42,42,47,47,49,49,50,50,51,51,52,52,53,53,57,57,58,58,59,59,62,62],"right_children":[2,4,6,8,10,12,14,16,18,-1,20,-1,22,24,26,-1,28,30,32,-1,34,36,38,40,-1,42,44,-1,46,48,50,-1,52,54,-1,-1,-1,-1,-1,56,58,60,62,-1,-1,-1,-1,64,-1,66,68,70,72,74,-1,-1,-1,76,78,80,-1,-1,82,-1,-1,-1,-1,-1,-1,-1,-1,-1,-1,-1,-1,-1,-1,-1,-1,-1,-1,-1,-1],"split_conditions":[2.9331875E-1,-2.3459087E-1,-3.0844483E-1,1.0513459E-1,9.7219065E-2,2.0636575E-1,-2.790567E-1,1.557326E-1,5.732258E-1,-7.66522E-2,